{"learner":{"attributes":{"scikit_learn":"{\"_estimator_type\": \"regressor\"}"},"feature_names":["T2M","RH2M","WS10M","ALLSKY_SFC_SW_DWN","arazi_egimi_yuzde","yuzey_alani_km2","yuzey_Orman_ve_Doğa","yuzey_Su_Yüzeyi","yuzey_Sulak_Alan","yuzey_Tarım_Arazisi","yuzey_Şehir_Yerleşimi","tesvik_bolgesi"],"feature_types":["float","float","float","float","float","int","int","int","int","int","int","float"],"gradient_booster":{"model":{"cats":{"enc":[],"feature_segments":[],"sorted_idx":[]},"gbtree_model_param":{"num_parallel_tree":"1","num_trees":"150"},"iteration_indptr":[0,1,2,3,4,5,6,7,8,9,10,11,12,13,14,15,16,17,18,19,20,21,22,23,24,25,26,27,28,29,30,31,32,33,34,35,36,37,38,39,40,41,42,43,44,45,46,47,48,49,50,51,52,53,54,55,56,57,58,59,60,61,62,63,64,65,66,67,68,69,70,71,72,73,74,75,76,77,78,79,80,81,82,83,84,85,86,87,88,89,90,91,92,93,94,95,96,97,98,99,100,101,102,103,104,105,106,107,108,109,110,111,112,113,114,115,116,117,118,119,120,121,122,123,124,125,126,127,128,129,130,131,132,133,134,135,136,137,138,139,140,141,142,143,144,145,146,147,148,149,150],"tree_info":[0,0,0,0,0,0,0,0,0,0,0,0,0,0,0,0,0,0,0,0,0,0,0,0,0,0,0,0,0,0,0,0,0,0,0,0,0,0,0,0,0,0,0,0,0,0,0,0,0,0,0,0,0,0,0,0,0,0,0,0,0,0,0,0,0,0,0,0,0,0,0,0,0,0,0,0,0,0,0,0,0,0,0,0,0,0,0,0,0,0,0,0,0,0,0,0,0,0,0,0,0,0,0,0,0,0,0,0,0,0,0,0,0,0,0,0,0,0,0,0,0,0,0,0,0,0,0,0,0,0,0,0,0,0,0,0,0,0,0,0,0,0,0,0,0,0,0,0,0,0],"trees":[{"base_weights":[-5.898997E-7,-1.1462825E1,1.5943172E1,-1.9548363E1,-2.507745E0,7.3395605E0,2.5261665E1,-2.6436764E1,-1.29464245E1,-9.826889E0,3.7525637E0,2.423795E-1,1.3498572E1,1.8144897E1,3.2018997E1,-3.2530895E1,-2.3039003E1,-1.917581E1,-1.0080129E1,-1.4944624E1,-6.249067E0,-2.027364E0,7.016302E0,-5.7551436E0,3.3091795E0,7.2543283E0,1.6537052E1,1.547377E1,2.5385017E1,2.6166128E1,3.532583E1,-3.6528667E1,-2.897024E1,-2.6635508E1,-1.9253242E1,-2.2766832E1,-1.5509673E1,-1.3660656E1,-6.269371E0,-1.9043297E1,-1.177394E1,-1.0587723E1,-3.1095018E0,-5.52344E0,2.2169175E0,3.6577635E0,1.1440724E1,-9.00447E0,-2.9429693E0,4.2669195E-1,6.481326E0,3.5262156E0,1.050238E1,1.3235026E1,2.0604967E1,1.2073674E1,1.8547459E1,2.2130928E1,2.8594475E1,2.3015875E1,3.0152346E1,3.175386E1,3.8724136E1,-3.924697E1,-3.4799767E1,-3.0887794E1,-2.7384224E1,-2.9385431E1,-2.3671246E1,-2.2101364E1,-1.6202433E1,-2.437399E1,-2.088312E1,-1.7220184E1,-1.3586379E1,-1.6293676E1,-1.0397812E1,-8.964249E0,-3.0601764E0,-2.1503979E1,-1.7186302E1,-1.3587041E1,-1.0168805E1,-1.2851199E1,-6.8074646E0,-5.460065E0,9.853184E-1,-7.1364255E0,-3.6170027E0,2.1070766E-1,4.0015855E0,9.949644E-1,7.156078E0,8.735624E0,1.50303755E1,-1.0364357E1,-7.3274426E0,-4.264786E0,-1.3491528E0,-2.1224859E0,3.5486283E0,3.7923024E0,9.8147335E0,1.9744601E0,5.333816E0,8.890343E0,1.2383799E1,1.0657173E1,1.6422318E1,1.790502E1,2.3837378E1,9.051402E0,1.517083E1,1.5680635E1,2.192009E1,2.0398935E1,2.3650185E1,2.6918104E1,2.9996967E1,2.1005833E1,2.4574043E1,2.8559273E1,3.2162876E1,2.892379E1,3.498711E1,3.574957E1,4.1657238E1,-4.087719E0,-3.8139222E0,-3.583931E0,-3.373923E0,-3.0466974E0,-3.3213365E0,-2.690726E0,-2.9727318E0,-3.2204921E0,-2.7459905E0,-2.6482291E0,-2.177351E0,-2.36779E0,-2.077731E0,-1.7566546E0,-1.4643109E0,-2.3831866E0,-2.758413E0,-2.04621E0,-2.4746168E0,-1.6690584E0,-2.008773E0,-1.3088702E0,-1.6663105E0,-1.7944754E0,-1.4479413E0,-1.1837251E0,-8.523502E-1,-1.0829474E0,-7.1715856E-1,-4.881617E-1,-1.2824588E-1,-2.0524545E0,-2.3628426E0,-1.6346983E0,-1.9198407E0,-1.2765701E0,-1.5917407E0,-9.3683815E-1,-1.2227978E0,-1.5285547E0,-1.1149653E0,-9.095378E-1,-4.5811987E-1,-7.3941296E-1,-4.1018173E-1,-6.806483E-2,2.5794724E-1,-6.370904E-1,-9.285969E-1,-2.8940713E-1,-5.979832E-1,1.01565324E-1,-1.9019425E-1,4.7855312E-1,1.6901492E-1,-7.015771E-2,3.0731457E-1,5.4319584E-1,9.177413E-1,6.981502E-1,1.0465773E0,1.3288877E0,1.6966565E0,-9.887666E-1,-1.3627547E0,-6.8838567E-1,-9.997612E-1,-3.7517235E-1,-7.083871E-1,-9.85335E-2,-6.166484E-1,-3.781954E-1,-5.386358E-2,1.6878799E-1,4.9986225E-1,2.3169725E-1,5.166593E-1,8.4996694E-1,1.1365873E0,2.5030705E-1,-1.1423458E-1,5.833424E-1,2.546468E-1,9.383025E-1,5.7080853E-1,1.2778748E0,7.8762984E-1,8.7378305E-1,1.2823974E0,1.4719614E0,1.8775085E0,1.6405314E0,1.9933102E0,2.2266417E0,2.559466E0,7.756337E-1,1.0786165E0,1.3765016E0,1.6924351E0,1.4032735E0,1.7531502E0,1.9870579E0,2.3453164E0,2.098641E0,1.8148216E0,2.437881E0,2.1792052E0,2.763014E0,2.4994843E0,3.065195E0,2.7853909E0,2.1891792E0,1.883296E0,2.535881E0,2.2598479E0,2.9395173E0,2.6427715E0,3.2877088E0,3.0104785E0,2.7340305E0,3.047817E0,3.3396432E0,3.6308365E0,3.3794038E0,3.7878175E0,4.015619E0,4.3694134E0],"categories":[],"categories_nodes":[],"categories_segments":[],"categories_sizes":[],"default_left":[0,0,0,0,0,0,0,0,0,0,0,0,0,0,0,0,0,0,0,0,0,0,0,0,0,0,0,0,0,0,0,0,0,0,0,0,0,0,0,0,0,0,0,0,0,0,0,0,0,0,0,0,0,0,0,0,0,0,0,0,0,0,0,0,0,0,0,0,0,0,0,0,0,0,0,0,0,0,0,0,0,0,0,0,0,0,0,0,0,0,0,0,0,0,0,0,0,0,0,0,0,0,0,0,0,0,0,0,0,0,0,0,0,0,0,0,0,0,0,0,0,0,0,0,0,0,0,0,0,0,0,0,0,0,0,0,0,0,0,0,0,0,0,0,0,0,0,0,0,0,0,0,0,0,0,0,0,0,0,0,0,0,0,0,0,0,0,0,0,0,0,0,0,0,0,0,0,0,0,0,0,0,0,0,0,0,0,0,0,0,0,0,0,0,0,0,0,0,0,0,0,0,0,0,0,0,0,0,0,0,0,0,0,0,0,0,0,0,0,0,0,0,0,0,0,0,0,0,0,0,0,0,0,0,0,0,0,0,0,0,0,0,0,0,0,0,0,0,0,0,0,0,0,0,0],"id":0,"left_children":[1,3,5,7,9,11,13,15,17,19,21,23,25,27,29,31,33,35,37,39,41,43,45,47,49,51,53,55,57,59,61,63,65,67,69,71,73,75,77,79,81,83,85,87,89,91,93,95,97,99,101,103,105,107,109,111,113,115,117,119,121,123,125,127,129,131,133,135,137,139,141,143,145,147,149,151,153,155,157,159,161,163,165,167,169,171,173,175,177,179,181,183,185,187,189,191,193,195,197,199,201,203,205,207,209,211,213,215,217,219,221,223,225,227,229,231,233,235,237,239,241,243,245,247,249,251,253,-1,-1,-1,-1,-1,-1,-1,-1,-1,-1,-1,-1,-1,-1,-1,-1,-1,-1,-1,-1,-1,-1,-1,-1,-1,-1,-1,-1,-1,-1,-1,-1,-1,-1,-1,-1,-1,-1,-1,-1,-1,-1,-1,-1,-1,-1,-1,-1,-1,-1,-1,-1,-1,-1,-1,-1,-1,-1,-1,-1,-1,-1,-1,-1,-1,-1,-1,-1,-1,-1,-1,-1,-1,-1,-1,-1,-1,-1,-1,-1,-1,-1,-1,-1,-1,-1,-1,-1,-1,-1,-1,-1,-1,-1,-1,-1,-1,-1,-1,-1,-1,-1,-1,-1,-1,-1,-1,-1,-1,-1,-1,-1,-1,-1,-1,-1,-1,-1,-1,-1,-1,-1,-1,-1,-1,-1,-1,-1],"loss_changes":[5.1069816E7,1.1770734E7,9.370476E6,3.884742E6,3.5344162E6,2.6564828E6,2.697724E6,8.64922E5,7.787245E5,6.5104075E5,7.8431106E5,5.1938794E5,6.172055E5,5.2815E5,5.56096E5,2.11935E5,3.64996E5,1.806155E5,4.07599E5,1.8991425E5,2.8507856E5,2.2266138E5,3.948075E5,8.727481E4,1.7083762E5,1.28949125E5,2.937075E5,2.08448E5,7.62755E4,1.298295E5,2.21966E5,3.1744E4,2.32385E4,1.11501E5,1.133125E5,2.050725E4,2.215325E4,1.321685E5,1.25166625E5,2.878375E4,2.38775E4,7.509869E4,1.1690263E5,2.5275734E4,2.4267238E4,1.4071923E5,1.112075E5,1.0031531E4,1.0787039E4,7.7919984E4,7.9694125E4,1.3904844E4,1.7153312E4,9.910325E4,8.513625E4,8.862775E4,1.0103275E5,9.150875E3,7.90125E3,1.76805E4,1.3767E4,8.1066E4,8.068E4,3.3725E3,3.548E3,2.4885E3,4.05375E3,3.78565E4,3.478675E4,1.362525E4,1.3186E4,5.8515E3,4.703125E3,5.128875E3,4.6940625E3,2.527075E4,1.8466438E4,2.6230688E4,2.1393723E4,5.216375E3,5.835125E3,7.207875E3,7.1062188E3,2.259075E4,1.673125E4,2.0239125E4,1.1766982E4,7.273297E3,6.4275977E3,5.4301455E3,6.491699E3,3.0249316E4,2.2703875E4,1.9778188E4,1.6384375E4,3.6685312E3,2.2858672E3,4.02325E3,4.067037E3,1.4164764E4,1.1865789E4,9.973625E3,8.0035938E3,4.403535E3,3.1755547E3,4.7581562E3,4.5706875E3,2.7681438E4,2.1360375E4,1.5933E4,1.17395E4,1.0704656E4,1.130875E4,1.705075E4,1.466275E4,1.8908125E3,2.100625E3,1.633375E3,1.96475E3,4.485E3,4.491875E3,3.796875E3,1.978E3,1.095375E4,7.5765E3,1.8213E4,1.2726E4,0E0,0E0,0E0,0E0,0E0,0E0,0E0,0E0,0E0,0E0,0E0,0E0,0E0,0E0,0E0,0E0,0E0,0E0,0E0,0E0,0E0,0E0,0E0,0E0,0E0,0E0,0E0,0E0,0E0,0E0,0E0,0E0,0E0,0E0,0E0,0E0,0E0,0E0,0E0,0E0,0E0,0E0,0E0,0E0,0E0,0E0,0E0,0E0,0E0,0E0,0E0,0E0,0E0,0E0,0E0,0E0,0E0,0E0,0E0,0E0,0E0,0E0,0E0,0E0,0E0,0E0,0E0,0E0,0E0,0E0,0E0,0E0,0E0,0E0,0E0,0E0,0E0,0E0,0E0,0E0,0E0,0E0,0E0,0E0,0E0,0E0,0E0,0E0,0E0,0E0,0E0,0E0,0E0,0E0,0E0,0E0,0E0,0E0,0E0,0E0,0E0,0E0,0E0,0E0,0E0,0E0,0E0,0E0,0E0,0E0,0E0,0E0,0E0,0E0,0E0,0E0,0E0,0E0,0E0,0E0,0E0,0E0,0E0,0E0,0E0,0E0,0E0,0E0],"parents":[2147483647,0,0,1,1,2,2,3,3,4,4,5,5,6,6,7,7,8,8,9,9,10,10,11,11,12,12,13,13,14,14,15,15,16,16,17,17,18,18,19,19,20,20,21,21,22,22,23,23,24,24,25,25,26,26,27,27,28,28,29,29,30,30,31,31,32,32,33,33,34,34,35,35,36,36,37,37,38,38,39,39,40,40,41,41,42,42,43,43,44,44,45,45,46,46,47,47,48,48,49,49,50,50,51,51,52,52,53,53,54,54,55,55,56,56,57,57,58,58,59,59,60,60,61,61,62,62,63,63,64,64,65,65,66,66,67,67,68,68,69,69,70,70,71,71,72,72,73,73,74,74,75,75,76,76,77,77,78,78,79,79,80,80,81,81,82,82,83,83,84,84,85,85,86,86,87,87,88,88,89,89,90,90,91,91,92,92,93,93,94,94,95,95,96,96,97,97,98,98,99,99,100,100,101,101,102,102,103,103,104,104,105,105,106,106,107,107,108,108,109,109,110,110,111,111,112,112,113,113,114,114,115,115,116,116,117,117,118,118,119,119,120,120,121,121,122,122,123,123,124,124,125,125,126,126],"right_children":[2,4,6,8,10,12,14,16,18,20,22,24,26,28,30,32,34,36,38,40,42,44,46,48,50,52,54,56,58,60,62,64,66,68,70,72,74,76,78,80,82,84,86,88,90,92,94,96,98,100,102,104,106,108,110,112,114,116,118,120,122,124,126,128,130,132,134,136,138,140,142,144,146,148,150,152,154,156,158,160,162,164,166,168,170,172,174,176,178,180,182,184,186,188,190,192,194,196,198,200,202,204,206,208,210,212,214,216,218,220,222,224,226,228,230,232,234,236,238,240,242,244,246,248,250,252,254,-1,-1,-1,-1,-1,-1,-1,-1,-1,-1,-1,-1,-1,-1,-1,-1,-1,-1,-1,-1,-1,-1,-1,-1,-1,-1,-1,-1,-1,-1,-1,-1,-1,-1,-1,-1,-1,-1,-1,-1,-1,-1,-1,-1,-1,-1,-1,-1,-1,-1,-1,-1,-1,-1,-1,-1,-1,-1,-1,-1,-1,-1,-1,-1,-1,-1,-1,-1,-1,-1,-1,-1,-1,-1,-1,-1,-1,-1,-1,-1,-1,-1,-1,-1,-1,-1,-1,-1,-1,-1,-1,-1,-1,-1,-1,-1,-1,-1,-1,-1,-1,-1,-1,-1,-1,-1,-1,-1,-1,-1,-1,-1,-1,-1,-1,-1,-1,-1,-1,-1,-1,-1,-1,-1,-1,-1,-1,-1],"split_conditions":[4.8209E0,4E0,4E0,2.796E0,2.6731E0,6.553E0,6.7034E0,2E0,2E0,5E0,5E0,2E0,2E0,6E0,5E0,1.7834E0,1.931E0,3.7608E0,3.7608E0,1.723E0,1.723E0,3.7039E0,3.7608E0,5.671E0,5.7439E0,7.5624E0,7.6985E0,5.671E0,5.7804E0,7.7669E0,7.6318E0,1.1578E0,2.3136E0,3E0,3E0,3.2734E0,4.32E0,3E0,3E0,1.1578E0,2.2402E0,6E0,6E0,3.1366E0,4.2362E0,6E0,6E0,5.2642E0,6.1303E0,3E0,3E0,7.069E0,8.0532E0,3E0,3E0,5E0,5E0,5.2642E0,6.2047E0,7.2089E0,8.3045E0,6E0,6E0,8.095E-1,1.5029E0,1.339E1,1.243E1,1.2667E0,1.2312E0,2.381E0,2.4247E0,1.647E1,1.863E1,1.382E1,1.565E1,3.2462E0,3.2734E0,4.2936E0,4.2936E0,1.487E1,1.355E1,1.615E1,1.405E1,1.1206E0,1.1578E0,2.1905E0,2.2644E0,1.405E1,1.615E1,1.468E1,1.487E1,3.1925E0,3.1366E0,4.2936E0,4.2936E0,1.673E1,1.437E1,1.382E1,2.076E1,5.2642E0,5.1955E0,6.1303E0,6.1639E0,1.565E1,1.437E1,1.565E1,2.055E1,7.1714E0,7.1714E0,8.2186E0,8.1514E0,5.2997E0,5.2642E0,6.2386E0,6.1303E0,1.33E1,9.84E0,1.008E1,1.227E1,1.355E1,1.339E1,1.3E1,1.355E1,7.2089E0,7.1369E0,8.184E0,8.184E0,-4.087719E0,-3.8139222E0,-3.583931E0,-3.373923E0,-3.0466974E0,-3.3213365E0,-2.690726E0,-2.9727318E0,-3.2204921E0,-2.7459905E0,-2.6482291E0,-2.177351E0,-2.36779E0,-2.077731E0,-1.7566546E0,-1.4643109E0,-2.3831866E0,-2.758413E0,-2.04621E0,-2.4746168E0,-1.6690584E0,-2.008773E0,-1.3088702E0,-1.6663105E0,-1.7944754E0,-1.4479413E0,-1.1837251E0,-8.523502E-1,-1.0829474E0,-7.1715856E-1,-4.881617E-1,-1.2824588E-1,-2.0524545E0,-2.3628426E0,-1.6346983E0,-1.9198407E0,-1.2765701E0,-1.5917407E0,-9.3683815E-1,-1.2227978E0,-1.5285547E0,-1.1149653E0,-9.095378E-1,-4.5811987E-1,-7.3941296E-1,-4.1018173E-1,-6.806483E-2,2.5794724E-1,-6.370904E-1,-9.285969E-1,-2.8940713E-1,-5.979832E-1,1.01565324E-1,-1.9019425E-1,4.7855312E-1,1.6901492E-1,-7.015771E-2,3.0731457E-1,5.4319584E-1,9.177413E-1,6.981502E-1,1.0465773E0,1.3288877E0,1.6966565E0,-9.887666E-1,-1.3627547E0,-6.8838567E-1,-9.997612E-1,-3.7517235E-1,-7.083871E-1,-9.85335E-2,-6.166484E-1,-3.781954E-1,-5.386358E-2,1.6878799E-1,4.9986225E-1,2.3169725E-1,5.166593E-1,8.4996694E-1,1.1365873E0,2.5030705E-1,-1.1423458E-1,5.833424E-1,2.546468E-1,9.383025E-1,5.7080853E-1,1.2778748E0,7.8762984E-1,8.7378305E-1,1.2823974E0,1.4719614E0,1.8775085E0,1.6405314E0,1.9933102E0,2.2266417E0,2.559466E0,7.756337E-1,1.0786165E0,1.3765016E0,1.6924351E0,1.4032735E0,1.7531502E0,1.9870579E0,2.3453164E0,2.098641E0,1.8148216E0,2.437881E0,2.1792052E0,2.763014E0,2.4994843E0,3.065195E0,2.7853909E0,2.1891792E0,1.883296E0,2.535881E0,2.2598479E0,2.9395173E0,2.6427715E0,3.2877088E0,3.0104785E0,2.7340305E0,3.047817E0,3.3396432E0,3.6308365E0,3.3794038E0,3.7878175E0,4.015619E0,4.3694134E0],"split_indices":[3,11,11,3,3,3,3,11,11,11,11,11,11,11,11,3,3,3,3,3,3,3,3,3,3,3,3,3,3,3,3,3,3,11,11,3,3,11,11,3,3,11,11,3,3,11,11,3,3,11,11,3,3,11,11,11,11,3,3,3,3,11,11,3,3,4,4,3,3,3,3,4,4,4,4,3,3,3,3,4,4,4,4,3,3,3,3,4,4,4,4,3,3,3,3,4,4,4,4,3,3,3,3,4,4,4,4,3,3,3,3,3,3,3,3,4,4,4,4,4,4,4,4,3,3,3,3,0,0,0,0,0,0,0,0,0,0,0,0,0,0,0,0,0,0,0,0,0,0,0,0,0,0,0,0,0,0,0,0,0,0,0,0,0,0,0,0,0,0,0,0,0,0,0,0,0,0,0,0,0,0,0,0,0,0,0,0,0,0,0,0,0,0,0,0,0,0,0,0,0,0,0,0,0,0,0,0,0,0,0,0,0,0,0,0,0,0,0,0,0,0,0,0,0,0,0,0,0,0,0,0,0,0,0,0,0,0,0,0,0,0,0,0,0,0,0,0,0,0,0,0,0,0,0,0],"split_type":[0,0,0,0,0,0,0,0,0,0,0,0,0,0,0,0,0,0,0,0,0,0,0,0,0,0,0,0,0,0,0,0,0,0,0,0,0,0,0,0,0,0,0,0,0,0,0,0,0,0,0,0,0,0,0,0,0,0,0,0,0,0,0,0,0,0,0,0,0,0,0,0,0,0,0,0,0,0,0,0,0,0,0,0,0,0,0,0,0,0,0,0,0,0,0,0,0,0,0,0,0,0,0,0,0,0,0,0,0,0,0,0,0,0,0,0,0,0,0,0,0,0,0,0,0,0,0,0,0,0,0,0,0,0,0,0,0,0,0,0,0,0,0,0,0,0,0,0,0,0,0,0,0,0,0,0,0,0,0,0,0,0,0,0,0,0,0,0,0,0,0,0,0,0,0,0,0,0,0,0,0,0,0,0,0,0,0,0,0,0,0,0,0,0,0,0,0,0,0,0,0,0,0,0,0,0,0,0,0,0,0,0,0,0,0,0,0,0,0,0,0,0,0,0,0,0,0,0,0,0,0,0,0,0,0,0,0,0,0,0,0,0,0,0,0,0,0,0,0,0,0,0,0,0,0],"sum_hessian":[2.79444E5,1.62564E5,1.1688E5,8.5429E4,7.7135E4,6.0772E4,5.6108E4,4.1806E4,4.3623E4,3.556E4,4.1575E4,2.8236E4,3.2536E4,2.7329E4,2.8779E4,1.4962E4,2.6844E4,1.3745E4,2.9878E4,1.463E4,2.093E4,1.5004E4,2.6571E4,9.553E3,1.8683E4,1.0651E4,2.1885E4,1.9966E4,7.363E3,1.0393E4,1.8386E4,7.044E3,7.918E3,1.3763E4,1.3081E4,6.941E3,6.804E3,1.5403E4,1.4475E4,6.379E3,8.251E3,8.786E3,1.2144E4,8.227E3,6.777E3,1.5106E4,1.1465E4,4.431E3,5.122E3,9.789E3,8.894E3,4.96E3,5.691E3,1.2082E4,9.803E3,9.482E3,1.0484E4,3.66E3,3.703E3,5.809E3,4.584E3,8.969E3,9.417E3,2.73E3,4.314E3,3.576E3,4.342E3,7.135E3,6.628E3,6.762E3,6.319E3,3.739E3,3.202E3,3.597E3,3.207E3,8.522E3,6.881E3,7.867E3,6.608E3,2.739E3,3.64E3,3.871E3,4.38E3,5.494E3,3.292E3,7.715E3,4.429E3,4.455E3,3.772E3,3.191E3,3.586E3,8.578E3,6.528E3,6.54E3,4.925E3,2.444E3,1.987E3,2.799E3,2.323E3,5.389E3,4.4E3,4.924E3,3.97E3,2.67E3,2.29E3,3.068E3,2.623E3,6.682E3,5.4E3,5.345E3,4.458E3,4.801E3,4.681E3,5.67E3,4.814E3,1.717E3,1.943E3,1.696E3,2.007E3,2.543E3,3.266E3,2.566E3,2.018E3,4.788E3,4.181E3,4.682E3,4.735E3,1.09E3,1.64E3,2.162E3,2.152E3,3.04E3,5.36E2,3.618E3,7.24E2,2.889E3,4.246E3,2.666E3,3.962E3,3.079E3,3.683E3,3.365E3,2.954E3,3.206E3,5.33E2,2.893E3,3.09E2,3.042E3,5.55E2,2.765E3,4.42E2,4.457E3,4.065E3,3.889E3,2.992E3,3.853E3,4.014E3,3.263E3,3.345E3,1.882E3,8.57E2,2.575E3,1.065E3,2.867E3,1.004E3,3.158E3,1.222E3,2.257E3,3.237E3,1.622E3,1.67E3,3.181E3,4.534E3,2.166E3,2.263E3,3.288E3,1.167E3,2.89E3,8.82E2,2.311E3,8.8E2,2.677E3,9.09E2,4.723E3,3.855E3,3.525E3,3.003E3,3.25E3,3.29E3,2.597E3,2.328E3,2.136E3,3.08E2,1.707E3,2.8E2,2.37E3,4.29E2,2.161E3,1.62E2,2.631E3,2.758E3,1.928E3,2.472E3,2.376E3,2.548E3,2.152E3,1.818E3,2.283E3,3.87E2,1.941E3,3.49E2,2.655E3,4.13E2,2.41E3,2.13E2,3.546E3,3.136E3,3.137E3,2.263E3,3.078E3,2.267E3,2.361E3,2.097E3,2.752E3,2.049E3,2.603E3,2.078E3,3.004E3,2.666E3,2.066E3,2.748E3,1.355E3,3.62E2,1.387E3,5.56E2,1.228E3,4.68E2,1.527E3,4.8E2,1.8E3,7.43E2,2.329E3,9.37E2,1.834E3,7.32E2,1.487E3,5.31E2,2.381E3,2.407E3,1.909E3,2.272E3,2.449E3,2.233E3,2.738E3,1.997E3],"tree_param":{"num_deleted":"0","num_feature":"12","num_nodes":"255","size_leaf_vector":"1"}},{"base_weights":[4.9216815E-5,-1.0570202E1,1.4012346E1,-1.7847746E1,-2.5175872E0,6.2638044E0,2.2420307E1,-2.4186268E1,-1.2249907E1,-9.133444E0,2.863846E0,-1.2023592E-1,1.2149282E1,1.6036116E1,2.8818802E1,-2.9629509E1,-2.112688E1,-1.7936666E1,-9.649864E0,-1.3704711E1,-5.921029E0,-2.3269517E0,5.8133435E0,-5.5416245E0,2.6757944E0,6.529323E0,1.4883984E1,1.3637794E1,2.2487991E1,2.3551512E1,3.1794786E1,-3.3254295E1,-2.671107E1,-2.4723969E1,-1.830209E1,-2.1189632E1,-1.4661929E1,-1.2986012E1,-6.363681E0,-1.7644815E1,-1.1170079E1,-9.629145E0,-3.1368153E0,-5.5106907E0,1.3467506E0,2.9494407E0,9.796945E0,-8.646463E0,-2.8064237E0,-1.2046659E-1,5.6125617E0,2.8244858E0,9.188153E0,1.1456476E1,1.8066414E1,1.0599405E1,1.6693426E1,1.9204279E1,2.5421562E1,2.060602E1,2.7020033E1,2.877414E1,3.5073715E1,-3.5637928E1,-3.183584E1,-2.8568413E1,-2.5228437E1,-2.7332155E1,-2.2027285E1,-2.0847383E1,-1.5492879E1,-2.2568066E1,-1.9592344E1,-1.6418259E1,-1.304363E1,-1.5399381E1,-1.0056091E1,-8.76985E0,-3.4486318E0,-1.9883009E1,-1.6269972E1,-1.2927433E1,-9.653659E0,-1.1665519E1,-6.2338777E0,-5.2136545E0,5.61973E-1,-6.8419137E0,-3.9283526E0,-5.51229E-1,2.9876432E0,5.360525E-1,6.103752E0,7.3854594E0,1.3063296E1,-9.976097E0,-7.130489E0,-4.3983955E0,-1.5412834E0,-2.4569106E0,2.6778235E0,3.1991827E0,8.641506E0,1.3077643E0,3.9751434E0,7.6336684E0,1.10025835E1,9.085601E0,1.43334875E1,1.5641781E1,2.1033285E1,7.867959E0,1.3386381E1,1.4113128E1,1.972898E1,1.7484732E1,2.0509617E1,2.350252E1,2.6706964E1,1.9009155E1,2.2104235E1,2.520207E1,2.8550821E1,2.6180456E1,3.1702583E1,3.2417873E1,3.769942E1,-3.7316334E0,-3.4853246E0,-3.138197E0,-3.396734E0,-2.817456E0,-3.0864542E0,-2.478327E0,-2.7042875E0,-2.9525554E0,-2.5895402E0,-2.4550707E0,-2.0656009E0,-2.249327E0,-1.9450926E0,-1.703216E0,-1.4095455E0,-2.2212524E0,-2.6791704E0,-1.8952789E0,-2.1666567E0,-1.6123303E0,-2.0722277E0,-1.2712651E0,-1.7041457E0,-1.6635872E0,-1.3804194E0,-1.1350249E0,-8.6141455E-1,-1.0763415E0,-7.214026E-1,-5.412867E-1,-1.8971913E-1,-1.9181896E0,-2.2358792E0,-1.5519019E0,-1.832851E0,-1.2089125E0,-1.4664729E0,-8.946667E-1,-1.1663555E0,-1.346208E0,-9.8659354E-1,-8.833391E-1,-4.6695E-1,-6.9397646E-1,-4.0482345E-1,-1.0608655E-1,1.7989445E-1,-6.11289E-1,-8.648929E-1,-3.2375607E-1,-6.049657E-1,2.7511835E-2,-2.2763138E-1,3.665905E-1,7.347525E-2,-1.0095348E-1,2.3327513E-1,4.6614337E-1,8.0019754E-1,5.635023E-1,8.801641E-1,1.1412547E0,1.4595952E0,-9.583478E-1,-1.3493519E0,-6.6194504E-1,-9.190885E-1,-3.9973286E-1,-7.3767895E-1,-1.0462923E-1,-4.2861125E-1,-3.9170703E-1,-9.697323E-2,1.2796146E-1,4.2602324E-1,1.6924445E-1,4.4888243E-1,6.9906616E-1,9.8084766E-1,1.6293506E-1,-3.0301854E-1,4.2788258E-1,-3.7719384E-2,7.925325E-1,3.4164605E-1,1.1550939E0,8.226102E-1,7.388515E-1,1.064873E0,1.2719216E0,1.5890449E0,1.3691765E0,1.7330033E0,1.9314388E0,2.2717912E0,6.3864625E-1,9.378495E-1,1.1754993E0,1.4814018E0,1.2261189E0,1.5488906E0,1.8187879E0,2.1448767E0,1.7966391E0,1.482448E0,2.0984857E0,1.8147815E0,2.3991756E0,2.1123292E0,2.7201548E0,2.4612439E0,1.9493636E0,1.5658995E0,2.271277E0,2.0008183E0,2.589335E0,2.3130147E0,2.7631164E0,2.9859965E0,2.4730465E0,2.7687018E0,3.0280766E0,3.3138273E0,3.0993187E0,3.4603481E0,3.6526203E0,3.9607475E0],"categories":[],"categories_nodes":[],"categories_segments":[],"categories_sizes":[],"default_left":[0,0,0,0,0,0,0,0,0,0,0,0,0,0,0,0,0,0,0,0,0,0,0,0,0,0,0,0,0,0,0,0,0,0,0,0,0,0,0,0,0,0,0,0,0,0,0,0,0,0,0,0,0,0,0,0,0,0,0,0,0,0,0,0,0,0,0,0,0,0,0,0,0,0,0,0,0,0,0,0,0,0,0,0,0,0,0,0,0,0,0,0,0,0,0,0,0,0,0,0,0,0,0,0,0,0,0,0,0,0,0,0,0,0,0,0,0,0,0,0,0,0,0,0,0,0,0,0,0,0,0,0,0,0,0,0,0,0,0,0,0,0,0,0,0,0,0,0,0,0,0,0,0,0,0,0,0,0,0,0,0,0,0,0,0,0,0,0,0,0,0,0,0,0,0,0,0,0,0,0,0,0,0,0,0,0,0,0,0,0,0,0,0,0,0,0,0,0,0,0,0,0,0,0,0,0,0,0,0,0,0,0,0,0,0,0,0,0,0,0,0,0,0,0,0,0,0,0,0,0,0,0,0,0,0,0,0,0,0,0,0,0,0,0,0,0,0,0,0,0,0,0,0,0,0],"id":1,"left_children":[1,3,5,7,9,11,13,15,17,19,21,23,25,27,29,31,33,35,37,39,41,43,45,47,49,51,53,55,57,59,61,63,65,67,69,71,73,75,77,79,81,83,85,87,89,91,93,95,97,99,101,103,105,107,109,111,113,115,117,119,121,123,125,127,129,131,133,135,137,139,141,143,145,147,149,151,153,155,157,159,161,163,165,167,169,171,173,175,177,179,181,183,185,187,189,191,193,195,197,199,201,203,205,207,209,211,213,215,217,219,221,223,225,227,229,231,233,235,237,239,241,243,245,247,249,251,253,-1,-1,-1,-1,-1,-1,-1,-1,-1,-1,-1,-1,-1,-1,-1,-1,-1,-1,-1,-1,-1,-1,-1,-1,-1,-1,-1,-1,-1,-1,-1,-1,-1,-1,-1,-1,-1,-1,-1,-1,-1,-1,-1,-1,-1,-1,-1,-1,-1,-1,-1,-1,-1,-1,-1,-1,-1,-1,-1,-1,-1,-1,-1,-1,-1,-1,-1,-1,-1,-1,-1,-1,-1,-1,-1,-1,-1,-1,-1,-1,-1,-1,-1,-1,-1,-1,-1,-1,-1,-1,-1,-1,-1,-1,-1,-1,-1,-1,-1,-1,-1,-1,-1,-1,-1,-1,-1,-1,-1,-1,-1,-1,-1,-1,-1,-1,-1,-1,-1,-1,-1,-1,-1,-1,-1,-1,-1,-1],"loss_changes":[4.1389724E7,9.334692E6,7.82815E6,2.968486E6,2.692238E6,2.3495618E6,2.353558E6,6.52802E5,6.56805E5,4.9801275E5,6.3845075E5,4.5472038E5,4.99961E5,4.460775E5,4.50388E5,1.48441E5,2.54823E5,1.481865E5,3.34229E5,1.3959675E5,2.0564825E5,1.7673564E5,3.0333844E5,8.665722E4,1.6252372E5,1.0490194E5,2.38521E5,1.950975E5,7.48035E4,1.056335E5,1.81102E5,2.01395E4,2.08265E4,7.71035E4,1.00324E5,1.495E4,1.9539625E4,1.0683625E5,1.0773431E5,1.6533375E4,2.258275E4,5.8993875E4,8.742168E4,1.7024781E4,2.185214E4,1.1777092E5,8.7501E4,9.563844E3,1.0925582E4,6.629586E4,7.053569E4,7.764551E3,1.7405938E4,7.17635E4,8.129625E4,8.019875E4,8.184675E4,7.928375E3,9.5475E3,1.303725E4,1.2555E4,7.1905E4,6.0228E4,1.78E3,2.759E3,2.265E3,2.85175E3,1.692125E4,1.83065E4,1.652925E4,1.4161125E4,5.030125E3,3.8955E3,3.8920625E3,4.576E3,1.6131625E4,1.26608125E4,2.6025812E4,2.116607E4,3.1815625E3,4.969875E3,5.5666875E3,6.4009062E3,1.71285E4,1.2992273E4,1.463275E4,8.218218E3,5.7369062E3,5.4037812E3,4.6392656E3,5.7473555E3,2.4345145E4,1.8322672E4,1.5815594E4,1.178025E4,3.3839688E3,2.2945938E3,2.8409805E3,4.1068384E3,1.1996008E4,1.0203199E4,1.0434898E4,8.1768125E3,2.6861758E3,3.3469102E3,4.08475E3,4.2577812E3,1.5256969E4,1.17615E4,2.0331875E4,1.432925E4,1.1867875E4,1.1983375E4,1.4259125E4,1.2371375E4,1.7837812E3,1.9684375E3,1.4289375E3,1.882E3,4.1258125E3,3.239375E3,2.53625E3,2.28375E3,1.042125E4,8.168E3,1.25905E4,8.459E3,0E0,0E0,0E0,0E0,0E0,0E0,0E0,0E0,0E0,0E0,0E0,0E0,0E0,0E0,0E0,0E0,0E0,0E0,0E0,0E0,0E0,0E0,0E0,0E0,0E0,0E0,0E0,0E0,0E0,0E0,0E0,0E0,0E0,0E0,0E0,0E0,0E0,0E0,0E0,0E0,0E0,0E0,0E0,0E0,0E0,0E0,0E0,0E0,0E0,0E0,0E0,0E0,0E0,0E0,0E0,0E0,0E0,0E0,0E0,0E0,0E0,0E0,0E0,0E0,0E0,0E0,0E0,0E0,0E0,0E0,0E0,0E0,0E0,0E0,0E0,0E0,0E0,0E0,0E0,0E0,0E0,0E0,0E0,0E0,0E0,0E0,0E0,0E0,0E0,0E0,0E0,0E0,0E0,0E0,0E0,0E0,0E0,0E0,0E0,0E0,0E0,0E0,0E0,0E0,0E0,0E0,0E0,0E0,0E0,0E0,0E0,0E0,0E0,0E0,0E0,0E0,0E0,0E0,0E0,0E0,0E0,0E0,0E0,0E0,0E0,0E0,0E0,0E0],"parents":[2147483647,0,0,1,1,2,2,3,3,4,4,5,5,6,6,7,7,8,8,9,9,10,10,11,11,12,12,13,13,14,14,15,15,16,16,17,17,18,18,19,19,20,20,21,21,22,22,23,23,24,24,25,25,26,26,27,27,28,28,29,29,30,30,31,31,32,32,33,33,34,34,35,35,36,36,37,37,38,38,39,39,40,40,41,41,42,42,43,43,44,44,45,45,46,46,47,47,48,48,49,49,50,50,51,51,52,52,53,53,54,54,55,55,56,56,57,57,58,58,59,59,60,60,61,61,62,62,63,63,64,64,65,65,66,66,67,67,68,68,69,69,70,70,71,71,72,72,73,73,74,74,75,75,76,76,77,77,78,78,79,79,80,80,81,81,82,82,83,83,84,84,85,85,86,86,87,87,88,88,89,89,90,90,91,91,92,92,93,93,94,94,95,95,96,96,97,97,98,98,99,99,100,100,101,101,102,102,103,103,104,104,105,105,106,106,107,107,108,108,109,109,110,110,111,111,112,112,113,113,114,114,115,115,116,116,117,117,118,118,119,119,120,120,121,121,122,122,123,123,124,124,125,125,126,126],"right_children":[2,4,6,8,10,12,14,16,18,20,22,24,26,28,30,32,34,36,38,40,42,44,46,48,50,52,54,56,58,60,62,64,66,68,70,72,74,76,78,80,82,84,86,88,90,92,94,96,98,100,102,104,106,108,110,112,114,116,118,120,122,124,126,128,130,132,134,136,138,140,142,144,146,148,150,152,154,156,158,160,162,164,166,168,170,172,174,176,178,180,182,184,186,188,190,192,194,196,198,200,202,204,206,208,210,212,214,216,218,220,222,224,226,228,230,232,234,236,238,240,242,244,246,248,250,252,254,-1,-1,-1,-1,-1,-1,-1,-1,-1,-1,-1,-1,-1,-1,-1,-1,-1,-1,-1,-1,-1,-1,-1,-1,-1,-1,-1,-1,-1,-1,-1,-1,-1,-1,-1,-1,-1,-1,-1,-1,-1,-1,-1,-1,-1,-1,-1,-1,-1,-1,-1,-1,-1,-1,-1,-1,-1,-1,-1,-1,-1,-1,-1,-1,-1,-1,-1,-1,-1,-1,-1,-1,-1,-1,-1,-1,-1,-1,-1,-1,-1,-1,-1,-1,-1,-1,-1,-1,-1,-1,-1,-1,-1,-1,-1,-1,-1,-1,-1,-1,-1,-1,-1,-1,-1,-1,-1,-1,-1,-1,-1,-1,-1,-1,-1,-1,-1,-1,-1,-1,-1,-1,-1,-1,-1,-1,-1,-1],"split_conditions":[4.7203E0,4E0,4E0,2.6918E0,2.617E0,6.553E0,6.7034E0,2E0,2E0,5E0,5E0,2E0,2E0,6E0,5E0,1.6934E0,1.723E0,3.6458E0,3.6187E0,1.5936E0,1.6934E0,3.5868E0,3.7039E0,5.5968E0,5.671E0,7.4527E0,7.5624E0,5.671E0,5.671E0,7.7306E0,7.6985E0,1.0793E0,2.1905E0,3E0,3E0,3.1366E0,4.1453E0,3E0,3E0,1.0414E0,2.1377E0,6E0,6E0,3.0511E0,4.1201E0,6E0,6E0,5.1595E0,6.0259E0,3E0,3E0,6.9262E0,8.0141E0,3E0,3E0,5E0,5E0,5.1163E0,6.0962E0,7.243E0,8.184E0,6E0,6E0,6.809E-1,1.193E1,1.382E1,1.153E1,1.1206E0,1.0793E0,2.215E0,2.2644E0,2.076E1,1.041E1,2.076E1,2.023E1,3.1366E0,3.1166E0,4.1201E0,4.1201E0,1.912E1,1.487E1,1.3E1,1.509E1,1.1911E0,1.0075E0,2.1377E0,2.1636E0,1.3E1,1.487E1,1.243E1,1.673E1,3.1166E0,3.1166E0,4.1774E0,4.1774E0,1.863E1,1.156E1,1.673E1,1.382E1,5.1955E0,5.1955E0,6.0629E0,6.0259E0,2.076E1,2.076E1,2.076E1,1.437E1,7.0378E0,7.0061E0,8.0532E0,8.0532E0,5.1955E0,5.1163E0,6.1303E0,6.2386E0,1.615E1,1.548E1,1.565E1,1.355E1,2.076E1,1.673E1,1.548E1,8.5298E0,7.243E0,7.2089E0,8.3045E0,8.2603E0,-3.7316334E0,-3.4853246E0,-3.138197E0,-3.396734E0,-2.817456E0,-3.0864542E0,-2.478327E0,-2.7042875E0,-2.9525554E0,-2.5895402E0,-2.4550707E0,-2.0656009E0,-2.249327E0,-1.9450926E0,-1.703216E0,-1.4095455E0,-2.2212524E0,-2.6791704E0,-1.8952789E0,-2.1666567E0,-1.6123303E0,-2.0722277E0,-1.2712651E0,-1.7041457E0,-1.6635872E0,-1.3804194E0,-1.1350249E0,-8.6141455E-1,-1.0763415E0,-7.214026E-1,-5.412867E-1,-1.8971913E-1,-1.9181896E0,-2.2358792E0,-1.5519019E0,-1.832851E0,-1.2089125E0,-1.4664729E0,-8.946667E-1,-1.1663555E0,-1.346208E0,-9.8659354E-1,-8.833391E-1,-4.6695E-1,-6.9397646E-1,-4.0482345E-1,-1.0608655E-1,1.7989445E-1,-6.11289E-1,-8.648929E-1,-3.2375607E-1,-6.049657E-1,2.7511835E-2,-2.2763138E-1,3.665905E-1,7.347525E-2,-1.0095348E-1,2.3327513E-1,4.6614337E-1,8.0019754E-1,5.635023E-1,8.801641E-1,1.1412547E0,1.4595952E0,-9.583478E-1,-1.3493519E0,-6.6194504E-1,-9.190885E-1,-3.9973286E-1,-7.3767895E-1,-1.0462923E-1,-4.2861125E-1,-3.9170703E-1,-9.697323E-2,1.2796146E-1,4.2602324E-1,1.6924445E-1,4.4888243E-1,6.9906616E-1,9.8084766E-1,1.6293506E-1,-3.0301854E-1,4.2788258E-1,-3.7719384E-2,7.925325E-1,3.4164605E-1,1.1550939E0,8.226102E-1,7.388515E-1,1.064873E0,1.2719216E0,1.5890449E0,1.3691765E0,1.7330033E0,1.9314388E0,2.2717912E0,6.3864625E-1,9.378495E-1,1.1754993E0,1.4814018E0,1.2261189E0,1.5488906E0,1.8187879E0,2.1448767E0,1.7966391E0,1.482448E0,2.0984857E0,1.8147815E0,2.3991756E0,2.1123292E0,2.7201548E0,2.4612439E0,1.9493636E0,1.5658995E0,2.271277E0,2.0008183E0,2.589335E0,2.3130147E0,2.7631164E0,2.9859965E0,2.4730465E0,2.7687018E0,3.0280766E0,3.3138273E0,3.0993187E0,3.4603481E0,3.6526203E0,3.9607475E0],"split_indices":[3,11,11,3,3,3,3,11,11,11,11,11,11,11,11,3,3,3,3,3,3,3,3,3,3,3,3,3,3,3,3,3,3,11,11,3,3,11,11,3,3,11,11,3,3,11,11,3,3,11,11,3,3,11,11,11,11,3,3,3,3,11,11,3,4,4,4,3,3,3,3,4,4,4,4,3,3,3,3,4,4,4,4,3,3,3,3,4,4,4,4,3,3,3,3,4,4,4,4,3,3,3,3,4,4,4,4,3,3,3,3,3,3,3,3,4,4,4,4,4,4,4,3,3,3,3,3,0,0,0,0,0,0,0,0,0,0,0,0,0,0,0,0,0,0,0,0,0,0,0,0,0,0,0,0,0,0,0,0,0,0,0,0,0,0,0,0,0,0,0,0,0,0,0,0,0,0,0,0,0,0,0,0,0,0,0,0,0,0,0,0,0,0,0,0,0,0,0,0,0,0,0,0,0,0,0,0,0,0,0,0,0,0,0,0,0,0,0,0,0,0,0,0,0,0,0,0,0,0,0,0,0,0,0,0,0,0,0,0,0,0,0,0,0,0,0,0,0,0,0,0,0,0,0,0],"split_type":[0,0,0,0,0,0,0,0,0,0,0,0,0,0,0,0,0,0,0,0,0,0,0,0,0,0,0,0,0,0,0,0,0,0,0,0,0,0,0,0,0,0,0,0,0,0,0,0,0,0,0,0,0,0,0,0,0,0,0,0,0,0,0,0,0,0,0,0,0,0,0,0,0,0,0,0,0,0,0,0,0,0,0,0,0,0,0,0,0,0,0,0,0,0,0,0,0,0,0,0,0,0,0,0,0,0,0,0,0,0,0,0,0,0,0,0,0,0,0,0,0,0,0,0,0,0,0,0,0,0,0,0,0,0,0,0,0,0,0,0,0,0,0,0,0,0,0,0,0,0,0,0,0,0,0,0,0,0,0,0,0,0,0,0,0,0,0,0,0,0,0,0,0,0,0,0,0,0,0,0,0,0,0,0,0,0,0,0,0,0,0,0,0,0,0,0,0,0,0,0,0,0,0,0,0,0,0,0,0,0,0,0,0,0,0,0,0,0,0,0,0,0,0,0,0,0,0,0,0,0,0,0,0,0,0,0,0,0,0,0,0,0,0,0,0,0,0,0,0,0,0,0,0,0,0],"sum_hessian":[2.79444E5,1.59286E5,1.20158E5,8.3669E4,7.5617E4,6.2532E4,5.7626E4,3.9237E4,4.4432E4,3.3918E4,4.1699E4,2.9996E4,3.2536E4,2.8847E4,2.8779E4,1.4115E4,2.5122E4,1.3939E4,3.0493E4,1.3997E4,1.9921E4,1.5109E4,2.659E4,1.0206E4,1.979E4,1.0651E4,2.1885E4,2.1032E4,7.815E3,1.0393E4,1.8386E4,6.291E3,7.824E3,1.1047E4,1.4075E4,6.99E3,6.949E3,1.513E4,1.5363E4,5.477E3,8.52E3,8.542E3,1.1379E4,8.094E3,7.015E3,1.547E4,1.112E4,4.779E3,5.427E3,1.0138E4,9.652E3,4.451E3,6.2E3,1.0539E4,1.1346E4,1.0548E4,1.0484E4,3.691E3,4.124E3,5.624E3,4.769E3,9.575E3,8.811E3,2.338E3,3.953E3,3.465E3,4.359E3,5.611E3,5.436E3,7.381E3,6.694E3,3.745E3,3.245E3,3.328E3,3.621E3,8.294E3,6.836E3,8.415E3,6.948E3,2.079E3,3.398E3,3.943E3,4.577E3,5.338E3,3.204E3,7.287E3,4.092E3,4.394E3,3.7E3,3.253E3,3.762E3,8.765E3,6.705E3,6.399E3,4.721E3,2.543E3,2.236E3,2.402E3,3.025E3,5.525E3,4.613E3,5.373E3,4.279E3,1.921E3,2.53E3,3.342E3,2.858E3,5.78E3,4.759E3,6.247E3,5.099E3,5.329E3,5.219E3,5.67E3,4.814E3,1.599E3,2.092E3,1.662E3,2.462E3,2.729E3,2.895E3,2.188E3,2.581E3,5.083E3,4.492E3,4.387E3,4.424E3,7.3E2,1.608E3,3.272E3,6.81E2,2.969E3,4.96E2,3.512E3,8.47E2,2.213E3,3.398E3,1.908E3,3.528E3,3.381E3,4E3,3.18E3,3.514E3,3.46E3,2.85E2,2.488E3,7.57E2,3.119E3,2.09E2,3.348E3,2.73E2,4.667E3,3.627E3,3.599E3,3.237E3,3.686E3,4.729E3,3.065E3,3.883E3,1.627E3,4.52E2,2.496E3,9.02E2,2.665E3,1.278E3,3.39E3,1.187E3,2.668E3,2.67E3,1.202E3,2.002E3,2.935E3,4.352E3,1.77E3,2.322E3,3.134E3,1.26E3,2.793E3,9.07E2,2.2E3,1.053E3,2.891E3,8.71E2,4.712E3,4.053E3,3.812E3,2.893E3,2.864E3,3.535E3,2.277E3,2.444E3,2.291E3,2.52E2,1.795E3,4.41E2,2.119E3,2.83E2,2.564E3,4.61E2,2.787E3,2.738E3,2.45E3,2.163E3,2.479E3,2.894E3,1.775E3,2.504E3,1.789E3,1.32E2,2.365E3,1.65E2,3.125E3,2.17E2,2.384E3,4.74E2,2.774E3,3.006E3,2.341E3,2.418E3,2.903E3,3.344E3,2.53E3,2.569E3,2.693E3,2.636E3,2.44E3,2.779E3,2.421E3,3.249E3,2.545E3,2.269E3,1.349E3,2.5E2,1.735E3,3.57E2,1.371E3,2.91E2,1.982E3,4.8E2,2.38E3,3.49E2,2.236E3,6.59E2,1.632E3,5.56E2,1.529E3,1.052E3,2.599E3,2.484E3,2.268E3,2.224E3,2.665E3,1.722E3,2.752E3,1.672E3],"tree_param":{"num_deleted":"0","num_feature":"12","num_nodes":"255","size_leaf_vector":"1"}},{"base_weights":[6.258995E-5,-9.513679E0,1.2611813E1,-1.6063753E1,-2.2660098E0,5.6376185E0,2.0179525E1,-2.1768717E1,-1.1025437E1,-7.7143097E0,3.0310156E0,-1.4852406E-3,1.1038215E1,1.443347E1,2.5938457E1,-2.6668316E1,-1.9014883E1,-1.614412E1,-8.685126E0,-1.1892156E1,-4.808772E0,-1.627029E0,5.655351E0,-4.910723E0,2.5169878E0,5.972251E0,1.3513428E1,1.2274536E1,2.0241354E1,2.1198133E1,2.8616709E1,-2.9702116E1,-2.3831593E1,-2.2684288E1,-1.6753296E1,-1.9071953E1,-1.3196693E1,-1.1396454E1,-5.3917603E0,-1.516021E1,-9.109646E0,-8.321469E0,-2.0940013E0,-4.116783E0,1.745807E0,3.1649446E0,8.994846E0,-7.8990426E0,-2.5495365E0,-1.8859554E-2,5.25796E0,3.1561267E0,8.716715E0,1.0908143E1,1.6818748E1,9.802617E0,1.534678E1,1.7028429E1,2.2683046E1,1.881958E1,2.4700056E1,2.5897934E1,3.1567951E1,-3.1604282E1,-2.8097763E1,-2.5269875E1,-2.252477E1,-2.4984356E1,-2.0262142E1,-1.9038042E1,-1.4275246E1,-2.0373594E1,-1.7690407E1,-1.4632267E1,-1.1579451E1,-1.3551202E1,-8.7688265E0,-7.562519E0,-2.776815E0,-1.7203941E1,-1.3447181E1,-1.052193E1,-7.8503666E0,-1.016074E1,-5.24173E0,-4.05263E0,1.2114259E0,-5.2794423E0,-2.3037605E0,7.3415875E-1,3.5410757E0,1.0083183E0,6.0165153E0,6.8264103E0,1.1902341E1,-9.211267E0,-6.742421E0,-3.9482841E0,-1.2319113E0,-2.109172E0,2.4991703E0,3.0630045E0,7.977804E0,1.9726558E0,4.966232E0,7.6119957E0,1.0443531E1,8.827621E0,1.3502954E1,1.4630944E1,1.9426409E1,7.3524833E0,1.2311036E1,1.3016916E1,1.812257E1,1.5586487E1,1.809125E1,2.0859306E1,2.395593E1,1.7413084E1,2.0503883E1,2.35665E1,2.6332699E1,2.3563442E1,2.8533737E1,2.917758E1,3.3931202E1,-3.2988427E0,-3.0630243E0,-2.762367E0,-2.9858606E0,-2.5002897E0,-2.7985044E0,-2.204568E0,-2.3951976E0,-2.7315748E0,-2.401319E0,-2.2237842E0,-1.9073709E0,-2.0719905E0,-1.763491E0,-1.6016136E0,-1.291639E0,-1.9801096E0,-2.2611E0,-1.7210236E0,-2.0013871E0,-1.4109039E0,-1.6769654E0,-1.1040606E0,-1.3648636E0,-1.4877821E0,-1.1934615E0,-1.0064297E0,-7.213518E-1,-8.80044E-1,-5.8824694E-1,-4.1964838E-1,-1.4145757E-1,-1.906762E0,-1.6341496E0,-1.2631136E0,-1.4827327E0,-9.9229234E-1,-1.2719084E0,-7.0296544E-1,-9.243819E-1,-1.1900066E0,-8.3366776E-1,-7.2265387E-1,-3.2148552E-1,-5.347141E-1,-2.7281657E-1,-2.2060594E-2,2.3839958E-1,-4.498951E-1,-6.785699E-1,-1.8946898E-1,-5.2267027E-1,1.2905292E-1,-1.4856477E-1,4.2989016E-1,1.8894562E-1,-1.8340867E-2,2.8103718E-1,4.8743913E-1,7.940545E-1,5.2543455E-1,7.9217243E-1,1.0409468E0,1.3136954E0,-8.686355E-1,-1.1374735E0,-6.437453E-1,-9.668903E-1,-3.4075943E-1,-5.818519E-1,-8.345555E-2,-4.11896E-1,-3.3334714E-1,-5.4788847E-2,8.320748E-2,3.661743E-1,1.8666343E-1,4.3984762E-1,6.8480885E-1,9.433926E-1,2.4880993E-1,-2.7104238E-2,5.530375E-1,2.981437E-1,8.133993E-1,5.42195E-1,1.0680186E0,5.058652E-1,7.256603E-1,1.0550686E0,1.2086154E0,1.5389831E0,1.362497E0,1.6685504E0,1.8462149E0,2.1378613E0,6.023859E-1,9.0135E-1,1.1090943E0,1.4245361E0,1.3728305E0,1.0533111E0,1.7141026E0,1.9796644E0,1.6078522E0,1.3362787E0,1.8584124E0,1.6334088E0,2.1337032E0,1.8846667E0,2.3049402E0,2.5089743E0,1.8278294E0,1.5899929E0,2.1353571E0,1.9227005E0,2.4152856E0,2.1450503E0,2.6840365E0,2.4073484E0,2.1864412E0,2.4625952E0,2.7442157E0,3.0076966E0,2.7895029E0,3.114514E0,3.2212887E0,3.5043294E0],"categories":[],"categories_nodes":[],"categories_segments":[],"categories_sizes":[],"default_left":[0,0,0,0,0,0,0,0,0,0,0,0,0,0,0,0,0,0,0,0,0,0,0,0,0,0,0,0,0,0,0,0,0,0,0,0,0,0,0,0,0,0,0,0,0,0,0,0,0,0,0,0,0,0,0,0,0,0,0,0,0,0,0,0,0,0,0,0,0,0,0,0,0,0,0,0,0,0,0,0,0,0,0,0,0,0,0,0,0,0,0,0,0,0,0,0,0,0,0,0,0,0,0,0,0,0,0,0,0,0,0,0,0,0,0,0,0,0,0,0,0,0,0,0,0,0,0,0,0,0,0,0,0,0,0,0,0,0,0,0,0,0,0,0,0,0,0,0,0,0,0,0,0,0,0,0,0,0,0,0,0,0,0,0,0,0,0,0,0,0,0,0,0,0,0,0,0,0,0,0,0,0,0,0,0,0,0,0,0,0,0,0,0,0,0,0,0,0,0,0,0,0,0,0,0,0,0,0,0,0,0,0,0,0,0,0,0,0,0,0,0,0,0,0,0,0,0,0,0,0,0,0,0,0,0,0,0,0,0,0,0,0,0,0,0,0,0,0,0,0,0,0,0,0,0],"id":2,"left_children":[1,3,5,7,9,11,13,15,17,19,21,23,25,27,29,31,33,35,37,39,41,43,45,47,49,51,53,55,57,59,61,63,65,67,69,71,73,75,77,79,81,83,85,87,89,91,93,95,97,99,101,103,105,107,109,111,113,115,117,119,121,123,125,127,129,131,133,135,137,139,141,143,145,147,149,151,153,155,157,159,161,163,165,167,169,171,173,175,177,179,181,183,185,187,189,191,193,195,197,199,201,203,205,207,209,211,213,215,217,219,221,223,225,227,229,231,233,235,237,239,241,243,245,247,249,251,253,-1,-1,-1,-1,-1,-1,-1,-1,-1,-1,-1,-1,-1,-1,-1,-1,-1,-1,-1,-1,-1,-1,-1,-1,-1,-1,-1,-1,-1,-1,-1,-1,-1,-1,-1,-1,-1,-1,-1,-1,-1,-1,-1,-1,-1,-1,-1,-1,-1,-1,-1,-1,-1,-1,-1,-1,-1,-1,-1,-1,-1,-1,-1,-1,-1,-1,-1,-1,-1,-1,-1,-1,-1,-1,-1,-1,-1,-1,-1,-1,-1,-1,-1,-1,-1,-1,-1,-1,-1,-1,-1,-1,-1,-1,-1,-1,-1,-1,-1,-1,-1,-1,-1,-1,-1,-1,-1,-1,-1,-1,-1,-1,-1,-1,-1,-1,-1,-1,-1,-1,-1,-1,-1,-1,-1,-1,-1,-1],"loss_changes":[3.3529308E7,7.561757E6,6.341722E6,2.404722E6,2.1823428E6,1.9044126E6,1.906568E6,5.28918E5,5.32136E5,4.52444E5,4.6871222E5,3.7824522E5,4.004505E5,3.61472E5,3.64778E5,1.20775E5,2.08107E5,1.2004425E5,2.722315E5,1.3889975E5,2.0966384E5,1.160443E5,2.0393862E5,7.317153E4,1.40543E5,8.101619E4,1.845895E5,1.5958125E5,6.093025E4,8.61115E4,1.46716E5,1.9915E4,1.315175E4,5.2848E4,8.7751E4,1.221125E4,1.5966125E4,9.45705E4,7.814891E4,2.43805E4,1.460925E4,5.4240688E4,8.030969E4,1.674586E4,1.0656566E4,8.6398234E4,6.5967E4,6.8861562E3,1.06773125E4,5.5292758E4,5.7985406E4,1.1080406E4,1.0050094E4,6.4674375E4,5.366275E4,7.1559125E4,6.040075E4,4.8964375E3,9.8025E3,1.431625E4,7.15425E3,5.8251E4,4.8789E4,3.184E3,2.27E3,1.81325E3,2.093625E3,1.04565E4,1.0540875E4,1.87165E4,1.7445375E4,4.15475E3,3.44775E3,3.876625E3,3.498625E3,1.9524875E4,1.5115375E4,1.55964375E4,1.2077246E4,4.8350625E3,4.1251875E3,4.99475E3,4.9338125E3,1.8936625E4,1.4403094E4,1.3339906E4,7.751517E3,5.6629844E3,3.7063027E3,4.6394717E3,2.6390957E3,1.7183107E4,1.3256047E4,1.0294969E4,8.109375E3,2.3337188E3,2.11275E3,2.8227031E3,3.4220596E3,1.0970061E4,9.232094E3,8.585918E3,7.0730625E3,3.622829E3,2.2744336E3,3.6621562E3,2.5826094E3,1.7962688E4,1.4086875E4,1.040875E4,7.720375E3,1.2966219E4,1.34335E4,8.8686875E3,6.687E3,1.3617812E3,1.37575E3,1.3593125E3,2.101125E3,4.1370625E3,2.641375E3,2.570125E3,1.3185E3,8.6395E3,6.7435E3,1.0204E4,7.327E3,0E0,0E0,0E0,0E0,0E0,0E0,0E0,0E0,0E0,0E0,0E0,0E0,0E0,0E0,0E0,0E0,0E0,0E0,0E0,0E0,0E0,0E0,0E0,0E0,0E0,0E0,0E0,0E0,0E0,0E0,0E0,0E0,0E0,0E0,0E0,0E0,0E0,0E0,0E0,0E0,0E0,0E0,0E0,0E0,0E0,0E0,0E0,0E0,0E0,0E0,0E0,0E0,0E0,0E0,0E0,0E0,0E0,0E0,0E0,0E0,0E0,0E0,0E0,0E0,0E0,0E0,0E0,0E0,0E0,0E0,0E0,0E0,0E0,0E0,0E0,0E0,0E0,0E0,0E0,0E0,0E0,0E0,0E0,0E0,0E0,0E0,0E0,0E0,0E0,0E0,0E0,0E0,0E0,0E0,0E0,0E0,0E0,0E0,0E0,0E0,0E0,0E0,0E0,0E0,0E0,0E0,0E0,0E0,0E0,0E0,0E0,0E0,0E0,0E0,0E0,0E0,0E0,0E0,0E0,0E0,0E0,0E0,0E0,0E0,0E0,0E0,0E0,0E0],"parents":[2147483647,0,0,1,1,2,2,3,3,4,4,5,5,6,6,7,7,8,8,9,9,10,10,11,11,12,12,13,13,14,14,15,15,16,16,17,17,18,18,19,19,20,20,21,21,22,22,23,23,24,24,25,25,26,26,27,27,28,28,29,29,30,30,31,31,32,32,33,33,34,34,35,35,36,36,37,37,38,38,39,39,40,40,41,41,42,42,43,43,44,44,45,45,46,46,47,47,48,48,49,49,50,50,51,51,52,52,53,53,54,54,55,55,56,56,57,57,58,58,59,59,60,60,61,61,62,62,63,63,64,64,65,65,66,66,67,67,68,68,69,69,70,70,71,71,72,72,73,73,74,74,75,75,76,76,77,77,78,78,79,79,80,80,81,81,82,82,83,83,84,84,85,85,86,86,87,87,88,88,89,89,90,90,91,91,92,92,93,93,94,94,95,95,96,96,97,97,98,98,99,99,100,100,101,101,102,102,103,103,104,104,105,105,106,106,107,107,108,108,109,109,110,110,111,111,112,112,113,113,114,114,115,115,116,116,117,117,118,118,119,119,120,120,121,121,122,122,123,123,124,124,125,125,126,126],"right_children":[2,4,6,8,10,12,14,16,18,20,22,24,26,28,30,32,34,36,38,40,42,44,46,48,50,52,54,56,58,60,62,64,66,68,70,72,74,76,78,80,82,84,86,88,90,92,94,96,98,100,102,104,106,108,110,112,114,116,118,120,122,124,126,128,130,132,134,136,138,140,142,144,146,148,150,152,154,156,158,160,162,164,166,168,170,172,174,176,178,180,182,184,186,188,190,192,194,196,198,200,202,204,206,208,210,212,214,216,218,220,222,224,226,228,230,232,234,236,238,240,242,244,246,248,250,252,254,-1,-1,-1,-1,-1,-1,-1,-1,-1,-1,-1,-1,-1,-1,-1,-1,-1,-1,-1,-1,-1,-1,-1,-1,-1,-1,-1,-1,-1,-1,-1,-1,-1,-1,-1,-1,-1,-1,-1,-1,-1,-1,-1,-1,-1,-1,-1,-1,-1,-1,-1,-1,-1,-1,-1,-1,-1,-1,-1,-1,-1,-1,-1,-1,-1,-1,-1,-1,-1,-1,-1,-1,-1,-1,-1,-1,-1,-1,-1,-1,-1,-1,-1,-1,-1,-1,-1,-1,-1,-1,-1,-1,-1,-1,-1,-1,-1,-1,-1,-1,-1,-1,-1,-1,-1,-1,-1,-1,-1,-1,-1,-1,-1,-1,-1,-1,-1,-1,-1,-1,-1,-1,-1,-1,-1,-1,-1,-1],"split_conditions":[4.7203E0,4E0,4E0,2.6918E0,2.7365E0,6.5873E0,6.7034E0,2E0,2E0,5E0,5E0,2E0,2E0,6E0,5E0,1.7534E0,1.5936E0,3.6458E0,3.7306E0,1.8173E0,1.8173E0,3.7608E0,3.7608E0,5.5589E0,5.7077E0,7.6318E0,7.7306E0,5.7804E0,5.5968E0,7.8782E0,7.6985E0,1.2312E0,2.2644E0,3E0,3E0,3.1166E0,4.2072E0,3E0,3E0,1.2312E0,2.3136E0,6E0,6E0,3.2734E0,4.3769E0,6E0,6E0,5.0856E0,6.0629E0,3E0,3E0,7.1714E0,8.1514E0,3E0,3E0,5E0,5E0,5.0856E0,6.0629E0,7.3462E0,8.3815E0,6E0,6E0,8.568E-1,1.03E1,1.726E1,8.76E0,9.562E-1,1.0414E0,2.1636E0,2.1636E0,1.227E1,1.382E1,1.156E1,1.102E1,3.1925E0,3.1925E0,4.32E0,4.2362E0,8.095E-1,1.13E1,1.824E1,1.097E1,1.2667E0,1.2312E0,2.3342E0,2.3136E0,1.13E1,2.154E1,1.824E1,1.227E1,3.2734E0,3.2734E0,4.1774E0,4.1774E0,1.243E1,1.757E1,1.03E1,1.673E1,5.2642E0,5.0856E0,6.1639E0,6.2047E0,1.243E1,1.097E1,1.156E1,2.957E1,7.2089E0,7.2089E0,8.3434E0,8.3045E0,5.2997E0,5.335E0,1.695E1,6.3734E0,1.487E1,1.227E1,1.468E1,6.4073E0,1.102E1,9.92E0,1.673E1,1.784E1,7.1369E0,7.2802E0,8.3045E0,8.0532E0,-3.2988427E0,-3.0630243E0,-2.762367E0,-2.9858606E0,-2.5002897E0,-2.7985044E0,-2.204568E0,-2.3951976E0,-2.7315748E0,-2.401319E0,-2.2237842E0,-1.9073709E0,-2.0719905E0,-1.763491E0,-1.6016136E0,-1.291639E0,-1.9801096E0,-2.2611E0,-1.7210236E0,-2.0013871E0,-1.4109039E0,-1.6769654E0,-1.1040606E0,-1.3648636E0,-1.4877821E0,-1.1934615E0,-1.0064297E0,-7.213518E-1,-8.80044E-1,-5.8824694E-1,-4.1964838E-1,-1.4145757E-1,-1.906762E0,-1.6341496E0,-1.2631136E0,-1.4827327E0,-9.9229234E-1,-1.2719084E0,-7.0296544E-1,-9.243819E-1,-1.1900066E0,-8.3366776E-1,-7.2265387E-1,-3.2148552E-1,-5.347141E-1,-2.7281657E-1,-2.2060594E-2,2.3839958E-1,-4.498951E-1,-6.785699E-1,-1.8946898E-1,-5.2267027E-1,1.2905292E-1,-1.4856477E-1,4.2989016E-1,1.8894562E-1,-1.8340867E-2,2.8103718E-1,4.8743913E-1,7.940545E-1,5.2543455E-1,7.9217243E-1,1.0409468E0,1.3136954E0,-8.686355E-1,-1.1374735E0,-6.437453E-1,-9.668903E-1,-3.4075943E-1,-5.818519E-1,-8.345555E-2,-4.11896E-1,-3.3334714E-1,-5.4788847E-2,8.320748E-2,3.661743E-1,1.8666343E-1,4.3984762E-1,6.8480885E-1,9.433926E-1,2.4880993E-1,-2.7104238E-2,5.530375E-1,2.981437E-1,8.133993E-1,5.42195E-1,1.0680186E0,5.058652E-1,7.256603E-1,1.0550686E0,1.2086154E0,1.5389831E0,1.362497E0,1.6685504E0,1.8462149E0,2.1378613E0,6.023859E-1,9.0135E-1,1.1090943E0,1.4245361E0,1.3728305E0,1.0533111E0,1.7141026E0,1.9796644E0,1.6078522E0,1.3362787E0,1.8584124E0,1.6334088E0,2.1337032E0,1.8846667E0,2.3049402E0,2.5089743E0,1.8278294E0,1.5899929E0,2.1353571E0,1.9227005E0,2.4152856E0,2.1450503E0,2.6840365E0,2.4073484E0,2.1864412E0,2.4625952E0,2.7442157E0,3.0076966E0,2.7895029E0,3.114514E0,3.2212887E0,3.5043294E0],"split_indices":[3,11,11,3,3,3,3,11,11,11,11,11,11,11,11,3,3,3,3,3,3,3,3,3,3,3,3,3,3,3,3,3,3,11,11,3,3,11,11,3,3,11,11,3,3,11,11,3,3,11,11,3,3,11,11,11,11,3,3,3,3,11,11,3,4,4,4,3,3,3,3,4,4,4,4,3,3,3,3,3,4,4,4,3,3,3,3,4,4,4,4,3,3,3,3,4,4,4,4,3,3,3,3,4,4,4,4,3,3,3,3,3,3,4,3,4,4,4,3,4,4,4,4,3,3,3,3,0,0,0,0,0,0,0,0,0,0,0,0,0,0,0,0,0,0,0,0,0,0,0,0,0,0,0,0,0,0,0,0,0,0,0,0,0,0,0,0,0,0,0,0,0,0,0,0,0,0,0,0,0,0,0,0,0,0,0,0,0,0,0,0,0,0,0,0,0,0,0,0,0,0,0,0,0,0,0,0,0,0,0,0,0,0,0,0,0,0,0,0,0,0,0,0,0,0,0,0,0,0,0,0,0,0,0,0,0,0,0,0,0,0,0,0,0,0,0,0,0,0,0,0,0,0,0,0],"split_type":[0,0,0,0,0,0,0,0,0,0,0,0,0,0,0,0,0,0,0,0,0,0,0,0,0,0,0,0,0,0,0,0,0,0,0,0,0,0,0,0,0,0,0,0,0,0,0,0,0,0,0,0,0,0,0,0,0,0,0,0,0,0,0,0,0,0,0,0,0,0,0,0,0,0,0,0,0,0,0,0,0,0,0,0,0,0,0,0,0,0,0,0,0,0,0,0,0,0,0,0,0,0,0,0,0,0,0,0,0,0,0,0,0,0,0,0,0,0,0,0,0,0,0,0,0,0,0,0,0,0,0,0,0,0,0,0,0,0,0,0,0,0,0,0,0,0,0,0,0,0,0,0,0,0,0,0,0,0,0,0,0,0,0,0,0,0,0,0,0,0,0,0,0,0,0,0,0,0,0,0,0,0,0,0,0,0,0,0,0,0,0,0,0,0,0,0,0,0,0,0,0,0,0,0,0,0,0,0,0,0,0,0,0,0,0,0,0,0,0,0,0,0,0,0,0,0,0,0,0,0,0,0,0,0,0,0,0,0,0,0,0,0,0,0,0,0,0,0,0,0,0,0,0,0,0],"sum_hessian":[2.79444E5,1.59286E5,1.20158E5,8.3669E4,7.5617E4,6.2532E4,5.7626E4,3.9237E4,4.4432E4,3.7276E4,3.8341E4,3.0591E4,3.1941E4,2.8847E4,2.8779E4,1.4115E4,2.5122E4,1.3939E4,3.0493E4,1.5289E4,2.1987E4,1.3817E4,2.4524E4,1.0372E4,2.0219E4,1.0485E4,2.1456E4,2.1032E4,7.815E3,1.0393E4,1.8386E4,6.816E3,7.299E3,9.576E3,1.5546E4,6.99E3,6.949E3,1.6723E4,1.377E4,7.029E3,8.26E3,9.584E3,1.2403E4,7.949E3,5.868E3,1.4049E4,1.0475E4,4.577E3,5.795E3,1.0503E4,9.716E3,5.176E3,5.309E3,1.2001E4,9.455E3,1.1657E4,9.375E3,3.378E3,4.437E3,6.193E3,4.2E3,9.575E3,8.811E3,3.11E3,3.706E3,3.466E3,3.833E3,4.907E3,4.669E3,8.085E3,7.461E3,3.592E3,3.398E3,3.677E3,3.272E3,9.186E3,7.537E3,7.523E3,6.247E3,3.201E3,3.828E3,3.89E3,4.37E3,5.999E3,3.585E3,7.788E3,4.615E3,4.842E3,3.107E3,3.754E3,2.114E3,8E3,6.049E3,6.002E3,4.473E3,2.141E3,2.436E3,2.81E3,2.985E3,5.739E3,4.764E3,5.378E3,4.338E3,3.131E3,2.045E3,3.241E3,2.068E3,6.663E3,5.338E3,5.145E3,4.31E3,5.899E3,5.758E3,5.1E3,4.275E3,1.44E3,1.938E3,1.831E3,2.606E3,3.381E3,2.812E3,2.488E3,1.712E3,5.083E3,4.492E3,4.387E3,4.424E3,1.271E3,1.839E3,2.933E3,7.73E2,3.165E3,3.01E2,2.882E3,9.51E2,1.435E3,3.472E3,1.747E3,2.922E3,3.671E3,4.414E3,3.266E3,4.195E3,2.868E3,7.24E2,2.823E3,5.75E2,2.96E3,7.17E2,2.601E3,6.71E2,5.041E3,4.145E3,4.109E3,3.428E3,4.329E3,3.194E3,3.058E3,3.189E3,1.006E3,2.195E3,2.412E3,1.416E3,3.061E3,8.29E2,2.754E3,1.616E3,3.068E3,2.931E3,1.81E3,1.775E3,3.937E3,3.851E3,2.078E3,2.537E3,3.192E3,1.65E3,2.727E3,3.8E2,3.002E3,7.52E2,1.448E3,6.66E2,4.816E3,3.184E3,3.798E3,2.251E3,2.467E3,3.535E3,2.029E3,2.444E3,1.727E3,4.14E2,2.209E3,2.27E2,2.182E3,6.28E2,2.625E3,3.6E2,3.216E3,2.523E3,1.958E3,2.806E3,2.838E3,2.54E3,2.446E3,1.892E3,2.546E3,5.85E2,1.591E3,4.54E2,2.615E3,6.26E2,1.98E3,8.8E1,3.488E3,3.175E3,3.053E3,2.285E3,3.459E3,1.686E3,2.892E3,1.418E3,3.28E3,2.619E3,3.535E3,2.223E3,3.961E3,1.139E3,2.702E3,1.573E3,1.174E3,2.66E2,1.506E3,4.32E2,1.472E3,3.59E2,1.46E3,1.146E3,2.144E3,1.237E3,1.679E3,1.133E3,1.94E3,5.48E2,1.389E3,3.23E2,1.964E3,3.119E3,2.642E3,1.85E3,2.665E3,1.722E3,1.75E3,2.674E3],"tree_param":{"num_deleted":"0","num_feature":"12","num_nodes":"255","size_leaf_vector":"1"}},{"base_weights":[9.417443E-5,-8.361156E0,1.16294155E1,-1.42561455E1,-1.8322034E0,5.355868E0,1.8424238E1,-1.9286049E1,-9.435419E0,-6.5883803E0,3.3168292E0,7.26092E-1,1.0414623E1,1.3421779E1,2.3539278E1,-2.3728922E1,-1.6808937E1,-1.3978346E1,-7.3451047E0,-1.0402478E1,-3.9685185E0,-8.93487E-1,5.6779513E0,-3.7277553E0,2.9643688E0,5.8278184E0,1.2676126E1,1.1448346E1,1.8715662E1,1.9283613E1,2.5946352E1,-2.6499441E1,-2.096411E1,-1.9628149E1,-1.4182401E1,-1.641669E1,-1.1043527E1,-9.69088E0,-4.2233562E0,-1.3421826E1,-7.755276E0,-7.3186917E0,-1.4454054E0,-3.142463E0,2.0982168E0,3.3091578E0,8.491284E0,-6.086026E0,-1.2235729E0,4.8709503E-1,5.452883E0,3.6273124E0,8.183363E0,1.0605493E1,1.5497147E1,9.21233E0,1.4159836E1,1.6366652E1,2.1312128E1,1.7154036E1,2.2232347E1,2.3841015E1,2.8862476E1,-2.8341434E1,-2.500858E1,-2.2079866E1,-1.964066E1,-2.1679543E1,-1.745494E1,-1.6256807E1,-1.1923286E1,-1.767826E1,-1.4905091E1,-1.204273E1,-9.472564E0,-1.1616303E1,-7.3093944E0,-6.1862144E0,-1.892119E0,-1.5196616E1,-1.1658823E1,-8.941156E0,-6.53751E0,-8.969211E0,-4.5394588E0,-3.2492385E0,1.5142022E0,-4.2793007E0,-1.6453558E0,1.058683E0,3.4564044E0,1.3687273E0,5.842793E0,6.5194364E0,1.1120709E1,-7.4195585E0,-4.68576E0,-2.2994428E0,3.597813E-2,-1.3449911E0,2.7647731E0,3.4665868E0,7.844939E0,2.4559038E0,4.9782233E0,7.3920455E0,9.906128E0,8.738817E0,1.2960508E1,1.3535004E1,1.780967E1,7.0098863E0,1.1477415E1,1.2041245E1,1.6698212E1,1.5110875E1,1.7818285E1,2.0288704E1,2.2589464E1,1.6020252E1,1.8569347E1,2.1283436E1,2.3833334E1,2.166545E1,2.6242702E1,2.673112E1,3.100911E1,-2.951449E0,-2.7331398E0,-2.4695241E0,-2.7279747E0,-2.1649506E0,-2.3411262E0,-1.931086E0,-2.1914148E0,-2.3654888E0,-2.029273E0,-1.953287E0,-1.6129755E0,-1.7566136E0,-1.5242256E0,-1.1453627E0,-1.5437697E0,-1.7378377E0,-2.1262453E0,-1.4628302E0,-1.8545401E0,-1.1744647E0,-1.4984568E0,-9.21078E-1,-1.3058538E0,-1.2819026E0,-9.8824626E-1,-8.4296733E-1,-5.585579E-1,-7.285846E-1,-4.8948595E-1,-1.4362077E-1,-5.508032E-1,-1.6959689E0,-1.4363425E0,-1.1277232E0,-1.4304819E0,-8.549642E-1,-1.1782154E0,-6.028277E-1,-8.402754E-1,-1.0537422E0,-7.1559495E-1,-6.2019676E-1,-2.3739484E-1,-4.4254446E-1,-2.0118277E-1,2.2218549E-1,-5.1047157E-2,-3.8293463E-1,-6.655985E-1,-9.6438676E-2,-3.252599E-1,1.816415E-1,-3.0877545E-2,3.9258313E-1,1.01026416E-1,3.8901426E-2,2.958025E-1,4.754002E-1,7.401828E-1,5.4572177E-1,8.058546E-1,9.914166E-1,1.2544285E0,-7.165505E-1,-1.1209614E0,-4.1864267E-1,-6.0471183E-1,-2.0015322E-1,-6.007826E-1,5.6862224E-2,-1.6894726E-1,-2.5301963E-1,1.137144E-2,3.286645E-1,-7.759576E-2,2.3186676E-1,4.729248E-1,6.6759706E-1,9.099874E-1,2.7611548E-1,-4.7068585E-2,5.224569E-1,8.8700764E-2,7.6771116E-1,3.6700222E-1,1.0440053E0,7.743822E-1,7.429198E-1,1.0111164E0,1.173043E0,1.4484037E0,1.2787275E0,1.5426258E0,1.7066511E0,1.9549462E0,7.73681E-1,4.6273255E-1,1.0277146E0,1.3055072E0,1.0951928E0,1.3426472E0,1.7457474E0,1.4973731E0,1.562857E0,1.3681976E0,1.808094E0,1.4770736E0,2.066922E0,1.8099724E0,2.3210752E0,2.0874767E0,1.6560507E0,1.4141806E0,1.8898276E0,1.5568086E0,2.2018974E0,1.9850487E0,2.445816E0,2.2306833E0,2.038998E0,2.286606E0,2.5163245E0,2.77784E0,2.5898647E0,2.8694367E0,3.159456E0,2.8880355E0],"categories":[],"categories_nodes":[],"categories_segments":[],"categories_sizes":[],"default_left":[0,0,0,0,0,0,0,0,0,0,0,0,0,0,0,0,0,0,0,0,0,0,0,0,0,0,0,0,0,0,0,0,0,0,0,0,0,0,0,0,0,0,0,0,0,0,0,0,0,0,0,0,0,0,0,0,0,0,0,0,0,0,0,0,0,0,0,0,0,0,0,0,0,0,0,0,0,0,0,0,0,0,0,0,0,0,0,0,0,0,0,0,0,0,0,0,0,0,0,0,0,0,0,0,0,0,0,0,0,0,0,0,0,0,0,0,0,0,0,0,0,0,0,0,0,0,0,0,0,0,0,0,0,0,0,0,0,0,0,0,0,0,0,0,0,0,0,0,0,0,0,0,0,0,0,0,0,0,0,0,0,0,0,0,0,0,0,0,0,0,0,0,0,0,0,0,0,0,0,0,0,0,0,0,0,0,0,0,0,0,0,0,0,0,0,0,0,0,0,0,0,0,0,0,0,0,0,0,0,0,0,0,0,0,0,0,0,0,0,0,0,0,0,0,0,0,0,0,0,0,0,0,0,0,0,0,0,0,0,0,0,0,0,0,0,0,0,0,0,0,0,0,0,0,0],"id":3,"left_children":[1,3,5,7,9,11,13,15,17,19,21,23,25,27,29,31,33,35,37,39,41,43,45,47,49,51,53,55,57,59,61,63,65,67,69,71,73,75,77,79,81,83,85,87,89,91,93,95,97,99,101,103,105,107,109,111,113,115,117,119,121,123,125,127,129,131,133,135,137,139,141,143,145,147,149,151,153,155,157,159,161,163,165,167,169,171,173,175,177,179,181,183,185,187,189,191,193,195,197,199,201,203,205,207,209,211,213,215,217,219,221,223,225,227,229,231,233,235,237,239,241,243,245,247,249,251,253,-1,-1,-1,-1,-1,-1,-1,-1,-1,-1,-1,-1,-1,-1,-1,-1,-1,-1,-1,-1,-1,-1,-1,-1,-1,-1,-1,-1,-1,-1,-1,-1,-1,-1,-1,-1,-1,-1,-1,-1,-1,-1,-1,-1,-1,-1,-1,-1,-1,-1,-1,-1,-1,-1,-1,-1,-1,-1,-1,-1,-1,-1,-1,-1,-1,-1,-1,-1,-1,-1,-1,-1,-1,-1,-1,-1,-1,-1,-1,-1,-1,-1,-1,-1,-1,-1,-1,-1,-1,-1,-1,-1,-1,-1,-1,-1,-1,-1,-1,-1,-1,-1,-1,-1,-1,-1,-1,-1,-1,-1,-1,-1,-1,-1,-1,-1,-1,-1,-1,-1,-1,-1,-1,-1,-1,-1,-1,-1],"loss_changes":[2.7172118E7,6.256794E6,4.982264E6,2.071306E6,1.8890604E6,1.4233512E6,1.435388E6,4.59707E5,4.1415675E5,4.0063425E5,3.6821234E5,3.1635556E5,3.0117025E5,2.961605E5,2.8367E5,1.14061E5,1.985025E5,9.818675E4,2.1876062E5,1.30394625E5,2.0093094E5,8.955314E4,1.5812012E5,6.2673953E4,1.3019641E5,4.9689375E4,1.1344875E5,1.2517825E5,4.662675E4,6.257725E4,1.08078E5,1.98045E4,1.0632E4,5.7332E4,6.495075E4,1.4050375E4,9.6825625E3,7.8136875E4,5.8655734E4,2.3684375E4,1.2508344E4,4.68035E4,7.24022E4,1.2924516E4,8.061008E3,6.3339062E4,5.616725E4,1.0171891E4,6.9775605E3,4.417389E4,5.0032844E4,7.8384023E3,6.241375E3,4.9210375E4,3.7107125E4,5.6441688E4,5.0022E4,7.109875E3,4.319625E3,9.051375E3,5.874875E3,5.3218E4,3.3133E4,3.14375E3,2.27025E3,1.818375E3,2.153875E3,1.775075E4,1.7008E4,9.355E3,1.081275E4,4.02225E3,3.1756875E3,3.1659375E3,2.1618125E3,1.954E4,1.46856875E4,9.847656E3,9.655807E3,5.334125E3,3.7057812E3,4.8000625E3,4.0308281E3,1.8140531E4,1.3691164E4,1.2254719E4,7.3598223E3,4.5921797E3,3.5878623E3,3.3546335E3,2.8391875E3,1.1362243E4,9.450234E3,1.0093844E4,7.857375E3,2.6137969E3,1.7889922E3,3.0559111E3,2.181869E3,1.014354E4,8.722352E3,8.334867E3,6.9499375E3,2.376704E3,2.3164492E3,3.3437656E3,1.5989531E3,1.117925E4,9.123625E3,6.105625E3,4.54725E3,9.917656E3,1.043975E4,7.5395E3,5.298125E3,1.3965938E3,1.2313125E3,1.3243125E3,1.238125E3,3.0559375E3,2.257625E3,2.35275E3,9.375E2,7.8135E3,7.404E3,5.35625E3,3.689E3,0E0,0E0,0E0,0E0,0E0,0E0,0E0,0E0,0E0,0E0,0E0,0E0,0E0,0E0,0E0,0E0,0E0,0E0,0E0,0E0,0E0,0E0,0E0,0E0,0E0,0E0,0E0,0E0,0E0,0E0,0E0,0E0,0E0,0E0,0E0,0E0,0E0,0E0,0E0,0E0,0E0,0E0,0E0,0E0,0E0,0E0,0E0,0E0,0E0,0E0,0E0,0E0,0E0,0E0,0E0,0E0,0E0,0E0,0E0,0E0,0E0,0E0,0E0,0E0,0E0,0E0,0E0,0E0,0E0,0E0,0E0,0E0,0E0,0E0,0E0,0E0,0E0,0E0,0E0,0E0,0E0,0E0,0E0,0E0,0E0,0E0,0E0,0E0,0E0,0E0,0E0,0E0,0E0,0E0,0E0,0E0,0E0,0E0,0E0,0E0,0E0,0E0,0E0,0E0,0E0,0E0,0E0,0E0,0E0,0E0,0E0,0E0,0E0,0E0,0E0,0E0,0E0,0E0,0E0,0E0,0E0,0E0,0E0,0E0,0E0,0E0,0E0,0E0],"parents":[2147483647,0,0,1,1,2,2,3,3,4,4,5,5,6,6,7,7,8,8,9,9,10,10,11,11,12,12,13,13,14,14,15,15,16,16,17,17,18,18,19,19,20,20,21,21,22,22,23,23,24,24,25,25,26,26,27,27,28,28,29,29,30,30,31,31,32,32,33,33,34,34,35,35,36,36,37,37,38,38,39,39,40,40,41,41,42,42,43,43,44,44,45,45,46,46,47,47,48,48,49,49,50,50,51,51,52,52,53,53,54,54,55,55,56,56,57,57,58,58,59,59,60,60,61,61,62,62,63,63,64,64,65,65,66,66,67,67,68,68,69,69,70,70,71,71,72,72,73,73,74,74,75,75,76,76,77,77,78,78,79,79,80,80,81,81,82,82,83,83,84,84,85,85,86,86,87,87,88,88,89,89,90,90,91,91,92,92,93,93,94,94,95,95,96,96,97,97,98,98,99,99,100,100,101,101,102,102,103,103,104,104,105,105,106,106,107,107,108,108,109,109,110,110,111,111,112,112,113,113,114,114,115,115,116,116,117,117,118,118,119,119,120,120,121,121,122,122,123,123,124,124,125,125,126,126],"right_children":[2,4,6,8,10,12,14,16,18,20,22,24,26,28,30,32,34,36,38,40,42,44,46,48,50,52,54,56,58,60,62,64,66,68,70,72,74,76,78,80,82,84,86,88,90,92,94,96,98,100,102,104,106,108,110,112,114,116,118,120,122,124,126,128,130,132,134,136,138,140,142,144,146,148,150,152,154,156,158,160,162,164,166,168,170,172,174,176,178,180,182,184,186,188,190,192,194,196,198,200,202,204,206,208,210,212,214,216,218,220,222,224,226,228,230,232,234,236,238,240,242,244,246,248,250,252,254,-1,-1,-1,-1,-1,-1,-1,-1,-1,-1,-1,-1,-1,-1,-1,-1,-1,-1,-1,-1,-1,-1,-1,-1,-1,-1,-1,-1,-1,-1,-1,-1,-1,-1,-1,-1,-1,-1,-1,-1,-1,-1,-1,-1,-1,-1,-1,-1,-1,-1,-1,-1,-1,-1,-1,-1,-1,-1,-1,-1,-1,-1,-1,-1,-1,-1,-1,-1,-1,-1,-1,-1,-1,-1,-1,-1,-1,-1,-1,-1,-1,-1,-1,-1,-1,-1,-1,-1,-1,-1,-1,-1,-1,-1,-1,-1,-1,-1,-1,-1,-1,-1,-1,-1,-1,-1,-1,-1,-1,-1,-1,-1,-1,-1,-1,-1,-1,-1,-1,-1,-1,-1,-1,-1,-1,-1,-1,-1],"split_conditions":[4.8209E0,4E0,4E0,2.796E0,2.8349E0,6.7762E0,6.7762E0,2E0,2E0,5E0,5E0,2E0,2E0,6E0,5E0,1.843E0,1.8782E0,3.8455E0,3.8786E0,1.9061E0,1.8782E0,3.8786E0,3.8174E0,5.8488E0,5.8178E0,7.7306E0,7.8406E0,5.8488E0,5.8824E0,7.8782E0,7.8406E0,1.2667E0,2.4247E0,3E0,3E0,3.3305E0,4.4362E0,3E0,3E0,1.3409E0,2.4247E0,6E0,6E0,3.3564E0,4.4052E0,6E0,6E0,5.335E0,6.3072E0,3E0,3E0,7.2802E0,8.2603E0,3E0,3E0,5E0,5E0,5.3719E0,6.3734E0,7.3788E0,8.4206E0,6E0,6E0,9.11E-1,1.565E1,9.03E0,1.565E1,1.2312E0,1.1911E0,2.3342E0,1.615E1,2.076E1,2.076E1,1.863E1,2.076E1,3.3792E0,3.3792E0,4.4052E0,1.615E1,8.568E-1,2.154E1,2.236E1,1.757E1,1.3409E0,1.3409E0,2.4247E0,1.213E1,1.937E1,1.355E1,1.152E1,1.937E1,3.3792E0,3.3305E0,4.4052E0,4.343E0,2.541E1,8.13E0,2.076E1,1.03E1,5.3719E0,1.615E1,6.3072E0,6.3072E0,1.863E1,2.541E1,2.076E1,1.243E1,7.3462E0,7.3462E0,8.4206E0,8.3815E0,1.615E1,5.3719E0,6.3734E0,1.177E1,1.008E1,2.023E1,1.615E1,1.075E1,1.695E1,2.236E1,1.097E1,1.243E1,7.3128E0,7.3788E0,8.4782E0,1.339E1,-2.951449E0,-2.7331398E0,-2.4695241E0,-2.7279747E0,-2.1649506E0,-2.3411262E0,-1.931086E0,-2.1914148E0,-2.3654888E0,-2.029273E0,-1.953287E0,-1.6129755E0,-1.7566136E0,-1.5242256E0,-1.1453627E0,-1.5437697E0,-1.7378377E0,-2.1262453E0,-1.4628302E0,-1.8545401E0,-1.1744647E0,-1.4984568E0,-9.21078E-1,-1.3058538E0,-1.2819026E0,-9.8824626E-1,-8.4296733E-1,-5.585579E-1,-7.285846E-1,-4.8948595E-1,-1.4362077E-1,-5.508032E-1,-1.6959689E0,-1.4363425E0,-1.1277232E0,-1.4304819E0,-8.549642E-1,-1.1782154E0,-6.028277E-1,-8.402754E-1,-1.0537422E0,-7.1559495E-1,-6.2019676E-1,-2.3739484E-1,-4.4254446E-1,-2.0118277E-1,2.2218549E-1,-5.1047157E-2,-3.8293463E-1,-6.655985E-1,-9.6438676E-2,-3.252599E-1,1.816415E-1,-3.0877545E-2,3.9258313E-1,1.01026416E-1,3.8901426E-2,2.958025E-1,4.754002E-1,7.401828E-1,5.4572177E-1,8.058546E-1,9.914166E-1,1.2544285E0,-7.165505E-1,-1.1209614E0,-4.1864267E-1,-6.0471183E-1,-2.0015322E-1,-6.007826E-1,5.6862224E-2,-1.6894726E-1,-2.5301963E-1,1.137144E-2,3.286645E-1,-7.759576E-2,2.3186676E-1,4.729248E-1,6.6759706E-1,9.099874E-1,2.7611548E-1,-4.7068585E-2,5.224569E-1,8.8700764E-2,7.6771116E-1,3.6700222E-1,1.0440053E0,7.743822E-1,7.429198E-1,1.0111164E0,1.173043E0,1.4484037E0,1.2787275E0,1.5426258E0,1.7066511E0,1.9549462E0,7.73681E-1,4.6273255E-1,1.0277146E0,1.3055072E0,1.0951928E0,1.3426472E0,1.7457474E0,1.4973731E0,1.562857E0,1.3681976E0,1.808094E0,1.4770736E0,2.066922E0,1.8099724E0,2.3210752E0,2.0874767E0,1.6560507E0,1.4141806E0,1.8898276E0,1.5568086E0,2.2018974E0,1.9850487E0,2.445816E0,2.2306833E0,2.038998E0,2.286606E0,2.5163245E0,2.77784E0,2.5898647E0,2.8694367E0,3.159456E0,2.8880355E0],"split_indices":[3,11,11,3,3,3,3,11,11,11,11,11,11,11,11,3,3,3,3,3,3,3,3,3,3,3,3,3,3,3,3,3,3,11,11,3,3,11,11,3,3,11,11,3,3,11,11,3,3,11,11,3,3,11,11,11,11,3,3,3,3,11,11,3,4,4,4,3,3,3,4,4,4,4,4,3,3,3,4,3,4,4,4,3,3,3,4,4,4,4,4,3,3,3,3,4,4,4,4,3,4,3,3,4,4,4,4,3,3,3,3,4,3,3,4,4,4,4,4,4,4,4,4,3,3,3,4,0,0,0,0,0,0,0,0,0,0,0,0,0,0,0,0,0,0,0,0,0,0,0,0,0,0,0,0,0,0,0,0,0,0,0,0,0,0,0,0,0,0,0,0,0,0,0,0,0,0,0,0,0,0,0,0,0,0,0,0,0,0,0,0,0,0,0,0,0,0,0,0,0,0,0,0,0,0,0,0,0,0,0,0,0,0,0,0,0,0,0,0,0,0,0,0,0,0,0,0,0,0,0,0,0,0,0,0,0,0,0,0,0,0,0,0,0,0,0,0,0,0,0,0,0,0,0,0],"split_type":[0,0,0,0,0,0,0,0,0,0,0,0,0,0,0,0,0,0,0,0,0,0,0,0,0,0,0,0,0,0,0,0,0,0,0,0,0,0,0,0,0,0,0,0,0,0,0,0,0,0,0,0,0,0,0,0,0,0,0,0,0,0,0,0,0,0,0,0,0,0,0,0,0,0,0,0,0,0,0,0,0,0,0,0,0,0,0,0,0,0,0,0,0,0,0,0,0,0,0,0,0,0,0,0,0,0,0,0,0,0,0,0,0,0,0,0,0,0,0,0,0,0,0,0,0,0,0,0,0,0,0,0,0,0,0,0,0,0,0,0,0,0,0,0,0,0,0,0,0,0,0,0,0,0,0,0,0,0,0,0,0,0,0,0,0,0,0,0,0,0,0,0,0,0,0,0,0,0,0,0,0,0,0,0,0,0,0,0,0,0,0,0,0,0,0,0,0,0,0,0,0,0,0,0,0,0,0,0,0,0,0,0,0,0,0,0,0,0,0,0,0,0,0,0,0,0,0,0,0,0,0,0,0,0,0,0,0,0,0,0,0,0,0,0,0,0,0,0,0,0,0,0,0,0,0],"sum_hessian":[2.79444E5,1.62564E5,1.1688E5,8.5429E4,7.7135E4,6.0772E4,5.6108E4,4.1806E4,4.3623E4,4.0097E4,3.7038E4,3.1732E4,2.904E4,2.8368E4,2.774E4,1.4962E4,2.6844E4,1.3745E4,2.9878E4,1.6326E4,2.3771E4,1.3308E4,2.373E4,1.0613E4,2.1119E4,9.591E3,1.9449E4,2.0667E4,7.701E3,1.0025E4,1.7715E4,7.469E3,7.493E3,1.2944E4,1.39E4,7.505E3,6.24E3,1.7058E4,1.282E4,7.625E3,8.701E3,1.0211E4,1.356E4,7.597E3,5.711E3,1.2884E4,1.0846E4,5.465E3,5.148E3,1.0584E4,1.0535E4,4.96E3,4.631E3,1.1219E4,8.23E3,1.1329E4,9.338E3,4.047E3,3.654E3,5.825E3,4.2E3,1.0293E4,7.422E3,3.333E3,4.136E3,4.057E3,3.436E3,6.654E3,6.29E3,7.243E3,6.657E3,4.085E3,3.42E3,3.81E3,2.43E3,9.43E3,7.628E3,6.959E3,5.861E3,3.796E3,3.829E3,4.405E3,4.296E3,6.405E3,3.806E3,8.425E3,5.135E3,4.317E3,3.28E3,3.236E3,2.475E3,7.297E3,5.587E3,6.2E3,4.646E3,2.797E3,2.668E3,2.776E3,2.372E3,5.866E3,4.718E3,5.757E3,4.778E3,2.658E3,2.302E3,3.177E3,1.454E3,6.261E3,4.958E3,4.456E3,3.774E3,5.746E3,5.583E3,5.093E3,4.245E3,2.176E3,1.871E3,2.038E3,1.616E3,3.241E3,2.584E3,2.646E3,1.554E3,5.406E3,4.887E3,3.731E3,3.691E3,1.529E3,1.804E3,3.645E3,4.91E2,3.079E3,9.78E2,3.009E3,4.27E2,2.738E3,3.916E3,2.444E3,3.846E3,3.155E3,4.088E3,5.876E3,7.81E2,3.775E3,3.1E2,3.183E3,2.37E2,3.464E3,3.46E2,2.268E3,1.62E2,5.564E3,3.866E3,4.621E3,3.007E3,3.756E3,3.203E3,5.206E3,6.55E2,1.212E3,2.584E3,3.351E3,4.78E2,3.875E3,5.3E2,3.378E3,9.18E2,3.432E3,2.973E3,2.152E3,1.654E3,4.318E3,4.107E3,3.805E3,1.33E3,3.632E3,6.85E2,2.305E3,9.75E2,2.082E3,1.154E3,2.076E3,3.99E2,4.515E3,2.782E3,3.292E3,2.295E3,3.671E3,2.529E3,2.519E3,2.127E3,2.624E3,1.73E2,1.955E3,7.13E2,2.571E3,2.05E2,1.813E3,5.59E2,3.236E3,2.63E3,4.112E3,6.06E2,3.017E3,2.74E3,2.477E3,2.301E3,2.407E3,2.51E2,2.171E3,1.31E2,2.95E3,2.27E2,1.163E3,2.91E2,3.207E3,3.054E3,2.748E3,2.21E3,3.199E3,1.257E3,2.652E3,1.122E3,4.401E3,1.345E3,3.175E3,2.408E3,2.856E3,2.237E3,2.941E3,1.304E3,1.59E3,5.86E2,1.718E3,1.53E2,1.729E3,3.09E2,1.177E3,4.39E2,2.511E3,7.3E2,2.324E3,2.6E2,1.739E3,9.07E2,1.092E3,4.62E2,2.63E3,2.776E3,2.88E3,2.007E3,2.63E3,1.101E3,2.884E3,8.07E2],"tree_param":{"num_deleted":"0","num_feature":"12","num_nodes":"255","size_leaf_vector":"1"}},{"base_weights":[1.364499E-4,-7.4060593E0,1.0639383E1,-1.2714772E1,-1.5250599E0,4.9952636E0,1.674782E1,-1.7017366E1,-8.023426E0,-6.054294E0,2.9888265E0,8.3596146E-1,9.373666E0,1.230911E1,2.1255112E1,-2.1074762E1,-1.4796205E1,-1.2094131E1,-6.125871E0,-9.463758E0,-3.6991105E0,-8.208568E-1,5.1175857E0,-3.15977E0,2.829672E0,5.245432E0,1.1409072E1,1.0528699E1,1.7092772E1,1.7417189E1,2.3435757E1,-2.367638E1,-1.8448586E1,-1.7339003E1,-1.2165915E1,-1.4257306E1,-9.57312E0,-8.129121E0,-3.406569E0,-1.2447201E1,-7.3449254E0,-6.5870795E0,-1.4067627E0,-3.0531378E0,1.8457235E0,2.9236147E0,7.8543396E0,-5.2666354E0,-1.1013924E0,7.712095E-1,5.101651E0,3.4062092E0,7.540859E0,9.545334E0,1.3948219E1,8.750072E0,1.325694E1,1.4992518E1,1.9304785E1,1.5611987E1,2.0189215E1,2.1610275E1,2.6071781E1,-2.5323824E1,-2.218165E1,-1.9475107E1,-1.7292318E1,-1.907178E1,-1.5416974E1,-1.4005245E1,-1.0212041E1,-1.5399938E1,-1.3003456E1,-1.0471419E1,-8.268434E0,-9.855496E0,-5.98525E0,-5.186337E0,-1.3271965E0,-1.3950485E1,-1.1034862E1,-8.728822E0,-6.2784905E0,-8.072566E0,-4.085737E0,-3.0208116E0,1.2504176E0,-4.0577135E0,-1.6985687E0,8.113226E-1,3.1613107E0,1.1530082E0,5.237165E0,6.064565E0,1.0258078E1,-6.363895E0,-4.111762E0,-2.0046694E0,1.20948516E-1,-9.025565E-1,2.8615842E0,3.3130918E0,7.266745E0,2.2103996E0,4.5962625E0,6.9682994E0,9.316969E0,7.8652153E0,1.1664987E1,1.2182136E1,1.6029673E1,6.8608756E0,1.080428E1,1.1315509E1,1.5453202E1,1.3873626E1,1.6202446E1,1.8267683E1,2.0286697E1,1.4647616E1,1.7024918E1,1.9442923E1,2.1660036E1,1.9640162E1,2.3764786E1,2.4159302E1,2.8004465E1,-2.6564968E0,-2.4479845E0,-2.1709092E0,-2.343686E0,-1.9312292E0,-2.2890184E0,-1.6832386E0,-1.8784283E0,-2.0852575E0,-1.7482647E0,-1.7110637E0,-1.3842386E0,-1.5043534E0,-1.308929E0,-9.7480166E-1,-1.3121059E0,-1.4940166E0,-1.7289934E0,-1.2776164E0,-1.7050799E0,-1.02765E0,-1.4467016E0,-7.774243E-1,-9.9581146E-1,-1.095878E0,-8.357462E-1,-7.0116484E-1,-4.5254275E-1,-6.139779E-1,-4.1828203E-1,-9.183158E-2,-4.563787E-1,-1.3033273E0,-1.5571364E0,-1.0205679E0,-1.2038869E0,-7.978551E-1,-1.0020522E0,-5.513198E-1,-7.3336387E-1,-1.0464112E0,-7.0413154E-1,-6.4897275E-1,-2.8510782E-1,-2.2721158E-1,-4.930074E-1,3.7380958E-3,2.3416619E-1,-3.5950223E-1,-5.99807E-1,-9.45236E-2,-2.8905952E-1,1.15034916E-1,-1.8362439E-1,3.5255578E-1,3.1030402E-2,8.950603E-3,2.4965301E-1,4.2087913E-1,6.7143506E-1,6.747116E-1,3.9498422E-1,9.1524094E-1,1.156648E0,-5.8708626E-1,-7.9106593E-1,-3.9160877E-1,-7.3658943E-1,-1.7254077E-1,-5.2975655E-1,3.6097046E-2,-3.265023E-1,-1.9491981E-1,4.1973483E-2,1.6363613E-1,4.301748E-1,2.359809E-1,4.3304187E-1,7.6475877E-1,3.9441857E-1,2.3737541E-1,-2.4788342E-1,5.023472E-1,2.602234E-1,7.4559945E-1,5.043327E-1,9.709482E-1,6.912531E-1,6.828629E-1,9.282007E-1,1.0393806E0,1.2879349E0,1.1429687E0,1.3720459E0,1.5291454E0,1.7473729E0,5.3826815E-1,8.152118E-1,9.5800745E-1,1.2234262E0,1.2023615E0,9.278267E-1,1.58188E0,1.2341701E0,1.413109E0,1.1170421E0,1.630678E0,9.5511115E-1,1.8757309E0,1.6810187E0,2.0667582E0,1.7867273E0,1.5302457E0,1.3383602E0,1.7619851E0,1.5484511E0,1.9738085E0,1.6473092E0,2.231659E0,2.0561864E0,2.0383818E0,1.7964516E0,2.4367442E0,2.154207E0,2.4900174E0,2.2356908E0,2.7198098E0,2.9394774E0],"categories":[],"categories_nodes":[],"categories_segments":[],"categories_sizes":[],"default_left":[0,0,0,0,0,0,0,0,0,0,0,0,0,0,0,0,0,0,0,0,0,0,0,0,0,0,0,0,0,0,0,0,0,0,0,0,0,0,0,0,0,0,0,0,0,0,0,0,0,0,0,0,0,0,0,0,0,0,0,0,0,0,0,0,0,0,0,0,0,0,0,0,0,0,0,0,0,0,0,0,0,0,0,0,0,0,0,0,0,0,0,0,0,0,0,0,0,0,0,0,0,0,0,0,0,0,0,0,0,0,0,0,0,0,0,0,0,0,0,0,0,0,0,0,0,0,0,0,0,0,0,0,0,0,0,0,0,0,0,0,0,0,0,0,0,0,0,0,0,0,0,0,0,0,0,0,0,0,0,0,0,0,0,0,0,0,0,0,0,0,0,0,0,0,0,0,0,0,0,0,0,0,0,0,0,0,0,0,0,0,0,0,0,0,0,0,0,0,0,0,0,0,0,0,0,0,0,0,0,0,0,0,0,0,0,0,0,0,0,0,0,0,0,0,0,0,0,0,0,0,0,0,0,0,0,0,0,0,0,0,0,0,0,0,0,0,0,0,0,0,0,0,0,0,0],"id":4,"left_children":[1,3,5,7,9,11,13,15,17,19,21,23,25,27,29,31,33,35,37,39,41,43,45,47,49,51,53,55,57,59,61,63,65,67,69,71,73,75,77,79,81,83,85,87,89,91,93,95,97,99,101,103,105,107,109,111,113,115,117,119,121,123,125,127,129,131,133,135,137,139,141,143,145,147,149,151,153,155,157,159,161,163,165,167,169,171,173,175,177,179,181,183,185,187,189,191,193,195,197,199,201,203,205,207,209,211,213,215,217,219,221,223,225,227,229,231,233,235,237,239,241,243,245,247,249,251,253,-1,-1,-1,-1,-1,-1,-1,-1,-1,-1,-1,-1,-1,-1,-1,-1,-1,-1,-1,-1,-1,-1,-1,-1,-1,-1,-1,-1,-1,-1,-1,-1,-1,-1,-1,-1,-1,-1,-1,-1,-1,-1,-1,-1,-1,-1,-1,-1,-1,-1,-1,-1,-1,-1,-1,-1,-1,-1,-1,-1,-1,-1,-1,-1,-1,-1,-1,-1,-1,-1,-1,-1,-1,-1,-1,-1,-1,-1,-1,-1,-1,-1,-1,-1,-1,-1,-1,-1,-1,-1,-1,-1,-1,-1,-1,-1,-1,-1,-1,-1,-1,-1,-1,-1,-1,-1,-1,-1,-1,-1,-1,-1,-1,-1,-1,-1,-1,-1,-1,-1,-1,-1,-1,-1,-1,-1,-1,-1],"loss_changes":[2.2019322E7,5.143751E6,3.954055E6,1.7477E6,1.5980788E6,1.0855924E6,1.10168E6,4.06731E5,3.1991625E5,3.1326838E5,3.175067E5,2.4355564E5,2.4396075E5,2.36189E5,2.28296E5,1.08716E5,1.95027E5,7.1684625E4,1.5390062E5,1.00672E5,1.527724E5,8.354976E4,1.5078256E5,4.4129047E4,9.5383766E4,4.0469812E4,9.191025E4,9.8041E4,3.467475E4,4.925025E4,8.3275E4,1.9192E4,9.10525E3,4.913E4,5.14355E4,9.951875E3,7.045E3,6.0158375E4,4.4358312E4,1.3897E4,1.3704375E4,3.7911844E4,5.5188004E4,1.0389375E4,8.7014E3,5.7105797E4,4.8014312E4,6.3465625E3,5.6853164E3,3.7446723E4,3.751883E4,7.570574E3,4.273297E3,3.9865562E4,3.0062E4,4.7457875E4,3.385525E4,5.007625E3,3.3585E3,7.93025E3,3.863E3,4.3253E4,2.5656E4,3.3395E3,1.990875E3,1.8965E3,2.257E3,2.170875E4,1.854025E4,6.83125E3,9.271125E3,2.958625E3,2.8960625E3,2.6550938E3,1.9984531E3,1.4801375E4,1.0846359E4,6.1542656E3,7.3140986E3,4.5574375E3,2.7218125E3,3.8498438E3,4.214297E3,1.57253125E4,1.1281094E4,1.1431602E4,6.437161E3,3.916125E3,2.9202334E3,3.2172986E3,2.9221992E3,1.128617E4,9.153172E3,9.2226875E3,6.7917812E3,1.9187969E3,1.5331055E3,2.7137354E3,1.7801952E3,8.227105E3,8.390316E3,5.1403867E3,5.5184844E3,2.0426953E3,2.2605625E3,2.9947188E3,9.115703E2,9.133156E3,7.52125E3,5.00225E3,3.757125E3,1.2139406E4,1.015175E4,6.005E3,4.0615E3,1.2445625E3,1.12875E3,9.628125E2,1.3558125E3,2.7543125E3,1.9531875E3,1.953125E3,4.820625E2,6.34525E3,6.05875E3,4.23425E3,3.16575E3,0E0,0E0,0E0,0E0,0E0,0E0,0E0,0E0,0E0,0E0,0E0,0E0,0E0,0E0,0E0,0E0,0E0,0E0,0E0,0E0,0E0,0E0,0E0,0E0,0E0,0E0,0E0,0E0,0E0,0E0,0E0,0E0,0E0,0E0,0E0,0E0,0E0,0E0,0E0,0E0,0E0,0E0,0E0,0E0,0E0,0E0,0E0,0E0,0E0,0E0,0E0,0E0,0E0,0E0,0E0,0E0,0E0,0E0,0E0,0E0,0E0,0E0,0E0,0E0,0E0,0E0,0E0,0E0,0E0,0E0,0E0,0E0,0E0,0E0,0E0,0E0,0E0,0E0,0E0,0E0,0E0,0E0,0E0,0E0,0E0,0E0,0E0,0E0,0E0,0E0,0E0,0E0,0E0,0E0,0E0,0E0,0E0,0E0,0E0,0E0,0E0,0E0,0E0,0E0,0E0,0E0,0E0,0E0,0E0,0E0,0E0,0E0,0E0,0E0,0E0,0E0,0E0,0E0,0E0,0E0,0E0,0E0,0E0,0E0,0E0,0E0,0E0,0E0],"parents":[2147483647,0,0,1,1,2,2,3,3,4,4,5,5,6,6,7,7,8,8,9,9,10,10,11,11,12,12,13,13,14,14,15,15,16,16,17,17,18,18,19,19,20,20,21,21,22,22,23,23,24,24,25,25,26,26,27,27,28,28,29,29,30,30,31,31,32,32,33,33,34,34,35,35,36,36,37,37,38,38,39,39,40,40,41,41,42,42,43,43,44,44,45,45,46,46,47,47,48,48,49,49,50,50,51,51,52,52,53,53,54,54,55,55,56,56,57,57,58,58,59,59,60,60,61,61,62,62,63,63,64,64,65,65,66,66,67,67,68,68,69,69,70,70,71,71,72,72,73,73,74,74,75,75,76,76,77,77,78,78,79,79,80,80,81,81,82,82,83,83,84,84,85,85,86,86,87,87,88,88,89,89,90,90,91,91,92,92,93,93,94,94,95,95,96,96,97,97,98,98,99,99,100,100,101,101,102,102,103,103,104,104,105,105,106,106,107,107,108,108,109,109,110,110,111,111,112,112,113,113,114,114,115,115,116,116,117,117,118,118,119,119,120,120,121,121,122,122,123,123,124,124,125,125,126,126],"right_children":[2,4,6,8,10,12,14,16,18,20,22,24,26,28,30,32,34,36,38,40,42,44,46,48,50,52,54,56,58,60,62,64,66,68,70,72,74,76,78,80,82,84,86,88,90,92,94,96,98,100,102,104,106,108,110,112,114,116,118,120,122,124,126,128,130,132,134,136,138,140,142,144,146,148,150,152,154,156,158,160,162,164,166,168,170,172,174,176,178,180,182,184,186,188,190,192,194,196,198,200,202,204,206,208,210,212,214,216,218,220,222,224,226,228,230,232,234,236,238,240,242,244,246,248,250,252,254,-1,-1,-1,-1,-1,-1,-1,-1,-1,-1,-1,-1,-1,-1,-1,-1,-1,-1,-1,-1,-1,-1,-1,-1,-1,-1,-1,-1,-1,-1,-1,-1,-1,-1,-1,-1,-1,-1,-1,-1,-1,-1,-1,-1,-1,-1,-1,-1,-1,-1,-1,-1,-1,-1,-1,-1,-1,-1,-1,-1,-1,-1,-1,-1,-1,-1,-1,-1,-1,-1,-1,-1,-1,-1,-1,-1,-1,-1,-1,-1,-1,-1,-1,-1,-1,-1,-1,-1,-1,-1,-1,-1,-1,-1,-1,-1,-1,-1,-1,-1,-1,-1,-1,-1,-1,-1,-1,-1,-1,-1,-1,-1,-1,-1,-1,-1,-1,-1,-1,-1,-1,-1,-1,-1,-1,-1,-1,-1],"split_conditions":[4.8845E0,4E0,4E0,2.9126E0,2.796E0,6.7762E0,6.8136E0,2E0,2E0,5E0,5E0,2E0,2E0,6E0,5E0,1.931E0,2.0184E0,3.9437E0,4.0001E0,1.7534E0,1.8782E0,3.8174E0,3.8455E0,5.8488E0,5.8824E0,7.8048E0,7.8406E0,6.0259E0,5.9174E0,7.9502E0,7.8782E0,1.3409E0,2.5133E0,3E0,3E0,3.4121E0,4.4945E0,3E0,3E0,1.2312E0,2.291E0,6E0,6E0,3.3026E0,4.4052E0,6E0,6E0,5.3719E0,6.337E0,3E0,3E0,7.2802E0,8.3434E0,3E0,3E0,5E0,5E0,5.4118E0,6.337E0,7.4527E0,8.4782E0,6E0,6E0,9.11E-1,8.13E0,2.076E1,9.65E0,1.3994E0,1.3726E0,2.4922E0,1.339E1,1.339E1,2.707E1,2.707E1,1.03E1,3.4949E0,3.4949E0,4.4688E0,1.615E1,1.262E1,8.91E0,1.177E1,9.35E0,1.0414E0,1.0414E0,1.323E1,2.4022E0,1.784E1,1.067E1,2.236E1,2.236E1,3.3026E0,3.3305E0,1.468E1,4.4052E0,1.03E1,2.076E1,2.055E1,2.541E1,5.4499E0,5.4118E0,6.337E0,1.405E1,2.957E1,1.227E1,1.102E1,1.726E1,7.4117E0,7.2802E0,8.3815E0,8.3434E0,5.4118E0,5.4499E0,1.487E1,1.979E1,2.023E1,3.064E1,1.075E1,1.784E1,1.13E1,1.487E1,2.386E1,9.35E0,1.177E1,1.355E1,1.262E1,8.3434E0,-2.6564968E0,-2.4479845E0,-2.1709092E0,-2.343686E0,-1.9312292E0,-2.2890184E0,-1.6832386E0,-1.8784283E0,-2.0852575E0,-1.7482647E0,-1.7110637E0,-1.3842386E0,-1.5043534E0,-1.308929E0,-9.7480166E-1,-1.3121059E0,-1.4940166E0,-1.7289934E0,-1.2776164E0,-1.7050799E0,-1.02765E0,-1.4467016E0,-7.774243E-1,-9.9581146E-1,-1.095878E0,-8.357462E-1,-7.0116484E-1,-4.5254275E-1,-6.139779E-1,-4.1828203E-1,-9.183158E-2,-4.563787E-1,-1.3033273E0,-1.5571364E0,-1.0205679E0,-1.2038869E0,-7.978551E-1,-1.0020522E0,-5.513198E-1,-7.3336387E-1,-1.0464112E0,-7.0413154E-1,-6.4897275E-1,-2.8510782E-1,-2.2721158E-1,-4.930074E-1,3.7380958E-3,2.3416619E-1,-3.5950223E-1,-5.99807E-1,-9.45236E-2,-2.8905952E-1,1.15034916E-1,-1.8362439E-1,3.5255578E-1,3.1030402E-2,8.950603E-3,2.4965301E-1,4.2087913E-1,6.7143506E-1,6.747116E-1,3.9498422E-1,9.1524094E-1,1.156648E0,-5.8708626E-1,-7.9106593E-1,-3.9160877E-1,-7.3658943E-1,-1.7254077E-1,-5.2975655E-1,3.6097046E-2,-3.265023E-1,-1.9491981E-1,4.1973483E-2,1.6363613E-1,4.301748E-1,2.359809E-1,4.3304187E-1,7.6475877E-1,3.9441857E-1,2.3737541E-1,-2.4788342E-1,5.023472E-1,2.602234E-1,7.4559945E-1,5.043327E-1,9.709482E-1,6.912531E-1,6.828629E-1,9.282007E-1,1.0393806E0,1.2879349E0,1.1429687E0,1.3720459E0,1.5291454E0,1.7473729E0,5.3826815E-1,8.152118E-1,9.5800745E-1,1.2234262E0,1.2023615E0,9.278267E-1,1.58188E0,1.2341701E0,1.413109E0,1.1170421E0,1.630678E0,9.5511115E-1,1.8757309E0,1.6810187E0,2.0667582E0,1.7867273E0,1.5302457E0,1.3383602E0,1.7619851E0,1.5484511E0,1.9738085E0,1.6473092E0,2.231659E0,2.0561864E0,2.0383818E0,1.7964516E0,2.4367442E0,2.154207E0,2.4900174E0,2.2356908E0,2.7198098E0,2.9394774E0],"split_indices":[3,11,11,3,3,3,3,11,11,11,11,11,11,11,11,3,3,3,3,3,3,3,3,3,3,3,3,3,3,3,3,3,3,11,11,3,3,11,11,3,3,11,11,3,3,11,11,3,3,11,11,3,3,11,11,11,11,3,3,3,3,11,11,3,4,4,4,3,3,3,4,4,4,4,4,3,3,3,4,4,4,4,4,3,3,4,3,4,4,4,4,3,3,4,3,4,4,4,4,3,3,3,4,4,4,4,4,3,3,3,3,3,3,4,4,4,4,4,4,4,4,4,4,4,4,4,3,0,0,0,0,0,0,0,0,0,0,0,0,0,0,0,0,0,0,0,0,0,0,0,0,0,0,0,0,0,0,0,0,0,0,0,0,0,0,0,0,0,0,0,0,0,0,0,0,0,0,0,0,0,0,0,0,0,0,0,0,0,0,0,0,0,0,0,0,0,0,0,0,0,0,0,0,0,0,0,0,0,0,0,0,0,0,0,0,0,0,0,0,0,0,0,0,0,0,0,0,0,0,0,0,0,0,0,0,0,0,0,0,0,0,0,0,0,0,0,0,0,0,0,0,0,0,0,0],"split_type":[0,0,0,0,0,0,0,0,0,0,0,0,0,0,0,0,0,0,0,0,0,0,0,0,0,0,0,0,0,0,0,0,0,0,0,0,0,0,0,0,0,0,0,0,0,0,0,0,0,0,0,0,0,0,0,0,0,0,0,0,0,0,0,0,0,0,0,0,0,0,0,0,0,0,0,0,0,0,0,0,0,0,0,0,0,0,0,0,0,0,0,0,0,0,0,0,0,0,0,0,0,0,0,0,0,0,0,0,0,0,0,0,0,0,0,0,0,0,0,0,0,0,0,0,0,0,0,0,0,0,0,0,0,0,0,0,0,0,0,0,0,0,0,0,0,0,0,0,0,0,0,0,0,0,0,0,0,0,0,0,0,0,0,0,0,0,0,0,0,0,0,0,0,0,0,0,0,0,0,0,0,0,0,0,0,0,0,0,0,0,0,0,0,0,0,0,0,0,0,0,0,0,0,0,0,0,0,0,0,0,0,0,0,0,0,0,0,0,0,0,0,0,0,0,0,0,0,0,0,0,0,0,0,0,0,0,0,0,0,0,0,0,0,0,0,0,0,0,0,0,0,0,0,0,0],"sum_hessian":[2.79444E5,1.64755E5,1.14689E5,8.659E4,7.8165E4,5.9611E4,5.5078E4,4.5165E4,4.1425E4,3.9016E4,3.9149E4,3.0571E4,2.904E4,2.7752E4,2.7326E4,1.5975E4,2.919E4,1.3169E4,2.8256E4,1.5939E4,2.3077E4,1.4034E4,2.5115E4,1.0176E4,2.0395E4,9.591E3,1.9449E4,2.0227E4,7.525E3,9.904E3,1.7422E4,8.021E3,7.954E3,1.4839E4,1.4351E4,7.085E3,6.084E3,1.6269E4,1.1987E4,6.617E3,9.322E3,1.0211E4,1.2866E4,7.639E3,6.395E3,1.3941E4,1.1174E4,5.028E3,5.148E3,1.0701E4,9.694E3,5.326E3,4.265E3,1.1219E4,8.23E3,1.2247E4,7.98E3,3.864E3,3.661E3,6.002E3,3.902E3,1.0299E4,7.123E3,3.808E3,4.213E3,4.205E3,3.749E3,7.799E3,7.04E3,7.389E3,6.962E3,3.701E3,3.384E3,3.599E3,2.485E3,9.01E3,7.259E3,6.458E3,5.529E3,3.201E3,3.416E3,4.054E3,5.268E3,6.405E3,3.806E3,8.004E3,4.862E3,4.385E3,3.254E3,3.581E3,2.814E3,7.898E3,6.043E3,6.407E3,4.767E3,2.576E3,2.452E3,2.96E3,2.188E3,5.943E3,4.758E3,5.31E3,4.384E3,2.658E3,2.668E3,3.229E3,1.036E3,6.261E3,4.958E3,4.456E3,3.774E3,6.382E3,5.865E3,4.239E3,3.741E3,2.014E3,1.85E3,1.79E3,1.871E3,3.574E3,2.428E3,2.598E3,1.304E3,5.385E3,4.914E3,3.587E3,3.536E3,1.529E3,2.279E3,3.074E3,1.139E3,4.02E3,1.85E2,2.875E3,8.74E2,3.672E3,4.127E3,3.387E3,3.653E3,3.456E3,3.933E3,6.008E3,9.54E2,2.984E3,7.17E2,3.208E3,1.76E2,3.435E3,1.64E2,1.927E3,5.58E2,5.185E3,3.825E3,4.26E3,2.999E3,3.309E3,3.149E3,4.91E3,6.19E2,2.05E3,1.151E3,1.877E3,1.539E3,2.569E3,1.485E3,3.057E3,2.211E3,1.927E3,4.478E3,1.29E3,2.516E3,5.751E3,2.253E3,2.303E3,2.559E3,3.543E3,8.42E2,1.995E3,1.259E3,3.175E3,4.06E2,2.495E3,3.19E2,4.409E3,3.489E3,3.565E3,2.478E3,4.842E3,1.565E3,2.588E3,2.179E3,1.957E3,6.19E2,2.315E3,1.37E2,2.73E3,2.3E2,2.044E3,1.44E2,3.317E3,2.626E3,2.572E3,2.186E3,2.743E3,2.567E3,3.932E3,4.52E2,2.569E3,8.9E1,2.196E3,4.72E2,2.574E3,6.55E2,8.88E2,1.48E2,3.619E3,2.642E3,2.427E3,2.531E3,2.998E3,1.458E3,2.505E3,1.269E3,2.978E3,3.404E3,3.164E3,2.701E3,3.142E3,1.097E3,3.344E3,3.97E2,1.835E3,1.79E2,1.82E3,3E1,1.331E3,4.59E2,1.61E3,2.61E2,2.347E3,1.227E3,1.744E3,6.84E2,2.358E3,2.4E2,8.04E2,5E2,3.722E3,1.663E3,3.858E3,1.056E3,2.533E3,1.054E3,2.251E3,1.285E3],"tree_param":{"num_deleted":"0","num_feature":"12","num_nodes":"255","size_leaf_vector":"1"}},{"base_weights":[1.7161283E-4,-7.052555E0,9.059611E0,-1.1839436E1,-1.7671165E0,3.972494E0,1.4596658E1,-1.588654E1,-8.164419E0,-6.1521945E0,1.6735835E0,-3.6432737E-1,7.849618E0,1.0174058E1,1.871304E1,-1.945122E1,-1.3883002E1,-1.1900694E1,-6.455518E0,-9.1437E0,-4.0492415E0,-1.7331177E0,3.619531E0,-3.9138255E0,1.4590914E0,4.160662E0,9.645999E0,8.61064E0,1.4398423E1,1.5246328E1,2.0689972E1,-2.2017855E1,-1.7605412E1,-1.6592346E1,-1.2213145E1,-1.4096223E1,-9.907267E0,-8.517837E0,-4.306564E0,-1.1802824E1,-7.5377684E0,-6.8862944E0,-2.4885373E0,-3.7841694E0,6.6562885E-1,1.5716052E0,5.959279E0,-6.002541E0,-2.1716518E0,-5.267322E-1,3.2669342E0,1.887256E0,6.1883397E0,7.2455916E0,1.1757541E1,6.614034E0,1.0527246E1,1.2259114E1,1.624691E1,1.3112026E1,1.757E1,1.8471493E1,2.2868523E1,-2.3723726E1,-2.1220606E1,-1.90326E1,-1.6622417E1,-1.8270508E1,-1.4825106E1,-1.3861461E1,-1.0425356E1,-1.503207E1,-1.3220581E1,-1.1169481E1,-8.842505E0,-1.0120534E1,-6.5721164E0,-5.8888416E0,-2.4154518E0,-1.3518314E1,-1.1006353E1,-8.77512E0,-6.6049204E0,-8.259243E0,-4.6761737E0,-3.838973E0,-4.0768255E-2,-4.7371845E0,-2.8316255E0,-6.1677694E-1,1.7733715E0,-3.7823346E-2,3.6592093E0,4.3754034E0,8.1360445E0,-6.877445E0,-5.130693E0,-3.268453E0,-1.3137197E0,-2.1014702E0,1.3689355E0,1.6940356E0,5.265378E0,9.271788E-1,3.0355499E0,5.2564287E0,7.49446E0,5.666035E0,9.145202E0,1.0162455E1,1.3721934E1,4.7738643E0,8.477465E0,8.825744E0,1.2489434E1,1.1303993E1,1.3136893E1,1.5091874E1,1.7143616E1,1.17545185E1,1.402402E1,1.6260136E1,1.8737007E1,1.6812052E1,2.034788E1,2.1104843E1,2.4621012E1,-2.328465E0,-2.547759E0,-2.080613E0,-2.251593E0,-1.8861856E0,-2.2207944E0,-1.6121464E0,-1.7483075E0,-2.0138423E0,-1.7492911E0,-1.6972306E0,-1.4091779E0,-1.5166987E0,-1.293291E0,-1.1472294E0,-9.09787E-1,-1.4840358E0,-1.953049E0,-1.2687874E0,-1.4513377E0,-1.0669787E0,-1.2714576E0,-8.36535E-1,-1.0318928E0,-1.1200854E0,-9.226716E-1,-6.1385566E-1,-9.614598E-1,-7.13155E-1,-4.8962185E-1,-3.5788587E-1,-1.3265179E-1,-1.3047265E0,-1.6266047E0,-1.0643718E0,-1.3749139E0,-8.4595853E-1,-1.1316202E0,-6.2820596E-1,-9.230496E-1,-7.584463E-1,-1.0472878E0,-6.6202635E-1,-3.7474224E-1,-3.4054384E-1,-6.8916255E-1,5.3003468E-2,-2.1258667E-1,-4.451266E-1,-6.9998354E-1,-2.5394192E-1,-5.523649E-1,-3.2466065E-2,-3.2638103E-1,2.5303885E-1,7.3718995E-2,5.9877522E-2,-2.1219258E-1,4.2335367E-1,1.255897E-1,3.140314E-1,5.525763E-1,8.6848634E-1,5.5221856E-1,-6.649367E-1,-9.84785E-1,-4.6881327E-1,-6.416208E-1,-3.0561945E-1,-6.220015E-1,-8.8016026E-2,-2.914485E-1,-3.072416E-1,-1.20371036E-1,1.757822E-1,-1.9954742E-1,7.0698574E-2,2.6771227E-1,5.693832E-1,2.4171297E-1,1.430803E-1,-5.7227977E-2,3.536547E-1,1.666427E-1,5.4348844E-1,1.05705395E-1,7.685568E-1,3.1573936E-1,4.4091353E-1,6.674098E-1,9.559517E-1,5.78927E-1,8.909362E-1,1.1535712E0,1.2470073E0,1.4914331E0,5.4597086E-1,2.850137E-1,9.213239E-1,6.659853E-1,9.5239687E-1,7.043452E-1,1.1396588E0,1.3574487E0,1.1843241E0,9.7681445E-1,1.3679032E0,1.2127372E0,1.5244452E0,1.1283894E0,1.7286987E0,1.2959712E0,1.2108771E0,8.550846E-1,1.4302601E0,1.155283E0,1.6926192E0,1.5195813E0,1.9129326E0,1.6964487E0,1.736921E0,1.4869977E0,2.0898376E0,1.8363208E0,1.9882425E0,2.2533953E0,2.3864868E0,2.6312208E0],"categories":[],"categories_nodes":[],"categories_segments":[],"categories_sizes":[],"default_left":[0,0,0,0,0,0,0,0,0,0,0,0,0,0,0,0,0,0,0,0,0,0,0,0,0,0,0,0,0,0,0,0,0,0,0,0,0,0,0,0,0,0,0,0,0,0,0,0,0,0,0,0,0,0,0,0,0,0,0,0,0,0,0,0,0,0,0,0,0,0,0,0,0,0,0,0,0,0,0,0,0,0,0,0,0,0,0,0,0,0,0,0,0,0,0,0,0,0,0,0,0,0,0,0,0,0,0,0,0,0,0,0,0,0,0,0,0,0,0,0,0,0,0,0,0,0,0,0,0,0,0,0,0,0,0,0,0,0,0,0,0,0,0,0,0,0,0,0,0,0,0,0,0,0,0,0,0,0,0,0,0,0,0,0,0,0,0,0,0,0,0,0,0,0,0,0,0,0,0,0,0,0,0,0,0,0,0,0,0,0,0,0,0,0,0,0,0,0,0,0,0,0,0,0,0,0,0,0,0,0,0,0,0,0,0,0,0,0,0,0,0,0,0,0,0,0,0,0,0,0,0,0,0,0,0,0,0,0,0,0,0,0,0,0,0,0,0,0,0,0,0,0,0,0,0],"id":5,"left_children":[1,3,5,7,9,11,13,15,17,19,21,23,25,27,29,31,33,35,37,39,41,43,45,47,49,51,53,55,57,59,61,63,65,67,69,71,73,75,77,79,81,83,85,87,89,91,93,95,97,99,101,103,105,107,109,111,113,115,117,119,121,123,125,127,129,131,133,135,137,139,141,143,145,147,149,151,153,155,157,159,161,163,165,167,169,171,173,175,177,179,181,183,185,187,189,191,193,195,197,199,201,203,205,207,209,211,213,215,217,219,221,223,225,227,229,231,233,235,237,239,241,243,245,247,249,251,253,-1,-1,-1,-1,-1,-1,-1,-1,-1,-1,-1,-1,-1,-1,-1,-1,-1,-1,-1,-1,-1,-1,-1,-1,-1,-1,-1,-1,-1,-1,-1,-1,-1,-1,-1,-1,-1,-1,-1,-1,-1,-1,-1,-1,-1,-1,-1,-1,-1,-1,-1,-1,-1,-1,-1,-1,-1,-1,-1,-1,-1,-1,-1,-1,-1,-1,-1,-1,-1,-1,-1,-1,-1,-1,-1,-1,-1,-1,-1,-1,-1,-1,-1,-1,-1,-1,-1,-1,-1,-1,-1,-1,-1,-1,-1,-1,-1,-1,-1,-1,-1,-1,-1,-1,-1,-1,-1,-1,-1,-1,-1,-1,-1,-1,-1,-1,-1,-1,-1,-1,-1,-1,-1,-1,-1,-1,-1,-1],"loss_changes":[1.7854852E7,3.975362E6,3.445432E6,1.226179E6,1.1266872E6,1.071954E6,1.066083E6,2.79966E5,2.7584125E5,2.06509E5,2.774011E5,1.9477428E5,2.2301712E5,1.8636575E5,2.07577E5,6.64875E4,1.134595E5,5.9211625E4,1.3138475E5,5.7783125E4,8.535528E4,7.484978E4,1.2760131E5,3.7151094E4,7.137566E4,5.081064E4,1.146465E5,7.88065E4,2.9957625E4,5.44225E4,9.29285E4,7.522E3,1.121E4,2.8132E4,4.567E4,5.087625E3,9.458125E3,4.7118E4,4.344547E4,6.8209375E3,9.697875E3,2.0722625E4,4.1120945E4,7.4313594E3,9.96359E3,4.772008E4,4.2819656E4,3.5070938E3,5.2369688E3,2.8287459E4,3.2703906E4,5.728828E3,7.0531562E3,3.1741938E4,3.758975E4,3.4585875E4,3.4995875E4,2.8185625E3,3.97525E3,6.9514375E3,7.75575E3,2.947225E4,2.9588E4,8.47625E2,1.69575E3,1.394125E3,1.819125E3,6.7765E3,7.11425E3,9.606E3,1.02661875E4,2.393125E3,2.11675E3,2.3735938E3,2.634375E3,7.9063125E3,8.9596875E3,9.718656E3,8.379418E3,1.8755312E3,3.3239062E3,2.8148125E3,4.0304375E3,6.2225312E3,4.7130195E3,1.0586469E4,5.2664834E3,2.6199844E3,3.214289E3,2.5127485E3,2.9498594E3,1.0643025E4,8.529008E3,1.0208125E4,7.4604062E3,1.5029062E3,1.2955E3,1.5121406E3,2.1676567E3,4.5080957E3,5.629514E3,5.6504297E3,5.5790703E3,2.1401965E3,1.6176934E3,2.545211E3,1.984875E3,7.3041562E3,6.6311562E3,1.13389375E4,7.86425E3,6.6908438E3,6.6468125E3,6.9453125E3,5.6331875E3,1.2939219E3,8.4003125E2,8.709375E2,1.152E3,2.5249062E3,2.1981875E3,1.509375E3,1.6100625E3,5.246125E3,4.520625E3,8.04575E3,5.6125E3,0E0,0E0,0E0,0E0,0E0,0E0,0E0,0E0,0E0,0E0,0E0,0E0,0E0,0E0,0E0,0E0,0E0,0E0,0E0,0E0,0E0,0E0,0E0,0E0,0E0,0E0,0E0,0E0,0E0,0E0,0E0,0E0,0E0,0E0,0E0,0E0,0E0,0E0,0E0,0E0,0E0,0E0,0E0,0E0,0E0,0E0,0E0,0E0,0E0,0E0,0E0,0E0,0E0,0E0,0E0,0E0,0E0,0E0,0E0,0E0,0E0,0E0,0E0,0E0,0E0,0E0,0E0,0E0,0E0,0E0,0E0,0E0,0E0,0E0,0E0,0E0,0E0,0E0,0E0,0E0,0E0,0E0,0E0,0E0,0E0,0E0,0E0,0E0,0E0,0E0,0E0,0E0,0E0,0E0,0E0,0E0,0E0,0E0,0E0,0E0,0E0,0E0,0E0,0E0,0E0,0E0,0E0,0E0,0E0,0E0,0E0,0E0,0E0,0E0,0E0,0E0,0E0,0E0,0E0,0E0,0E0,0E0,0E0,0E0,0E0,0E0,0E0,0E0],"parents":[2147483647,0,0,1,1,2,2,3,3,4,4,5,5,6,6,7,7,8,8,9,9,10,10,11,11,12,12,13,13,14,14,15,15,16,16,17,17,18,18,19,19,20,20,21,21,22,22,23,23,24,24,25,25,26,26,27,27,28,28,29,29,30,30,31,31,32,32,33,33,34,34,35,35,36,36,37,37,38,38,39,39,40,40,41,41,42,42,43,43,44,44,45,45,46,46,47,47,48,48,49,49,50,50,51,51,52,52,53,53,54,54,55,55,56,56,57,57,58,58,59,59,60,60,61,61,62,62,63,63,64,64,65,65,66,66,67,67,68,68,69,69,70,70,71,71,72,72,73,73,74,74,75,75,76,76,77,77,78,78,79,79,80,80,81,81,82,82,83,83,84,84,85,85,86,86,87,87,88,88,89,89,90,90,91,91,92,92,93,93,94,94,95,95,96,96,97,97,98,98,99,99,100,100,101,101,102,102,103,103,104,104,105,105,106,106,107,107,108,108,109,109,110,110,111,111,112,112,113,113,114,114,115,115,116,116,117,117,118,118,119,119,120,120,121,121,122,122,123,123,124,124,125,125,126,126],"right_children":[2,4,6,8,10,12,14,16,18,20,22,24,26,28,30,32,34,36,38,40,42,44,46,48,50,52,54,56,58,60,62,64,66,68,70,72,74,76,78,80,82,84,86,88,90,92,94,96,98,100,102,104,106,108,110,112,114,116,118,120,122,124,126,128,130,132,134,136,138,140,142,144,146,148,150,152,154,156,158,160,162,164,166,168,170,172,174,176,178,180,182,184,186,188,190,192,194,196,198,200,202,204,206,208,210,212,214,216,218,220,222,224,226,228,230,232,234,236,238,240,242,244,246,248,250,252,254,-1,-1,-1,-1,-1,-1,-1,-1,-1,-1,-1,-1,-1,-1,-1,-1,-1,-1,-1,-1,-1,-1,-1,-1,-1,-1,-1,-1,-1,-1,-1,-1,-1,-1,-1,-1,-1,-1,-1,-1,-1,-1,-1,-1,-1,-1,-1,-1,-1,-1,-1,-1,-1,-1,-1,-1,-1,-1,-1,-1,-1,-1,-1,-1,-1,-1,-1,-1,-1,-1,-1,-1,-1,-1,-1,-1,-1,-1,-1,-1,-1,-1,-1,-1,-1,-1,-1,-1,-1,-1,-1,-1,-1,-1,-1,-1,-1,-1,-1,-1,-1,-1,-1,-1,-1,-1,-1,-1,-1,-1,-1,-1,-1,-1,-1,-1,-1,-1,-1,-1,-1,-1,-1,-1,-1,-1,-1,-1],"split_conditions":[4.6574E0,4E0,4E0,2.6918E0,2.5776E0,6.4829E0,6.5873E0,2E0,2E0,5E0,5E0,2E0,2E0,6E0,5E0,1.6308E0,1.5936E0,3.552E0,3.6187E0,1.5384E0,1.5029E0,3.5234E0,3.5234E0,5.485E0,5.5246E0,7.5206E0,7.4861E0,5.5589E0,5.5589E0,7.6318E0,7.5984E0,1.0075E0,2.1062E0,3E0,3E0,3.0511E0,4.0637E0,3E0,3E0,9.562E-1,2.0474E0,6E0,6E0,2.97E0,4.0637E0,6E0,6E0,5.0527E0,5.9554E0,3E0,3E0,7.0378E0,8.0837E0,3E0,3E0,5E0,5E0,5.0856E0,6.0259E0,7.069E0,8.1514E0,6E0,6E0,1.041E1,9.03E0,2.076E1,6.55E0,9.562E-1,9.11E-1,2.1062E0,2.291E0,2.957E1,8.13E0,9.65E0,9.03E0,3.0511E0,1.405E1,4.0882E0,4.1453E0,2.236E1,2.236E1,2.386E1,2.541E1,1.509E1,8.568E-1,1.979E1,1.339E1,2.154E1,2.541E1,2.541E1,9.92E0,1.437E1,1.487E1,4.0882E0,1.548E1,2.076E1,9.03E0,2.076E1,1.041E1,5.0527E0,1.815E1,5.987E0,1.213E1,9.65E0,9.03E0,2.864E1,2.957E1,6.9262E0,1.615E1,8.0837E0,8.0141E0,1.437E1,1.282E1,1.339E1,6.0962E0,1.075E1,7.51E0,2.386E1,2.386E1,2.541E1,2.236E1,1.041E1,1.784E1,1.468E1,1.339E1,8.184E0,8.3045E0,-2.328465E0,-2.547759E0,-2.080613E0,-2.251593E0,-1.8861856E0,-2.2207944E0,-1.6121464E0,-1.7483075E0,-2.0138423E0,-1.7492911E0,-1.6972306E0,-1.4091779E0,-1.5166987E0,-1.293291E0,-1.1472294E0,-9.09787E-1,-1.4840358E0,-1.953049E0,-1.2687874E0,-1.4513377E0,-1.0669787E0,-1.2714576E0,-8.36535E-1,-1.0318928E0,-1.1200854E0,-9.226716E-1,-6.1385566E-1,-9.614598E-1,-7.13155E-1,-4.8962185E-1,-3.5788587E-1,-1.3265179E-1,-1.3047265E0,-1.6266047E0,-1.0643718E0,-1.3749139E0,-8.4595853E-1,-1.1316202E0,-6.2820596E-1,-9.230496E-1,-7.584463E-1,-1.0472878E0,-6.6202635E-1,-3.7474224E-1,-3.4054384E-1,-6.8916255E-1,5.3003468E-2,-2.1258667E-1,-4.451266E-1,-6.9998354E-1,-2.5394192E-1,-5.523649E-1,-3.2466065E-2,-3.2638103E-1,2.5303885E-1,7.3718995E-2,5.9877522E-2,-2.1219258E-1,4.2335367E-1,1.255897E-1,3.140314E-1,5.525763E-1,8.6848634E-1,5.5221856E-1,-6.649367E-1,-9.84785E-1,-4.6881327E-1,-6.416208E-1,-3.0561945E-1,-6.220015E-1,-8.8016026E-2,-2.914485E-1,-3.072416E-1,-1.20371036E-1,1.757822E-1,-1.9954742E-1,7.0698574E-2,2.6771227E-1,5.693832E-1,2.4171297E-1,1.430803E-1,-5.7227977E-2,3.536547E-1,1.666427E-1,5.4348844E-1,1.05705395E-1,7.685568E-1,3.1573936E-1,4.4091353E-1,6.674098E-1,9.559517E-1,5.78927E-1,8.909362E-1,1.1535712E0,1.2470073E0,1.4914331E0,5.4597086E-1,2.850137E-1,9.213239E-1,6.659853E-1,9.5239687E-1,7.043452E-1,1.1396588E0,1.3574487E0,1.1843241E0,9.7681445E-1,1.3679032E0,1.2127372E0,1.5244452E0,1.1283894E0,1.7286987E0,1.2959712E0,1.2108771E0,8.550846E-1,1.4302601E0,1.155283E0,1.6926192E0,1.5195813E0,1.9129326E0,1.6964487E0,1.736921E0,1.4869977E0,2.0898376E0,1.8363208E0,1.9882425E0,2.2533953E0,2.3864868E0,2.6312208E0],"split_indices":[3,11,11,3,3,3,3,11,11,11,11,11,11,11,11,3,3,3,3,3,3,3,3,3,3,3,3,3,3,3,3,3,3,11,11,3,3,11,11,3,3,11,11,3,3,11,11,3,3,11,11,3,3,11,11,11,11,3,3,3,3,11,11,4,4,4,4,3,3,3,3,4,4,4,4,3,4,3,3,4,4,4,4,4,3,4,4,4,4,4,4,4,4,3,4,4,4,4,4,3,4,3,4,4,4,4,4,3,4,3,3,4,4,4,3,4,4,4,4,4,4,4,4,4,4,3,3,0,0,0,0,0,0,0,0,0,0,0,0,0,0,0,0,0,0,0,0,0,0,0,0,0,0,0,0,0,0,0,0,0,0,0,0,0,0,0,0,0,0,0,0,0,0,0,0,0,0,0,0,0,0,0,0,0,0,0,0,0,0,0,0,0,0,0,0,0,0,0,0,0,0,0,0,0,0,0,0,0,0,0,0,0,0,0,0,0,0,0,0,0,0,0,0,0,0,0,0,0,0,0,0,0,0,0,0,0,0,0,0,0,0,0,0,0,0,0,0,0,0,0,0,0,0,0,0],"split_type":[0,0,0,0,0,0,0,0,0,0,0,0,0,0,0,0,0,0,0,0,0,0,0,0,0,0,0,0,0,0,0,0,0,0,0,0,0,0,0,0,0,0,0,0,0,0,0,0,0,0,0,0,0,0,0,0,0,0,0,0,0,0,0,0,0,0,0,0,0,0,0,0,0,0,0,0,0,0,0,0,0,0,0,0,0,0,0,0,0,0,0,0,0,0,0,0,0,0,0,0,0,0,0,0,0,0,0,0,0,0,0,0,0,0,0,0,0,0,0,0,0,0,0,0,0,0,0,0,0,0,0,0,0,0,0,0,0,0,0,0,0,0,0,0,0,0,0,0,0,0,0,0,0,0,0,0,0,0,0,0,0,0,0,0,0,0,0,0,0,0,0,0,0,0,0,0,0,0,0,0,0,0,0,0,0,0,0,0,0,0,0,0,0,0,0,0,0,0,0,0,0,0,0,0,0,0,0,0,0,0,0,0,0,0,0,0,0,0,0,0,0,0,0,0,0,0,0,0,0,0,0,0,0,0,0,0,0,0,0,0,0,0,0,0,0,0,0,0,0,0,0,0,0,0,0],"sum_hessian":[2.79444E5,1.57124E5,1.2232E5,8.245E4,7.4674E4,6.3751E4,5.8569E4,3.9237E4,4.3213E4,3.2831E4,4.1843E4,3.0092E4,3.3659E4,2.8236E4,3.0333E4,1.4115E4,2.5122E4,1.356E4,2.9653E4,1.3551E4,1.928E4,1.5212E4,2.6631E4,1.0212E4,1.988E4,1.1024E4,2.2635E4,2.0611E4,7.625E3,1.1019E4,1.9314E4,5.9E3,8.215E3,9.576E3,1.5546E4,6.45E3,7.11E3,1.513E4,1.4523E4,5.1E3,8.451E3,6.841E3,1.2439E4,8.2E3,7.012E3,1.4202E4,1.2429E4,4.643E3,5.569E3,9.474E3,1.0406E4,5.198E3,5.826E3,1.0595E4,1.204E4,1.0097E4,1.0514E4,3.538E3,4.087E3,5.747E3,5.272E3,9.574E3,9.74E3,1.87E3,4.03E3,3.343E3,4.872E3,4.907E3,4.669E3,8.085E3,7.461E3,3.11E3,3.34E3,3.249E3,3.861E3,8.294E3,6.836E3,7.906E3,6.617E3,1.612E3,3.488E3,3.629E3,4.822E3,4.218E3,2.623E3,8.016E3,4.423E3,4.097E3,4.103E3,3.25E3,3.762E3,8.02E3,6.182E3,7.196E3,5.233E3,2.314E3,2.329E3,2.443E3,3.126E3,5.175E3,4.299E3,5.824E3,4.582E3,2.832E3,2.366E3,3.403E3,2.423E3,5.787E3,4.808E3,6.648E3,5.392E3,5.082E3,5.015E3,5.634E3,4.88E3,1.701E3,1.837E3,1.794E3,2.293E3,2.315E3,3.432E3,2.491E3,2.781E3,5.086E3,4.488E3,4.861E3,4.879E3,1.507E3,3.63E2,3.066E3,9.64E2,3.179E3,1.64E2,3.092E3,1.78E3,1.435E3,3.472E3,1.183E3,3.486E3,3.354E3,4.731E3,4.167E3,3.294E3,2.987E3,1.23E2,2.373E3,9.67E2,2.461E3,7.88E2,2.923E3,9.38E2,3.75E3,4.544E3,5.986E3,8.5E2,3.508E3,4.398E3,3.198E3,3.419E3,1.381E3,2.31E2,3.085E3,4.03E2,3.232E3,3.97E2,4.297E3,5.25E2,3.236E3,9.82E2,8.46E2,1.777E3,7.021E3,9.95E2,3.473E3,9.5E2,3.64E3,4.57E2,3.703E3,4E2,2.928E3,3.22E2,2.173E3,1.589E3,6.144E3,1.876E3,4.989E3,1.193E3,3.472E3,3.724E3,4.323E3,9.1E2,2.152E3,1.62E2,1.736E3,5.93E2,2.281E3,1.62E2,2.461E3,6.65E2,2.485E3,2.69E3,3.854E3,4.45E2,2.907E3,2.917E3,3.982E3,6E2,2.12E3,7.12E2,1.731E3,6.35E2,3.264E3,1.39E2,2.32E3,1.03E2,2.578E3,3.209E3,4.278E3,5.3E2,3.48E3,3.168E3,2.636E3,2.756E3,3.745E3,1.337E3,3.567E3,1.448E3,4.045E3,1.589E3,2.437E3,2.443E3,1.254E3,4.47E2,1.187E3,6.5E2,1.722E3,7.2E1,2.214E3,7.9E1,2.082E3,2.33E2,3.08E3,3.52E2,1.523E3,9.68E2,2.269E3,5.12E2,3.946E3,1.14E3,3.506E3,9.82E2,2.628E3,2.233E3,3.382E3,1.497E3],"tree_param":{"num_deleted":"0","num_feature":"12","num_nodes":"255","size_leaf_vector":"1"}},{"base_weights":[1.363194E-4,-5.954967E0,8.694579E0,-1.0251386E1,-1.195041E0,4.1152287E0,1.3649011E1,-1.3662727E1,-6.2889547E0,-4.727199E0,2.67596E0,7.370531E-1,7.6041193E0,1.0219738E1,1.7429525E1,-1.6954784E1,-1.1868197E1,-9.596537E0,-4.754744E0,-7.510153E0,-2.822178E0,-4.1037047E-1,4.401072E0,-2.509205E0,2.3659153E0,4.2570434E0,9.254379E0,8.76952E0,1.40403E1,1.4311165E1,1.9202957E1,-1.9140154E1,-1.4795237E1,-1.4114296E1,-9.822326E0,-1.14647E1,-7.7790747E0,-6.5297065E0,-2.8322244E0,-9.805872E0,-5.5839825E0,-5.1674566E0,-7.728111E-1,-2.110891E0,1.7594079E0,2.7537336E0,6.638446E0,-4.3454456E0,-1.0096089E0,8.4993917E-1,4.312627E0,2.703987E0,6.0767713E0,7.598427E0,1.1151016E1,7.1713877E0,1.0881136E1,1.219238E1,1.5749978E1,1.2900569E1,1.644889E1,1.7731083E1,2.114589E1,-2.0466188E1,-1.7836998E1,-1.5775912E1,-1.3946104E1,-1.552764E1,-1.2559107E1,-1.1290426E1,-8.232167E0,-1.2213444E1,-1.0479468E1,-8.718543E0,-6.810414E0,-7.9569106E0,-4.7701454E0,-4.2679386E0,-1.140012E0,-1.1054498E1,-8.426859E0,-6.4914804E0,-4.6293907E0,-6.378204E0,-3.1250112E0,-2.1157098E0,1.3643425E0,-2.9248214E0,-9.340026E-1,2.520889E0,7.686798E-1,1.3118014E0,4.615904E0,5.1870575E0,8.685272E0,-5.2602386E0,-3.618216E0,-1.9308103E0,-8.9709505E-2,-4.9817047E-1,2.5443878E0,2.854672E0,6.0699854E0,1.6868018E0,3.5702653E0,5.7474055E0,8.415417E0,6.225204E0,9.331401E0,9.719063E0,1.2848769E1,5.619269E0,8.87298E0,9.343394E0,1.261061E1,1.1387814E1,1.3252376E1,1.4930319E1,1.6666452E1,1.2203312E1,1.4017816E1,1.5990842E1,1.8148853E1,1.6138334E1,1.9473768E1,1.959198E1,2.2716225E1,-2.213581E0,-2.0000172E0,-1.7657406E0,-2.0487347E0,-1.5447534E0,-1.69489E0,-1.370196E0,-1.6399707E0,-1.7095766E0,-1.433711E0,-1.4123814E0,-1.1451747E0,-1.2382975E0,-1.0570399E0,-7.7283746E-1,-1.0353158E0,-1.2041253E0,-1.5610462E0,-1.0296909E0,-1.4769791E0,-8.382843E-1,-1.0366045E0,-6.649742E-1,-1.094378E0,-8.912118E-1,-7.04663E-1,-4.3314123E-1,-7.755845E-1,-5.156223E-1,-3.3841568E-1,-2.231253E-1,-1.353512E-2,-1.0095943E0,-1.2115577E0,-7.992956E-1,-9.92416E-1,-5.696912E-1,-7.3754764E-1,-3.9386398E-1,-5.4540145E-1,-8.7916297E-1,-5.622616E-1,-4.6437332E-1,-1.6610661E-1,-1.2928109E-1,-3.3865285E-1,1.7728987E-1,-1.124593E-1,-2.2060123E-1,-3.8845885E-1,-1.6944831E-2,-1.8384792E-1,1.749535E-1,3.5272306E-1,1.0167333E-1,-2.5531563E-1,2.0835637E-1,-1.3982172E-2,5.243256E-1,2.677394E-1,5.6288E-1,2.652509E-1,9.249169E-1,6.898824E-1,-5.1112044E-1,-9.5341474E-1,-3.1932387E-1,-4.641912E-1,-1.7753561E-1,-6.08659E-1,7.942592E-3,-4.2467913E-1,-1.4845803E-1,4.702749E-2,2.9942095E-1,-1.9399427E-2,3.0297288E-1,-1.0281288E-1,6.327737E-1,2.7827185E-1,1.8843624E-1,-1.3754389E-1,3.7146667E-1,-6.650723E-2,6.2245125E-1,4.232529E-1,8.948963E-1,6.996908E-1,5.251233E-1,7.148923E-1,9.729868E-1,6.267165E-1,8.885748E-1,1.0860581E0,1.3232439E0,1.027459E0,6.519876E-1,4.3272862E-1,9.743641E-1,7.36662E-1,9.823079E-1,7.303553E-1,1.3327371E0,1.1281962E0,1.1524258E0,7.4947375E-1,1.3737047E0,1.193709E0,1.5451554E0,1.3888103E0,1.6789112E0,9.970337E-1,1.2884843E0,1.1278682E0,1.4428843E0,1.2302371E0,1.6627978E0,1.4914899E0,1.8773842E0,1.7269375E0,1.6848996E0,1.4822748E0,2.0086608E0,1.7817411E0,2.0379508E0,1.819362E0,2.316921E0,2.0482633E0],"categories":[],"categories_nodes":[],"categories_segments":[],"categories_sizes":[],"default_left":[0,0,0,0,0,0,0,0,0,0,0,0,0,0,0,0,0,0,0,0,0,0,0,0,0,0,0,0,0,0,0,0,0,0,0,0,0,0,0,0,0,0,0,0,0,0,0,0,0,0,0,0,0,0,0,0,0,0,0,0,0,0,0,0,0,0,0,0,0,0,0,0,0,0,0,0,0,0,0,0,0,0,0,0,0,0,0,0,0,0,0,0,0,0,0,0,0,0,0,0,0,0,0,0,0,0,0,0,0,0,0,0,0,0,0,0,0,0,0,0,0,0,0,0,0,0,0,0,0,0,0,0,0,0,0,0,0,0,0,0,0,0,0,0,0,0,0,0,0,0,0,0,0,0,0,0,0,0,0,0,0,0,0,0,0,0,0,0,0,0,0,0,0,0,0,0,0,0,0,0,0,0,0,0,0,0,0,0,0,0,0,0,0,0,0,0,0,0,0,0,0,0,0,0,0,0,0,0,0,0,0,0,0,0,0,0,0,0,0,0,0,0,0,0,0,0,0,0,0,0,0,0,0,0,0,0,0,0,0,0,0,0,0,0,0,0,0,0,0,0,0,0,0,0,0],"id":6,"left_children":[1,3,5,7,9,11,13,15,17,19,21,23,25,27,29,31,33,35,37,39,41,43,45,47,49,51,53,55,57,59,61,63,65,67,69,71,73,75,77,79,81,83,85,87,89,91,93,95,97,99,101,103,105,107,109,111,113,115,117,119,121,123,125,127,129,131,133,135,137,139,141,143,145,147,149,151,153,155,157,159,161,163,165,167,169,171,173,175,177,179,181,183,185,187,189,191,193,195,197,199,201,203,205,207,209,211,213,215,217,219,221,223,225,227,229,231,233,235,237,239,241,243,245,247,249,251,253,-1,-1,-1,-1,-1,-1,-1,-1,-1,-1,-1,-1,-1,-1,-1,-1,-1,-1,-1,-1,-1,-1,-1,-1,-1,-1,-1,-1,-1,-1,-1,-1,-1,-1,-1,-1,-1,-1,-1,-1,-1,-1,-1,-1,-1,-1,-1,-1,-1,-1,-1,-1,-1,-1,-1,-1,-1,-1,-1,-1,-1,-1,-1,-1,-1,-1,-1,-1,-1,-1,-1,-1,-1,-1,-1,-1,-1,-1,-1,-1,-1,-1,-1,-1,-1,-1,-1,-1,-1,-1,-1,-1,-1,-1,-1,-1,-1,-1,-1,-1,-1,-1,-1,-1,-1,-1,-1,-1,-1,-1,-1,-1,-1,-1,-1,-1,-1,-1,-1,-1,-1,-1,-1,-1,-1,-1,-1,-1],"loss_changes":[1.446868E7,3.3917265E6,2.577219E6,1.178195E6,1.0758306E6,6.9577406E5,7.07199E5,2.76521E5,2.04605E5,2.1809669E5,1.9988006E5,1.5860544E5,1.6036988E5,1.5841125E5,1.43239E5,7.76955E4,1.39184E5,4.329625E4,9.3999875E4,7.3871375E4,1.1739078E5,4.9671473E4,8.873734E4,2.7592395E4,5.8940016E4,2.7091906E4,6.1002625E4,6.9922125E4,2.4675125E4,2.8169375E4,4.6926E4,1.382025E4,6.704125E3,3.15665E4,3.695575E4,4.5186875E3,5.8375938E3,3.593575E4,3.2133023E4,1.30378125E4,7.847125E3,2.8146219E4,3.7415957E4,7.226578E3,4.460461E3,3.723929E4,3.0289156E4,2.9779766E3,4.675849E3,2.5653982E4,2.2386094E4,4.5557734E3,3.3531406E3,2.4660438E4,2.1910625E4,3.114125E4,2.3642125E4,3.07875E3,2.8198125E3,4.24975E3,2.6204375E3,2.582425E4,1.69385E4,2.71775E3,1.612625E3,1.2215E3,2.45E3,1.3879875E4,1.1767875E4,6.35825E3,8.0643438E3,1.902E3,1.9838125E3,1.7304844E3,2.0490781E3,6.81325E3,8.373516E3,5.6003594E3,6.6576914E3,3.9450625E3,2.2777344E3,3.2304375E3,2.5047344E3,1.2988969E4,9.42141E3,8.367941E3,5.117866E3,3.0690273E3,2.134415E3,2.5895957E3,2.1219055E3,8.759976E3,7.3471953E3,6.6770312E3,4.2024375E3,1.2207305E3,1.0784492E3,1.7703096E3,1.9423265E3,5.976E3,6.1299395E3,3.2528125E3,3.3410781E3,1.4442549E3,1.7118555E3,2.7736172E3,3.4834375E2,5.1787812E3,5.5434062E3,4.5845312E3,3.9568125E3,7.1614688E3,7.31475E3,4.5594062E3,3.85125E3,1.061E3,8.7384375E2,9.6209375E2,1.4095625E3,2.0615312E3,1.355375E3,1.7763125E3,1.07796875E2,4.355625E3,4.20175E3,3.5805E3,3.104E3,0E0,0E0,0E0,0E0,0E0,0E0,0E0,0E0,0E0,0E0,0E0,0E0,0E0,0E0,0E0,0E0,0E0,0E0,0E0,0E0,0E0,0E0,0E0,0E0,0E0,0E0,0E0,0E0,0E0,0E0,0E0,0E0,0E0,0E0,0E0,0E0,0E0,0E0,0E0,0E0,0E0,0E0,0E0,0E0,0E0,0E0,0E0,0E0,0E0,0E0,0E0,0E0,0E0,0E0,0E0,0E0,0E0,0E0,0E0,0E0,0E0,0E0,0E0,0E0,0E0,0E0,0E0,0E0,0E0,0E0,0E0,0E0,0E0,0E0,0E0,0E0,0E0,0E0,0E0,0E0,0E0,0E0,0E0,0E0,0E0,0E0,0E0,0E0,0E0,0E0,0E0,0E0,0E0,0E0,0E0,0E0,0E0,0E0,0E0,0E0,0E0,0E0,0E0,0E0,0E0,0E0,0E0,0E0,0E0,0E0,0E0,0E0,0E0,0E0,0E0,0E0,0E0,0E0,0E0,0E0,0E0,0E0,0E0,0E0,0E0,0E0,0E0,0E0],"parents":[2147483647,0,0,1,1,2,2,3,3,4,4,5,5,6,6,7,7,8,8,9,9,10,10,11,11,12,12,13,13,14,14,15,15,16,16,17,17,18,18,19,19,20,20,21,21,22,22,23,23,24,24,25,25,26,26,27,27,28,28,29,29,30,30,31,31,32,32,33,33,34,34,35,35,36,36,37,37,38,38,39,39,40,40,41,41,42,42,43,43,44,44,45,45,46,46,47,47,48,48,49,49,50,50,51,51,52,52,53,53,54,54,55,55,56,56,57,57,58,58,59,59,60,60,61,61,62,62,63,63,64,64,65,65,66,66,67,67,68,68,69,69,70,70,71,71,72,72,73,73,74,74,75,75,76,76,77,77,78,78,79,79,80,80,81,81,82,82,83,83,84,84,85,85,86,86,87,87,88,88,89,89,90,90,91,91,92,92,93,93,94,94,95,95,96,96,97,97,98,98,99,99,100,100,101,101,102,102,103,103,104,104,105,105,106,106,107,107,108,108,109,109,110,110,111,111,112,112,113,113,114,114,115,115,116,116,117,117,118,118,119,119,120,120,121,121,122,122,123,123,124,124,125,125,126,126],"right_children":[2,4,6,8,10,12,14,16,18,20,22,24,26,28,30,32,34,36,38,40,42,44,46,48,50,52,54,56,58,60,62,64,66,68,70,72,74,76,78,80,82,84,86,88,90,92,94,96,98,100,102,104,106,108,110,112,114,116,118,120,122,124,126,128,130,132,134,136,138,140,142,144,146,148,150,152,154,156,158,160,162,164,166,168,170,172,174,176,178,180,182,184,186,188,190,192,194,196,198,200,202,204,206,208,210,212,214,216,218,220,222,224,226,228,230,232,234,236,238,240,242,244,246,248,250,252,254,-1,-1,-1,-1,-1,-1,-1,-1,-1,-1,-1,-1,-1,-1,-1,-1,-1,-1,-1,-1,-1,-1,-1,-1,-1,-1,-1,-1,-1,-1,-1,-1,-1,-1,-1,-1,-1,-1,-1,-1,-1,-1,-1,-1,-1,-1,-1,-1,-1,-1,-1,-1,-1,-1,-1,-1,-1,-1,-1,-1,-1,-1,-1,-1,-1,-1,-1,-1,-1,-1,-1,-1,-1,-1,-1,-1,-1,-1,-1,-1,-1,-1,-1,-1,-1,-1,-1,-1,-1,-1,-1,-1,-1,-1,-1,-1,-1,-1,-1,-1,-1,-1,-1,-1,-1,-1,-1,-1,-1,-1,-1,-1,-1,-1,-1,-1,-1,-1,-1,-1,-1,-1,-1,-1,-1,-1,-1,-1],"split_conditions":[4.9219E0,4E0,4E0,2.97E0,2.8747E0,6.7762E0,6.9262E0,2E0,2E0,5E0,5E0,2E0,2E0,6E0,5E0,1.9654E0,1.9922E0,3.9156E0,3.9437E0,1.9061E0,1.9922E0,3.9437E0,3.9744E0,5.7804E0,5.9554E0,7.7669E0,7.7669E0,6.0259E0,5.9174E0,7.9798E0,7.8782E0,1.3726E0,2.4922E0,3E0,3E0,3.4694E0,4.4052E0,3E0,3E0,1.3726E0,2.4487E0,6E0,6E0,3.4428E0,9.24E0,6E0,6E0,5.2997E0,6.2386E0,3E0,3E0,7.2089E0,8.4782E0,3E0,3E0,5E0,5E0,5.485E0,6.4454E0,7.5206E0,8.5922E0,6E0,6E0,7.495E-1,2.023E1,1.041E1,1.937E1,1.3409E0,1.2667E0,2.4487E0,1.13E1,2.707E1,2.957E1,1.243E1,2.957E1,3.4121E0,1.405E1,4.4362E0,4.4052E0,9.35E0,1.757E1,8.91E0,8.36E0,1.0075E0,1.3046E0,9.84E0,1.784E1,8.65E0,8.65E0,4.4945E0,3.255E1,1.102E1,1.227E1,1.757E1,1.213E1,2.957E1,7.42E0,2.957E1,2.957E1,5.4499E0,1.355E1,1.633E1,1.937E1,2.541E1,2.957E1,9.03E0,9.65E0,7.2802E0,1.405E1,8.2603E0,1.13E1,9.35E0,9.92E0,1.824E1,1.041E1,2.386E1,1.075E1,7.99E0,3.064E1,8.45E0,1.912E1,9.24E0,8.91E0,1.041E1,1.075E1,9.84E0,1.615E1,-2.213581E0,-2.0000172E0,-1.7657406E0,-2.0487347E0,-1.5447534E0,-1.69489E0,-1.370196E0,-1.6399707E0,-1.7095766E0,-1.433711E0,-1.4123814E0,-1.1451747E0,-1.2382975E0,-1.0570399E0,-7.7283746E-1,-1.0353158E0,-1.2041253E0,-1.5610462E0,-1.0296909E0,-1.4769791E0,-8.382843E-1,-1.0366045E0,-6.649742E-1,-1.094378E0,-8.912118E-1,-7.04663E-1,-4.3314123E-1,-7.755845E-1,-5.156223E-1,-3.3841568E-1,-2.231253E-1,-1.353512E-2,-1.0095943E0,-1.2115577E0,-7.992956E-1,-9.92416E-1,-5.696912E-1,-7.3754764E-1,-3.9386398E-1,-5.4540145E-1,-8.7916297E-1,-5.622616E-1,-4.6437332E-1,-1.6610661E-1,-1.2928109E-1,-3.3865285E-1,1.7728987E-1,-1.124593E-1,-2.2060123E-1,-3.8845885E-1,-1.6944831E-2,-1.8384792E-1,1.749535E-1,3.5272306E-1,1.0167333E-1,-2.5531563E-1,2.0835637E-1,-1.3982172E-2,5.243256E-1,2.677394E-1,5.6288E-1,2.652509E-1,9.249169E-1,6.898824E-1,-5.1112044E-1,-9.5341474E-1,-3.1932387E-1,-4.641912E-1,-1.7753561E-1,-6.08659E-1,7.942592E-3,-4.2467913E-1,-1.4845803E-1,4.702749E-2,2.9942095E-1,-1.9399427E-2,3.0297288E-1,-1.0281288E-1,6.327737E-1,2.7827185E-1,1.8843624E-1,-1.3754389E-1,3.7146667E-1,-6.650723E-2,6.2245125E-1,4.232529E-1,8.948963E-1,6.996908E-1,5.251233E-1,7.148923E-1,9.729868E-1,6.267165E-1,8.885748E-1,1.0860581E0,1.3232439E0,1.027459E0,6.519876E-1,4.3272862E-1,9.743641E-1,7.36662E-1,9.823079E-1,7.303553E-1,1.3327371E0,1.1281962E0,1.1524258E0,7.4947375E-1,1.3737047E0,1.193709E0,1.5451554E0,1.3888103E0,1.6789112E0,9.970337E-1,1.2884843E0,1.1278682E0,1.4428843E0,1.2302371E0,1.6627978E0,1.4914899E0,1.8773842E0,1.7269375E0,1.6848996E0,1.4822748E0,2.0086608E0,1.7817411E0,2.0379508E0,1.819362E0,2.316921E0,2.0482633E0],"split_indices":[3,11,11,3,3,3,3,11,11,11,11,11,11,11,11,3,3,3,3,3,3,3,3,3,3,3,3,3,3,3,3,3,3,11,11,3,3,11,11,3,3,11,11,3,4,11,11,3,3,11,11,3,3,11,11,11,11,3,3,3,3,11,11,3,4,4,4,3,3,3,4,4,4,4,4,3,4,3,3,4,4,4,4,3,3,4,4,4,4,3,4,4,4,4,4,4,4,4,4,3,4,4,4,4,4,4,4,3,4,3,4,4,4,4,4,4,4,4,4,4,4,4,4,4,4,4,4,0,0,0,0,0,0,0,0,0,0,0,0,0,0,0,0,0,0,0,0,0,0,0,0,0,0,0,0,0,0,0,0,0,0,0,0,0,0,0,0,0,0,0,0,0,0,0,0,0,0,0,0,0,0,0,0,0,0,0,0,0,0,0,0,0,0,0,0,0,0,0,0,0,0,0,0,0,0,0,0,0,0,0,0,0,0,0,0,0,0,0,0,0,0,0,0,0,0,0,0,0,0,0,0,0,0,0,0,0,0,0,0,0,0,0,0,0,0,0,0,0,0,0,0,0,0,0,0],"split_type":[0,0,0,0,0,0,0,0,0,0,0,0,0,0,0,0,0,0,0,0,0,0,0,0,0,0,0,0,0,0,0,0,0,0,0,0,0,0,0,0,0,0,0,0,0,0,0,0,0,0,0,0,0,0,0,0,0,0,0,0,0,0,0,0,0,0,0,0,0,0,0,0,0,0,0,0,0,0,0,0,0,0,0,0,0,0,0,0,0,0,0,0,0,0,0,0,0,0,0,0,0,0,0,0,0,0,0,0,0,0,0,0,0,0,0,0,0,0,0,0,0,0,0,0,0,0,0,0,0,0,0,0,0,0,0,0,0,0,0,0,0,0,0,0,0,0,0,0,0,0,0,0,0,0,0,0,0,0,0,0,0,0,0,0,0,0,0,0,0,0,0,0,0,0,0,0,0,0,0,0,0,0,0,0,0,0,0,0,0,0,0,0,0,0,0,0,0,0,0,0,0,0,0,0,0,0,0,0,0,0,0,0,0,0,0,0,0,0,0,0,0,0,0,0,0,0,0,0,0,0,0,0,0,0,0,0,0,0,0,0,0,0,0,0,0,0,0,0,0,0,0,0,0,0,0],"sum_hessian":[2.79444E5,1.65849E5,1.13595E5,8.7168E4,7.8681E4,5.9033E4,5.4562E4,4.684E4,4.0328E4,4.1141E4,3.754E4,2.9993E4,2.904E4,2.8612E4,2.595E4,1.6522E4,3.0318E4,1.2777E4,2.7551E4,1.6717E4,2.4424E4,1.346E4,2.408E4,1.0021E4,1.9972E4,9.591E3,1.9449E4,2.0742E4,7.87E3,9.411E3,1.6539E4,8.208E3,8.314E3,1.4449E4,1.5869E4,6.298E3,6.479E3,1.4324E4,1.3227E4,7.625E3,9.092E3,1.1389E4,1.3035E4,7.546E3,5.914E3,1.387E4,1.021E4,4.504E3,5.517E3,1.1229E4,8.743E3,5.176E3,4.415E3,1.0386E4,9.063E3,1.1809E4,8.933E3,3.786E3,4.084E3,5.674E3,3.737E3,9.416E3,7.123E3,4.061E3,4.147E3,3.85E3,4.464E3,7.565E3,6.884E3,8.248E3,7.621E3,3.572E3,2.726E3,3.285E3,3.194E3,7.907E3,6.417E3,7.155E3,6.072E3,3.998E3,3.627E3,4.658E3,4.434E3,7.149E3,4.24E3,8.005E3,5.03E3,4.46E3,3.086E3,3.343E3,2.571E3,7.818E3,6.052E3,5.976E3,4.234E3,1.992E3,2.512E3,2.756E3,2.761E3,6.254E3,4.975E3,4.78E3,3.963E3,2.382E3,2.794E3,3.873E3,5.42E2,5.797E3,4.589E3,4.92E3,4.143E3,6.178E3,5.631E3,4.732E3,4.201E3,2.159E3,1.627E3,2.165E3,1.919E3,3.501E3,2.173E3,2.952E3,7.85E2,4.925E3,4.491E3,3.587E3,3.536E3,8.76E2,3.185E3,3.891E3,2.56E2,3.019E3,8.31E2,4.066E3,3.98E2,3.259E3,4.306E3,2.848E3,4.036E3,3.27E3,4.978E3,6.162E3,1.459E3,3.404E3,1.68E2,2.618E3,1.08E2,2.734E3,5.51E2,3.077E3,1.17E2,3.854E3,4.053E3,5.597E3,8.2E2,3.566E3,3.589E3,2.91E3,3.162E3,2.106E3,1.892E3,2.817E3,8.1E2,2.457E3,2.201E3,2.416E3,2.018E3,1.702E3,5.447E3,2.08E3,2.16E3,4.86E3,3.145E3,4.321E3,7.09E2,2.552E3,1.908E3,1.673E3,1.413E3,1.894E3,1.449E3,2.393E3,1.78E2,5.104E3,2.714E3,4.571E3,1.481E3,5.088E3,8.88E2,3.215E3,1.019E3,1.927E3,6.5E1,1.778E3,7.34E2,2.658E3,9.8E1,2.654E3,1.07E2,3.098E3,3.156E3,4.273E3,7.02E2,4.574E3,2.06E2,3.674E3,2.89E2,2.238E3,1.44E2,2.702E3,9.2E1,2.943E3,9.3E2,3.9E2,1.52E2,2.825E3,2.972E3,4.059E3,5.3E2,2.849E3,2.071E3,3.602E3,5.41E2,3.638E3,2.54E3,3.565E3,2.066E3,3.828E3,9.04E2,2.723E3,1.478E3,2.084E3,7.5E1,1.182E3,4.45E2,1.434E3,7.31E2,1.883E3,3.6E1,2.008E3,1.493E3,1.747E3,4.26E2,1.845E3,1.107E3,4.47E2,3.38E2,3.19E3,1.735E3,3.27E3,1.221E3,2.286E3,1.301E3,2.932E3,6.04E2],"tree_param":{"num_deleted":"0","num_feature":"12","num_nodes":"255","size_leaf_vector":"1"}},{"base_weights":[1.5653005E-4,-5.758496E0,7.293285E0,