{"learner":{"attributes":{"scikit_learn":"{\"_estimator_type\": \"regressor\"}"},"feature_names":["T2M","RH2M","WS10M","ALLSKY_SFC_SW_DWN","arazi_egimi_yuzde","yuzey_alani_km2","yuzey_Orman_ve_Doğa","yuzey_Su_Yüzeyi","yuzey_Sulak_Alan","yuzey_Tarım_Arazisi","yuzey_Şehir_Yerleşimi","tesvik_bolgesi"],"feature_types":["float","float","float","float","float","int","int","int","int","int","int","float"],"gradient_booster":{"model":{"cats":{"enc":[],"feature_segments":[],"sorted_idx":[]},"gbtree_model_param":{"num_parallel_tree":"1","num_trees":"150"},"iteration_indptr":[0,1,2,3,4,5,6,7,8,9,10,11,12,13,14,15,16,17,18,19,20,21,22,23,24,25,26,27,28,29,30,31,32,33,34,35,36,37,38,39,40,41,42,43,44,45,46,47,48,49,50,51,52,53,54,55,56,57,58,59,60,61,62,63,64,65,66,67,68,69,70,71,72,73,74,75,76,77,78,79,80,81,82,83,84,85,86,87,88,89,90,91,92,93,94,95,96,97,98,99,100,101,102,103,104,105,106,107,108,109,110,111,112,113,114,115,116,117,118,119,120,121,122,123,124,125,126,127,128,129,130,131,132,133,134,135,136,137,138,139,140,141,142,143,144,145,146,147,148,149,150],"tree_info":[0,0,0,0,0,0,0,0,0,0,0,0,0,0,0,0,0,0,0,0,0,0,0,0,0,0,0,0,0,0,0,0,0,0,0,0,0,0,0,0,0,0,0,0,0,0,0,0,0,0,0,0,0,0,0,0,0,0,0,0,0,0,0,0,0,0,0,0,0,0,0,0,0,0,0,0,0,0,0,0,0,0,0,0,0,0,0,0,0,0,0,0,0,0,0,0,0,0,0,0,0,0,0,0,0,0,0,0,0,0,0,0,0,0,0,0,0,0,0,0,0,0,0,0,0,0,0,0,0,0,0,0,0,0,0,0,0,0,0,0,0,0,0,0,0,0,0,0,0,0],"trees":[{"base_weights":[1.417142E-6,-8.635824E0,9.475663E0,-1.1941075E1,1.4071615E0,3.173486E0,1.33217E1,-1.888091E1,-8.840524E0,-1.4761813E0,1.0964188E1,-5.753917E-2,1.1060934E1,1.0632192E1,2.0919039E1,-2.151477E1,-1.5799216E1,-1.1870769E1,-5.319618E0,-7.5701694E0,2.4505022E0,5.561062E0,1.5994219E1,-2.6487184E0,2.5149062E0,9.01974E0,2.0644548E1,7.374831E0,1.4754367E1,1.8806248E1,2.963774E1,-2.3314747E1,-2.0186178E1,-1.7236753E1,-1.4126887E1,-1.4563118E1,-8.611902E0,-7.8970914E0,-1.8871338E0,-1.0037447E1,-4.5764446E0,-6.025282E-1,6.180058E0,2.5113242E0,1.2235341E1,1.3020866E1,2.2732073E1,-1.6910461E0,-5.408063E0,3.4137285E0,1.2064785E-1,7.299431E0,1.173053E1,1.8445522E1,2.9945E1,4.901354E0,9.8177805E0,1.2464732E1,1.7099258E1,1.6014622E1,2.3058525E1,2.7584097E1,3.9954697E1,-2.2568222E1,-2.5772844E1,-1.9532545E1,-2.3439157E1,-1.6711092E1,-2.0915983E1,-1.3616749E1,-1.765771E1,-1.6247587E1,-1.3178796E1,-1.0038165E1,-6.694241E0,-9.609989E0,-6.4414577E0,-3.2514672E0,1.385559E-1,-9.712596E0,-1.5823198E1,-5.9762087E0,-2.5932605E0,-2.6133845E0,3.007889E0,4.296591E0,9.653999E0,8.8681674E-1,4.663904E0,9.72215E0,1.8678535E1,1.0100188E1,1.6619883E1,2.0207533E1,2.705539E1,-3.1773198E0,-5.301233E-1,-4.790736E0,-9.317377E0,2.0998175E0,4.7926245E0,-1.0406389E0,1.8011538E0,8.110458E0,4.5750265E0,1.2480129E1,9.037052E0,1.67249E1,2.1526642E1,2.7736881E1,3.8516977E0,5.788312E0,2.6070092E0,1.0713779E1,7.8010697E0,1.3216717E1,9.892233E0,1.7826792E1,1.4407255E1,1.4453959E1,1.8699114E1,2.167619E1,2.5901962E1,2.489789E1,3.1969282E1,3.6388176E1,4.524393E1,-2.3914154E0,-2.1810646E0,-2.5145557E0,-2.8417327E0,-2.0310597E0,-1.8822857E0,-2.2634284E0,-2.6493394E0,-1.7364905E0,-1.5908685E0,-1.994553E0,-2.4280705E0,-1.4393662E0,-1.2661622E0,-1.6730684E0,-2.1381178E0,-1.5998738E0,-2.1069162E0,-1.2949694E0,-1.8044283E0,-9.836093E-1,-1.4431632E0,-6.3525254E-1,-9.094058E-1,-9.006018E-1,-1.3400359E0,-5.889606E-1,-1.011268E0,-2.8096303E-1,-7.1976215E-1,5.422446E-2,-3.751521E-1,-1.0768843E0,-8.390738E-1,-1.430853E0,-1.9095402E0,-5.628664E-1,-1.0964133E0,-2.3257025E-1,-8.3645135E-1,-3.7788612E-1,-1.22010194E-1,1.8474929E-1,5.0139827E-1,4.7384104E-1,3.0253483E-2,8.2086724E-1,1.1446496E0,1.2761077E-1,-1.9953322E-1,3.817274E-1,6.349701E-1,8.2838756E-1,1.1132977E0,1.6687168E0,2.225369E0,8.3265936E-1,1.21578E0,1.4922456E0,1.8888664E0,1.7178307E0,2.4052181E0,2.4854558E0,3.1199718E0,-4.6463284E-1,-2.6137117E-1,1.4473495E-2,-1.3287877E-1,-6.359822E-1,-3.6204287E-1,-1.0608349E0,-7.897235E-1,2.6029548E-1,1.2850867E-1,4.0797192E-1,5.595274E-1,-6.2435646E-2,-4.8923555E-1,2.1813779E-1,-2.0214286E-1,7.344443E-1,9.2571E-1,5.0416297E-1,1.2381374E-1,1.1453098E0,1.4056131E0,8.01303E-1,1.072822E0,1.7483978E0,1.4478394E0,2.2303004E0,1.9128847E0,2.6049948E0,3.001642E0,4.068036E-1,6.7603993E-1,3.2167965E-1,-6.348445E-2,9.502641E-1,1.215317E0,6.6675556E-1,9.3128157E-1,1.1526235E0,1.4236085E0,1.044298E0,4.2351857E-1,1.6689564E0,1.916609E0,1.4851319E0,9.077606E-1,1.516626E0,1.2186608E0,1.9539127E0,1.6914921E0,2.2264917E0,1.8883479E0,2.6489384E0,2.3415666E0,2.3254077E0,2.8044164E0,3.046016E0,3.510351E0,3.394453E0,4.1223903E0,4.227199E0,4.9244804E0],"categories":[],"categories_nodes":[],"categories_segments":[],"categories_sizes":[],"default_left":[0,0,0,0,0,0,0,0,0,0,0,0,0,0,0,0,0,0,0,0,0,0,0,0,0,0,0,0,0,0,0,0,0,0,0,0,0,0,0,0,0,0,0,0,0,0,0,0,0,0,0,0,0,0,0,0,0,0,0,0,0,0,0,0,0,0,0,0,0,0,0,0,0,0,0,0,0,0,0,0,0,0,0,0,0,0,0,0,0,0,0,0,0,0,0,0,0,0,0,0,0,0,0,0,0,0,0,0,0,0,0,0,0,0,0,0,0,0,0,0,0,0,0,0,0,0,0,0,0,0,0,0,0,0,0,0,0,0,0,0,0,0,0,0,0,0,0,0,0,0,0,0,0,0,0,0,0,0,0,0,0,0,0,0,0,0,0,0,0,0,0,0,0,0,0,0,0,0,0,0,0,0,0,0,0,0,0,0,0,0,0,0,0,0,0,0,0,0,0,0,0,0,0,0,0,0,0,0,0,0,0,0,0,0,0,0,0,0,0,0,0,0,0,0,0,0,0,0,0,0,0,0,0,0,0,0,0,0,0,0,0,0,0,0,0,0,0,0,0,0,0,0,0],"id":0,"left_children":[1,3,5,7,9,11,13,15,17,19,21,23,25,27,29,31,33,35,37,39,41,43,45,47,49,51,53,55,57,59,61,63,65,67,69,71,73,75,77,79,81,83,85,87,89,91,93,95,97,99,101,103,105,107,109,111,113,115,117,119,121,123,125,127,129,131,133,135,137,139,141,143,145,147,149,151,153,155,157,159,161,163,165,167,169,171,173,175,177,179,181,183,185,187,189,191,193,195,197,199,201,203,205,207,209,211,213,215,217,219,-1,221,223,225,227,229,231,233,235,237,239,241,243,245,247,249,251,-1,-1,-1,-1,-1,-1,-1,-1,-1,-1,-1,-1,-1,-1,-1,-1,-1,-1,-1,-1,-1,-1,-1,-1,-1,-1,-1,-1,-1,-1,-1,-1,-1,-1,-1,-1,-1,-1,-1,-1,-1,-1,-1,-1,-1,-1,-1,-1,-1,-1,-1,-1,-1,-1,-1,-1,-1,-1,-1,-1,-1,-1,-1,-1,-1,-1,-1,-1,-1,-1,-1,-1,-1,-1,-1,-1,-1,-1,-1,-1,-1,-1,-1,-1,-1,-1,-1,-1,-1,-1,-1,-1,-1,-1,-1,-1,-1,-1,-1,-1,-1,-1,-1,-1,-1,-1,-1,-1,-1,-1,-1,-1,-1,-1,-1,-1,-1,-1,-1,-1,-1,-1,-1,-1,-1,-1],"loss_changes":[2.2867112E7,4.853132E6,3.229581E6,2.366739E6,9.976327E5,1.2869446E6,1.690534E6,2.75371E5,8.11149E5,6.655604E5,2.2796062E5,2.3880419E5,2.8688638E5,8.204935E5,3.9794E5,4.3322E4,3.739625E4,3.58407E5,3.111478E5,8.0457875E4,1.9260548E5,8.234515E4,8.6751875E4,4.715503E4,3.868847E4,5.6341438E4,5.2131875E4,2.062455E5,1.446145E5,2.063725E5,8.826625E4,1.36765E4,2.1959E4,1.592525E4,1.2805625E4,5.1961E4,5.0501875E4,5.0022E4,4.169111E4,1.10745E4,1.3659023E4,6.7540664E4,4.9777344E4,9.713699E3,2.0367297E4,3.1545531E4,1.39585625E4,2.2862242E4,1.1051828E4,2.3671266E4,9.580079E3,1.632475E4,9.368625E3,1.06988125E4,8.225281E3,3.45105E4,3.095125E4,2.62785E4,2.58385E4,4.37915E4,2.65595E4,4.06795E4,1.152075E4,5.5635E3,2.27625E3,4.4685E3,3.7245E3,3.589125E3,2.9377188E3,4.517125E3,2.7868438E3,1.176825E4,1.34625E4,9.2695E3,6.4116562E3,2.1000125E4,2.1946531E4,1.56961875E4,9.537384E3,7.8108125E3,1.2929688E3,4.9429766E3,3.1306035E3,9.69782E3,7.737865E3,8.714195E3,6.8388594E3,1.7809072E3,1.6813223E3,1.7644609E3,2.1560469E3,5.9859062E3,4.917125E3,9.404656E3,3.6664375E3,4.799043E3,4.0107808E3,7.2726406E3,1.0639102E3,2.7410762E3,3.6261719E3,4.6516226E3,2.920005E3,4.9429375E3,2.6422188E3,5.780875E3,1.6908516E3,2.037E3,9.58375E2,7.331875E2,0E0,2.0432594E4,9.356451E3,2.0610625E4,8.997625E3,1.8035E4,9.589219E3,1.564975E4,6.586625E3,1.056325E4,5.459125E3,7.22325E3,2.668875E3,1.0664E4,5.2405E3,3.587375E3,1.2119375E3,0E0,0E0,0E0,0E0,0E0,0E0,0E0,0E0,0E0,0E0,0E0,0E0,0E0,0E0,0E0,0E0,0E0,0E0,0E0,0E0,0E0,0E0,0E0,0E0,0E0,0E0,0E0,0E0,0E0,0E0,0E0,0E0,0E0,0E0,0E0,0E0,0E0,0E0,0E0,0E0,0E0,0E0,0E0,0E0,0E0,0E0,0E0,0E0,0E0,0E0,0E0,0E0,0E0,0E0,0E0,0E0,0E0,0E0,0E0,0E0,0E0,0E0,0E0,0E0,0E0,0E0,0E0,0E0,0E0,0E0,0E0,0E0,0E0,0E0,0E0,0E0,0E0,0E0,0E0,0E0,0E0,0E0,0E0,0E0,0E0,0E0,0E0,0E0,0E0,0E0,0E0,0E0,0E0,0E0,0E0,0E0,0E0,0E0,0E0,0E0,0E0,0E0,0E0,0E0,0E0,0E0,0E0,0E0,0E0,0E0,0E0,0E0,0E0,0E0,0E0,0E0,0E0,0E0,0E0,0E0,0E0,0E0,0E0,0E0,0E0,0E0],"parents":[2147483647,0,0,1,1,2,2,3,3,4,4,5,5,6,6,7,7,8,8,9,9,10,10,11,11,12,12,13,13,14,14,15,15,16,16,17,17,18,18,19,19,20,20,21,21,22,22,23,23,24,24,25,25,26,26,27,27,28,28,29,29,30,30,31,31,32,32,33,33,34,34,35,35,36,36,37,37,38,38,39,39,40,40,41,41,42,42,43,43,44,44,45,45,46,46,47,47,48,48,49,49,50,50,51,51,52,52,53,53,54,54,55,55,56,56,57,57,58,58,59,59,60,60,61,61,62,62,63,63,64,64,65,65,66,66,67,67,68,68,69,69,70,70,71,71,72,72,73,73,74,74,75,75,76,76,77,77,78,78,79,79,80,80,81,81,82,82,83,83,84,84,85,85,86,86,87,87,88,88,89,89,90,90,91,91,92,92,93,93,94,94,95,95,96,96,97,97,98,98,99,99,100,100,101,101,102,102,103,103,104,104,105,105,106,106,107,107,108,108,109,109,111,111,112,112,113,113,114,114,115,115,116,116,117,117,118,118,119,119,120,120,121,121,122,122,123,123,124,124,125,125,126,126],"right_children":[2,4,6,8,10,12,14,16,18,20,22,24,26,28,30,32,34,36,38,40,42,44,46,48,50,52,54,56,58,60,62,64,66,68,70,72,74,76,78,80,82,84,86,88,90,92,94,96,98,100,102,104,106,108,110,112,114,116,118,120,122,124,126,128,130,132,134,136,138,140,142,144,146,148,150,152,154,156,158,160,162,164,166,168,170,172,174,176,178,180,182,184,186,188,190,192,194,196,198,200,202,204,206,208,210,212,214,216,218,220,-1,222,224,226,228,230,232,234,236,238,240,242,244,246,248,250,252,-1,-1,-1,-1,-1,-1,-1,-1,-1,-1,-1,-1,-1,-1,-1,-1,-1,-1,-1,-1,-1,-1,-1,-1,-1,-1,-1,-1,-1,-1,-1,-1,-1,-1,-1,-1,-1,-1,-1,-1,-1,-1,-1,-1,-1,-1,-1,-1,-1,-1,-1,-1,-1,-1,-1,-1,-1,-1,-1,-1,-1,-1,-1,-1,-1,-1,-1,-1,-1,-1,-1,-1,-1,-1,-1,-1,-1,-1,-1,-1,-1,-1,-1,-1,-1,-1,-1,-1,-1,-1,-1,-1,-1,-1,-1,-1,-1,-1,-1,-1,-1,-1,-1,-1,-1,-1,-1,-1,-1,-1,-1,-1,-1,-1,-1,-1,-1,-1,-1,-1,-1,-1,-1,-1,-1,-1],"split_conditions":[4E0,4.25E0,5E0,2E0,6.8E0,3.64E0,3.66E0,2.82E0,3E0,2E0,2E0,2.41E0,5.7E0,6E0,5.56E0,2.15E0,3.49E0,2.75E0,2.74E0,5.32E0,3E0,8.59E0,8.59E0,1.673E1,1.405E1,4.5E0,7.82E0,2.47E0,2.53E0,6E0,7.82E0,1.097E1,1.437E1,1.647E1,1.633E1,2.08E0,3.47E0,2.09E0,3.47E0,2.541E1,6.05E0,5.38E0,5.38E0,7.57E0,9.86E0,3E0,9.86E0,1.86E0,3.255E1,2.97E0,3.07E0,1.548E1,1.615E1,6.66E0,9.86E0,1.468E1,1.189E1,1.355E1,1.355E1,4.5E0,4.53E0,6E0,9.06E0,1.72E0,2.707E1,2.47E0,2.957E1,3.16E0,3.658E1,3.87E0,3.658E1,1.988E1,1.633E1,1.487E1,1.03E1,1.615E1,1.405E1,1.405E1,1.405E1,4.79E0,3.831E1,2.055E1,2.541E1,4.75E0,6.16E0,1.405E1,5.96E0,1.339E1,8.13E0,9.06E0,7.988E1,7.57E0,7.57E0,3E0,3E0,1.45E0,6.48E0,1.82E0,1.87E0,6.48E0,3.29E0,3.255E1,3.255E1,4.09E0,3.255E1,5.06E0,5.06E0,1.339E1,1.405E1,8.59E0,3.8516977E0,1.87E0,2.864E1,3.04E0,3.06E0,1.92E0,3.064E1,3.06E0,3.064E1,1.323E1,9.92E0,1.355E1,1.227E1,6.51E0,6.51E0,6E0,6E0,-2.3914154E0,-2.1810646E0,-2.5145557E0,-2.8417327E0,-2.0310597E0,-1.8822857E0,-2.2634284E0,-2.6493394E0,-1.7364905E0,-1.5908685E0,-1.994553E0,-2.4280705E0,-1.4393662E0,-1.2661622E0,-1.6730684E0,-2.1381178E0,-1.5998738E0,-2.1069162E0,-1.2949694E0,-1.8044283E0,-9.836093E-1,-1.4431632E0,-6.3525254E-1,-9.094058E-1,-9.006018E-1,-1.3400359E0,-5.889606E-1,-1.011268E0,-2.8096303E-1,-7.1976215E-1,5.422446E-2,-3.751521E-1,-1.0768843E0,-8.390738E-1,-1.430853E0,-1.9095402E0,-5.628664E-1,-1.0964133E0,-2.3257025E-1,-8.3645135E-1,-3.7788612E-1,-1.22010194E-1,1.8474929E-1,5.0139827E-1,4.7384104E-1,3.0253483E-2,8.2086724E-1,1.1446496E0,1.2761077E-1,-1.9953322E-1,3.817274E-1,6.349701E-1,8.2838756E-1,1.1132977E0,1.6687168E0,2.225369E0,8.3265936E-1,1.21578E0,1.4922456E0,1.8888664E0,1.7178307E0,2.4052181E0,2.4854558E0,3.1199718E0,-4.6463284E-1,-2.6137117E-1,1.4473495E-2,-1.3287877E-1,-6.359822E-1,-3.6204287E-1,-1.0608349E0,-7.897235E-1,2.6029548E-1,1.2850867E-1,4.0797192E-1,5.595274E-1,-6.2435646E-2,-4.8923555E-1,2.1813779E-1,-2.0214286E-1,7.344443E-1,9.2571E-1,5.0416297E-1,1.2381374E-1,1.1453098E0,1.4056131E0,8.01303E-1,1.072822E0,1.7483978E0,1.4478394E0,2.2303004E0,1.9128847E0,2.6049948E0,3.001642E0,4.068036E-1,6.7603993E-1,3.2167965E-1,-6.348445E-2,9.502641E-1,1.215317E0,6.6675556E-1,9.3128157E-1,1.1526235E0,1.4236085E0,1.044298E0,4.2351857E-1,1.6689564E0,1.916609E0,1.4851319E0,9.077606E-1,1.516626E0,1.2186608E0,1.9539127E0,1.6914921E0,2.2264917E0,1.8883479E0,2.6489384E0,2.3415666E0,2.3254077E0,2.8044164E0,3.046016E0,3.510351E0,3.394453E0,4.1223903E0,4.227199E0,4.9244804E0],"split_indices":[11,2,11,11,2,2,2,2,11,11,11,2,2,11,2,2,2,2,2,2,11,2,2,4,4,2,2,2,2,11,2,4,4,4,4,2,2,2,2,4,2,2,2,2,2,11,2,2,4,2,2,4,4,2,2,4,4,4,4,2,2,11,2,2,4,2,4,2,4,2,4,4,4,4,4,4,4,4,4,2,4,4,4,2,2,4,2,4,2,2,1,2,2,11,11,2,4,2,2,4,2,4,4,2,4,2,2,4,4,2,0,2,4,2,2,2,4,2,4,4,4,4,4,2,2,11,11,0,0,0,0,0,0,0,0,0,0,0,0,0,0,0,0,0,0,0,0,0,0,0,0,0,0,0,0,0,0,0,0,0,0,0,0,0,0,0,0,0,0,0,0,0,0,0,0,0,0,0,0,0,0,0,0,0,0,0,0,0,0,0,0,0,0,0,0,0,0,0,0,0,0,0,0,0,0,0,0,0,0,0,0,0,0,0,0,0,0,0,0,0,0,0,0,0,0,0,0,0,0,0,0,0,0,0,0,0,0,0,0,0,0,0,0,0,0,0,0,0,0,0,0,0,0],"split_type":[0,0,0,0,0,0,0,0,0,0,0,0,0,0,0,0,0,0,0,0,0,0,0,0,0,0,0,0,0,0,0,0,0,0,0,0,0,0,0,0,0,0,0,0,0,0,0,0,0,0,0,0,0,0,0,0,0,0,0,0,0,0,0,0,0,0,0,0,0,0,0,0,0,0,0,0,0,0,0,0,0,0,0,0,0,0,0,0,0,0,0,0,0,0,0,0,0,0,0,0,0,0,0,0,0,0,0,0,0,0,0,0,0,0,0,0,0,0,0,0,0,0,0,0,0,0,0,0,0,0,0,0,0,0,0,0,0,0,0,0,0,0,0,0,0,0,0,0,0,0,0,0,0,0,0,0,0,0,0,0,0,0,0,0,0,0,0,0,0,0,0,0,0,0,0,0,0,0,0,0,0,0,0,0,0,0,0,0,0,0,0,0,0,0,0,0,0,0,0,0,0,0,0,0,0,0,0,0,0,0,0,0,0,0,0,0,0,0,0,0,0,0,0,0,0,0,0,0,0,0,0,0,0,0,0,0,0,0,0,0,0,0,0,0,0,0,0,0,0,0,0,0,0],"sum_hessian":[2.79444E5,1.46201E5,1.33243E5,1.09999E5,3.6202E4,5.0498E4,8.2745E4,3.3967E4,7.6032E4,2.7812E4,8.39E3,3.5824E4,1.4674E4,6.1113E4,2.1632E4,1.8311E4,1.5656E4,4.0862E4,3.517E4,1.0898E4,1.6914E4,4.046E3,4.344E3,1.7847E4,1.7977E4,1.2099E4,2.575E3,3.4139E4,2.6974E4,1.7415E4,4.217E3,7.769E3,1.0542E4,8.414E3,7.242E3,2.2374E4,1.8488E4,2.0086E4,1.5084E4,5.973E3,4.925E3,9.301E3,7.613E3,2.778E3,1.268E3,3.016E3,1.328E3,1.325E4,4.597E3,1.307E4,4.907E3,7.404E3,4.695E3,2.085E3,4.9E2,1.6965E4,1.7174E4,1.3651E4,1.3323E4,1.0516E4,6.899E3,3.52E3,6.97E2,5.967E3,1.802E3,8.784E3,1.758E3,7.367E3,1.047E3,6.332E3,9.1E2,1.0088E4,1.2286E4,1.06E4,7.888E3,9.225E3,1.0861E4,9.013E3,6.071E3,5.658E3,3.15E2,2.886E3,2.039E3,5.974E3,3.327E3,4.938E3,2.675E3,1.584E3,1.194E3,9.14E2,3.54E2,1.667E3,1.349E3,8.42E2,4.86E2,5.81E3,7.44E3,3.972E3,6.25E2,6.694E3,6.376E3,2.902E3,2.005E3,5.704E3,1.7E3,3.67E3,1.025E3,1.342E3,7.43E2,3.93E2,9.7E1,1.2234E4,4.731E3,1.1888E4,5.286E3,1.056E4,3.091E3,1.0484E4,2.839E3,6.654E3,3.862E3,4.648E3,2.251E3,2.187E3,1.333E3,4.21E2,2.76E2,2.138E3,3.829E3,1.465E3,3.37E2,4.177E3,4.607E3,1.398E3,3.6E2,4.048E3,3.319E3,8.18E2,2.29E2,3.484E3,2.848E3,7.33E2,1.77E2,9.597E3,4.91E2,1.1737E4,5.49E2,1.0137E4,4.63E2,6.908E3,9.8E2,7.96E3,1.265E3,9.444E3,1.417E3,8.107E3,9.06E2,5.501E3,5.7E2,3.141E3,2.517E3,2.19E2,9.6E1,2.7E3,1.86E2,1.95E3,8.9E1,3.252E3,2.722E3,2.109E3,1.218E3,4.446E3,4.92E2,1.484E3,1.191E3,1.396E3,1.88E2,7.97E2,3.97E2,4.56E2,4.58E2,2.31E2,1.23E2,8.98E2,7.69E2,7.76E2,5.73E2,4.74E2,3.68E2,3.22E2,1.64E2,1.609E3,4.201E3,4.033E3,3.407E3,1.695E3,2.277E3,3.24E2,3.01E2,4.137E3,2.557E3,3.38E3,2.996E3,2.62E3,2.82E2,1.824E3,1.81E2,3.424E3,2.28E3,1.491E3,2.09E2,2.227E3,1.443E3,6.42E2,3.83E2,9.98E2,3.44E2,5.55E2,1.88E2,2.33E2,1.6E2,4.419E3,7.815E3,3.982E3,7.49E2,6.46E3,5.428E3,3.024E3,2.262E3,3.977E3,6.583E3,2.816E3,2.75E2,5.677E3,4.807E3,2.619E3,2.2E2,5.059E3,1.595E3,2.619E3,1.243E3,3.833E3,8.15E2,1.813E3,4.38E2,1.442E3,7.45E2,9.07E2,4.26E2,2.85E2,1.36E2,1.65E2,1.11E2],"tree_param":{"num_deleted":"0","num_feature":"12","num_nodes":"253","size_leaf_vector":"1"}},{"base_weights":[1.7024593E-4,-7.772464E0,8.528694E0,-1.0593014E1,1.7789012E0,2.856546E0,1.1990243E1,-1.6818888E1,-7.7993736E0,-9.433107E-1,9.870383E0,2.1275248E-2,1.0139884E1,9.763703E0,1.9460394E1,-1.9306488E1,-1.3947734E1,-1.05253105E1,-4.629994E0,-6.4128118E0,2.6611297E0,5.0066314E0,1.4398286E1,-2.2149558E0,2.535188E0,8.331934E0,1.8943619E1,6.857298E0,1.3462549E1,1.7623646E1,2.765493E1,-2.1090614E1,-1.8182531E1,-1.5228502E1,-1.21828785E1,-1.2832362E1,-7.182533E0,-6.9440055E0,-1.2679108E0,-8.244019E0,-3.469731E0,-9.1727085E-2,6.033668E0,2.2605317E0,1.1016406E1,1.172058E1,2.0466187E1,-1.2692991E0,-4.495846E0,3.42738E0,5.755576E-1,6.7924056E0,1.084371E1,1.6881233E1,2.6969763E1,4.5474935E0,9.223696E0,1.141466E1,1.5818788E1,1.5120379E1,2.1474554E1,2.579154E1,3.7213165E1,-2.0452785E1,-2.33947E1,-1.7544233E1,-2.0943018E1,-1.4638108E1,-1.794728E1,-1.1618147E1,-1.4872007E1,-1.4320575E1,-1.1310807E1,-8.422755E0,-5.4237914E0,-8.50309E0,-5.503327E0,-2.5312748E0,6.1503536E-1,-7.810423E0,-1.1916427E1,-4.5795407E0,-2.025686E0,-1.8147479E0,2.988856E0,4.3837323E0,8.890094E0,7.980908E-1,4.198363E0,8.752057E0,1.6821651E1,9.091397E0,1.49604E1,1.8191671E1,2.4361362E1,-2.624497E0,-1.2725113E-1,-3.6350713E0,-6.7881355E0,2.3297555E0,4.691944E0,1.2126638E0,-1.7448027E0,7.580241E0,4.5213494E0,1.154466E1,8.539122E0,1.5287667E1,1.9379547E1,2.4977423E1,3.4704583E0,5.544628E0,2.8414967E0,8.073242E0,1.0680658E1,9.938361E0,1.2528621E1,1.6557047E1,1.37249E1,1.3731921E1,1.768979E1,2.0207747E1,2.419937E1,2.3432875E1,2.9732195E1,3.4877647E1,4.300859E0,-2.1907287E0,-1.990248E0,-2.281708E0,-2.5698545E0,-1.8244622E0,-1.6780392E0,-2.0259855E0,-2.391546E0,-1.5324357E0,-1.3784999E0,-1.7195832E0,-2.1288176E0,-1.2295407E0,-1.0712392E0,-1.4131866E0,-1.8330481E0,-1.5771918E0,-1.3604091E0,-1.1122679E0,-1.6068743E0,-7.980744E-1,-1.0100183E0,-5.2371866E-1,-9.373566E-1,-8.012988E-1,-1.2313212E0,-5.0924915E-1,-9.457518E-1,-2.1594249E-1,-6.1825454E-1,1.0100309E-1,-2.620949E-1,-8.920312E-1,-6.599157E-1,-1.110232E0,-1.6495672E0,-4.1927543E-1,-8.500102E-1,-1.7138624E-1,-6.7045665E-1,-2.7658448E-1,-5.0394263E-2,1.9266915E-1,4.512994E-1,4.7710523E-1,8.268889E-2,7.5696224E-1,1.0302807E0,1.05299465E-1,-2.8797767E-1,4.6292382E-1,1.1657383E-1,7.4573004E-1,1.0022105E0,1.5025644E0,2.0046268E0,7.938294E-1,1.1708843E0,1.3432131E0,1.700309E0,1.5464092E0,2.1653483E0,2.2376797E0,2.8098655E0,-3.738347E-1,-1.9834392E-1,4.9078923E-2,-7.275992E-2,-4.8216796E-1,-2.3787999E-1,-5.9059584E-1,-9.0043133E-1,1.720925E-1,2.9106444E-1,4.1044328E-1,5.4323E-1,2.6884302E-2,2.615391E-1,-3.0033535E-1,-6.672848E-2,6.87803E-1,8.6426204E-1,5.3842187E-1,2.9429987E-1,1.065116E0,1.310276E0,7.623391E-1,1.0106113E0,1.5992737E0,1.3332801E0,1.7959038E0,2.0589163E0,2.3456085E0,2.7033422E0,4.1652852E-1,6.6316545E-1,3.54969E-1,5.285425E-2,8.708207E-1,5.712244E-1,1.1284176E0,8.3139485E-1,1.0645719E0,7.512903E-1,1.3325399E0,1.0601307E0,1.5570877E0,1.7913965E0,1.4057232E0,8.522709E-1,1.4494182E0,1.1987504E0,1.8232592E0,1.5248445E0,2.083533E0,1.8183869E0,2.4918213E0,2.2493765E0,2.1878512E0,2.6505678E0,2.845121E0,3.2687175E0,3.2246282E0,3.933031E0],"categories":[],"categories_nodes":[],"categories_segments":[],"categories_sizes":[],"default_left":[0,0,0,0,0,0,0,0,0,0,0,0,0,0,0,0,0,0,0,0,0,0,0,0,0,0,0,0,0,0,0,0,0,0,0,0,0,0,0,0,0,0,0,0,0,0,0,0,0,0,0,0,0,0,0,0,0,0,0,0,0,0,0,0,0,0,0,0,0,0,0,0,0,0,0,0,0,0,0,0,0,0,0,0,0,0,0,0,0,0,0,0,0,0,0,0,0,0,0,0,0,0,0,0,0,0,0,0,0,0,0,0,0,0,0,0,0,0,0,0,0,0,0,0,0,0,0,0,0,0,0,0,0,0,0,0,0,0,0,0,0,0,0,0,0,0,0,0,0,0,0,0,0,0,0,0,0,0,0,0,0,0,0,0,0,0,0,0,0,0,0,0,0,0,0,0,0,0,0,0,0,0,0,0,0,0,0,0,0,0,0,0,0,0,0,0,0,0,0,0,0,0,0,0,0,0,0,0,0,0,0,0,0,0,0,0,0,0,0,0,0,0,0,0,0,0,0,0,0,0,0,0,0,0,0,0,0,0,0,0,0,0,0,0,0,0,0,0,0,0,0],"id":1,"left_children":[1,3,5,7,9,11,13,15,17,19,21,23,25,27,29,31,33,35,37,39,41,43,45,47,49,51,53,55,57,59,61,63,65,67,69,71,73,75,77,79,81,83,85,87,89,91,93,95,97,99,101,103,105,107,109,111,113,115,117,119,121,123,125,127,129,131,133,135,137,139,141,143,145,147,149,151,153,155,157,159,161,163,165,167,169,171,173,175,177,179,181,183,185,187,189,191,193,195,197,199,201,203,205,207,209,211,213,215,217,219,-1,221,223,225,227,229,231,233,235,237,239,241,243,245,247,249,-1,-1,-1,-1,-1,-1,-1,-1,-1,-1,-1,-1,-1,-1,-1,-1,-1,-1,-1,-1,-1,-1,-1,-1,-1,-1,-1,-1,-1,-1,-1,-1,-1,-1,-1,-1,-1,-1,-1,-1,-1,-1,-1,-1,-1,-1,-1,-1,-1,-1,-1,-1,-1,-1,-1,-1,-1,-1,-1,-1,-1,-1,-1,-1,-1,-1,-1,-1,-1,-1,-1,-1,-1,-1,-1,-1,-1,-1,-1,-1,-1,-1,-1,-1,-1,-1,-1,-1,-1,-1,-1,-1,-1,-1,-1,-1,-1,-1,-1,-1,-1,-1,-1,-1,-1,-1,-1,-1,-1,-1,-1,-1,-1,-1,-1,-1,-1,-1,-1,-1,-1,-1,-1,-1,-1],"loss_changes":[1.8524224E7,3.938716E6,2.616133E6,1.963017E6,7.3420425E5,1.0428161E6,1.37609E6,2.49418E5,6.730825E5,4.917359E5,1.8471956E5,2.0435403E5,2.2506362E5,6.852205E5,2.854725E5,3.71715E4,3.650475E4,3.229315E5,2.8028544E5,5.336947E4,1.3958722E5,6.676452E4,7.0357875E4,4.1489477E4,2.9917836E4,4.532825E4,3.9437438E4,1.9509138E5,1.35165E5,1.49315E5,6.096825E4,1.015E4,1.98905E4,1.482875E4,1.02009375E4,5.5952E4,3.72665E4,4.7885812E4,3.494443E4,9.631344E3,6.0838633E3,4.3949605E4,3.1806219E4,7.8722344E3,1.6533906E4,2.5563E4,1.13313125E4,2.1049943E4,1.1099922E4,1.631075E4,7.918498E3,1.2994844E4,7.1060625E3,7.3476875E3,6.6996562E3,3.0719906E4,2.9469625E4,2.4560125E4,1.99305E4,3.333075E4,2.061175E4,2.637875E4,6.147375E3,4.104E3,1.4909375E3,4.69275E3,3.8895E3,4.314125E3,3.834E3,3.3341875E3,2.7665781E3,1.280875E4,1.07935E4,7.356E3,5.1670156E3,1.9036062E4,1.7974312E4,1.192241E4,7.5427466E3,7.288125E3,2.213961E3,3.2231484E3,2.4016719E3,6.6185957E3,4.7993945E3,5.8992266E3,4.53525E3,1.4889735E3,1.5560879E3,1.4298906E3,1.7547578E3,4.9413906E3,3.9860312E3,7.6250625E3,2.9832812E3,4.4339297E3,2.7393694E3,6.1019023E3,2.9537031E3,2.222004E3,2.3539297E3,5.5624214E3,1.5629475E3,3.9727812E3,2.5418242E3,4.6174375E3,1.4210391E3,1.4090625E3,9.0865625E2,5.9828125E2,0E0,1.7068312E4,1.0918797E4,1.47273125E4,1.10144375E4,1.100325E4,1.299E4,1.26155E4,5.7669375E3,7.956125E3,4.0923125E3,4.92925E3,1.811875E3,8.1463125E3,3.184625E3,3.5121562E3,0E0,0E0,0E0,0E0,0E0,0E0,0E0,0E0,0E0,0E0,0E0,0E0,0E0,0E0,0E0,0E0,0E0,0E0,0E0,0E0,0E0,0E0,0E0,0E0,0E0,0E0,0E0,0E0,0E0,0E0,0E0,0E0,0E0,0E0,0E0,0E0,0E0,0E0,0E0,0E0,0E0,0E0,0E0,0E0,0E0,0E0,0E0,0E0,0E0,0E0,0E0,0E0,0E0,0E0,0E0,0E0,0E0,0E0,0E0,0E0,0E0,0E0,0E0,0E0,0E0,0E0,0E0,0E0,0E0,0E0,0E0,0E0,0E0,0E0,0E0,0E0,0E0,0E0,0E0,0E0,0E0,0E0,0E0,0E0,0E0,0E0,0E0,0E0,0E0,0E0,0E0,0E0,0E0,0E0,0E0,0E0,0E0,0E0,0E0,0E0,0E0,0E0,0E0,0E0,0E0,0E0,0E0,0E0,0E0,0E0,0E0,0E0,0E0,0E0,0E0,0E0,0E0,0E0,0E0,0E0,0E0,0E0,0E0,0E0,0E0],"parents":[2147483647,0,0,1,1,2,2,3,3,4,4,5,5,6,6,7,7,8,8,9,9,10,10,11,11,12,12,13,13,14,14,15,15,16,16,17,17,18,18,19,19,20,20,21,21,22,22,23,23,24,24,25,25,26,26,27,27,28,28,29,29,30,30,31,31,32,32,33,33,34,34,35,35,36,36,37,37,38,38,39,39,40,40,41,41,42,42,43,43,44,44,45,45,46,46,47,47,48,48,49,49,50,50,51,51,52,52,53,53,54,54,55,55,56,56,57,57,58,58,59,59,60,60,61,61,62,62,63,63,64,64,65,65,66,66,67,67,68,68,69,69,70,70,71,71,72,72,73,73,74,74,75,75,76,76,77,77,78,78,79,79,80,80,81,81,82,82,83,83,84,84,85,85,86,86,87,87,88,88,89,89,90,90,91,91,92,92,93,93,94,94,95,95,96,96,97,97,98,98,99,99,100,100,101,101,102,102,103,103,104,104,105,105,106,106,107,107,108,108,109,109,111,111,112,112,113,113,114,114,115,115,116,116,117,117,118,118,119,119,120,120,121,121,122,122,123,123,124,124,125,125],"right_children":[2,4,6,8,10,12,14,16,18,20,22,24,26,28,30,32,34,36,38,40,42,44,46,48,50,52,54,56,58,60,62,64,66,68,70,72,74,76,78,80,82,84,86,88,90,92,94,96,98,100,102,104,106,108,110,112,114,116,118,120,122,124,126,128,130,132,134,136,138,140,142,144,146,148,150,152,154,156,158,160,162,164,166,168,170,172,174,176,178,180,182,184,186,188,190,192,194,196,198,200,202,204,206,208,210,212,214,216,218,220,-1,222,224,226,228,230,232,234,236,238,240,242,244,246,248,250,-1,-1,-1,-1,-1,-1,-1,-1,-1,-1,-1,-1,-1,-1,-1,-1,-1,-1,-1,-1,-1,-1,-1,-1,-1,-1,-1,-1,-1,-1,-1,-1,-1,-1,-1,-1,-1,-1,-1,-1,-1,-1,-1,-1,-1,-1,-1,-1,-1,-1,-1,-1,-1,-1,-1,-1,-1,-1,-1,-1,-1,-1,-1,-1,-1,-1,-1,-1,-1,-1,-1,-1,-1,-1,-1,-1,-1,-1,-1,-1,-1,-1,-1,-1,-1,-1,-1,-1,-1,-1,-1,-1,-1,-1,-1,-1,-1,-1,-1,-1,-1,-1,-1,-1,-1,-1,-1,-1,-1,-1,-1,-1,-1,-1,-1,-1,-1,-1,-1,-1,-1,-1,-1,-1,-1],"split_conditions":[4E0,4.39E0,5E0,2E0,6.8E0,3.69E0,3.8E0,2.85E0,3E0,2E0,2E0,2.49E0,5.78E0,6E0,5.78E0,2.11E0,3.6E0,2.9E0,2.83E0,5.56E0,3E0,8.59E0,8.59E0,1.468E1,1.243E1,4.57E0,7.82E0,2.53E0,2.62E0,6E0,8.13E0,1.153E1,1.243E1,1.243E1,1.339E1,2.21E0,3.62E0,2.15E0,3.58E0,1.633E1,6.16E0,5.5E0,5.44E0,7.57E0,9.86E0,3E0,9.86E0,1.92E0,2.832E1,3.06E0,2.707E1,1.355E1,1.405E1,6.66E0,9.86E0,1.177E1,3.15E0,2.03E0,1.213E1,4.71E0,4.71E0,6E0,9.86E0,1.62E0,2.707E1,2.5E0,2.957E1,3.24E0,2.957E1,4.02E0,2.957E1,1.72E0,1.988E1,7.89E0,1.487E1,1.815E1,1.815E1,1.615E1,1.262E1,4.96E0,3.831E1,1.647E1,1.937E1,4.92E0,6.16E0,1.405E1,5.96E0,1.726E1,1.339E1,9.06E0,7.988E1,7.82E0,7.57E0,3E0,3E0,1.55E0,5.06E0,1.97E0,4.652E1,2.76E0,3.38E0,3.15E0,2.94E0,4.15E0,2.386E1,5.16E0,5.16E0,1.282E1,7.14E0,8.59E0,3.4704583E0,1.99E0,2.386E1,1.509E1,1.509E1,1.355E1,1.075E1,3.2E0,3.064E1,1.102E1,1.565E1,1.075E1,9.28E0,6.8E0,6.8E0,6E0,4.300859E0,-2.1907287E0,-1.990248E0,-2.281708E0,-2.5698545E0,-1.8244622E0,-1.6780392E0,-2.0259855E0,-2.391546E0,-1.5324357E0,-1.3784999E0,-1.7195832E0,-2.1288176E0,-1.2295407E0,-1.0712392E0,-1.4131866E0,-1.8330481E0,-1.5771918E0,-1.3604091E0,-1.1122679E0,-1.6068743E0,-7.980744E-1,-1.0100183E0,-5.2371866E-1,-9.373566E-1,-8.012988E-1,-1.2313212E0,-5.0924915E-1,-9.457518E-1,-2.1594249E-1,-6.1825454E-1,1.0100309E-1,-2.620949E-1,-8.920312E-1,-6.599157E-1,-1.110232E0,-1.6495672E0,-4.1927543E-1,-8.500102E-1,-1.7138624E-1,-6.7045665E-1,-2.7658448E-1,-5.0394263E-2,1.9266915E-1,4.512994E-1,4.7710523E-1,8.268889E-2,7.5696224E-1,1.0302807E0,1.05299465E-1,-2.8797767E-1,4.6292382E-1,1.1657383E-1,7.4573004E-1,1.0022105E0,1.5025644E0,2.0046268E0,7.938294E-1,1.1708843E0,1.3432131E0,1.700309E0,1.5464092E0,2.1653483E0,2.2376797E0,2.8098655E0,-3.738347E-1,-1.9834392E-1,4.9078923E-2,-7.275992E-2,-4.8216796E-1,-2.3787999E-1,-5.9059584E-1,-9.0043133E-1,1.720925E-1,2.9106444E-1,4.1044328E-1,5.4323E-1,2.6884302E-2,2.615391E-1,-3.0033535E-1,-6.672848E-2,6.87803E-1,8.6426204E-1,5.3842187E-1,2.9429987E-1,1.065116E0,1.310276E0,7.623391E-1,1.0106113E0,1.5992737E0,1.3332801E0,1.7959038E0,2.0589163E0,2.3456085E0,2.7033422E0,4.1652852E-1,6.6316545E-1,3.54969E-1,5.285425E-2,8.708207E-1,5.712244E-1,1.1284176E0,8.3139485E-1,1.0645719E0,7.512903E-1,1.3325399E0,1.0601307E0,1.5570877E0,1.7913965E0,1.4057232E0,8.522709E-1,1.4494182E0,1.1987504E0,1.8232592E0,1.5248445E0,2.083533E0,1.8183869E0,2.4918213E0,2.2493765E0,2.1878512E0,2.6505678E0,2.845121E0,3.2687175E0,3.2246282E0,3.933031E0],"split_indices":[11,2,11,11,2,2,2,2,11,11,11,2,2,11,2,2,2,2,2,2,11,2,2,4,4,2,2,2,2,11,2,4,4,4,4,2,2,2,2,4,2,2,2,2,2,11,2,2,4,2,4,4,4,2,2,4,2,2,4,2,2,11,2,2,4,2,4,2,4,2,4,2,4,4,4,4,4,4,4,2,4,4,4,2,2,4,2,4,4,2,1,2,2,11,11,2,4,2,4,2,2,2,2,2,4,2,2,4,2,2,0,2,4,4,4,4,4,2,4,4,4,4,4,2,2,11,0,0,0,0,0,0,0,0,0,0,0,0,0,0,0,0,0,0,0,0,0,0,0,0,0,0,0,0,0,0,0,0,0,0,0,0,0,0,0,0,0,0,0,0,0,0,0,0,0,0,0,0,0,0,0,0,0,0,0,0,0,0,0,0,0,0,0,0,0,0,0,0,0,0,0,0,0,0,0,0,0,0,0,0,0,0,0,0,0,0,0,0,0,0,0,0,0,0,0,0,0,0,0,0,0,0,0,0,0,0,0,0,0,0,0,0,0,0,0,0,0,0,0,0,0],"split_type":[0,0,0,0,0,0,0,0,0,0,0,0,0,0,0,0,0,0,0,0,0,0,0,0,0,0,0,0,0,0,0,0,0,0,0,0,0,0,0,0,0,0,0,0,0,0,0,0,0,0,0,0,0,0,0,0,0,0,0,0,0,0,0,0,0,0,0,0,0,0,0,0,0,0,0,0,0,0,0,0,0,0,0,0,0,0,0,0,0,0,0,0,0,0,0,0,0,0,0,0,0,0,0,0,0,0,0,0,0,0,0,0,0,0,0,0,0,0,0,0,0,0,0,0,0,0,0,0,0,0,0,0,0,0,0,0,0,0,0,0,0,0,0,0,0,0,0,0,0,0,0,0,0,0,0,0,0,0,0,0,0,0,0,0,0,0,0,0,0,0,0,0,0,0,0,0,0,0,0,0,0,0,0,0,0,0,0,0,0,0,0,0,0,0,0,0,0,0,0,0,0,0,0,0,0,0,0,0,0,0,0,0,0,0,0,0,0,0,0,0,0,0,0,0,0,0,0,0,0,0,0,0,0,0,0,0,0,0,0,0,0,0,0,0,0,0,0,0,0,0,0],"sum_hessian":[2.79444E5,1.46201E5,1.33243E5,1.1287E5,3.3331E4,5.0498E4,8.2745E4,3.4958E4,7.7912E4,2.4941E4,8.39E3,3.6349E4,1.4149E4,6.3747E4,1.8998E4,1.8727E4,1.6231E4,4.1885E4,3.6027E4,9.907E3,1.5034E4,4.046E3,4.344E3,1.9237E4,1.7112E4,1.174E4,2.409E3,3.5699E4,2.8048E4,1.5522E4,3.476E3,7.231E3,1.1496E4,9.401E3,6.83E3,2.478E4,1.7105E4,2.1339E4,1.4688E4,6.106E3,3.801E3,8.278E3,6.756E3,2.778E3,1.268E3,3.016E3,1.328E3,1.36E4,5.637E3,1.1758E4,5.354E3,7.281E3,4.459E3,1.919E3,4.9E2,1.8067E4,1.7632E4,1.5009E4,1.3039E4,9.41E3,6.112E3,2.912E3,5.64E2,5.671E3,1.56E3,9.343E3,2.153E3,7.729E3,1.672E3,5.649E3,1.181E3,1.2523E4,1.2257E4,1.0029E4,7.076E3,1.0246E4,1.1093E4,8.79E3,5.898E3,5.464E3,6.42E2,2.148E3,1.653E3,5.309E3,2.969E3,4.284E3,2.472E3,1.584E3,1.194E3,9.14E2,3.54E2,1.667E3,1.349E3,8.42E2,4.86E2,6.219E3,7.381E3,4.1E3,1.537E3,6.296E3,5.462E3,4.201E3,1.153E3,5.404E3,1.877E3,3.416E3,1.043E3,1.176E3,7.43E2,3.93E2,9.7E1,1.1401E4,6.666E3,9.856E3,7.776E3,6.459E3,8.55E3,9.635E3,3.404E3,6.113E3,3.297E3,4.178E3,1.934E3,1.826E3,1.086E3,4.07E2,1.57E2,1.546E3,4.125E3,1.256E3,3.04E2,4.862E3,4.481E3,1.757E3,3.96E2,4.274E3,3.455E3,1.37E3,3.02E2,3.225E3,2.424E3,9.77E2,2.04E2,4.132E3,8.391E3,1.1794E4,4.63E2,7.942E3,2.087E3,6.759E3,3.17E2,9.081E3,1.165E3,1.0051E4,1.042E3,7.979E3,8.11E2,5.257E3,6.41E2,2.848E3,2.616E3,5.48E2,9.4E1,1.957E3,1.91E2,1.551E3,1.02E2,3.076E3,2.233E3,1.751E3,1.218E3,3.863E3,4.21E2,1.281E3,1.191E3,1.482E3,1.02E2,1.045E3,1.49E2,4.56E2,4.58E2,2.31E2,1.23E2,1.16E3,5.07E2,7.76E2,5.73E2,4.74E2,3.68E2,3.22E2,1.64E2,2.27E3,3.949E3,3.637E3,3.744E3,2.107E3,1.993E3,1.102E3,4.35E2,3.076E3,3.22E3,3.049E3,2.413E3,2.512E3,1.689E3,5.31E2,6.22E2,3.258E3,2.146E3,1.212E3,6.65E2,2.176E3,1.24E3,6.62E2,3.81E2,8.59E2,3.17E2,3.49E2,3.94E2,2.33E2,1.6E2,5.027E3,6.374E3,5.103E3,1.563E3,7.765E3,2.091E3,6.193E3,1.583E3,4.998E3,1.461E3,6.045E3,2.505E3,5.587E3,4.048E3,3.198E3,2.06E2,4.249E3,1.864E3,2.692E3,6.05E2,3.182E3,9.96E2,1.351E3,5.83E2,1.218E3,6.08E2,7.65E2,3.21E2,2.61E2,1.46E2],"tree_param":{"num_deleted":"0","num_feature":"12","num_nodes":"251","size_leaf_vector":"1"}},{"base_weights":[3.149344E-4,-6.995402E0,7.6763663E0,-9.714389E0,1.0389941E0,2.571295E0,1.0791844E1,-1.5341674E1,-7.204861E0,-1.2649602E0,8.885659E0,7.897383E-2,9.290014E0,8.220019E0,1.6066048E1,-1.7685661E1,-1.3111901E1,-9.655185E0,-4.3553205E0,-6.221927E0,1.9193536E0,4.507364E0,1.2961626E1,-1.9588969E0,2.3863778E0,7.695699E0,1.739593E1,5.5781093E0,1.1564367E1,1.4434017E1,2.3328394E1,-1.9414148E1,-1.6876362E1,-1.4386935E1,-1.1714979E1,-1.1939947E1,-7.1576715E0,-6.654868E0,-1.8541836E0,-8.016519E0,-3.4021347E0,-5.5458695E-1,4.925947E0,2.0346203E0,9.918906E0,1.1010542E1,1.9793165E1,-1.349625E0,-4.8878136E0,3.0619187E0,2.5033224E-1,6.4176693E0,1.0203988E1,1.5758405E1,2.5572035E1,3.6445503E0,7.269739E0,9.641777E0,1.3078493E1,1.2108889E1,1.7794052E1,2.1696508E1,3.1705076E1,-1.88046E1,-2.1368622E1,-1.635768E1,-1.9652351E1,-1.3821923E1,-1.660967E1,-1.1420626E1,-1.6030958E1,-1.3460036E1,-1.0984323E1,-8.517565E0,-5.719035E0,-5.99867E0,-9.157879E0,-3.2220294E0,-2.981074E-1,-7.5251584E0,-1.0741742E1,-4.3692904E0,-1.823626E0,-2.327814E0,2.1932347E0,2.923612E0,7.2343073E0,1.0397278E0,4.443381E0,7.8787622E0,1.5149366E1,8.66684E0,1.3927793E1,1.7876085E1,2.2717854E1,-2.4612782E0,-1.7643377E-1,-6.1074805E0,-3.5152016E0,2.2031698E0,4.428022E0,-7.960328E-1,1.5030696E0,7.2569923E0,4.662438E0,1.0808052E1,8.001009E0,1.4360743E1,1.8607822E1,2.3456357E0,3.1269536E0,4.6382227E0,2.2607715E0,8.136392E0,5.8256364E0,1.019406E1,7.1650414E0,1.3742529E1,1.1121701E1,1.0743548E1,1.4287619E1,1.6457527E1,1.9904093E1,1.9496712E1,2.5311749E1,2.8996866E1,3.6801723E1,-2.0139382E0,-1.8390168E0,-2.0775878E0,-2.3109832E0,-1.7018946E0,-1.5718169E0,-1.9300234E0,-2.42537E0,-1.4405756E0,-1.3190025E0,-1.5895721E0,-1.9245589E0,-1.2105349E0,-1.0573493E0,-1.5122567E0,-1.9130172E0,-1.320577E0,-1.7332417E0,-1.0573449E0,-1.3007482E0,-8.3497286E-1,-1.2654163E0,-6.328989E-1,-4.58809E-1,-7.821583E-1,-5.2190447E-1,-8.5337114E-1,-1.1629325E0,-2.7202663E-1,-5.709209E-1,1.352177E-2,-2.7521333E-1,-8.73789E-1,-6.501741E-1,-9.9212754E-1,-1.4121197E0,-3.9308098E-1,-7.259093E-1,-1.6069375E-1,-7.5535387E-1,-2.112894E-1,-6.724259E-1,1.0220959E-1,3.7558195E-1,3.269678E-1,-3.882536E-2,5.9928066E-1,8.943233E-1,1.4426383E-1,-8.8689335E-2,4.6242023E-1,-2.5877532E-1,6.713201E-1,9.02208E-1,1.3529557E0,1.8057806E0,7.145147E-1,1.1115335E0,1.2452991E0,1.6540259E0,1.5041848E0,2.0146046E0,2.06163E0,2.530582E0,-1.7966105E-1,-3.4384876E-1,3.8727548E-2,-1.14248216E-1,-5.4413587E-1,-8.510419E-1,-2.974245E-1,-5.944815E-1,1.5757598E-1,2.798487E-1,4.9184322E-1,3.568732E-1,-4.1639082E-2,-3.823984E-1,1.847323E-1,-1.5160084E-1,6.5299416E-1,8.295396E-1,5.192209E-1,2.5316772E-1,1.0049497E0,1.2243292E0,8.474974E-1,5.3964466E-1,1.5088685E0,1.2573799E0,1.9410757E0,1.6436285E0,3.094115E-1,5.2779126E-1,2.9151377E-1,2.6250517E-2,7.200941E-1,9.1292924E-1,6.2796617E-1,2.6787505E-1,8.6939985E-1,1.0833052E0,7.7683514E-1,2.5739428E-1,1.2919745E0,1.4787539E0,1.1454052E0,6.478045E-1,1.1163485E0,7.891633E-1,1.505354E0,1.2857472E0,1.7047694E0,1.471757E0,2.0421312E0,1.7778221E0,1.8151705E0,2.1950548E0,2.3752227E0,2.7512872E0,2.7072551E0,3.298135E0,3.4242656E0,4.0266047E0],"categories":[],"categories_nodes":[],"categories_segments":[],"categories_sizes":[],"default_left":[0,0,0,0,0,0,0,0,0,0,0,0,0,0,0,0,0,0,0,0,0,0,0,0,0,0,0,0,0,0,0,0,0,0,0,0,0,0,0,0,0,0,0,0,0,0,0,0,0,0,0,0,0,0,0,0,0,0,0,0,0,0,0,0,0,0,0,0,0,0,0,0,0,0,0,0,0,0,0,0,0,0,0,0,0,0,0,0,0,0,0,0,0,0,0,0,0,0,0,0,0,0,0,0,0,0,0,0,0,0,0,0,0,0,0,0,0,0,0,0,0,0,0,0,0,0,0,0,0,0,0,0,0,0,0,0,0,0,0,0,0,0,0,0,0,0,0,0,0,0,0,0,0,0,0,0,0,0,0,0,0,0,0,0,0,0,0,0,0,0,0,0,0,0,0,0,0,0,0,0,0,0,0,0,0,0,0,0,0,0,0,0,0,0,0,0,0,0,0,0,0,0,0,0,0,0,0,0,0,0,0,0,0,0,0,0,0,0,0,0,0,0,0,0,0,0,0,0,0,0,0,0,0,0,0,0,0,0,0,0,0,0,0,0,0,0,0,0,0,0,0],"id":2,"left_children":[1,3,5,7,9,11,13,15,17,19,21,23,25,27,29,31,33,35,37,39,41,43,45,47,49,51,53,55,57,59,61,63,65,67,69,71,73,75,77,79,81,83,85,87,89,91,93,95,97,99,101,103,105,107,109,111,113,115,117,119,121,123,125,127,129,131,133,135,137,139,141,143,145,147,149,151,153,155,157,159,161,163,165,167,169,171,173,175,177,179,181,183,185,187,189,191,193,195,197,199,201,203,205,207,209,211,213,215,217,-1,-1,219,221,223,225,227,229,231,233,235,237,239,241,243,245,247,249,-1,-1,-1,-1,-1,-1,-1,-1,-1,-1,-1,-1,-1,-1,-1,-1,-1,-1,-1,-1,-1,-1,-1,-1,-1,-1,-1,-1,-1,-1,-1,-1,-1,-1,-1,-1,-1,-1,-1,-1,-1,-1,-1,-1,-1,-1,-1,-1,-1,-1,-1,-1,-1,-1,-1,-1,-1,-1,-1,-1,-1,-1,-1,-1,-1,-1,-1,-1,-1,-1,-1,-1,-1,-1,-1,-1,-1,-1,-1,-1,-1,-1,-1,-1,-1,-1,-1,-1,-1,-1,-1,-1,-1,-1,-1,-1,-1,-1,-1,-1,-1,-1,-1,-1,-1,-1,-1,-1,-1,-1,-1,-1,-1,-1,-1,-1,-1,-1,-1,-1,-1,-1,-1,-1],"loss_changes":[1.5006106E7,3.1938535E6,2.119183E6,1.542488E6,6.6833206E5,8.456154E5,1.122262E6,1.758455E5,5.274495E5,4.5110247E5,1.496855E5,1.7321458E5,1.7645112E5,4.914085E5,3.211235E5,2.2643E4,3.058975E4,2.3169E5,2.0088694E5,5.6537625E4,1.2943369E5,5.4134164E4,5.7696188E4,3.4900133E4,2.4928258E4,3.6543312E4,2.9654438E4,1.0162544E5,7.1334E4,1.72816E5,6.73195E4,5.828875E3,1.579325E4,1.1103375E4,1.0292875E4,3.066375E4,3.7921E4,2.9834812E4,3.561476E4,9.064969E3,6.6314883E3,4.6522977E4,3.6285547E4,6.6551357E3,1.3422008E4,2.3002562E4,4.9989375E3,2.1119488E4,5.617E3,1.5387711E4,5.4437236E3,1.1115344E4,5.0408125E3,7.1920312E3,3.7627031E3,1.9932828E4,2.0696812E4,1.4725875E4,1.768775E4,3.8794375E4,2.521125E4,3.264575E4,1.00993125E4,1.8395E3,7.955E2,3.72275E3,2.3786875E3,2.466625E3,3.1267188E3,4.35175E3,1.1859062E3,7.82825E3,1.0693E4,6.819625E3,6.47875E3,2.0454125E4,5.7286562E3,1.109768E4,8.325659E3,7.1293438E3,2.7463047E3,3.387629E3,2.0414795E3,5.468957E3,6.8495215E3,4.8241562E3,7.686125E3,1.5289504E3,1.0443262E3,1.1587695E3,1.4281328E3,6.9177344E3,5.5925938E3,3.4735E3,1.534125E3,5.394578E3,4.291657E3,2.8060469E3,2.0681387E3,3.0064414E3,2.1168516E3,2.599811E3,1.9671309E3,3.8097812E3,2.7535781E3,3.1659688E3,9.825781E2,1.4505938E3,7.4978125E2,0E0,0E0,8.321281E3,7.928508E3,9.5529375E3,8.870109E3,8.3829375E3,5.4532344E3,8.619625E3,5.3026875E3,9.5563125E3,5.3283125E3,5.448125E3,3.493125E3,8.1661875E3,4.7461875E3,3.1938438E3,1.0769062E3,0E0,0E0,0E0,0E0,0E0,0E0,0E0,0E0,0E0,0E0,0E0,0E0,0E0,0E0,0E0,0E0,0E0,0E0,0E0,0E0,0E0,0E0,0E0,0E0,0E0,0E0,0E0,0E0,0E0,0E0,0E0,0E0,0E0,0E0,0E0,0E0,0E0,0E0,0E0,0E0,0E0,0E0,0E0,0E0,0E0,0E0,0E0,0E0,0E0,0E0,0E0,0E0,0E0,0E0,0E0,0E0,0E0,0E0,0E0,0E0,0E0,0E0,0E0,0E0,0E0,0E0,0E0,0E0,0E0,0E0,0E0,0E0,0E0,0E0,0E0,0E0,0E0,0E0,0E0,0E0,0E0,0E0,0E0,0E0,0E0,0E0,0E0,0E0,0E0,0E0,0E0,0E0,0E0,0E0,0E0,0E0,0E0,0E0,0E0,0E0,0E0,0E0,0E0,0E0,0E0,0E0,0E0,0E0,0E0,0E0,0E0,0E0,0E0,0E0,0E0,0E0,0E0,0E0,0E0,0E0,0E0,0E0,0E0,0E0],"parents":[2147483647,0,0,1,1,2,2,3,3,4,4,5,5,6,6,7,7,8,8,9,9,10,10,11,11,12,12,13,13,14,14,15,15,16,16,17,17,18,18,19,19,20,20,21,21,22,22,23,23,24,24,25,25,26,26,27,27,28,28,29,29,30,30,31,31,32,32,33,33,34,34,35,35,36,36,37,37,38,38,39,39,40,40,41,41,42,42,43,43,44,44,45,45,46,46,47,47,48,48,49,49,50,50,51,51,52,52,53,53,54,54,55,55,56,56,57,57,58,58,59,59,60,60,61,61,62,62,63,63,64,64,65,65,66,66,67,67,68,68,69,69,70,70,71,71,72,72,73,73,74,74,75,75,76,76,77,77,78,78,79,79,80,80,81,81,82,82,83,83,84,84,85,85,86,86,87,87,88,88,89,89,90,90,91,91,92,92,93,93,94,94,95,95,96,96,97,97,98,98,99,99,100,100,101,101,102,102,103,103,104,104,105,105,106,106,107,107,108,108,111,111,112,112,113,113,114,114,115,115,116,116,117,117,118,118,119,119,120,120,121,121,122,122,123,123,124,124,125,125,126,126],"right_children":[2,4,6,8,10,12,14,16,18,20,22,24,26,28,30,32,34,36,38,40,42,44,46,48,50,52,54,56,58,60,62,64,66,68,70,72,74,76,78,80,82,84,86,88,90,92,94,96,98,100,102,104,106,108,110,112,114,116,118,120,122,124,126,128,130,132,134,136,138,140,142,144,146,148,150,152,154,156,158,160,162,164,166,168,170,172,174,176,178,180,182,184,186,188,190,192,194,196,198,200,202,204,206,208,210,212,214,216,218,-1,-1,220,222,224,226,228,230,232,234,236,238,240,242,244,246,248,250,-1,-1,-1,-1,-1,-1,-1,-1,-1,-1,-1,-1,-1,-1,-1,-1,-1,-1,-1,-1,-1,-1,-1,-1,-1,-1,-1,-1,-1,-1,-1,-1,-1,-1,-1,-1,-1,-1,-1,-1,-1,-1,-1,-1,-1,-1,-1,-1,-1,-1,-1,-1,-1,-1,-1,-1,-1,-1,-1,-1,-1,-1,-1,-1,-1,-1,-1,-1,-1,-1,-1,-1,-1,-1,-1,-1,-1,-1,-1,-1,-1,-1,-1,-1,-1,-1,-1,-1,-1,-1,-1,-1,-1,-1,-1,-1,-1,-1,-1,-1,-1,-1,-1,-1,-1,-1,-1,-1,-1,-1,-1,-1,-1,-1,-1,-1,-1,-1,-1,-1,-1,-1,-1,-1],"split_conditions":[4E0,4.22E0,5E0,2E0,6.8E0,3.73E0,3.39E0,2.7E0,3E0,2E0,2E0,2.51E0,5.88E0,6E0,5.38E0,1.95E0,3.38E0,2.68E0,2.62E0,5.44E0,3E0,8.59E0,9.06E0,2.023E1,1.615E1,4.71E0,8.13E0,2.33E0,2.34E0,6E0,7.57E0,1.097E1,1.565E1,1.153E1,2.076E1,1.97E0,3.33E0,1.156E1,3.28E0,1.339E1,6.16E0,5.26E0,5.11E0,7.82E0,9.86E0,3E0,3E0,1.99E0,1.95E0,3.18E0,3.11E0,1.097E1,1.548E1,6.98E0,9.86E0,1.041E1,9.92E0,1.615E1,1.227E1,4.22E0,4.15E0,6E0,9.06E0,1.5E0,2.076E1,2.33E0,3.831E1,3.02E0,2.707E1,3.78E0,3.831E1,1.487E1,9.92E0,1.633E1,3.85E0,1.87E0,2.864E1,1.067E1,9.84E0,4.71E0,2.957E1,1.382E1,2.864E1,1.487E1,5.96E0,1.615E1,5.78E0,1.156E1,2.707E1,9.06E0,7.988E1,7.82E0,7.82E0,9.86E0,9.86E0,8.91E0,8.91E0,3.255E1,3.255E1,2.82E0,6.66E0,3.255E1,3.255E1,4.22E0,2.707E1,5.32E0,2.864E1,1.189E1,1.3E1,2.3456357E0,3.1269536E0,1.74E0,2.236E1,2.83E0,2.707E1,1.74E0,3.064E1,2.87E0,3.064E1,1.784E1,9.47E0,1.075E1,1.227E1,6.27E0,6.16E0,6E0,6E0,-2.0139382E0,-1.8390168E0,-2.0775878E0,-2.3109832E0,-1.7018946E0,-1.5718169E0,-1.9300234E0,-2.42537E0,-1.4405756E0,-1.3190025E0,-1.5895721E0,-1.9245589E0,-1.2105349E0,-1.0573493E0,-1.5122567E0,-1.9130172E0,-1.320577E0,-1.7332417E0,-1.0573449E0,-1.3007482E0,-8.3497286E-1,-1.2654163E0,-6.328989E-1,-4.58809E-1,-7.821583E-1,-5.2190447E-1,-8.5337114E-1,-1.1629325E0,-2.7202663E-1,-5.709209E-1,1.352177E-2,-2.7521333E-1,-8.73789E-1,-6.501741E-1,-9.9212754E-1,-1.4121197E0,-3.9308098E-1,-7.259093E-1,-1.6069375E-1,-7.5535387E-1,-2.112894E-1,-6.724259E-1,1.0220959E-1,3.7558195E-1,3.269678E-1,-3.882536E-2,5.9928066E-1,8.943233E-1,1.4426383E-1,-8.8689335E-2,4.6242023E-1,-2.5877532E-1,6.713201E-1,9.02208E-1,1.3529557E0,1.8057806E0,7.145147E-1,1.1115335E0,1.2452991E0,1.6540259E0,1.5041848E0,2.0146046E0,2.06163E0,2.530582E0,-1.7966105E-1,-3.4384876E-1,3.8727548E-2,-1.14248216E-1,-5.4413587E-1,-8.510419E-1,-2.974245E-1,-5.944815E-1,1.5757598E-1,2.798487E-1,4.9184322E-1,3.568732E-1,-4.1639082E-2,-3.823984E-1,1.847323E-1,-1.5160084E-1,6.5299416E-1,8.295396E-1,5.192209E-1,2.5316772E-1,1.0049497E0,1.2243292E0,8.474974E-1,5.3964466E-1,1.5088685E0,1.2573799E0,1.9410757E0,1.6436285E0,3.094115E-1,5.2779126E-1,2.9151377E-1,2.6250517E-2,7.200941E-1,9.1292924E-1,6.2796617E-1,2.6787505E-1,8.6939985E-1,1.0833052E0,7.7683514E-1,2.5739428E-1,1.2919745E0,1.4787539E0,1.1454052E0,6.478045E-1,1.1163485E0,7.891633E-1,1.505354E0,1.2857472E0,1.7047694E0,1.471757E0,2.0421312E0,1.7778221E0,1.8151705E0,2.1950548E0,2.3752227E0,2.7512872E0,2.7072551E0,3.298135E0,3.4242656E0,4.0266047E0],"split_indices":[11,2,11,11,2,2,2,2,11,11,11,2,2,11,2,2,2,2,2,2,11,2,2,4,4,2,2,2,2,11,2,4,4,4,4,2,2,4,2,4,2,2,2,2,2,11,11,2,2,2,2,4,4,2,2,4,4,4,4,2,2,11,2,2,4,2,4,2,4,2,4,4,4,4,2,2,4,4,4,2,4,4,4,4,2,4,2,4,4,2,1,2,2,2,2,4,4,4,4,2,4,4,4,2,4,2,4,4,4,0,0,2,4,2,4,2,4,2,4,4,4,4,4,2,2,11,11,0,0,0,0,0,0,0,0,0,0,0,0,0,0,0,0,0,0,0,0,0,0,0,0,0,0,0,0,0,0,0,0,0,0,0,0,0,0,0,0,0,0,0,0,0,0,0,0,0,0,0,0,0,0,0,0,0,0,0,0,0,0,0,0,0,0,0,0,0,0,0,0,0,0,0,0,0,0,0,0,0,0,0,0,0,0,0,0,0,0,0,0,0,0,0,0,0,0,0,0,0,0,0,0,0,0,0,0,0,0,0,0,0,0,0,0,0,0,0,0,0,0,0,0],"split_type":[0,0,0,0,0,0,0,0,0,0,0,0,0,0,0,0,0,0,0,0,0,0,0,0,0,0,0,0,0,0,0,0,0,0,0,0,0,0,0,0,0,0,0,0,0,0,0,0,0,0,0,0,0,0,0,0,0,0,0,0,0,0,0,0,0,0,0,0,0,0,0,0,0,0,0,0,0,0,0,0,0,0,0,0,0,0,0,0,0,0,0,0,0,0,0,0,0,0,0,0,0,0,0,0,0,0,0,0,0,0,0,0,0,0,0,0,0,0,0,0,0,0,0,0,0,0,0,0,0,0,0,0,0,0,0,0,0,0,0,0,0,0,0,0,0,0,0,0,0,0,0,0,0,0,0,0,0,0,0,0,0,0,0,0,0,0,0,0,0,0,0,0,0,0,0,0,0,0,0,0,0,0,0,0,0,0,0,0,0,0,0,0,0,0,0,0,0,0,0,0,0,0,0,0,0,0,0,0,0,0,0,0,0,0,0,0,0,0,0,0,0,0,0,0,0,0,0,0,0,0,0,0,0,0,0,0,0,0,0,0,0,0,0,0,0,0,0,0,0,0,0],"sum_hessian":[2.79444E5,1.46201E5,1.33243E5,1.09234E5,3.6967E4,5.0498E4,8.2745E4,3.3688E4,7.5546E4,2.8577E4,8.39E3,3.6835E4,1.3663E4,5.5624E4,2.7121E4,1.642E4,1.7268E4,4.0617E4,3.4929E4,1.1177E4,1.74E4,4.046E3,4.344E3,1.956E4,1.7275E4,1.1419E4,2.244E3,3.1077E4,2.4547E4,2.2147E4,4.974E3,5.229E3,1.1191E4,9.023E3,8.245E3,2.121E4,1.9407E4,1.8197E4,1.6732E4,6.829E3,4.348E3,9.546E3,7.854E3,2.778E3,1.268E3,3.381E3,9.63E2,1.6193E4,3.367E3,1.3124E4,4.151E3,7.567E3,3.852E3,1.872E3,3.72E2,1.4503E4,1.6574E4,1.0818E4,1.3729E4,1.3092E4,9.055E3,4.166E3,8.08E2,3.994E3,1.235E3,9.435E3,1.756E3,7.2E3,1.823E3,7.722E3,5.23E2,8.182E3,1.3028E4,9.974E3,9.433E3,1.442E4,3.777E3,8.904E3,7.828E3,5.789E3,1.04E3,2.695E3,1.653E3,5.802E3,3.744E3,4.207E3,3.647E3,1.967E3,8.11E2,9.14E2,3.54E2,1.877E3,1.504E3,5.86E2,3.77E2,8.314E3,7.879E3,1.781E3,1.586E3,8.06E3,5.064E3,2.262E3,1.889E3,5.117E3,2.45E3,3.02E3,8.32E2,1.26E3,6.12E2,2.75E2,9.7E1,8.44E3,6.063E3,1.0355E4,6.219E3,8.843E3,1.975E3,1.0246E4,3.483E3,8.052E3,5.04E3,5.549E3,3.506E3,2.594E3,1.572E3,5.32E2,2.76E2,9.35E2,3.059E3,9.31E2,3.04E2,4.626E3,4.809E3,1.636E3,1.2E2,3.731E3,3.469E3,1.44E3,3.83E2,4.263E3,3.459E3,4.09E2,1.14E2,7.682E3,5E2,1.0834E4,2.194E3,9.588E3,3.86E2,6.125E3,3.308E3,4.317E3,1.0103E4,3.019E3,7.58E2,7.411E3,1.493E3,6.654E3,1.174E3,2.646E3,3.143E3,8.4E2,2E2,2.342E3,3.53E2,1.594E3,5.9E1,5.533E3,2.69E2,2.141E3,1.603E3,3.809E3,3.98E2,2.115E3,1.532E3,1.627E3,3.4E2,7.91E2,2E1,4.56E2,4.58E2,2.31E2,1.23E2,1.16E3,7.17E2,9.65E2,5.39E2,2.64E2,3.22E2,2.13E2,1.64E2,4.95E3,3.364E3,4.976E3,2.903E3,1.397E3,3.84E2,1.299E3,2.87E2,3.926E3,4.134E3,3.221E3,1.843E3,2.011E3,2.51E2,1.696E3,1.93E2,3.014E3,2.103E3,1.961E3,4.89E2,1.981E3,1.039E3,7.02E2,1.3E2,8.9E2,3.7E2,4.41E2,1.71E2,2.474E3,5.966E3,4.567E3,1.496E3,5.336E3,5.019E3,5.434E3,7.85E2,2.646E3,6.197E3,1.745E3,2.3E2,5.74E3,4.506E3,3.249E3,2.34E2,7.016E3,1.036E3,3.276E3,1.764E3,4.137E3,1.412E3,2.813E3,6.93E2,1.681E3,9.13E2,9.27E2,6.45E2,3.64E2,1.68E2,1.65E2,1.11E2],"tree_param":{"num_deleted":"0","num_feature":"12","num_nodes":"251","size_leaf_vector":"1"}},{"base_weights":[4.0361102E-4,-6.296051E0,6.909189E0,-8.424381E0,2.0405447E0,2.314476E0,9.71321E0,-1.343794E1,-6.1612496E0,-9.1478415E-3,9.045616E0,-1.9618902E-1,7.738864E0,7.5470233E0,1.480412E1,-1.5461934E1,-1.0836691E1,-8.353927E0,-3.6004527E0,-4.3435774E0,3.0216563E0,5.11725E0,1.265552E1,-2.1565685E0,1.5166134E0,6.1172566E0,1.4194563E1,5.161616E0,1.0556299E1,1.3056393E1,2.0365387E1,-1.6913822E1,-1.4418004E1,-1.1970089E1,-9.398088E0,-1.0264037E1,-5.3788347E0,-5.4738865E0,-5.623185E-1,-5.987772E0,-1.8153238E0,7.5148237E-1,5.7223916E0,3.2871218E0,1.0542811E1,1.0692708E1,1.7822264E1,-1.5780034E0,-4.693481E0,2.360086E0,6.9922306E-2,4.885999E0,7.964271E0,1.2296409E1,2.0125128E1,3.3547235E0,6.757413E0,8.852411E0,1.2071023E1,1.0962706E1,1.614651E1,1.8900154E1,2.7690203E1,-1.6353409E1,-1.8744057E1,-1.3822082E1,-1.6389977E1,-1.1504965E1,-1.4380034E1,-8.828257E0,-1.1358406E1,-1.1505912E1,-8.88657E0,-6.4154305E0,-3.8685665E0,-6.769352E0,-4.1107197E0,-1.5479039E0,1.2094256E0,-5.461539E0,-8.012777E0,-2.9720998E0,-7.1619385E-1,-7.046585E-1,3.2211506E0,4.449772E0,8.484742E0,2.078404E0,5.4912353E0,8.121839E0,1.3643328E1,8.606486E0,1.3472181E1,1.6094473E1,2.0458216E1,-2.87856E0,-9.1073453E-1,-4.164155E0,-7.2643347E0,1.427937E0,3.3324056E0,6.923986E-1,-1.6065345E0,5.657833E0,3.2315586E0,8.5949745E0,6.284818E0,1.1249285E1,1.4289279E1,1.8401276E1,2.6397081E1,4.373717E0,2.2540753E0,7.147947E0,4.0557766E0,9.190804E0,5.5481534E0,1.2505384E1,9.578006E0,9.890906E0,1.2581885E1,1.5189954E1,1.7901075E1,1.6891085E1,2.2179655E1,2.5509432E1,3.3148453E1,-1.7340754E0,-1.5711309E0,-1.8204235E0,-2.0549798E0,-1.4389495E0,-1.3148093E0,-1.5533018E0,-1.817446E0,-1.2076104E0,-1.086286E0,-1.3904358E0,-1.8732712E0,-9.5444864E-1,-8.147421E-1,-1.0924115E0,-1.4873209E0,-1.1306425E0,-1.5636793E0,-8.4521353E-1,-1.0438894E0,-6.094255E-1,-8.190179E-1,-3.520157E-1,-5.924357E-1,-6.120367E-1,-8.8400215E-1,-3.7991616E-1,-7.501921E-1,-1.278968E-1,-5.1260436E-1,1.4644991E-1,-2.2504161E-1,-6.3827795E-1,-4.4960853E-1,-7.484901E-1,-1.1948212E0,-2.7637374E-1,-9.0310574E-1,-2.8926954E-2,-2.578543E-1,-1.5914592E-1,2.0416457E-2,2.294282E-1,4.5895863E-1,4.8445043E-1,1.380587E-1,8.903164E-1,4.5641786E-1,2.3037015E-1,-2.823365E-1,5.6536216E-1,-3.6020245E-2,8.278586E-1,1.5931019E-1,1.6225237E0,1.2151862E0,7.5325954E-1,1.0721229E0,1.243841E0,1.5781766E0,1.3543339E0,1.813768E0,1.8564304E0,2.2790573E0,-2.1724653E-1,-3.6832643E-1,-3.3167306E-2,-1.6827272E-1,-5.5112857E-1,-3.3870837E-1,-8.601428E-1,-6.5624285E-1,1.0266423E-1,1.9623838E-1,2.8986388E-1,3.8973585E-1,-2.3853285E-2,1.6953108E-1,-2.5895938E-1,-6.0988616E-2,5.069061E-1,6.399445E-1,3.823533E-1,1.7388807E-1,7.887042E-1,9.65394E-1,6.5737665E-1,2.9408178E-1,1.1933072E0,9.686511E-1,1.4851702E0,1.1882913E0,1.7393799E0,2.0260704E0,2.344733E0,2.817449E0,2.6946595E-1,4.8595577E-1,8.726287E-2,3.0837208E-1,6.224519E-1,8.1033146E-1,4.8436195E-1,2.104203E-1,7.9638886E-1,9.897941E-1,6.4324224E-1,2.4113996E-1,1.1701711E0,1.345797E0,1.0021925E0,6.146977E-1,1.0626935E0,8.464751E-1,1.2902194E0,9.394947E-1,1.552527E0,1.2635324E0,1.8256949E0,1.5190005E0,1.5865229E0,1.9234747E0,2.0955408E0,2.4371269E0,2.3776145E0,2.9156973E0,3.083902E0,3.6275392E0],"categories":[],"categories_nodes":[],"categories_segments":[],"categories_sizes":[],"default_left":[0,0,0,0,0,0,0,0,0,0,0,0,0,0,0,0,0,0,0,0,0,0,0,0,0,0,0,0,0,0,0,0,0,0,0,0,0,0,0,0,0,0,0,0,0,0,0,0,0,0,0,0,0,0,0,0,0,0,0,0,0,0,0,0,0,0,0,0,0,0,0,0,0,0,0,0,0,0,0,0,0,0,0,0,0,0,0,0,0,0,0,0,0,0,0,0,0,0,0,0,0,0,0,0,0,0,0,0,0,0,0,0,0,0,0,0,0,0,0,0,0,0,0,0,0,0,0,0,0,0,0,0,0,0,0,0,0,0,0,0,0,0,0,0,0,0,0,0,0,0,0,0,0,0,0,0,0,0,0,0,0,0,0,0,0,0,0,0,0,0,0,0,0,0,0,0,0,0,0,0,0,0,0,0,0,0,0,0,0,0,0,0,0,0,0,0,0,0,0,0,0,0,0,0,0,0,0,0,0,0,0,0,0,0,0,0,0,0,0,0,0,0,0,0,0,0,0,0,0,0,0,0,0,0,0,0,0,0,0,0,0,0,0,0,0,0,0,0,0,0,0,0,0,0,0],"id":3,"left_children":[1,3,5,7,9,11,13,15,17,19,21,23,25,27,29,31,33,35,37,39,41,43,45,47,49,51,53,55,57,59,61,63,65,67,69,71,73,75,77,79,81,83,85,87,89,91,93,95,97,99,101,103,105,107,109,111,113,115,117,119,121,123,125,127,129,131,133,135,137,139,141,143,145,147,149,151,153,155,157,159,161,163,165,167,169,171,173,175,177,179,181,183,185,187,189,191,193,195,197,199,201,203,205,207,209,211,213,215,217,219,221,223,225,227,229,231,233,235,237,239,241,243,245,247,249,251,253,-1,-1,-1,-1,-1,-1,-1,-1,-1,-1,-1,-1,-1,-1,-1,-1,-1,-1,-1,-1,-1,-1,-1,-1,-1,-1,-1,-1,-1,-1,-1,-1,-1,-1,-1,-1,-1,-1,-1,-1,-1,-1,-1,-1,-1,-1,-1,-1,-1,-1,-1,-1,-1,-1,-1,-1,-1,-1,-1,-1,-1,-1,-1,-1,-1,-1,-1,-1,-1,-1,-1,-1,-1,-1,-1,-1,-1,-1,-1,-1,-1,-1,-1,-1,-1,-1,-1,-1,-1,-1,-1,-1,-1,-1,-1,-1,-1,-1,-1,-1,-1,-1,-1,-1,-1,-1,-1,-1,-1,-1,-1,-1,-1,-1,-1,-1,-1,-1,-1,-1,-1,-1,-1,-1,-1,-1,-1,-1],"loss_changes":[1.215614E7,2.594083E6,1.7166495E6,1.321403E6,4.2694244E5,6.877384E5,9.12399E5,1.90538E5,4.5055675E5,3.0222538E5,9.538775E4,1.1591926E5,1.6718062E5,4.1664175E5,2.39788E5,3.0629E4,2.5737625E4,2.4561025E5,2.1069381E5,3.934289E4,8.30052E4,3.198789E4,3.5375125E4,2.3620742E4,2.2482832E4,2.9006531E4,3.5854188E4,9.335156E4,6.61375E4,1.2142175E5,6.284175E4,8.42625E3,1.370575E4,9.770375E3,7.709E3,4.4932E4,2.6440625E4,4.0408625E4,2.4660035E4,6.0686562E3,4.742912E3,2.64594E4,2.1698094E4,6.4171836E3,5.991789E3,1.4635656E4,4.061125E3,1.1374508E4,4.0372422E3,1.0544207E4,7.0837173E3,9.770859E3,5.3555E3,4.9143438E3,7.9042812E3,1.7025406E4,1.8113125E4,1.3459375E4,1.4591E4,1.9324625E4,1.2465E4,3.206175E4,1.08433125E4,3.865E3,1.56475E3,3.29525E3,3.9169375E3,2.5955E3,2.7002812E3,2.5657188E3,2.2355625E3,1.1228875E4,8.332125E3,5.66325E3,4.9091406E3,1.5721125E4,1.1762656E4,8.725266E3,4.4582275E3,4.0234688E3,2.3640078E3,2.2701924E3,1.5218364E3,3.731044E3,3.4508262E3,5.124047E3,3.1565938E3,1.7292988E3,8.135039E2,4.565371E2,1.169875E3,3.2258125E3,2.4037812E3,2.8140938E3,1.2466562E3,2.5176367E3,3.8734146E3,2.5784805E3,4.2125586E2,1.2727998E3,1.3845547E3,4.621934E3,1.799228E3,2.2494375E3,2.150287E3,2.7051875E3,1.3314727E3,1.5931094E3,9.5225E2,7.940625E2,2.0446875E2,6.419953E3,8.368508E3,1.32021875E4,3.3324023E3,9.42925E3,3.1049375E3,8.697125E3,3.0150469E3,6.9933125E3,4.4315625E3,4.016625E3,2.300625E3,7.044625E3,4.4985625E3,3.77025E3,8.8165625E2,0E0,0E0,0E0,0E0,0E0,0E0,0E0,0E0,0E0,0E0,0E0,0E0,0E0,0E0,0E0,0E0,0E0,0E0,0E0,0E0,0E0,0E0,0E0,0E0,0E0,0E0,0E0,0E0,0E0,0E0,0E0,0E0,0E0,0E0,0E0,0E0,0E0,0E0,0E0,0E0,0E0,0E0,0E0,0E0,0E0,0E0,0E0,0E0,0E0,0E0,0E0,0E0,0E0,0E0,0E0,0E0,0E0,0E0,0E0,0E0,0E0,0E0,0E0,0E0,0E0,0E0,0E0,0E0,0E0,0E0,0E0,0E0,0E0,0E0,0E0,0E0,0E0,0E0,0E0,0E0,0E0,0E0,0E0,0E0,0E0,0E0,0E0,0E0,0E0,0E0,0E0,0E0,0E0,0E0,0E0,0E0,0E0,0E0,0E0,0E0,0E0,0E0,0E0,0E0,0E0,0E0,0E0,0E0,0E0,0E0,0E0,0E0,0E0,0E0,0E0,0E0,0E0,0E0,0E0,0E0,0E0,0E0,0E0,0E0,0E0,0E0,0E0,0E0],"parents":[2147483647,0,0,1,1,2,2,3,3,4,4,5,5,6,6,7,7,8,8,9,9,10,10,11,11,12,12,13,13,14,14,15,15,16,16,17,17,18,18,19,19,20,20,21,21,22,22,23,23,24,24,25,25,26,26,27,27,28,28,29,29,30,30,31,31,32,32,33,33,34,34,35,35,36,36,37,37,38,38,39,39,40,40,41,41,42,42,43,43,44,44,45,45,46,46,47,47,48,48,49,49,50,50,51,51,52,52,53,53,54,54,55,55,56,56,57,57,58,58,59,59,60,60,61,61,62,62,63,63,64,64,65,65,66,66,67,67,68,68,69,69,70,70,71,71,72,72,73,73,74,74,75,75,76,76,77,77,78,78,79,79,80,80,81,81,82,82,83,83,84,84,85,85,86,86,87,87,88,88,89,89,90,90,91,91,92,92,93,93,94,94,95,95,96,96,97,97,98,98,99,99,100,100,101,101,102,102,103,103,104,104,105,105,106,106,107,107,108,108,109,109,110,110,111,111,112,112,113,113,114,114,115,115,116,116,117,117,118,118,119,119,120,120,121,121,122,122,123,123,124,124,125,125,126,126],"right_children":[2,4,6,8,10,12,14,16,18,20,22,24,26,28,30,32,34,36,38,40,42,44,46,48,50,52,54,56,58,60,62,64,66,68,70,72,74,76,78,80,82,84,86,88,90,92,94,96,98,100,102,104,106,108,110,112,114,116,118,120,122,124,126,128,130,132,134,136,138,140,142,144,146,148,150,152,154,156,158,160,162,164,166,168,170,172,174,176,178,180,182,184,186,188,190,192,194,196,198,200,202,204,206,208,210,212,214,216,218,220,222,224,226,228,230,232,234,236,238,240,242,244,246,248,250,252,254,-1,-1,-1,-1,-1,-1,-1,-1,-1,-1,-1,-1,-1,-1,-1,-1,-1,-1,-1,-1,-1,-1,-1,-1,-1,-1,-1,-1,-1,-1,-1,-1,-1,-1,-1,-1,-1,-1,-1,-1,-1,-1,-1,-1,-1,-1,-1,-1,-1,-1,-1,-1,-1,-1,-1,-1,-1,-1,-1,-1,-1,-1,-1,-1,-1,-1,-1,-1,-1,-1,-1,-1,-1,-1,-1,-1,-1,-1,-1,-1,-1,-1,-1,-1,-1,-1,-1,-1,-1,-1,-1,-1,-1,-1,-1,-1,-1,-1,-1,-1,-1,-1,-1,-1,-1,-1,-1,-1,-1,-1,-1,-1,-1,-1,-1,-1,-1,-1,-1,-1,-1,-1,-1,-1,-1,-1,-1,-1],"split_conditions":[4E0,4.6E0,5E0,2E0,7.14E0,3.53E0,3.5E0,2.97E0,3E0,2E0,2E0,2.31E0,5.44E0,6E0,5.16E0,2.2E0,3.71E0,2.99E0,2.94E0,5.78E0,3E0,9.06E0,9.06E0,1.979E1,1.097E1,4.34E0,7.35E0,2.37E0,2.42E0,6E0,7.35E0,1.041E1,1.03E1,1.382E1,1.097E1,2.28E0,3.76E0,2.23E0,3.78E0,1.097E1,6.39E0,5.7E0,5.78E0,8.13E0,9.86E0,3E0,3E0,1.72E0,3.831E1,2.87E0,2.386E1,1.152E1,1.227E1,6.27E0,9.06E0,9.03E0,1.824E1,2.023E1,1.784E1,4.22E0,4.25E0,6E0,9.06E0,1.78E0,2.541E1,2.6E0,2.076E1,3.34E0,3.831E1,4.09E0,3.658E1,1.988E1,8.36E0,9.35E0,9.35E0,1.13E1,1.937E1,1.937E1,1.937E1,5.16E0,3.658E1,2.957E1,1.041E1,5.06E0,6.39E0,1.262E1,1.405E1,2.076E1,2.076E1,2.076E1,1.1911E0,8.13E0,8.13E0,9.86E0,9.86E0,7.24E0,8.13E0,1.69E0,1.67E0,2.63E0,3.22E0,2.88E0,2.85E0,3.93E0,2.541E1,4.87E0,3.255E1,1.102E1,1.784E1,8.13E0,9.86E0,1.67E0,1.81E0,2.88E0,2.864E1,1.86E0,3.064E1,2.94E0,3.064E1,9.92E0,1.979E1,1.784E1,1.647E1,6.16E0,6.05E0,6E0,6E0,-1.7340754E0,-1.5711309E0,-1.8204235E0,-2.0549798E0,-1.4389495E0,-1.3148093E0,-1.5533018E0,-1.817446E0,-1.2076104E0,-1.086286E0,-1.3904358E0,-1.8732712E0,-9.5444864E-1,-8.147421E-1,-1.0924115E0,-1.4873209E0,-1.1306425E0,-1.5636793E0,-8.4521353E-1,-1.0438894E0,-6.094255E-1,-8.190179E-1,-3.520157E-1,-5.924357E-1,-6.120367E-1,-8.8400215E-1,-3.7991616E-1,-7.501921E-1,-1.278968E-1,-5.1260436E-1,1.4644991E-1,-2.2504161E-1,-6.3827795E-1,-4.4960853E-1,-7.484901E-1,-1.1948212E0,-2.7637374E-1,-9.0310574E-1,-2.8926954E-2,-2.578543E-1,-1.5914592E-1,2.0416457E-2,2.294282E-1,4.5895863E-1,4.8445043E-1,1.380587E-1,8.903164E-1,4.5641786E-1,2.3037015E-1,-2.823365E-1,5.6536216E-1,-3.6020245E-2,8.278586E-1,1.5931019E-1,1.6225237E0,1.2151862E0,7.5325954E-1,1.0721229E0,1.243841E0,1.5781766E0,1.3543339E0,1.813768E0,1.8564304E0,2.2790573E0,-2.1724653E-1,-3.6832643E-1,-3.3167306E-2,-1.6827272E-1,-5.5112857E-1,-3.3870837E-1,-8.601428E-1,-6.5624285E-1,1.0266423E-1,1.9623838E-1,2.8986388E-1,3.8973585E-1,-2.3853285E-2,1.6953108E-1,-2.5895938E-1,-6.0988616E-2,5.069061E-1,6.399445E-1,3.823533E-1,1.7388807E-1,7.887042E-1,9.65394E-1,6.5737665E-1,2.9408178E-1,1.1933072E0,9.686511E-1,1.4851702E0,1.1882913E0,1.7393799E0,2.0260704E0,2.344733E0,2.817449E0,2.6946595E-1,4.8595577E-1,8.726287E-2,3.0837208E-1,6.224519E-1,8.1033146E-1,4.8436195E-1,2.104203E-1,7.9638886E-1,9.897941E-1,6.4324224E-1,2.4113996E-1,1.1701711E0,1.345797E0,1.0021925E0,6.146977E-1,1.0626935E0,8.464751E-1,1.2902194E0,9.394947E-1,1.552527E0,1.2635324E0,1.8256949E0,1.5190005E0,1.5865229E0,1.9234747E0,2.0955408E0,2.4371269E0,2.3776145E0,2.9156973E0,3.083902E0,3.6275392E0],"split_indices":[11,2,11,11,2,2,2,2,11,11,11,2,2,11,2,2,2,2,2,2,11,2,2,4,4,2,2,2,2,11,2,4,4,4,4,2,2,2,2,4,2,2,2,2,2,11,11,2,4,2,4,4,4,2,2,4,4,4,4,2,2,11,2,2,4,2,4,2,4,2,4,4,4,4,4,4,4,4,4,2,4,4,4,2,2,4,4,4,4,4,3,2,2,2,2,4,4,2,2,2,2,2,2,2,4,2,4,4,4,2,2,2,2,2,4,2,4,2,4,4,4,4,4,2,2,11,11,0,0,0,0,0,0,0,0,0,0,0,0,0,0,0,0,0,0,0,0,0,0,0,0,0,0,0,0,0,0,0,0,0,0,0,0,0,0,0,0,0,0,0,0,0,0,0,0,0,0,0,0,0,0,0,0,0,0,0,0,0,0,0,0,0,0,0,0,0,0,0,0,0,0,0,0,0,0,0,0,0,0,0,0,0,0,0,0,0,0,0,0,0,0,0,0,0,0,0,0,0,0,0,0,0,0,0,0,0,0,0,0,0,0,0,0,0,0,0,0,0,0,0,0,0,0,0,0],"split_type":[0,0,0,0,0,0,0,0,0,0,0,0,0,0,0,0,0,0,0,0,0,0,0,0,0,0,0,0,0,0,0,0,0,0,0,0,0,0,0,0,0,0,0,0,0,0,0,0,0,0,0,0,0,0,0,0,0,0,0,0,0,0,0,0,0,0,0,0,0,0,0,0,0,0,0,0,0,0,0,0,0,0,0,0,0,0,0,0,0,0,0,0,0,0,0,0,0,0,0,0,0,0,0,0,0,0,0,0,0,0,0,0,0,0,0,0,0,0,0,0,0,0,0,0,0,0,0,0,0,0,0,0,0,0,0,0,0,0,0,0,0,0,0,0,0,0,0,0,0,0,0,0,0,0,0,0,0,0,0,0,0,0,0,0,0,0,0,0,0,0,0,0,0,0,0,0,0,0,0,0,0,0,0,0,0,0,0,0,0,0,0,0,0,0,0,0,0,0,0,0,0,0,0,0,0,0,0,0,0,0,0,0,0,0,0,0,0,0,0,0,0,0,0,0,0,0,0,0,0,0,0,0,0,0,0,0,0,0,0,0,0,0,0,0,0,0,0,0,0,0,0,0,0,0,0],"sum_hessian":[2.79444E5,1.46201E5,1.33243E5,1.16467E5,2.9734E4,5.0498E4,8.2745E4,3.6221E4,8.0246E4,2.3004E4,6.73E3,3.4521E4,1.5977E4,5.8048E4,2.4697E4,2.0368E4,1.5853E4,4.3229E4,3.7017E4,9.466E3,1.3538E4,3.224E3,3.506E3,1.6097E4,1.8424E4,1.2771E4,3.206E3,3.2382E4,2.5666E4,1.8794E4,5.903E3,8.513E3,1.1855E4,8.863E3,6.99E3,2.6325E4,1.6904E4,2.2897E4,1.412E4,5.735E3,3.731E3,7.356E3,6.182E3,2.412E3,8.12E2,2.543E3,9.63E2,1.3109E4,2.988E3,1.1638E4,6.786E3,7.665E3,5.106E3,2.431E3,7.75E2,1.5188E4,1.7194E4,1.2082E4,1.3584E4,1.1206E4,7.588E3,4.922E3,9.81E2,6.525E3,1.988E3,9.11E3,2.745E3,7.434E3,1.429E3,5.42E3,1.57E3,1.384E4,1.2485E4,1.0022E4,6.882E3,1.1738E4,1.1159E4,9.073E3,5.047E3,4.555E3,1.18E3,1.817E3,1.914E3,4.628E3,2.728E3,4.234E3,1.948E3,1.559E3,8.53E2,4.58E2,3.54E2,1.455E3,1.088E3,5.86E2,3.77E2,4.444E3,8.665E3,2.48E3,5.08E2,5.943E3,5.695E3,4.949E3,1.837E3,5.225E3,2.44E3,3.709E3,1.397E3,1.598E3,8.33E2,6.11E2,1.64E2,7.885E3,7.303E3,1.5021E4,2.173E3,1.0958E4,1.124E3,1.1565E4,2.019E3,6.747E3,4.459E3,4.917E3,2.671E3,3.056E3,1.866E3,7.05E2,2.76E2,2.561E3,3.964E3,1.539E3,4.49E2,4.935E3,4.175E3,1.861E3,8.84E2,3.925E3,3.509E3,1.292E3,1.37E2,2.635E3,2.785E3,1.401E3,1.69E2,1.3206E4,6.34E2,9.76E3,2.725E3,8.49E3,1.532E3,5.887E3,9.95E2,8.94E3,2.798E3,1.0222E4,9.37E2,8.44E3,6.33E2,4.701E3,3.46E2,2.328E3,2.227E3,1.043E3,1.37E2,1.758E3,5.9E1,1.558E3,3.56E2,2.342E3,2.286E3,1.628E3,1.1E3,3.751E3,4.83E2,1.759E3,1.89E2,1.491E3,6.8E1,8.3E2,2.3E1,4.47E2,1.1E1,1.26E2,2.28E2,9.68E2,4.87E2,7.56E2,3.32E2,2.64E2,3.22E2,2.13E2,1.64E2,2.369E3,2.075E3,4.952E3,3.713E3,9.05E2,1.575E3,1.71E2,3.37E2,3.396E3,2.547E3,3.225E3,2.47E3,2.567E3,2.382E3,9.24E2,9.13E2,2.917E3,2.308E3,1.746E3,6.94E2,2.228E3,1.481E3,1.285E3,1.12E2,1.107E3,4.91E2,6.71E2,1.62E2,4.03E2,2.08E2,6.7E1,9.7E1,1.771E3,6.114E3,2.741E3,4.562E3,7.642E3,7.379E3,1.547E3,6.26E2,4.011E3,6.947E3,8.76E2,2.48E2,6.28E3,5.285E3,1.786E3,2.33E2,4.446E3,2.301E3,4.049E3,4.1E2,4.342E3,5.75E2,2.356E3,3.15E2,2.131E3,9.25E2,1.204E3,6.62E2,4.83E2,2.22E2,1.65E2,1.11E2],"tree_param":{"num_deleted":"0","num_feature":"12","num_nodes":"255","size_leaf_vector":"1"}},{"base_weights":[4.95578E-4,-5.6665773E0,6.2186923E0,-7.7286763E0,1.3164078E0,2.0833414E0,8.742377E0,-1.2267508E1,-5.6920366E0,-4.110665E-1,8.14347E0,-1.2877485E-1,7.0727324E0,7.10744E0,1.4227679E1,-1.4034188E1,-1.0107951E1,-7.6800776E0,-3.3805902E0,-4.310402E0,2.2248735E0,4.606859E0,1.1393377E1,-1.9977638E0,1.3713337E0,5.6834745E0,1.32112465E1,4.9876037E0,9.805257E0,1.2814642E1,1.9936054E1,-1.5525394E1,-1.3271843E1,-1.1022862E1,-8.858465E0,-9.501287E0,-5.3973236E0,-5.280953E0,-1.1707689E0,-5.8149085E0,-1.7685112E0,1.8743783E-1,4.696016E0,2.9586082E0,9.493235E0,9.625265E0,1.6047613E1,-1.2338853E0,-3.5920362E0,2.2109299E0,1.8472749E-1,4.576327E0,7.4825015E0,1.1378183E1,1.812412E1,3.4992895E0,7.0006285E0,8.411276E0,1.1695711E1,1.0985189E1,1.5625409E1,1.8627024E1,2.732402E1,-1.5078722E1,-1.7343346E1,-1.2865739E1,-1.5668148E1,-1.0466272E1,-1.2700572E1,-8.3249655E0,-1.0568568E1,-1.1053269E1,-8.748574E0,-6.4153914E0,-4.1222353E0,-6.90033E0,-4.4991183E0,-2.416025E0,7.612364E-2,-6.741197E0,-4.664119E0,-2.8037946E0,-6.4472425E-1,-1.2283823E0,2.6205022E0,3.3598504E0,7.227818E0,1.8705308E0,4.9427323E0,7.3118067E0,1.2286988E1,7.7470922E0,1.2127555E1,1.4490423E1,1.8423336E1,-2.5592113E0,-7.233524E-1,-2.9047413E0,-5.198047E0,1.3366232E0,3.1423488E0,-8.2745284E-1,1.0316353E0,5.155082E0,2.8092823E0,8.26441E0,6.3242764E0,1.0494392E1,1.3070204E1,1.65673E1,2.378866E1,2.322438E0,4.4944468E0,7.870309E0,5.9638114E0,7.217865E0,9.253152E0,1.2392926E1,1.0478031E1,9.8522415E0,1.2621193E1,1.4610895E1,1.7385103E1,1.6902876E1,2.1503769E1,2.5513815E1,3.1825539E1,-1.6326153E0,-1.4711895E0,-1.704647E0,-2.018971E0,-1.3535341E0,-1.233279E0,-1.5335538E0,-1.9821749E0,-1.0929513E0,-9.816664E-1,-1.2071432E0,-1.484835E0,-8.924183E-1,-7.8108114E-1,-1.0038271E0,-1.2930931E0,-1.0547248E0,-1.2530581E0,-8.603708E-1,-1.3115214E0,-6.29691E-1,-1.0946559E0,-3.9850348E-1,-8.0599177E-1,-6.523924E-1,-1.0030171E0,-3.9355096E-1,-6.224833E-1,-2.0660761E-1,-4.9153018E-1,4.3907594E-2,-2.0605245E-1,-6.194683E-1,-8.5563534E-1,-4.167327E-1,-5.9356296E-1,-2.5521865E-1,-7.2372097E-1,-4.797341E-2,-4.7429296E-1,-9.128309E-2,-3.662333E-1,1.6633353E-1,3.9001712E-1,2.34515E-1,4.4290096E-1,6.130195E-1,8.591793E-1,2.0321703E-1,-3.7448725E-1,5.158359E-1,1.214543E-1,7.6640433E-1,4.693155E-1,1.0900499E0,1.4781976E0,6.780115E-1,9.6513015E-1,1.2584127E0,7.991424E-1,1.2194114E0,1.6329529E0,1.6716549E0,2.052533E0,-3.6675975E-1,-2.1760276E-1,-2.3124387E-2,-1.17877446E-1,-4.3326068E-1,-2.3609857E-1,-4.512453E-1,-6.587745E-1,9.784037E-2,1.8600069E-1,2.7228954E-1,3.6891687E-1,-2.8498987E-2,-2.3818696E-1,1.521207E-1,-5.5810034E-2,4.5668593E-1,5.8654535E-1,3.1436166E-1,2.4147263E-2,7.5236195E-1,9.19089E-1,6.751389E-1,4.44943E-1,1.1269935E0,9.367966E-1,1.3937396E0,1.1674395E0,1.7534456E0,1.4776839E0,2.1137078E0,2.5385792E0,2.970843E-1,6.610334E-2,4.8615238E-1,2.0980859E-1,7.145875E-1,8.8024706E-1,6.342885E-1,3.6128005E-1,7.876695E-1,5.4946774E-1,9.947805E-1,7.850722E-1,1.1739157E0,1.3330355E0,1.0819997E0,7.9058594E-1,1.0123156E0,6.7472565E-1,1.2964002E0,1.0054463E0,1.5320834E0,1.3484672E0,1.7662214E0,1.4340223E0,1.5810628E0,1.9386034E0,2.0424683E0,2.3651183E0,2.3593662E0,2.876257E0,3.1909962E0,9.285616E-1],"categories":[],"categories_nodes":[],"categories_segments":[],"categories_sizes":[],"default_left":[0,0,0,0,0,0,0,0,0,0,0,0,0,0,0,0,0,0,0,0,0,0,0,0,0,0,0,0,0,0,0,0,0,0,0,0,0,0,0,0,0,0,0,0,0,0,0,0,0,0,0,0,0,0,0,0,0,0,0,0,0,0,0,0,0,0,0,0,0,0,0,0,0,0,0,0,0,0,0,0,0,0,0,0,0,0,0,0,0,0,0,0,0,0,0,0,0,0,0,0,0,0,0,0,0,0,0,0,0,0,0,0,0,0,0,0,0,0,0,0,0,0,0,0,0,0,0,0,0,0,0,0,0,0,0,0,0,0,0,0,0,0,0,0,0,0,0,0,0,0,0,0,0,0,0,0,0,0,0,0,0,0,0,0,0,0,0,0,0,0,0,0,0,0,0,0,0,0,0,0,0,0,0,0,0,0,0,0,0,0,0,0,0,0,0,0,0,0,0,0,0,0,0,0,0,0,0,0,0,0,0,0,0,0,0,0,0,0,0,0,0,0,0,0,0,0,0,0,0,0,0,0,0,0,0,0,0,0,0,0,0,0,0,0,0,0,0,0,0,0,0,0,0,0,0],"id":4,"left_children":[1,3,5,7,9,11,13,15,17,19,21,23,25,27,29,31,33,35,37,39,41,43,45,47,49,51,53,55,57,59,61,63,65,67,69,71,73,75,77,79,81,83,85,87,89,91,93,95,97,99,101,103,105,107,109,111,113,115,117,119,121,123,125,127,129,131,133,135,137,139,141,143,145,147,149,151,153,155,157,159,161,163,165,167,169,171,173,175,177,179,181,183,185,187,189,191,193,195,197,199,201,203,205,207,209,211,213,215,217,219,221,223,225,227,229,231,233,235,237,239,241,243,245,247,249,251,253,-1,-1,-1,-1,-1,-1,-1,-1,-1,-1,-1,-1,-1,-1,-1,-1,-1,-1,-1,-1,-1,-1,-1,-1,-1,-1,-1,-1,-1,-1,-1,-1,-1,-1,-1,-1,-1,-1,-1,-1,-1,-1,-1,-1,-1,-1,-1,-1,-1,-1,-1,-1,-1,-1,-1,-1,-1,-1,-1,-1,-1,-1,-1,-1,-1,-1,-1,-1,-1,-1,-1,-1,-1,-1,-1,-1,-1,-1,-1,-1,-1,-1,-1,-1,-1,-1,-1,-1,-1,-1,-1,-1,-1,-1,-1,-1,-1,-1,-1,-1,-1,-1,-1,-1,-1,-1,-1,-1,-1,-1,-1,-1,-1,-1,-1,-1,-1,-1,-1,-1,-1,-1,-1,-1,-1,-1,-1,-1],"loss_changes":[9.84739E6,2.1052615E6,1.39056E6,1.043306E6,3.9310675E5,5.57364E5,7.41975E5,1.33235E5,3.5800375E5,2.7343597E5,7.731134E4,9.8098125E4,1.3221094E5,3.6452125E5,1.52993E5,2.165075E4,1.7889E4,1.7408475E5,1.512921E5,4.102436E4,7.991639E4,2.5945984E4,2.8705375E4,1.8968145E4,1.9337191E4,2.5163844E4,2.5567781E4,1.0693306E5,7.3818E4,7.8154E4,3.5931625E4,5.015E3,1.21855E4,8.345E3,5.9845625E3,2.711875E4,2.4105688E4,2.4493E4,2.5866621E4,7.153125E3,4.6414736E3,2.9976264E4,2.4241312E4,5.200135E3,4.864883E3,1.1862172E4,3.2993281E3,7.1256904E3,5.5546914E3,9.252465E3,6.896359E3,7.99725E3,4.3110312E3,2.98375E3,6.4491875E3,2.4029812E4,1.36355E4,1.6157125E4,9.974875E3,1.69835E4,1.0462875E4,1.5528125E4,3.792E3,2.15025E3,7.3321875E2,3.719375E3,2.2380625E3,1.945875E3,2.8705625E3,1.4947812E3,1.8482812E3,5.5529375E3,9.81425E3,5.4795312E3,4.428203E3,7.3624062E3,1.2683844E4,7.279797E3,6.456953E3,3.6491875E3,1.8759727E3,2.2983887E3,1.2925779E3,4.221626E3,3.9142793E3,5.0852773E3,3.6557188E3,1.4235771E3,6.8025977E2,3.8740625E2,1.0669102E3,2.6155312E3,1.9559531E3,2.2798594E3,1.0130156E3,1.2360117E3,1.7043616E3,2.7351543E3,1.4099102E3,1.0977871E3,1.2521562E3,3.0896987E3,3.4097573E3,2.4385781E3,1.6604502E3,1.9026562E3,1.5282578E3,1.0964688E3,6.991172E2,8.0065625E2,1.6217969E2,1.0131848E4,9.772359E3,5.5075625E3,6.149547E3,7.5450312E3,9.14275E3,4.478625E3,3.7319062E3,4.522875E3,3.1895E3,2.8429375E3,1.5945625E3,5.1396875E3,2.290625E3,1.8665312E3,4.359375E0,0E0,0E0,0E0,0E0,0E0,0E0,0E0,0E0,0E0,0E0,0E0,0E0,0E0,0E0,0E0,0E0,0E0,0E0,0E0,0E0,0E0,0E0,0E0,0E0,0E0,0E0,0E0,0E0,0E0,0E0,0E0,0E0,0E0,0E0,0E0,0E0,0E0,0E0,0E0,0E0,0E0,0E0,0E0,0E0,0E0,0E0,0E0,0E0,0E0,0E0,0E0,0E0,0E0,0E0,0E0,0E0,0E0,0E0,0E0,0E0,0E0,0E0,0E0,0E0,0E0,0E0,0E0,0E0,0E0,0E0,0E0,0E0,0E0,0E0,0E0,0E0,0E0,0E0,0E0,0E0,0E0,0E0,0E0,0E0,0E0,0E0,0E0,0E0,0E0,0E0,0E0,0E0,0E0,0E0,0E0,0E0,0E0,0E0,0E0,0E0,0E0,0E0,0E0,0E0,0E0,0E0,0E0,0E0,0E0,0E0,0E0,0E0,0E0,0E0,0E0,0E0,0E0,0E0,0E0,0E0,0E0,0E0,0E0,0E0,0E0,0E0,0E0,0E0],"parents":[2147483647,0,0,1,1,2,2,3,3,4,4,5,5,6,6,7,7,8,8,9,9,10,10,11,11,12,12,13,13,14,14,15,15,16,16,17,17,18,18,19,19,20,20,21,21,22,22,23,23,24,24,25,25,26,26,27,27,28,28,29,29,30,30,31,31,32,32,33,33,34,34,35,35,36,36,37,37,38,38,39,39,40,40,41,41,42,42,43,43,44,44,45,45,46,46,47,47,48,48,49,49,50,50,51,51,52,52,53,53,54,54,55,55,56,56,57,57,58,58,59,59,60,60,61,61,62,62,63,63,64,64,65,65,66,66,67,67,68,68,69,69,70,70,71,71,72,72,73,73,74,74,75,75,76,76,77,77,78,78,79,79,80,80,81,81,82,82,83,83,84,84,85,85,86,86,87,87,88,88,89,89,90,90,91,91,92,92,93,93,94,94,95,95,96,96,97,97,98,98,99,99,100,100,101,101,102,102,103,103,104,104,105,105,106,106,107,107,108,108,109,109,110,110,111,111,112,112,113,113,114,114,115,115,116,116,117,117,118,118,119,119,120,120,121,121,122,122,123,123,124,124,125,125,126,126],"right_children":[2,4,6,8,10,12,14,16,18,20,22,24,26,28,30,32,34,36,38,40,42,44,46,48,50,52,54,56,58,60,62,64,66,68,70,72,74,76,78,80,82,84,86,88,90,92,94,96,98,100,102,104,106,108,110,112,114,116,118,120,122,124,126,128,130,132,134,136,138,140,142,144,146,148,150,152,154,156,158,160,162,164,166,168,170,172,174,176,178,180,182,184,186,188,190,192,194,196,198,200,202,204,206,208,210,212,214,216,218,220,222,224,226,228,230,232,234,236,238,240,242,244,246,248,250,252,254,-1,-1,-1,-1,-1,-1,-1,-1,-1,-1,-1,-1,-1,-1,-1,-1,-1,-1,-1,-1,-1,-1,-1,-1,-1,-1,-1,-1,-1,-1,-1,-1,-1,-1,-1,-1,-1,-1,-1,-1,-1,-1,-1,-1,-1,-1,-1,-1,-1,-1,-1,-1,-1,-1,-1,-1,-1,-1,-1,-1,-1,-1,-1,-1,-1,-1,-1,-1,-1,-1,-1,-1,-1,-1,-1,-1,-1,-1,-1,-1,-1,-1,-1,-1,-1,-1,-1,-1,-1,-1,-1,-1,-1,-1,-1,-1,-1,-1,-1,-1,-1,-1,-1,-1,-1,-1,-1,-1,-1,-1,-1,-1,-1,-1,-1,-1,-1,-1,-1,-1,-1,-1,-1,-1,-1,-1,-1,-1],"split_conditions":[4E0,4.39E0,5E0,2E0,7.14E0,3.57E0,3.8E0,2.89E0,3E0,2E0,2E0,2.28E0,5.56E0,6E0,5.7E0,2.05E0,3.62E0,2.8E0,2.69E0,5.7E0,3E0,9.06E0,9.06E0,1.355E1,9.35E0,4.43E0,7.35E0,2.67E0,2.7E0,6E0,8.13E0,1.227E1,1.647E1,9.03E0,1.03E1,1.94E0,3.52E0,1.91E0,3.34E0,5.06E0,6.39E0,5.56E0,5.56E0,8.13E0,9.86E0,3E0,3E0,1.64E0,2.707E1,2.88E0,2.8E0,1.468E1,8.31E0,6.39E0,9.06E0,2.06E0,7.66E0,2.05E0,7.89E0,4.57E0,4.6E0,6E0,9.86E0,1.55E0,3.658E1,2.42E0,3.831E1,3.29E0,2.541E1,3.95E0,2.707E1,7.95E0,2.33E1,2.33E1,1.988E1,1.937E1,8.65E0,1.262E1,1.03E1,1.03E1,7.95E0,2.076E1,2.076E1,1.03E1,6.27E0,4.92E0,6.27E0,2.864E1,1.633E1,1.193E1,7.988E1,8.13E0,1.339E1,9.86E0,9.86E0,1.3E0,5E0,1.62E0,3.831E1,2.64E0,3.24E0,2.236E1,2.386E1,3.98E0,3.255E1,4.92E0,2.541E1,8.13E0,8.91E0,9.24E0,9.86E0,1.487E1,1.824E1,3.24E0,2.541E1,1.075E1,8.76E0,3.25E0,2.386E1,2.154E1,1.757E1,7.08E0,1.988E1,6.8E0,6.66E0,6E0,4.652E1,-1.6326153E0,-1.4711895E0,-1.704647E0,-2.018971E0,-1.3535341E0,-1.233279E0,-1.5335538E0,-1.9821749E0,-1.0929513E0,-9.816664E-1,-1.2071432E0,-1.484835E0,-8.924183E-1,-7.8108114E-1,-1.0038271E0,-1.2930931E0,-1.0547248E0,-1.2530581E0,-8.603708E-1,-1.3115214E0,-6.29691E-1,-1.0946559E0,-3.9850348E-1,-8.0599177E-1,-6.523924E-1,-1.0030171E0,-3.9355096E-1,-6.224833E-1,-2.0660761E-1,-4.9153018E-1,4.3907594E-2,-2.0605245E-1,-6.194683E-1,-8.5563534E-1,-4.167327E-1,-5.9356296E-1,-2.5521865E-1,-7.2372097E-1,-4.797341E-2,-4.7429296E-1,-9.128309E-2,-3.662333E-1,1.6633353E-1,3.9001712E-1,2.34515E-1,4.4290096E-1,6.130195E-1,8.591793E-1,2.0321703E-1,-3.7448725E-1,5.158359E-1,1.214543E-1,7.6640433E-1,4.693155E-1,1.0900499E0,1.4781976E0,6.780115E-1,9.6513015E-1,1.2584127E0,7.991424E-1,1.2194114E0,1.6329529E0,1.6716549E0,2.052533E0,-3.6675975E-1,-2.1760276E-1,-2.3124387E-2,-1.17877446E-1,-4.3326068E-1,-2.3609857E-1,-4.512453E-1,-6.587745E-1,9.784037E-2,1.8600069E-1,2.7228954E-1,3.6891687E-1,-2.8498987E-2,-2.3818696E-1,1.521207E-1,-5.5810034E-2,4.5668593E-1,5.8654535E-1,3.1436166E-1,2.4147263E-2,7.5236195E-1,9.19089E-1,6.751389E-1,4.44943E-1,1.1269935E0,9.367966E-1,1.3937396E0,1.1674395E0,1.7534456E0,1.4776839E0,2.1137078E0,2.5385792E0,2.970843E-1,6.610334E-2,4.8615238E-1,2.0980859E-1,7.145875E-1,8.8024706E-1,6.342885E-1,3.6128005E-1,7.876695E-1,5.4946774E-1,9.947805E-1,7.850722E-1,1.1739157E0,1.3330355E0,1.0819997E0,7.9058594E-1,1.0123156E0,6.7472565E-1,1.2964002E0,1.0054463E0,1.5320834E0,1.3484672E0,1.7662214E0,1.4340223E0,1.5810628E0,1.9386034E0,2.0424683E0,2.3651183E0,2.3593662E0,2.876257E0,3.1909962E0,9.285616E-1],"split_indices":[11,2,11,11,2,2,2,2,11,11,11,2,2,11,2,2,2,2,2,2,11,2,2,4,4,2,2,2,2,11,2,4,4,4,4,2,2,2,2,2,2,2,2,2,2,11,11,2,4,2,2,4,4,2,2,2,4,2,4,2,2,11,2,2,4,2,4,2,4,2,4,4,4,4,4,4,4,4,4,4,4,4,4,4,2,2,2,4,4,4,1,2,4,2,2,2,4,2,4,2,2,4,4,2,4,2,4,4,4,4,2,4,4,2,4,4,4,2,4,4,4,4,4,2,2,11,4,0,0,0,0,0,0,0,0,0,0,0,0,0,0,0,0,0,0,0,0,0,0,0,0,0,0,0,0,0,0,0,0,0,0,0,0,0,0,0,0,0,0,0,0,0,0,0,0,0,0,0,0,0,0,0,0,0,0,0,0,0,0,0,0,0,0,0,0,0,0,0,0,0,0,0,0,0,0,0,0,0,0,0,0,0,0,0,0,0,0,0,0,0,0,0,0,0,0,0,0,0,0,0,0,0,0,0,0,0,0,0,0,0,0,0,0,0,0,0,0,0,0,0,0,0,0,0,0],"split_type":[0,0,0,0,0,0,0,0,0,0,0,0,0,0,0,0,0,0,0,0,0,0,0,0,0,0,0,0,0,0,0,0,0,0,0,0,0,0,0,0,0,0,0,0,0,0,0,0,0,0,0,0,0,0,0,0,0,0,0,0,0,0,0,0,0,0,0,0,0,0,0,0,0,0,0,0,0,0,0,0,0,0,0,0,0,0,0,0,0,0,0,0,0,0,0,0,0,0,0,0,0,0,0,0,0,0,0,0,0,0,0,0,0,0,0,0,0,0,0,0,0,0,0,0,0,0,0,0,0,0,0,0,0,0,0,0,0,0,0,0,0,0,0,0,0,0,0,0,0,0,0,0,0,0,0,0,0,0,0,0,0,0,0,0,0,0,0,0,0,0,0,0,0,0,0,0,0,0,0,0,0,0,0,0,0,0,0,0,0,0,0,0,0,0,0,0,0,0,0,0,0,0,0,0,0,0,0,0,0,0,0,0,0,0,0,0,0,0,0,0,0,0,0,0,0,0,0,0,0,0,0,0,0,0,0,0,0,0,0,0,0,0,0,0,0,0,0,0,0,0,0,0,0,0,0],"sum_hessian":[2.79444E5,1.46201E5,1.33243E5,1.1287E5,3.3331E4,5.0498E4,8.2745E4,3.4958E4,7.7912E4,2.6601E4,6.73E3,3.4987E4,1.5511E4,6.3747E4,1.8998E4,1.9225E4,1.5733E4,4.1885E4,3.6027E4,1.0729E4,1.5872E4,3.224E3,3.506E3,1.5578E4,1.9409E4,1.265E4,2.861E3,3.5699E4,2.8048E4,1.5231E4,3.767E3,6.497E3,1.2728E4,9.078E3,6.655E3,2.3296E4,1.8589E4,1.9369E4,1.6658E4,6.739E3,3.99E3,8.7E3,7.172E3,2.412E3,8.12E2,2.543E3,9.63E2,1.0533E4,5.045E3,1.1366E4,8.043E3,7.833E3,4.817E3,2.086E3,7.75E2,2.0526E4,1.5173E4,1.6147E4,1.1901E4,9.229E3,6.002E3,3.203E3,5.64E2,5.223E3,1.274E3,1.0889E4,1.839E3,6.822E3,2.256E3,5.077E3,1.578E3,7.604E3,1.5692E4,1.0334E4,8.255E3,6.304E3,1.3065E4,8.334E3,8.324E3,3.731E3,3.008E3,2.076E3,1.914E3,5.5E3,3.2E3,4.696E3,2.476E3,1.559E3,8.53E2,4.58E2,3.54E2,1.455E3,1.088E3,5.86E2,3.77E2,2.928E3,7.605E3,3.535E3,1.51E3,5.864E3,5.502E3,3.664E3,4.379E3,5.899E3,1.934E3,2.872E3,1.945E3,1.375E3,7.11E2,6.11E2,1.64E2,9.406E3,1.112E4,8.248E3,6.925E3,6.683E3,9.464E3,7.562E3,4.339E3,5.457E3,3.772E3,3.813E3,2.189E3,2.007E3,1.196E3,4.07E2,1.57E2,1.177E3,4.046E3,1.16E3,1.14E2,4.815E3,6.074E3,1.707E3,1.32E2,3.973E3,2.849E3,1.75E3,5.06E2,2.337E3,2.74E3,1.293E3,2.85E2,5.67E3,1.934E3,1.5191E4,5.01E2,1.0073E4,2.61E2,7.979E3,2.76E2,5.63E3,6.74E2,9.851E3,3.214E3,7.312E3,1.022E3,7.116E3,1.208E3,2.871E3,8.6E2,2.166E3,8.42E2,1.966E3,1.1E2,1.841E3,7.3E1,4.87E3,6.3E2,1.832E3,1.368E3,2.411E3,2.285E3,1.375E3,1.101E3,1.516E3,4.3E1,8.06E2,4.7E1,4.02E2,5.6E1,2.31E2,1.23E2,9.68E2,4.87E2,9.78E2,1.1E2,2.64E2,3.22E2,2.13E2,1.64E2,7.5E2,2.178E3,3.656E3,3.949E3,9.73E2,2.562E3,1.014E3,4.96E2,3.483E3,2.381E3,3.117E3,2.385E3,2.717E3,9.47E2,3.348E3,1.031E3,3.231E3,2.668E3,1.711E3,2.23E2,1.601E3,1.271E3,1.582E3,3.63E2,8.09E2,5.66E2,4.33E2,2.78E2,3.91E2,2.2E2,6.7E1,9.7E1,6.765E3,2.641E3,9.642E3,1.478E3,4.646E3,3.602E3,5.962E3,9.63E2,4.832E3,1.851E3,6.325E3,3.139E3,4.463E3,3.099E3,3.827E3,5.12E2,5.017E3,4.4E2,3.324E3,4.48E2,2.331E3,1.482E3,2.002E3,1.87E2,1.399E3,6.08E2,8.03E2,3.93E2,2.61E2,1.46E2,1.56E2,1E0],"tree_param":{"num_deleted":"0","num_feature":"12","num_nodes":"255","size_leaf_vector":"1"}},{"base_weights":[5.663409E-4,-5.100055E0,5.597224E0,-7.1302724E0,6.6952205E-1,1.875303E0,7.868605E0,-1.1234319E1,-5.303092E0,-1.0779978E0,6.220586E0,1.3554507E-1,7.033237E0,5.9470596E0,1.1680094E1,-1.2909015E1,-9.605942E0,-7.0937004E0,-3.224451E0,-4.74936E0,1.2411885E0,3.0146363E0,9.203111E0,-1.3548144E0,1.9210019E0,5.8513823E0,1.2929196E1,4.0246325E0,8.38626E0,1.0281916E1,1.6272549E1,-1.2397922E1,-1.4500873E1,-1.0431538E1,-8.542906E0,-8.912033E0,-5.41322E0,-5.0547433E0,-1.548268E0,-6.215536E0,-3.0140984E0,-5.7307315E-1,3.4521363E0,1.2828894E0,7.276807E0,7.503492E0,1.3534115E1,-5.411337E-1,-2.6056614E0,2.6212995E0,7.502745E-1,4.937877E0,7.6733875E0,1.1443722E1,1.785243E1,2.4290402E0,5.131234E0,6.824968E0,9.38793E0,8.565521E0,1.2716503E1,1.5036821E1,2.1923237E1,-1.3650111E1,-1.1761678E1,-1.40625725E1,-1.6247395E1,-9.913036E0,-1.180766E1,-8.109507E0,-1.0313055E1,-1.0422971E1,-8.395451E0,-6.458031E0,-4.3407354E0,-4.6321597E0,-7.290426E0,-2.5611174E0,-3.8322872E-1,-5.9504757E0,-9.170878E0,-3.8800576E0,-1.957104E0,-1.8607789E0,1.3053546E0,2.1097782E0,5.182913E0,3.2369885E-1,2.8317711E0,5.798915E0,1.1065523E1,5.770164E0,9.670348E0,1.2085585E1,1.6013739E1,-1.3956512E0,3.705357E-1,-3.842863E0,-1.8388666E0,1.8684764E0,3.4668524E0,1.101843E0,-1.2209402E0,5.63778E0,3.7538815E0,8.329922E0,6.5443254E0,1.0502666E1,1.3017573E1,1.5988608E1,2.143799E1,2.759862E0,-2.78576E-1,5.9963236E0,4.1976647E0,7.4052124E0,5.342246E0,9.95508E0,7.9717264E0,7.609119E0,9.8048E0,1.1777856E1,1.3969063E1,1.3394826E1,1.7696321E1,1.9644918E1,2.571188E1,-1.520675E0,-1.3410827E0,-1.2215723E0,-1.1295305E0,-1.5681239E0,-1.3538171E0,-1.5872308E0,-1.9838113E0,-1.0321639E0,-9.357446E-1,-1.1272216E0,-1.3661716E0,-8.531327E-1,-7.541174E-1,-1.0010179E0,-1.417678E0,-1.0123008E0,-1.2535186E0,-7.943597E-1,-9.675755E-1,-6.044718E-1,-7.6254755E-1,-3.9762786E-1,-5.5687433E-1,-6.3747066E-1,-4.1398215E-1,-6.814967E-1,-9.69377E-1,-2.1428731E-1,-4.328116E-1,-1.842211E-2,-3.6200956E-1,-6.6242576E-1,-5.241079E-1,-8.4137106E-1,-1.2294296E0,-3.695217E-1,-7.708702E-1,-1.601501E-1,-4.1922385E-1,-1.6921447E-1,-5.4648215E-1,4.542472E-2,2.278658E-1,2.4653016E-1,8.533443E-3,5.528022E-1,1.4379914E-1,7.528904E-2,-1.1762301E-1,3.332163E-1,1.2938568E-1,5.899629E-1,-1.642948E-1,1.3274237E0,9.792283E-1,4.3887636E-1,6.9350594E-1,1.0054941E0,5.2642745E-1,1.0262371E0,1.4399788E0,1.4701632E0,1.8485237E0,-2.5326833E-1,-1.03824556E-1,-1.693222E-2,6.442138E-2,-3.1942046E-1,-5.3051215E-1,-1.3154173E-1,-3.2328758E-1,2.2110005E-1,1.3408707E-1,3.007628E-1,3.95367E-1,4.474781E-2,2.0363264E-1,-5.504183E-2,-2.4095006E-1,5.1005375E-1,6.319234E-1,4.2370805E-1,2.3620057E-1,7.7158654E-1,9.185526E-1,7.0038694E-1,4.957984E-1,1.0859531E0,8.3221287E-1,1.3489648E0,1.0543461E0,1.6455177E0,1.3590381E0,2.190777E0,1.5279672E0,1.299518E-1,3.1794176E-1,1.1650769E-2,-4.520812E-1,5.284956E-1,6.7115635E-1,4.441665E-1,1.251745E-1,5.9236735E-1,7.798527E-1,5.676398E-1,1.2315309E-1,9.3026966E-1,1.0717795E0,8.2104456E-1,4.2044893E-1,8.1801665E-1,6.3940746E-1,1.0563259E0,8.770383E-1,1.2022475E0,9.3784285E-1,1.455181E0,1.2871928E0,1.2541741E0,1.5065005E0,1.6811666E0,1.9436839E0,1.8326229E0,2.2492955E0,2.3810632E0,2.8501978E0],"categories":[],"categories_nodes":[],"categories_segments":[],"categories_sizes":[],"default_left":[0,0,0,0,0,0,0,0,0,0,0,0,0,0,0,0,0,0,0,0,0,0,0,0,0,0,0,0,0,0,0,0,0,0,0,0,0,0,0,0,0,0,0,0,0,0,0,0,0,0,0,0,0,0,0,0,0,0,0,0,0,0,0,0,0,0,0,0,0,0,0,0,0,0,0,0,0,0,0,0,0,0,0,0,0,0,0,0,0,0,0,0,0,0,0,0,0,0,0,0,0,0,0,0,0,0,0,0,0,0,0,0,0,0,0,0,0,0,0,0,0,0,0,0,0,0,0,0,0,0,0,0,0,0,0,0,0,0,0,0,0,0,0,0,0,0,0,0,0,0,0,0,0,0,0,0,0,0,0,0,0,0,0,0,0,0,0,0,0,0,0,0,0,0,0,0,0,0,0,0,0,0,0,0,0,0,0,0,0,0,0,0,0,0,0,0,0,0,0,0,0,0,0,0,0,0,0,0,0,0,0,0,0,0,0,0,0,0,0,0,0,0,0,0,0,0,0,0,0,0,0,0,0,0,0,0,0,0,0,0,0,0,0,0,0,0,0,0,0,0,0,0,0,0,0],"id":5,"left_children":[1,3,5,7,9,11,13,15,17,19,21,23,25,27,29,31,33,35,37,39,41,43,45,47,49,51,53,55,57,59,61,63,65,67,69,71,73,75,77,79,81,83,85,87,89,91,93,95,97,99,101,103,105,107,109,111,113,115,117,119,121,123,125,127,129,131,133,135,137,139,141,143,145,147,149,151,153,155,157,159,161,163,165,167,169,171,173,175,177,179,181,183,185,187,189,191,193,195,197,199,201,203,205,207,209,211,213,215,217,219,221,223,225,227,229,231,233,235,237,239,241,243,245,247,249,251,253,-1,-1,-1,-1,-1,-1,-1,-1,-1,-1,-1,-1,-1,-1,-1,-1,-1,-1,-1,-1,-1,-1,-1,-1,-1,-1,-1,-1,-1,-1,-1,-1,-1,-1,-1,-1,-1,-1,-1,-1,-1,-1,-1,-1,-1,-1,-1,-1,-1,-1,-1,-1,-1,-1,-1,-1,-1,-1,-1,-1,-1,-1,-1,-1,-1,-1,-1,-1,-1,-1,-1,-1,-1,-1,-1,-1,-1,-1,-1,-1,-1,-1,-1,-1,-1,-1,-1,-1,-1,-1,-1,-1,-1,-1,-1,-1,-1,-1,-1,-1,-1,-1,-1,-1,-1,-1,-1,-1,-1,-1,-1,-1,-1,-1,-1,-1,-1,-1,-1,-1,-1,-1,-1,-1,-1,-1,-1,-1],"loss_changes":[7.977186E6,1.7125412E6,1.126417E6,8.109165E5,3.6917253E5,4.531547E5,6.05958E5,9.0727E4,2.78508E5,2.4646023E5,8.709959E4,1.0048892E5,8.8677875E4,2.57937E5,1.779085E5,1.318025E4,1.4738625E4,1.22793E5,1.0624294E5,2.8491562E4,7.116134E4,3.2415402E4,3.4642625E4,2.0947758E4,1.4084004E4,1.7624844E4,1.5343906E4,5.4314156E4,3.785575E4,8.8743E4,4.4855375E4,9.748E3,2.822E3,6.665E3,5.5865625E3,1.4982E4,2.338575E4,1.560675E4,2.1332402E4,4.702672E3,4.691629E3,2.3574242E4,1.8566336E4,4.6418105E3,7.0413594E3,1.2684125E4,4.58E3,9.716673E3,7.688629E3,6.836453E3,4.458832E3,5.838453E3,2.5710625E3,2.2863125E3,2.9385156E3,1.1288867E4,1.4646875E4,8.1165E3,1.1782375E4,1.47101875E4,1.0170125E4,2.2964375E4,9.499125E3,1.3545625E3,1.609875E3,2.4980625E3,7.5315625E2,1.472125E3,2.4231875E3,1.3601875E3,1.5549062E3,2.9871875E3,8.249625E3,5.0599375E3,4.5939375E3,1.19210625E4,2.9392188E3,7.137953E3,5.4160845E3,2.6305E3,1.0743008E3,1.9679023E3,1.832501E3,3.5048477E3,3.2826855E3,3.242205E3,4.5051484E3,1.2439801E3,9.153125E2,6.954883E2,8.6835547E2,3.0060977E3,2.4990312E3,3.409086E3,1.3075156E3,2.6136562E3,8.917639E2,2.9262695E3,3.6515117E3,1.0251387E3,1.1197656E3,3.33723E3,7.749087E2,1.5940156E3,1.7588086E3,1.1038906E3,9.180703E2,7.1035156E2,5.6790625E2,1.4226562E2,1.4260156E2,6.8764375E3,2.3017273E3,4.7609688E3,6.2775312E3,3.922625E3,3.6605312E3,5.1453125E3,3.76775E3,4.835875E3,4.1675312E3,2.840125E3,2.216625E3,4.49725E3,2.7911875E3,2.3219375E3,1.6129688E3,0E0,0E0,0E0,0E0,0E0,0E0,0E0,0E0,0E0,0E0,0E0,0E0,0E0,0E0,0E0,0E0,0E0,0E0,0E0,0E0,0E0,0E0,0E0,0E0,0E0,0E0,0E0,0E0,0E0,0E0,0E0,0E0,0E0,0E0,0E0,0E0,0E0,0E0,0E0,0E0,0E0,0E0,0E0,0E0,0E0,0E0,0E0,0E0,0E0,0E0,0E0,0E0,0E0,0E0,0E0,0E0,0E0,0E0,0E0,0E0,0E0,0E0,0E0,0E0,0E0,0E0,0E0,0E0,0E0,0E0,0E0,0E0,0E0,0E0,0E0,0E0,0E0,0E0,0E0,0E0,0E0,0E0,0E0,0E0,0E0,0E0,0E0,0E0,0E0,0E0,0E0,0E0,0E0,0E0,0E0,0E0,0E0,0E0,0E0,0E0,0E0,0E0,0E0,0E0,0E0,0E0,0E0,0E0,0E0,0E0,0E0,0E0,0E0,0E0,0E0,0E0,0E0,0E0,0E0,0E0,0E0,0E0,0E0,0E0,0E0,0E0,0E0,0E0],"parents":[2147483647,0,0,1,1,2,2,3,3,4,4,5,5,6,6,7,7,8,8,9,9,10,10,11,11,12,12,13,13,14,14,15,15,16,16,17,17,18,18,19,19,20,20,21,21,22,22,23,23,24,24,25,25,26,26,27,27,28,28,29,29,30,30,31,31,32,32,33,33,34,34,35,35,36,36,37,37,38,38,39,39,40,40,41,41,42,42,43,43,44,44,45,45,46,46,47,47,48,48,49,49,50,50,51,51,52,52,53,53,54,54,55,55,56,56,57,57,58,58,59,59,60,60,61,61,62,62,63,63,64,64,65,65,66,66,67,67,68,68,69,69,70,70,71,71,72,72,73,73,74,74,75,75,76,76,77,77,78,78,79,79,80,80,81,81,82,82,83,83,84,84,85,85,86,86,87,87,88,88,89,89,90,90,91,91,92,92,93,93,94,94,95,95,96,96,97,97,98,98,99,99,100,100,101,101,102,102,103,103,104,104,105,105,106,106,107,107,108,108,109,109,110,110,111,111,112,112,113,113,114,114,115,115,116,116,117,117,118,118,119,119,120,120,121,121,122,122,123,123,124,124,125,125,126,126],"right_children":[2,4,6,8,10,12,14,16,18,20,22,24,26,28,30,32,34,36,38,40,42,44,46,48,50,52,54,56,58,60,62,64,66,68,70,72,74,76,78,80,82,84,86,88,90,92,94,96,98,100,102,104,106,108,110,112,114,116,118,120,122,124,126,128,130,132,134,136,138,140,142,144,146,148,150,152,154,156,158,160,162,164,166,168,170,172,174,176,178,180,182,184,186,188,190,192,194,196,198,200,202,204,206,208,210,212,214,216,218,220,222,224,226,228,230,232,234,236,238,240,242,244,246,248,250,252,254,-1,-1,-1,-1,-1,-1,-1,-1,-1,-1,-1,-1,-1,-1,-1,-1,-1,-1,-1,-1,-1,-1,-1,-1,-1,-1,-1,-1,-1,-1,-1,-1,-1,-1,-1,-1,-1,-1,-1,-1,-1,-1,-1,-1,-1,-1,-1,-1,-1,-1,-1,-1,-1,-1,-1,-1,-1,-1,-1,-1,-1,-1,-1,-1,-1,-1,-1,-1,-1,-1,-1,-1,-1,-1,-1,-1,-1,-1,-1,-1,-1,-1,-1,-1,-1,-1,-1,-1,-1,-1,-1,-1,-1,-1,-1,-1,-1,-1,-1,-1,-1,-1,-1,-1,-1,-1,-1,-1,-1,-1,-1,-1,-1,-1,-1,-1,-1,-1,-1,-1,-1,-1,-1,-1,-1,-1,-1,-1],"split_conditions":[4E0,4.17E0,5E0,2E0,6.66E0,3.82E0,3.36E0,2.7E0,3E0,2E0,2E0,2.57E0,5.96E0,6E0,5.06E0,9.65E0,3.42E0,2.57E0,2.52E0,5.21E0,3E0,8.59E0,8.59E0,1.152E1,1.067E1,4.79E0,7.82E0,2.23E0,2.25E0,6E0,7.14E0,1.98E0,2.707E1,8.13E0,1.193E1,1.78E0,3.24E0,1.339E1,3.2E0,1.863E1,5.88E0,5.16E0,5.11E0,7.57E0,9.86E0,3E0,9.86E0,2.04E0,1.82E0,3.15E0,2.832E1,9.24E0,9.24E0,6.8E0,9.06E0,2.154E1,7.51E0,1.075E1,1.075E1,4.04E0,4E0,6E0,8.59E0,1.38E0,2.35E0,1.81E0,5.176E1,3.08E0,2.076E1,3.8E0,3.831E1,1.177E1,7.03E0,6.8E0,6.8E0,1.71E0,3.255E1,9.84E0,2.33E1,4.64E0,3.831E1,2.627E1,1.243E1,1.633E1,5.78E0,9.47E0,1.815E1,9.65E0,9.03E0,3.658E1,1.1911E0,7.35E0,1.815E1,3E0,3E0,1.5E0,2.21E0,2.541E1,2.541E1,4.39E0,3.47E0,3.22E0,3.831E1,4.28E0,2.236E1,5.32E0,2.236E1,1.979E1,1.979E1,1.405E1,2.154E1,1.61E0,4.652E1,2.76E0,2.864E1,1.59E0,3.064E1,2.79E0,3.064E1,1.102E1,7.51E0,2.023E1,7.66E0,5.96E0,5.96E0,6E0,6E0,-1.520675E0,-1.3410827E0,-1.2215723E0,-1.1295305E0,-1.5681239E0,-1.3538171E0,-1.5872308E0,-1.9838113E0,-1.0321639E0,-9.357446E-1,-1.1272216E0,-1.3661716E0,-8.531327E-1,-7.541174E-1,-1.0010179E0,-1.417678E0,-1.0123008E0,-1.2535186E0,-7.943597E-1,-9.675755E-1,-6.044718E-1,-7.6254755E-1,-3.9762786E-1,-5.5687433E-1,-6.3747066E-1,-4.1398215E-1,-6.814967E-1,-9.69377E-1,-2.1428731E-1,-4.328116E-1,-1.842211E-2,-3.6200956E-1,-6.6242576E-1,-5.241079E-1,-8.4137106E-1,-1.2294296E0,-3.695217E-1,-7.708702E-1,-1.601501E-1,-4.1922385E-1,-1.6921447E-1,-5.4648215E-1,4.542472E-2,2.278658E-1,2.4653016E-1,8.533443E-3,5.528022E-1,1.4379914E-1,7.528904E-2,-1.1762301E-1,3.332163E-1,1.2938568E-1,5.899629E-1,-1.642948E-1,1.3274237E0,9.792283E-1,4.3887636E-1,6.9350594E-1,1.0054941E0,5.2642745E-1,1.0262371E0,1.4399788E0,1.4701632E0,1.8485237E0,-2.5326833E-1,-1.03824556E-1,-1.693222E-2,6.442138E-2,-3.1942046E-1,-5.3051215E-1,-1.3154173E-1,-3.2328758E-1,2.2110005E-1,1.3408707E-1,3.007628E-1,3.95367E-1,4.474781E-2,2.0363264E-1,-5.504183E-2,-2.4095006E-1,5.1005375E-1,6.319234E-1,4.2370805E-1,2.3620057E-1,7.7158654E-1,9.185526E-1,7.0038694E-1,4.957984E-1,1.0859531E0,8.3221287E-1,1.3489648E0,1.0543461E0,1.6455177E0,1.3590381E0,2.190777E0,1.5279672E0,1.299518E-1,3.1794176E-1,1.1650769E-2,-4.520812E-1,5.284956E-1,6.7115635E-1,4.441665E-1,1.251745E-1,5.9236735E-1,7.798527E-1,5.676398E-1,1.2315309E-1,9.3026966E-1,1.0717795E0,8.2104456E-1,4.2044893E-1,8.1801665E-1,6.3940746E-1,1.0563259E0,8.770383E-1,1.2022475E0,9.3784285E-1,1.455181E0,1.2871928E0,1.2541741E0,1.5065005E0,1.6811666E0,1.9436839E0,1.8326229E0,2.2492955E0,2.3810632E0,2.8501978E0],"split_indices":[11,2,11,11,2,2,2,2,11,11,11,2,2,11,2,4,2,2,2,2,11,2,2,4,4,2,2,2,2,11,2,2,4,4,4,2,2,4,2,4,2,2,2,2,2,11,2,2,2,2,4,4,4,2,2,4,4,4,4,2,2,11,2,2,2,2,4,2,4,2,4,4,4,4,4,2,4,4,4,2,4,4,4,4,2,4,4,4,4,4,3,2,4,11,11,2,2,4,4,4,2,2,4,2,4,2,4,4,4,4,4,2,4,2,4,2,4,2,4,4,4,4,4,2,2,11,11,0,0,0,0,0,0,0,0,0,0,0,0,0,0,0,0,0,0,0,0,0,0,0,0,0,0,0,0,0,0,0,0,0,0,0,0,0,0,0,0,0,0,0,0,0,0,0,0,0,0,0,0,0,0,0,0,0,0,0,0,0,0,0,0,0,0,0,0,0,0,0,0,0,0,0,0,0,0,0,0,0,0,0,0,0,0,0,0,0,0,0,0,0,0,0,0,0,0,0,0,0,0,0,0,0,0,0,0,0,0,0,0,0,0,0,0,0,0,0,0,0,0,0,0,0,0,0,0],"split_type":[0,0,0,0,0,0,0,0,0,0,0,0,0,0,0,0,0,0,0,0,0,0,0,0,0,0,0,0,0,0,0,0,0,0,0,0,0,0,0,0,0,0,0,0,0,0,0,0,0,0,0,0,0,0,0,0,0,0,0,0,0,0,0,0,0,0,0,0,0,0,0,0,0,0,0,0,0,0,0,0,0,0,0,0,0,0,0,0,0,0,0,0,0,0,0,0,0,0,0,0,0,0,0,0,0,0,0,0,0,0,0,0,0,0,0,0,0,0,0,0,0,0,0,0,0,0,0,0,0,0,0,0,0,0,0,0,0,0,0,0,0,0,0,0,0,0,0,0,0,0,0,0,0,0,0,0,0,0,0,0,0,0,0,0,0,0,0,0,0,0,0,0,0,0,0,0,0,0,0,0,0,0,0,0,0,0,0,0,0,0,0,0,0,0,0,0,0,0,0,0,0,0,0,0,0,0,0,0,0,0,0,0,0,0,0,0,0,0,0,0,0,0,0,0,0,0,0,0,0,0,0,0,0,0,0,0,0,0,0,0,0,0,0,0,0,0,0,0,0,0,0,0,0,0,0],"sum_hessian":[2.79444E5,1.46201E5,1.33243E5,1.08146E5,3.8055E4,5.0498E4,8.2745E4,3.3314E4,7.4832E4,2.8944E4,9.111E3,3.7762E4,1.2736E4,5.5013E4,2.7732E4,1.642E4,1.6894E4,4.02E4,3.4632E4,1.1205E4,1.7739E4,4.392E3,4.719E3,2.0582E4,1.718E4,1.0611E4,2.125E3,3.0767E4,2.4246E4,2.1262E4,6.47E3,1.2436E4,3.984E3,9.504E3,7.39E3,1.9306E4,2.0894E4,1.6554E4,1.8078E4,6.072E3,5.133E3,9.744E3,7.995E3,3.124E3,1.268E3,3.391E3,1.328E3,1.2471E4,8.111E3,1.0749E4,6.431E3,7.07E3,3.541E3,1.635E3,4.9E2,1.2601E4,1.8166E4,9.479E3,1.4767E4,1.2473E4,8.789E3,5.312E3,1.158E3,4.183E3,8.253E3,3.192E3,7.92E2,6.909E3,2.595E3,5.941E3,1.449E3,4.914E3,1.4392E4,1.0581E4,1.0313E4,1.3925E4,2.629E3,9.67E3,8.408E3,5.575E3,4.97E2,2.82E3,2.313E3,5.781E3,3.963E3,4.504E3,3.491E3,1.93E3,1.194E3,9.14E2,3.54E2,1.886E3,1.505E3,8.42E2,4.86E2,6.437E3,6.034E3,3.102E3,5.009E3,5.688E3,5.061E3,5.458E3,9.73E2,4.441E3,2.629E3,2.235E3,1.306E3,1.028E3,6.07E2,3.26E2,1.64E2,1.1229E4,1.372E3,9.426E3,8.74E3,6.81E3,2.669E3,1.054E4,4.227E3,7.044E3,5.429E3,5.03E3,3.759E3,3.288E3,2.024E3,7.27E2,4.31E2,5.49E2,3.634E3,4.169E3,4.084E3,7.74E2,2.418E3,7.22E2,7E1,3.971E3,2.938E3,2.019E3,5.76E2,3.402E3,2.539E3,1.347E3,1.02E2,4.308E3,6.06E2,1.0643E4,3.749E3,7.819E3,2.762E3,7.956E3,2.357E3,3.065E3,1.086E4,2.198E3,4.31E2,7.821E3,1.849E3,7.922E3,4.86E2,2.855E3,2.72E3,4.03E2,9.4E1,2.692E3,1.28E2,1.997E3,3.16E2,5.524E3,2.57E2,2.115E3,1.848E3,3.831E3,6.73E2,3.196E3,2.95E2,1.501E3,4.29E2,9E2,2.94E2,9.02E2,1.2E1,1.26E2,2.28E2,8.65E2,1.021E3,1.383E3,1.22E2,4.74E2,3.68E2,3.22E2,1.64E2,1.538E3,4.899E3,2.03E3,4.004E3,2.151E3,9.51E2,3.643E3,1.366E3,3.447E3,2.241E3,2.608E3,2.453E3,3.211E3,2.247E3,6.23E2,3.5E2,2.488E3,1.953E3,1.95E3,6.79E2,1.307E3,9.28E2,1.01E3,2.96E2,8.8E2,1.48E2,5.06E2,1.01E2,2.68E2,5.8E1,1.5E2,1.4E1,2.507E3,8.722E3,1.256E3,1.16E2,4.73E3,4.696E3,8.071E3,6.69E2,1.432E3,5.378E3,2.468E3,2.01E2,5.688E3,4.852E3,3.974E3,2.53E2,4.788E3,2.256E3,3.127E3,2.302E3,4.561E3,4.69E2,2.447E3,1.312E3,2.182E3,1.106E3,1.349E3,6.75E2,5.02E2,2.25E2,2.62E2,1.69E2],"tree_param":{"num_deleted":"0","num_feature":"12","num_nodes":"255","size_leaf_vector":"1"}},{"base_weights":[5.91966E-4,-4.590208E0,5.0378475E0,-6.1473885E0,1.5092146E0,1.6880722E0,7.082119E0,-9.800529E0,-4.498353E0,1.3060297E-1,7.0644474E0,1.4685361E-1,6.4088097E0,5.5185814E0,1.0884667E1,-1.1245189E1,-7.8506923E0,-6.0982084E0,-2.6299038E0,-3.0114176E0,2.3517082E0,4.1989245E0,9.68363E0,-1.1960757E0,1.7868798E0,5.3285446E0,1.1641472E1,3.778749E0,7.7125983E0,9.792653E0,1.5704059E1,-1.2199076E1,-1.0332128E1,-8.586548E0,-6.7208323E0,-7.4420815E0,-3.8215008E0,-3.9773545E0,-3.4864202E-1,-4.292911E0,-1.0345937E0,7.066602E-1,4.3066716E0,2.7664723E0,7.7405334E0,8.154238E0,1.3044911E1,-5.9335583E-1,-2.5753727E0,2.2022104E0,1.3696425E-1,4.5346456E0,6.984691E0,1.0507795E1,1.6941275E1,2.548377E0,5.075572E0,6.3268523E0,8.754242E0,8.285916E0,1.2054197E1,1.462561E1,2.1483238E1,-1.1670733E1,-1.3423853E1,-9.845573E0,-1.1630351E1,-8.310778E0,-1.0939602E1,-6.216376E0,-7.9661803E0,-8.380905E0,-6.320334E0,-4.4924765E0,-2.6141312E0,-5.370798E0,-3.2186022E0,-1.0723937E0,1.0171666E0,-3.930086E0,-6.122139E0,-1.9281213E0,-1.4832532E-1,-3.812632E-1,2.6577673E0,3.3130925E0,6.564496E0,1.8510137E0,4.006713E0,6.0028586E0,9.965468E0,6.5983467E0,1.0289253E1,1.1778235E1,1.4977434E1,-1.4260932E0,2.4003476E-1,-3.3394244E0,-1.527612E0,1.6118717E0,3.1027212E0,-5.3163767E-1,1.1095517E0,5.261685E0,3.6178372E0,7.7060122E0,6.177686E0,9.568804E0,1.2239967E1,1.5526796E1,2.075204E0,3.4866416E0,1.7381393E0,5.5259705E0,3.6786685E0,6.59783E0,3.718667E0,9.381988E0,7.745017E0,7.386183E0,9.764656E0,1.1218069E1,1.3564787E1,1.3201587E1,1.6963228E1,2.0088785E1,2.6121944E1,-1.2512821E0,-1.113318E0,-1.3006352E0,-1.4906671E0,-1.0246344E0,-9.426163E-1,-1.1334974E0,-1.4315497E0,-7.9224825E-1,-8.937796E-1,-1.0439171E0,-1.3853323E0,-6.686407E-1,-5.7578236E-1,-7.4871796E-1,-9.8221314E-1,-9.9053997E-1,-8.0068046E-1,-6.197936E-1,-1.012052E0,-4.366749E-1,-7.6976484E-1,-2.2882621E-1,-4.0294668E-1,-4.7761366E-1,-6.810889E-1,-2.9866248E-1,-6.1362314E-1,-6.819815E-2,-2.5300118E-1,1.2162646E-1,-1.6957624E-1,-4.6728078E-1,-3.2163826E-1,-5.702944E-1,-9.918212E-1,-1.4832155E-1,-3.447791E-1,-3.1133972E-3,-5.108735E-1,-3.7959998E-3,-2.0834461E-1,3.006785E-1,-2.926614E-2,3.591359E-1,2.2190364E-2,6.957161E-1,3.793771E-1,2.0703419E-1,-1.1763815E-1,4.3790427E-1,2.3516925E-1,6.1777323E-1,2.0613132E-1,1.2448101E0,8.9153636E-1,5.767728E-1,7.8528816E-1,1.0733087E0,7.126712E-1,9.956941E-1,1.3236021E0,2.6171062E0,1.4695692E0,-2.2280855E-1,-9.876131E-2,6.631509E-2,-1.6707404E-2,-2.7348337E-1,-4.6100733E-1,-1.2850143E-1,-3.8154903E-1,2.0837069E-1,1.0822771E-1,3.6515614E-1,2.5861415E-1,-2.218108E-2,-2.601752E-1,1.3675384E-1,-7.601734E-2,4.8136684E-1,5.944146E-1,3.8339612E-1,1.0856964E-1,7.024267E-1,8.2918036E-1,6.514292E-1,4.5707867E-1,1.0014163E0,8.004028E-1,1.2852042E0,1.0708098E0,1.6034803E0,1.3141387E0,2.5648445E-1,4.076074E-1,4.673305E-2,2.3028682E-1,4.8715803E-1,6.2221855E-1,4.037783E-1,1.5392147E-1,5.399119E-1,7.0196694E-1,4.1987085E-1,1.3277243E-2,8.7639105E-1,1.0129111E0,6.990249E-1,8.677247E-1,7.610418E-1,4.4423708E-1,9.982883E-1,6.626257E-1,1.1821008E0,1.0359348E0,1.3764347E0,1.0028834E0,1.3957969E0,1.1142204E0,1.6008313E0,1.8601456E0,1.8630307E0,2.2750127E0,2.6479323E0,1.7263186E0],"categories":[],"categories_nodes":[],"categories_segments":[],"categories_sizes":[],"default_left":[0,0,0,0,0,0,0,0,0,0,0,0,0,0,0,0,0,0,0,0,0,0,0,0,0,0,0,0,0,0,0,0,0,0,0,0,0,0,0,0,0,0,0,0,0,0,0,0,0,0,0,0,0,0,0,0,0,0,0,0,0,0,0,0,0,0,0,0,0,0,0,0,0,0,0,0,0,0,0,0,0,0,0,0,0,0,0,0,0,0,0,0,0,0,0,0,0,0,0,0,0,0,0,0,0,0,0,0,0,0,0,0,0,0,0,0,0,0,0,0,0,0,0,0,0,0,0,0,0,0,0,0,0,0,0,0,0,0,0,0,0,0,0,0,0,0,0,0,0,0,0,0,0,0,0,0,0,0,0,0,0,0,0,0,0,0,0,0,0,0,0,0,0,0,0,0,0,0,0,0,0,0,0,0,0,0,0,0,0,0,0,0,0,0,0,0,0,0,0,0,0,0,0,0,0,0,0,0,0,0,0,0,0,0,0,0,0,0,0,0,0,0,0,0,0,0,0,0,0,0,0,0,0,0,0,0,0,0,0,0,0,0,0,0,0,0,0,0,0,0,0,0,0],"id":6,"left_children":[1,3,5,7,9,11,13,15,17,19,21,23,25,27,29,31,33,35,37,39,41,43,45,47,49,51,53,55,57,59,61,63,65,67,69,71,73,75,77,79,81,83,85,87,89,91,93,95,97,99,101,103,105,107,109,111,113,115,117,119,121,123,125,127,129,131,133,135,137,139,141,143,145,147,149,151,153,155,157,159,161,163,165,167,169,171,173,175,177,179,181,183,185,187,189,191,193,195,197,199,201,203,205,207,209,211,213,215,217,219,-1,221,223,225,227,229,231,233,235,237,239,241,243,245,247,249,251,-1,-1,-1,-1,-1,-1,-1,-1,-1,-1,-1,-1,-1,-1,-1,-1,-1,-1,-1,-1,-1,-1,-1,-1,-1,-1,-1,-1,-1,-1,-1,-1,-1,-1,-1,-1,-1,-1,-1,-1,-1,-1,-1,-1,-1,-1,-1,-1,-1,-1,-1,-1,-1,-1,-1,-1,-1,-1,-1,-1,-1,-1,-1,-1,-1,-1,-1,-1,-1,-1,-1,-1,-1,-1,-1,-1,-1,-1,-1,-1,-1,-1,-1,-1,-1,-1,-1,-1,-1,-1,-1,-1,-1,-1,-1,-1,-1,-1,-1,-1,-1,-1,-1,-1,-1,-1,-1,-1,-1,-1,-1,-1,-1,-1,-1,-1,-1,-1,-1,-1,-1,-1,-1,-1,-1,-1],"loss_changes":[6.462198E6,1.3886222E6,9.12423E5,7.015775E5,2.2772483E5,3.67414E5,4.9190025E5,1.0194375E5,2.3986212E5,1.66269E5,4.4330844E4,8.3851195E4,7.019494E4,2.2380512E5,1.26728E5,1.799325E4,1.2761875E4,1.3223838E5,1.1378781E5,2.49915E4,4.4886E4,1.4310332E4,1.57681875E4,1.7399861E4,1.1745051E4,1.3516125E4,1.25955625E4,5.2171938E4,3.737775E4,6.688575E4,2.7433125E4,6.423625E3,6.60375E3,5.965875E3,3.7738438E3,2.8574E4,1.2989E4,2.4587688E4,1.3590086E4,3.9487812E3,3.0738901E3,1.6092862E4,1.4286203E4,2.278122E3,3.0834102E3,6.991047E3,2.1833281E3,1.0110467E4,5.0903555E3,7.274289E3,2.2427341E3,4.6255312E3,1.8949062E3,2.73575E3,1.6883438E3,1.27541875E4,9.9971875E3,7.843125E3,9.304875E3,1.56288125E4,9.77275E3,1.22758125E4,3.9902188E3,3.080125E3,1.69925E3,1.2049375E3,2.1330312E3,1.964375E3,1.2785078E3,8.960625E2,1.4831094E3,8.3585E3,5.6998438E3,4.122703E3,2.6358438E3,6.99225E3,1.0181422E4,5.111955E3,2.5742021E3,2.6343203E3,1.5172227E3,1.3018066E3,1.1334093E3,2.844609E3,2.795627E3,3.8106367E3,2.092961E3,7.7266797E2,5.1594824E2,3.0364062E2,8.145156E2,1.2385E3,1.1783672E3,1.4267266E3,8.075078E2,2.56033E3,1.2544668E3,2.814457E3,1.485919E3,2.0650137E3,1.5275156E3,1.3103975E3,6.7876086E2,1.1589297E3,1.684125E3,6.438281E2,8.2483203E2,7.156875E2,4.3714062E2,1.2374219E2,0E0,4.215086E3,6.4643457E3,5.4541875E3,2.978664E3,5.0606562E3,1.8068877E3,4.123125E3,3.9372812E3,4.812E3,2.9890938E3,2.4994375E3,1.8341875E3,3.4863125E3,1.9204688E3,1.6760469E3,4.309375E1,0E0,0E0,0E0,0E0,0E0,0E0,0E0,0E0,0E0,0E0,0E0,0E0,0E0,0E0,0E0,0E0,0E0,0E0,0E0,0E0,0E0,0E0,0E0,0E0,0E0,0E0,0E0,0E0,0E0,0E0,0E0,0E0,0E0,0E0,0E0,0E0,0E0,0E0,0E0,0E0,0E0,0E0,0E0,0E0,0E0,0E0,0E0,0E0,0E0,0E0,0E0,0E0,0E0,0E0,0E0,0E0,0E0,0E0,0E0,0E0,0E0,0E0,0E0,0E0,0E0,0E0,0E0,0E0,0E0,0E0,0E0,0E0,0E0,0E0,0E0,0E0,0E0,0E0,0E0,0E0,0E0,0E0,0E0,0E0,0E0,0E0,0E0,0E0,0E0,0E0,0E0,0E0,0E0,0E0,0E0,0E0,0E0,0E0,0E0,0E0,0E0,0E0,0E0,0E0,0E0,0E0,0E0,0E0,0E0,0E0,0E0,0E0,0E0,0E0,0E0,0E0,0E0,0E0,0E0,0E0,0E0,0E0,0E0,0E0,0E0,0E0],"parents":[2147483647,0,0,1,1,2,2,3,3,4,4,5,5,6,6,7,7,8,8,9,9,10,10,11,11,12,12,13,13,14,14,15,15,16,16,17,17,18,18,19,19,20,20,21,21,22,22,23,23,24,24,25,25,26,26,27,27,28,28,29,29,30,30,31,31,32,32,33,33,34,34,35,35,36,36,37,37,38,38,39,39,40,40,41,41,42,42,43,43,44,44,45,45,46,46,47,47,48,48,49,49,50,50,51,51,52,52,53,53,54,54,55,55,56,56,57,57,58,58,59,59,60,60,61,61,62,62,63,63,64,64,65,65,66,66,67,67,68,68,69,69,70,70,71,71,72,72,73,73,74,74,75,75,76,76,77,77,78,78,79,79,80,80,81,81,82,82,83,83,84,84,85,85,86,86,87,87,88,88,89,89,90,90,91,91,92,92,93,93,94,94,95,95,96,96,97,97,98,98,99,99,100,100,101,101,102,102,103,103,104,104,105,105,106,106,107,107,108,108,109,109,111,111,112,112,113,113,114,114,115,115,116,116,117,117,118,118,119,119,120,120,121,121,122,122,123,123,124,124,125,125,126,126],"right_children":[2,4,6,8,10,12,14,16,18,20,22,24,26,28,30,32,34,36,38,40,42,44,46,48,50,52,54,56,58,60,62,64,66,68,70,72,74,76,78,80,82,84,86,88,90,92,94,96,98,100,102,104,106,108,110,112,114,116,118,120,122,124,126,128,130,132,134,136,138,140,142,144,146,148,150,152,154,156,158,160,162,164,166,168,170,172,174,176,178,180,182,184,186,188,190,192,194,196,198,200,202,204,206,208,210,212,214,216,218,220,-1,222,224,226,228,230,232,234,236,238,240,242,244,246,248,250,252,-1,-1,-1,-1,-1,-1,-1,-1,-1,-1,-1,-1,-1,-1,-1,-1,-1,-1,-1,-1,-1,-1,-1,-1,-1,-1,-1,-1,-1,-1,-1,-1,-1,-1,-1,-1,-1,-1,-1,-1,-1,-1,-1,-1,-1,-1,-1,-1,-1,-1,-1,-1,-1,-1,-1,-1,-1,-1,-1,-1,-1,-1,-1,-1,-1,-1,-1,-1,-1,-1,-1,-1,-1,-1,-1,-1,-1,-1,-1,-1,-1,-1,-1,-1,-1,-1,-1,-1,-1,-1,-1,-1,-1,-1,-1,-1,-1,-1,-1,-1,-1,-1,-1,-1,-1,-1,-1,-1,-1,-1,-1,-1,-1,-1,-1,-1,-1,-1,-1,-1,-1,-1,-1,-1,-1,-1],"split_conditions":[4E0,4.6E0,5E0,2E0,7.35E0,3.85E0,3.53E0,3E0,3E0,2E0,2E0,2.59E0,5.96E0,6E0,5.5E0,2.3E0,3.8E0,3.04E0,2.97E0,5.88E0,3E0,9.06E0,9.06E0,1.405E1,1.784E1,4.83E0,8.13E0,2.46E0,2.36E0,6E0,7.82E0,7.24E0,8.13E0,1.757E1,8.13E0,2.33E0,3.87E0,2.03E0,3.82E0,1.227E1,6.51E0,5.78E0,5.88E0,8.13E0,9.86E0,3E0,3E0,2.02E0,2.06E0,3.26E0,3.26E0,7.76E0,7.24E0,6.98E0,9.86E0,7.51E0,1.405E1,2.023E1,7.51E0,4.36E0,4.36E0,6E0,9.86E0,1.84E0,2.076E1,2.64E0,3.658E1,5.13E0,3.831E1,4.15E0,2.076E1,1.62E0,2.33E1,1.633E1,7.95E0,8.31E0,2.33E1,7.66E0,1.937E1,5.16E0,3.831E1,9.65E0,2.957E1,7.95E0,1.156E1,1.937E1,1.13E1,1.863E1,1.03E1,1.863E1,4.56E0,8.13E0,9.47E0,9.86E0,4.852E1,1.59E0,4.39E0,2.707E1,3.255E1,5.66E0,4.39E0,3.255E1,3.255E1,4.36E0,3.064E1,5.21E0,2.236E1,1.615E1,1.227E1,1.355E1,2.075204E0,1.91E0,1.78E0,2.95E0,2.864E1,1.71E0,5.176E1,2.92E0,2.93E0,2.33E1,2.33E1,6.22E0,2.259E1,1.262E1,6.39E0,6E0,2.627E1,-1.2512821E0,-1.113318E0,-1.3006352E0,-1.4906671E0,-1.0246344E0,-9.426163E-1,-1.1334974E0,-1.4315497E0,-7.9224825E-1,-8.937796E-1,-1.0439171E0,-1.3853323E0,-6.686407E-1,-5.7578236E-1,-7.4871796E-1,-9.8221314E-1,-9.9053997E-1,-8.0068046E-1,-6.197936E-1,-1.012052E0,-4.366749E-1,-7.6976484E-1,-2.2882621E-1,-4.0294668E-1,-4.7761366E-1,-6.810889E-1,-2.9866248E-1,-6.1362314E-1,-6.819815E-2,-2.5300118E-1,1.2162646E-1,-1.6957624E-1,-4.6728078E-1,-3.2163826E-1,-5.702944E-1,-9.918212E-1,-1.4832155E-1,-3.447791E-1,-3.1133972E-3,-5.108735E-1,-3.7959998E-3,-2.0834461E-1,3.006785E-1,-2.926614E-2,3.591359E-1,2.2190364E-2,6.957161E-1,3.793771E-1,2.0703419E-1,-1.1763815E-1,4.3790427E-1,2.3516925E-1,6.1777323E-1,2.0613132E-1,1.2448101E0,8.9153636E-1,5.767728E-1,7.8528816E-1,1.0733087E0,7.126712E-1,9.956941E-1,1.3236021E0,2.6171062E0,1.4695692E0,-2.2280855E-1,-9.876131E-2,6.631509E-2,-1.6707404E-2,-2.7348337E-1,-4.6100733E-1,-1.2850143E-1,-3.8154903E-1,2.0837069E-1,1.0822771E-1,3.6515614E-1,2.5861415E-1,-2.218108E-2,-2.601752E-1,1.3675384E-1,-7.601734E-2,4.8136684E-1,5.944146E-1,3.8339612E-1,1.0856964E-1,7.024267E-1,8.2918036E-1,6.514292E-1,4.5707867E-1,1.0014163E0,8.004028E-1,1.2852042E0,1.0708098E0,1.6034803E0,1.3141387E0,2.5648445E-1,4.076074E-1,4.673305E-2,2.3028682E-1,4.8715803E-1,6.2221855E-1,4.037783E-1,1.5392147E-1,5.399119E-1,7.0196694E-1,4.1987085E-1,1.3277243E-2,8.7639105E-1,1.0129111E0,6.990249E-1,8.677247E-1,7.610418E-1,4.4423708E-1,9.982883E-1,6.626257E-1,1.1821008E0,1.0359348E0,1.3764347E0,1.0028834E0,1.3957969E0,1.1142204E0,1.6008313E0,1.8601456E0,1.8630307E0,2.2750127E0,2.6479323E0,1.7263186E0],"split_indices":[11,2,11,11,2,2,2,2,11,11,11,2,2,11,2,2,2,2,2,2,11,2,2,4,4,2,2,2,2,11,2,4,4,4,4,2,2,2,2,4,2,2,2,2,2,11,11,2,2,2,2,4,4,2,2,4,4,4,4,2,2,11,2,2,4,2,4,4,4,2,4,2,4,4,4,4,4,4,4,2,4,4,4,4,4,4,4,4,4,4,0,2,4,2,1,2,4,4,4,4,4,4,4,2,4,2,4,4,4,4,0,2,2,2,4,2,4,2,2,4,4,4,4,4,2,11,4,0,0,0,0,0,0,0,0,0,0,0,0,0,0,0,0,0,0,0,0,0,0,0,0,0,0,0,0,0,0,0,0,0,0,0,0,0,0,0,0,0,0,0,0,0,0,0,0,0,0,0,0,0,0,0,0,0,0,0,0,0,0,0,0,0,0,0,0,0,0,0,0,0,0,0,0,0,0,0,0,0,0,0,0,0,0,0,0,0,0,0,0,0,0,0,0,0,0,0,0,0,0,0,0,0,0,0,0,0,0,0,0,0,0,0,0,0,0,0,0,0,0,0,0,0,0],"split_type":[0,0,0,0,0,0,0,0,0,0,0,0,0,0,0,0,0,0,0,0,0,0,0,0,0,0,0,0,0,0,0,0,0,0,0,0,0,0,0,0,0,0,0,0,0,0,0,0,0,0,0,0,0,0,0,0,0,0,0,0,0,0,0,0,0,0,0,0,0,0,0,0,0,0,0,0,0,0,0,0,0,0,0,0,0,0,0,0,0,0,0,0,0,0,0,0,0,0,0,0,0,0,0,0,0,0,0,0,0,0,0,0,0,0,0,0,0,0,0,0,0,0,0,0,0,0,0,0,0,0,0,0,0,0,0,0,0,0,0,0,0,0,0,0,0,0,0,0,0,0,0,0,0,0,0,0,0,0,0,0,0,0,0,0,0,0,0,0,0,0,0,0,0,0,0,0,0,0,0,0,0,0,0,0,0,0,0,0,0,0,0,0,0,0,0,0,0,0,0,0,0,0,0,0,0,0,0,0,0,0,0,0,0,0,0,0,0,0,0,0,0,0,0,0,0,0,0,0,0,0,0,0,0,0,0,0,0,0,0,0,0,0,0,0,0,0,0,0,0,0,0,0,0],"sum_hessian":[2.79444E5,1.46201E5,1.33243E5,1.16467E5,2.9734E4,5.0498E4,8.2745E4,3.6221E4,8.0246E4,2.3823E4,5.911E3,3.807E4,1.2428E4,5.8637E4,2.4108E4,2.0803E4,1.5418E4,4.3229E4,3.7017E4,9.866E3,1.3957E4,2.824E3,3.087E3,2.0931E4,1.7139E4,1.0303E4,2.125E3,3.2705E4,2.5932E4,1.9657E4,4.451E3,1.0168E4,1.0635E4,9.333E3,6.085E3,2.7182E4,1.6047E4,2.3271E4,1.3746E4,5.985E3,3.881E3,7.58E3,6.377E3,2.012E3,8.12E2,2.124E3,9.63E2,1.4567E4,6.364E3,1.3692E4,3.447E3,6.967E3,3.336E3,1.753E3,3.72E2,1.6784E4,1.5921E4,1.1131E4,1.4801E4,1.18E4,7.857E3,3.754E3,6.97E2,7.111E3,3.057E3,7.742E3,2.893E3,8.358E3,9.75E2,4.335E3,1.75E3,1.4794E4,1.2388E4,1.0313E4,5.734E3,8.202E3,1.5069E4,8.985E3,4.761E3,4.997E3,9.88E2,1.932E3,1.949E3,4.867E3,2.713E3,4.43E3,1.947E3,1.159E3,8.53E2,4.58E2,3.54E2,1.231E3,8.93E2,5.86E2,3.77E2,7.286E3,7.281E3,3.679E3,2.685E3,8.272E3,5.42E3,2.043E3,1.404E3,3.883E3,3.084E3,1.757E3,1.579E3,1.141E3,6.12E2,2.75E2,9.7E1,7.776E3,9.008E3,1.2037E4,3.884E3,1.0082E4,1.049E3,9.12E3,5.681E3,7.34E3,4.46E3,5.063E3,2.794E3,2.337E3,1.417E3,5.4E2,1.57E2,2.762E3,4.349E3,2.393E3,6.64E2,3.947E3,3.795E3,2.611E3,2.82E2,5.17E3,3.188E3,8.36E2,1.39E2,2.134E3,2.201E3,1.395E3,3.55E2,2.91E3,1.1884E4,1.2004E4,3.84E2,9.926E3,3.87E2,4.663E3,1.071E3,5.808E3,2.394E3,1.3961E4,1.108E3,7.088E3,1.897E3,4.436E3,3.25E2,2.446E3,2.551E3,8.92E2,9.6E1,1.496E3,4.36E2,1.905E3,4.4E1,4.051E3,8.16E2,2.426E3,2.87E2,4.064E3,3.66E2,1.704E3,2.43E2,1.081E3,7.8E1,6.95E2,1.58E2,4.38E2,2E1,1.02E2,2.52E2,7.44E2,4.87E2,7.81E2,1.12E2,2.64E2,3.22E2,7E0,3.7E2,2.574E3,4.712E3,3.57E3,3.711E3,2.495E3,1.184E3,2.429E3,2.56E2,4.373E3,3.899E3,2.625E3,2.795E3,1.778E3,2.65E2,1.234E3,1.7E2,2.349E3,1.534E3,2.841E3,2.43E2,8.18E2,9.39E2,1.303E3,2.76E2,8.84E2,2.57E2,4.32E2,1.8E2,2.22E2,5.3E1,3.035E3,4.741E3,2.772E3,6.236E3,6.209E3,5.828E3,3.325E3,5.59E2,2.628E3,7.454E3,9.25E2,1.24E2,4.998E3,4.122E3,3.144E3,2.537E3,6.819E3,5.21E2,4.168E3,2.92E2,2.967E3,2.096E3,2.642E3,1.52E2,1.705E3,6.32E2,9.02E2,5.15E2,3.54E2,1.86E2,1.49E2,8E0],"tree_param":{"num_deleted":"0","num_feature":"12","num_nodes":"253","size_leaf_vector":"1"}},{"base_weights":[6.372658E-4,-4.131276E0,4.53438E0,-5.79047E0,5.1432407E-1,1.5195143E0,6.3742657E0,-9.117068E0,-4.311265E0,-8.975289E-1,5.0642085E0,-1.610571E-1,5.0385103E0,5.2369475E0,1.0623204E1,-1.0439755E1,-7.7737303E0,-5.7623715E0,-2.6273959E0,-3.8757777E0,9.825799E-1,2.4495265E0,7.4966736E0,-1.5541246E0,8.864831E-1,3.9789548E0,9.370313E0,3.6939354E0,7.2026606E0,9.766565E0,1.5753984E1,-9.86555E0,-1.1406754E1,-8.552356E0,-7.0344706E0,-7.2889724E0,-4.443756E0,-4.18223E0,-1.298156E0,-4.951215E0,-2.281735E0,-4.8857778E-1,2.7770534E0,1.041918E0,5.913929E0,6.122236E0,1.0999002E1,-1.1233468E0,-3.1562898E0,1.2642344E0,-6.300897E-1,3.1459398E0,5.202554E0,8.268282E0,1.3820949E1,2.5533547E0,5.229695E0,6.1702037E0,8.684672E0,8.437899E0,1.1851395E1,1.4666067E1,2.0922901E1,-1.0840309E1,-9.313286E0,-1.2555177E1,-1.0939933E1,-8.085231E0,-9.59113E0,-6.559566E0,-8.154979E0,-8.312274E0,-6.790181E0,-5.2646003E0,-3.52865E0,-3.617271E0,-5.393882E0,-2.1291873E0,-3.730051E-1,-4.489997E0,-6.1320744E0,-2.1502018E0,-6.468703E0,-1.6330767E0,9.558946E-1,1.5726514E0,4.1126065E0,5.1805787E-2,2.038992E0,4.719861E0,8.974938E0,4.7270465E0,7.8663263E0,9.811121E0,1.3032648E1,-2.1111217E0,-7.5631243E-1,-2.7979884E0,-5.0977874E0,6.508132E-1,1.9817905E0,-3.9373812E-1,-2.7150774E0,3.8073812E0,2.2017195E0,5.5235715E0,3.7116592E0,7.426798E0,9.639836E0,1.2513819E1,1.7468447E1,3.3236637E0,