{"learner":{"attributes":{},"feature_names":["T2M","RH2M","WS10M","ALLSKY_SFC_SW_DWN","arazi_egimi_yuzde","yuzey_alani_km2","yuzey_Orman_ve_Doğa","yuzey_Su_Yüzeyi","yuzey_Sulak_Alan","yuzey_Tarım_Arazisi","yuzey_Şehir_Yerleşimi","tesvik_bolgesi"],"feature_types":["float","float","float","float","float","float","float","float","float","float","float","float"],"gradient_booster":{"model":{"gbtree_model_param":{"num_parallel_tree":"1","num_trees":"30"},"iteration_indptr":[0,1,2,3,4,5,6,7,8,9,10,11,12,13,14,15,16,17,18,19,20,21,22,23,24,25,26,27,28,29,30],"tree_info":[0,0,0,0,0,0,0,0,0,0,0,0,0,0,0,0,0,0,0,0,0,0,0,0,0,0,0,0,0,0],"trees":[{"base_weights":[-9.105313E-8,-1.3069079E1,1.4129286E1,-2.1417406E1,-4.228893E0,5.376631E0,2.3391598E1,-1.4146175E0,-8.167562E-1,-5.4321295E-1,9.067568E-2,-1.4111394E-1,6.191616E-1,8.1687814E-1,1.5974163E0],"categories":[],"categories_nodes":[],"categories_segments":[],"categories_sizes":[],"default_left":[0,0,0,0,0,0,0,0,0,0,0,0,0,0,0],"id":0,"left_children":[1,3,5,7,9,11,13,-1,-1,-1,-1,-1,-1,-1,-1],"loss_changes":[7.389964E5,1.5334119E5,1.557715E5,3.6889156E4,4.0554312E4,5.6906977E4,5.5853812E4,0E0,0E0,0E0,0E0,0E0,0E0,0E0,0E0],"parents":[2147483647,0,0,1,1,2,2,3,3,4,4,5,5,6,6],"right_children":[2,4,6,8,10,12,14,-1,-1,-1,-1,-1,-1,-1,-1],"split_conditions":[4.343E0,4E0,4E0,2.4108E0,2.5738E0,6.3154E0,6.6782E0,-1.4146175E0,-8.167562E-1,-5.4321295E-1,9.067568E-2,-1.4111394E-1,6.191616E-1,8.1687814E-1,1.5974163E0],"split_indices":[3,11,11,3,3,3,3,0,0,0,0,0,0,0,0],"split_type":[0,0,0,0,0,0,0,0,0,0,0,0,0,0,0],"sum_hessian":[4E3,2.078E3,1.922E3,1.068E3,1.01E3,9.89E2,9.33E2,4.52E2,6.16E2,4.81E2,5.29E2,4.56E2,5.33E2,5.13E2,4.2E2],"tree_param":{"num_deleted":"0","num_feature":"12","num_nodes":"15","size_leaf_vector":"1"}},{"base_weights":[5.197227E-5,-1.1394673E1,1.4633689E1,-1.9436857E1,-2.9542813E0,6.2798047E0,2.3572624E1,-1.2779714E0,-6.719132E-1,-4.9505544E-1,1.6055901E-1,-8.74255E-3,6.4907175E-1,8.491721E-1,1.5269117E0],"categories":[],"categories_nodes":[],"categories_segments":[],"categories_sizes":[],"default_left":[0,0,0,0,0,0,0,0,0,0,0,0,0,0,0],"id":1,"left_children":[1,3,5,7,9,11,13,-1,-1,-1,-1,-1,-1,-1,-1],"loss_changes":[6.673186E5,1.5267075E5,1.3068225E5,4.1965812E4,4.7102402E4,3.9236113E4,3.831078E4,0E0,0E0,0E0,0E0,0E0,0E0,0E0,0E0],"parents":[2147483647,0,0,1,1,2,2,3,3,4,4,5,5,6,6],"right_children":[2,4,6,8,10,12,14,-1,-1,-1,-1,-1,-1,-1,-1],"split_conditions":[4.656E0,4E0,4E0,2.7098E0,2.6863E0,6.6374E0,6.7399E0,-1.2779714E0,-6.719132E-1,-4.9505544E-1,1.6055901E-1,-8.74255E-3,6.4907175E-1,8.491721E-1,1.5269117E0],"split_indices":[3,11,11,3,3,3,3,0,0,0,0,0,0,0,0],"split_type":[0,0,0,0,0,0,0,0,0,0,0,0,0,0,0],"sum_hessian":[4E3,2.249E3,1.751E3,1.151E3,1.098E3,9.06E2,8.45E2,5.68E2,5.83E2,5.16E2,5.82E2,4.62E2,4.44E2,4.36E2,4.09E2],"tree_param":{"num_deleted":"0","num_feature":"12","num_nodes":"15","size_leaf_vector":"1"}},{"base_weights":[2.3271465E-4,-1.1821448E1,1.2780927E1,-1.9355314E1,-3.84368E0,4.877595E0,2.1144436E1,-1.2802852E0,-7.3674613E-1,-5.3145045E-1,5.2783944E-2,-1.2761529E-1,5.6135046E-1,6.425567E-1,1.3546278E0],"categories":[],"categories_nodes":[],"categories_segments":[],"categories_sizes":[],"default_left":[0,0,0,0,0,0,0,0,0,0,0,0,0,0,0],"id":2,"left_children":[1,3,5,7,9,11,13,-1,-1,-1,-1,-1,-1,-1,-1],"loss_changes":[6.046593E5,1.24880625E5,1.27006375E5,3.0494625E4,3.3620664E4,4.6732406E4,4.5725625E4,0E0,0E0,0E0,0E0,0E0,0E0,0E0,0E0],"parents":[2147483647,0,0,1,1,2,2,3,3,4,4,5,5,6,6],"right_children":[2,4,6,8,10,12,14,-1,-1,-1,-1,-1,-1,-1,-1],"split_conditions":[4.343E0,4E0,4E0,2.4108E0,2.4108E0,6.3154E0,6.1229E0,-1.2802852E0,-7.3674613E-1,-5.3145045E-1,5.2783944E-2,-1.2761529E-1,5.6135046E-1,6.425567E-1,1.3546278E0],"split_indices":[3,11,11,3,3,3,3,0,0,0,0,0,0,0,0],"split_type":[0,0,0,0,0,0,0,0,0,0,0,0,0,0,0],"sum_hessian":[4E3,2.078E3,1.922E3,1.068E3,1.01E3,9.89E2,9.33E2,4.52E2,6.16E2,4.23E2,5.87E2,4.56E2,5.33E2,3.91E2,5.42E2],"tree_param":{"num_deleted":"0","num_feature":"12","num_nodes":"15","size_leaf_vector":"1"}},{"base_weights":[2.0520373E-4,-1.21581135E1,1.123496E1,-1.91673E1,-4.6610384E0,9.2674774E-1,1.7071442E1,-1.2811037E0,-7.751908E-1,-5.049405E-1,-5.2140583E-3,-2.582445E-1,4.251139E-1,5.6801564E-1,1.274454E0],"categories":[],"categories_nodes":[],"categories_segments":[],"categories_sizes":[],"default_left":[0,0,0,0,0,0,0,0,0,0,0,0,0,0,0],"id":3,"left_children":[1,3,5,7,9,11,13,-1,-1,-1,-1,-1,-1,-1,-1],"loss_changes":[5.466561E5,1.00908625E5,1.2512466E5,2.3084219E4,2.3043047E4,3.4792895E4,6.3553E4,0E0,0E0,0E0,0E0,0E0,0E0,0E0,0E0],"parents":[2147483647,0,0,1,1,2,2,3,3,4,4,5,5,6,6],"right_children":[2,4,6,8,10,12,14,-1,-1,-1,-1,-1,-1,-1,-1],"split_conditions":[4.0445E0,4E0,3E0,2.1211E0,2.4108E0,6.4774E0,6.7399E0,-1.2811037E0,-7.751908E-1,-5.049405E-1,-5.2140583E-3,-2.582445E-1,4.251139E-1,5.6801564E-1,1.274454E0],"split_indices":[3,11,11,3,3,3,3,0,0,0,0,0,0,0,0],"split_type":[0,0,0,0,0,0,0,0,0,0,0,0,0,0,0],"sum_hessian":[4E3,1.921E3,2.079E3,9.92E2,9.29E2,7.52E2,1.327E3,3.57E2,6.35E2,4.23E2,5.06E2,4.17E2,3.35E2,7.92E2,5.35E2],"tree_param":{"num_deleted":"0","num_feature":"12","num_nodes":"15","size_leaf_vector":"1"}},{"base_weights":[5.6166435E-5,-9.824864E0,1.2617677E1,-1.4576749E1,1.2376045E0,5.354226E0,2.0389936E1,-9.8203146E-1,-4.7114983E-1,-2.3108542E-1,2.9843146E-1,-7.714128E-4,5.655416E-1,7.27799E-1,1.3122374E0],"categories":[],"categories_nodes":[],"categories_segments":[],"categories_sizes":[],"default_left":[0,0,0,0,0,0,0,0,0,0,0,0,0,0,0],"id":4,"left_children":[1,3,5,7,9,11,13,-1,-1,-1,-1,-1,-1,-1,-1],"loss_changes":[4.9611638E5,1.1829511E5,9.879719E4,4.0893125E4,1.87944E4,2.9010492E4,2.8514562E4,0E0,0E0,0E0,0E0,0E0,0E0,0E0,0E0],"parents":[2147483647,0,0,1,1,2,2,3,3,4,4,5,5,6,6],"right_children":[2,4,6,8,10,12,14,-1,-1,-1,-1,-1,-1,-1,-1],"split_conditions":[4.656E0,5E0,4E0,2.7098E0,2.7098E0,6.7085E0,6.6782E0,-9.8203146E-1,-4.7114983E-1,-2.3108542E-1,2.9843146E-1,-7.714128E-4,5.655416E-1,7.27799E-1,1.3122374E0],"split_indices":[3,11,11,3,3,3,3,0,0,0,0,0,0,0,0],"split_type":[0,0,0,0,0,0,0,0,0,0,0,0,0,0,0],"sum_hessian":[4E3,2.249E3,1.751E3,1.573E3,6.76E2,9.06E2,8.45E2,7.92E2,7.81E2,3.02E2,3.74E2,4.77E2,4.29E2,4.25E2,4.2E2],"tree_param":{"num_deleted":"0","num_feature":"12","num_nodes":"15","size_leaf_vector":"1"}},{"base_weights":[3.5846475E-4,-8.763645E0,1.2793541E1,-1.3370998E1,1.7823002E0,5.8417215E0,2.0372272E1,-8.908715E-1,-3.73472E-1,-1.3295911E-1,4.1735783E-1,9.6080564E-2,6.180511E-1,7.541272E-1,1.2541671E0],"categories":[],"categories_nodes":[],"categories_segments":[],"categories_sizes":[],"default_left":[0,0,0,0,0,0,0,0,0,0,0,0,0,0,0],"id":5,"left_children":[1,3,5,7,9,11,13,-1,-1,-1,-1,-1,-1,-1,-1],"loss_changes":[4.4870225E5,1.1542245E5,8.560109E4,4.3243094E4,2.1103207E4,2.1699166E4,1.9009656E4,0E0,0E0,0E0,0E0,0E0,0E0,0E0,0E0],"parents":[2147483647,0,0,1,1,2,2,3,3,4,4,5,5,6,6],"right_children":[2,4,6,8,10,12,14,-1,-1,-1,-1,-1,-1,-1,-1],"split_conditions":[4.9231E0,5E0,4E0,2.993E0,3.2102E0,7.229E0,6.7399E0,-8.908715E-1,-3.73472E-1,-1.3295911E-1,4.1735783E-1,9.6080564E-2,6.180511E-1,7.541272E-1,1.2541671E0],"split_indices":[3,11,11,3,3,3,3,0,0,0,0,0,0,0,0],"split_type":[0,0,0,0,0,0,0,0,0,0,0,0,0,0,0],"sum_hessian":[4E3,2.374E3,1.626E3,1.652E3,7.22E2,8.49E2,7.77E2,9.41E2,7.11E2,4.31E2,2.91E2,5.31E2,3.18E2,3.68E2,4.09E2],"tree_param":{"num_deleted":"0","num_feature":"12","num_nodes":"15","size_leaf_vector":"1"}},{"base_weights":[7.760811E-4,-1.049075E1,9.69535E0,-1.9270725E1,-5.524279E0,5.7481235E-1,1.4859559E1,-1.255199E0,-7.9231465E-1,-6.533719E-1,-1.3875942E-1,-2.617477E-1,3.3174673E-1,3.8333067E-1,9.93597E-1],"categories":[],"categories_nodes":[],"categories_segments":[],"categories_sizes":[],"default_left":[0,0,0,0,0,0,0,0,0,0,0,0,0,0,0],"id":6,"left_children":[1,3,5,7,9,11,13,-1,-1,-1,-1,-1,-1,-1,-1],"loss_changes":[4.0704694E5,8.370328E4,9.796022E4,1.3465266E4,2.544929E4,2.6546275E4,4.7727094E4,0E0,0E0,0E0,0E0,0E0,0E0,0E0,0E0],"parents":[2147483647,0,0,1,1,2,2,3,3,4,4,5,5,6,6],"right_children":[2,4,6,8,10,12,14,-1,-1,-1,-1,-1,-1,-1,-1],"split_conditions":[4.0445E0,3E0,3E0,2.1701E0,1.8134E0,6.2729E0,5.8538E0,-1.255199E0,-7.9231465E-1,-6.533719E-1,-1.3875942E-1,-2.617477E-1,3.3174673E-1,3.8333067E-1,9.93597E-1],"split_indices":[3,11,11,3,3,3,3,0,0,0,0,0,0,0,0],"split_type":[0,0,0,0,0,0,0,0,0,0,0,0,0,0,0],"sum_hessian":[4E3,1.921E3,2.079E3,6.93E2,1.228E3,7.52E2,1.327E3,2.54E2,4.39E2,3.27E2,9.01E2,3.84E2,3.68E2,5.46E2,7.81E2],"tree_param":{"num_deleted":"0","num_feature":"12","num_nodes":"15","size_leaf_vector":"1"}},{"base_weights":[3.9017745E-4,-7.0755057E0,1.3022248E1,-1.13183365E1,2.693087E0,8.542037E0,2.2902117E1,-8.0582666E-1,-2.909419E-1,-9.9709034E-2,4.521153E-1,5.4723114E-2,5.5753964E-1,9.7997665E-1,1.4297359E0],"categories":[],"categories_nodes":[],"categories_segments":[],"categories_sizes":[],"default_left":[0,0,0,0,0,0,0,0,0,0,0,0,0,0,0],"id":7,"left_children":[1,3,5,7,9,11,13,-1,-1,-1,-1,-1,-1,-1,-1],"loss_changes":[3.6874953E5,1.0750122E5,6.217217E4,4.7615125E4,2.3409777E4,1.885325E4,7.692875E3,0E0,0E0,0E0,0E0,0E0,0E0,0E0,0E0],"parents":[2147483647,0,0,1,1,2,2,3,3,4,4,5,5,6,6],"right_children":[2,4,6,8,10,12,14,-1,-1,-1,-1,-1,-1,-1,-1],"split_conditions":[5.4403E0,5E0,5E0,3.0202E0,3.3444E0,2E0,7.4765E0,-8.0582666E-1,-2.909419E-1,-9.9709034E-2,4.521153E-1,5.4723114E-2,5.5753964E-1,9.7997665E-1,1.4297359E0],"split_indices":[3,11,11,3,3,11,3,0,0,0,0,0,0,0,0],"split_type":[0,0,0,0,0,0,0,0,0,0,0,0,0,0,0],"sum_hessian":[4E3,2.592E3,1.408E3,1.807E3,7.85E2,9.7E2,4.38E2,9.64E2,8.43E2,4.52E2,3.33E2,2.52E2,7.18E2,2.8E2,1.58E2],"tree_param":{"num_deleted":"0","num_feature":"12","num_nodes":"15","size_leaf_vector":"1"}},{"base_weights":[9.4040204E-4,-8.788728E0,9.5036545E0,-1.7064959E1,-4.1345167E0,1.1960908E0,1.4236294E1,-1.0877889E0,-6.529996E-1,-5.9441215E-1,-7.999168E-2,-1.4571302E-1,3.829726E-1,4.9617252E-1,1.0266865E0],"categories":[],"categories_nodes":[],"categories_segments":[],"categories_sizes":[],"default_left":[0,0,0,0,0,0,0,0,0,0,0,0,0,0,0],"id":8,"left_children":[1,3,5,7,9,11,13,-1,-1,-1,-1,-1,-1,-1,-1],"loss_changes":[3.3426988E5,8.0011125E4,7.5588984E4,1.3768219E4,2.6159096E4,1.8592436E4,3.306708E4,0E0,0E0,0E0,0E0,0E0,0E0,0E0,0E0],"parents":[2147483647,0,0,1,1,2,2,3,3,4,4,5,5,6,6],"right_children":[2,4,6,8,10,12,14,-1,-1,-1,-1,-1,-1,-1,-1],"split_conditions":[4.343E0,3E0,3E0,2.5414E0,1.8134E0,6.9022E0,6.9022E0,-1.0877889E0,-6.529996E-1,-5.9441215E-1,-7.999168E-2,-1.4571302E-1,3.829726E-1,4.9617252E-1,1.0266865E0],"split_indices":[3,11,11,3,3,3,3,0,0,0,0,0,0,0,0],"split_type":[0,0,0,0,0,0,0,0,0,0,0,0,0,0,0],"sum_hessian":[4E3,2.078E3,1.922E3,7.47E2,1.331E3,6.98E2,1.224E3,3.42E2,4.05E2,3.27E2,1.004E3,4.27E2,2.71E2,7.28E2,4.96E2],"tree_param":{"num_deleted":"0","num_feature":"12","num_nodes":"15","size_leaf_vector":"1"}},{"base_weights":[7.290839E-4,-6.9783897E0,1.0879943E1,-1.2858318E1,-8.9157593E-1,6.706349E0,2.0263096E1,-8.8330317E-1,-4.3841702E-1,-3.2327896E-1,1.6644983E-1,1.5894344E-1,5.960841E-1,8.6503166E-1,1.3076872E0],"categories":[],"categories_nodes":[],"categories_segments":[],"categories_sizes":[],"default_left":[0,0,0,0,0,0,0,0,0,0,0,0,0,0,0],"id":9,"left_children":[1,3,5,7,9,11,13,-1,-1,-1,-1,-1,-1,-1,-1],"loss_changes":[3.0386116E5,8.724463E4,6.1112656E4,2.4227922E4,2.8228578E4,1.9904438E4,7.941375E3,0E0,0E0,0E0,0E0,0E0,0E0,0E0,0E0],"parents":[2147483647,0,0,1,1,2,2,3,3,4,4,5,5,6,6],"right_children":[2,4,6,8,10,12,14,-1,-1,-1,-1,-1,-1,-1,-1],"split_conditions":[5.0498E0,4E0,5E0,2.7098E0,2.6863E0,7.229E0,7.4765E0,-8.8330317E-1,-4.3841702E-1,-3.2327896E-1,1.6644983E-1,1.5894344E-1,5.960841E-1,8.6503166E-1,1.3076872E0],"split_indices":[3,11,11,3,3,3,3,0,0,0,0,0,0,0,0],"split_type":[0,0,0,0,0,0,0,0,0,0,0,0,0,0,0],"sum_hessian":[4E3,2.437E3,1.563E3,1.239E3,1.198E3,1.083E3,4.8E2,5.68E2,6.71E2,5.16E2,6.82E2,6.47E2,4.36E2,3.22E2,1.58E2],"tree_param":{"num_deleted":"0","num_feature":"12","num_nodes":"15","size_leaf_vector":"1"}},{"base_weights":[1.0547008E-3,-8.644771E0,7.990129E0,-1.6115017E1,-4.419388E0,2.8682095E-1,1.2352028E1,-1.1160294E0,-6.822632E-1,-3.98592E-1,-8.062029E-3,-2.2732167E-1,2.6644352E-1,3.4687293E-1,8.4435284E-1],"categories":[],"categories_nodes":[],"categories_segments":[],"categories_sizes":[],"default_left":[0,0,0,0,0,0,0,0,0,0,0,0,0,0,0],"id":10,"left_children":[1,3,5,7,9,11,13,-1,-1,-1,-1,-1,-1,-1,-1],"loss_changes":[2.7642672E5,6.059603E4,6.988664E4,1.0331844E4,1.8589627E4,1.8374465E4,3.2492188E4,0E0,0E0,0E0,0E0,0E0,0E0,0E0,0E0],"parents":[2147483647,0,0,1,1,2,2,3,3,4,4,5,5,6,6],"right_children":[2,4,6,8,10,12,14,-1,-1,-1,-1,-1,-1,-1,-1],"split_conditions":[4.0445E0,3E0,3E0,1.8382E0,5E0,6.2729E0,6.1229E0,-1.1160294E0,-6.822632E-1,-3.98592E-1,-8.062029E-3,-2.2732167E-1,2.6644352E-1,3.4687293E-1,8.4435284E-1],"split_indices":[3,11,11,3,11,3,3,0,0,0,0,0,0,0,0],"split_type":[0,0,0,0,0,0,0,0,0,0,0,0,0,0,0],"sum_hessian":[4E3,1.921E3,2.079E3,6.93E2,1.228E3,7.52E2,1.327E3,1.95E2,4.98E2,6.69E2,5.59E2,3.84E2,3.68E2,6.06E2,7.21E2],"tree_param":{"num_deleted":"0","num_feature":"12","num_nodes":"15","size_leaf_vector":"1"}},{"base_weights":[7.577051E-4,-5.827829E0,1.0727177E1,-9.437843E0,2.4835377E0,6.883169E0,1.920509E1,-6.4047724E-1,-2.0035863E-1,-7.246161E-2,3.9897227E-1,2.1850621E-2,4.5709273E-1,8.2840556E-1,1.2191814E0],"categories":[],"categories_nodes":[],"categories_segments":[],"categories_sizes":[],"default_left":[0,0,0,0,0,0,0,0,0,0,0,0,0,0,0],"id":11,"left_children":[1,3,5,7,9,11,13,-1,-1,-1,-1,-1,-1,-1,-1],"loss_changes":[2.5020447E5,7.7824195E4,4.5785938E4,3.305425E4,1.7000277E4,1.4133605E4,5.5908594E3,0E0,0E0,0E0,0E0,0E0,0E0,0E0,0E0],"parents":[2147483647,0,0,1,1,2,2,3,3,4,4,5,5,6,6],"right_children":[2,4,6,8,10,12,14,-1,-1,-1,-1,-1,-1,-1,-1],"split_conditions":[5.4403E0,5E0,5E0,3.4015E0,3.3778E0,2E0,7.5883E0,-6.4047724E-1,-2.0035863E-1,-7.246161E-2,3.9897227E-1,2.1850621E-2,4.5709273E-1,8.2840556E-1,1.2191814E0],"split_indices":[3,11,11,3,3,11,3,0,0,0,0,0,0,0,0],"split_type":[0,0,0,0,0,0,0,0,0,0,0,0,0,0,0],"sum_hessian":[4E3,2.592E3,1.408E3,1.807E3,7.85E2,9.7E2,4.38E2,1.114E3,6.93E2,4.58E2,3.27E2,2.52E2,7.18E2,2.93E2,1.45E2],"tree_param":{"num_deleted":"0","num_feature":"12","num_nodes":"15","size_leaf_vector":"1"}},{"base_weights":[1.2223021E-3,-7.820303E0,7.228612E0,-1.4762358E1,-3.893854E0,2.027472E0,1.2683969E1,-9.2433923E-1,-5.52448E-1,-5.078071E-1,-8.061709E-2,-1.2993725E-1,3.3206147E-1,3.5883433E-1,8.335549E-1],"categories":[],"categories_nodes":[],"categories_segments":[],"categories_sizes":[],"default_left":[0,0,0,0,0,0,0,0,0,0,0,0,0,0,0],"id":12,"left_children":[1,3,5,7,9,11,13,-1,-1,-1,-1,-1,-1,-1,-1],"loss_changes":[2.262299E5,5.2331664E4,5.8992367E4,9.393953E3,1.7542941E4,2.2770219E4,2.2167969E4,0E0,0E0,0E0,0E0,0E0,0E0,0E0,0E0],"parents":[2147483647,0,0,1,1,2,2,3,3,4,4,5,5,6,6],"right_children":[2,4,6,8,10,12,14,-1,-1,-1,-1,-1,-1,-1,-1],"split_conditions":[4.0445E0,3E0,4E0,2E0,1.8134E0,6.3154E0,5.8538E0,-9.2433923E-1,-5.52448E-1,-5.078071E-1,-8.061709E-2,-1.2993725E-1,3.3206147E-1,3.5883433E-1,8.335549E-1],"split_indices":[3,11,11,11,3,3,3,0,0,0,0,0,0,0,0],"split_type":[0,0,0,0,0,0,0,0,0,0,0,0,0,0,0],"sum_hessian":[4E3,1.921E3,2.079E3,6.93E2,1.228E3,1.065E3,1.014E3,3.44E2,3.49E2,3.27E2,9.01E2,5.32E2,5.33E2,4.27E2,5.87E2],"tree_param":{"num_deleted":"0","num_feature":"12","num_nodes":"15","size_leaf_vector":"1"}},{"base_weights":[9.93259E-4,-5.501434E0,9.317349E0,-8.847001E0,2.1533825E0,5.786599E0,1.72047E1,-7.8594613E-1,-3.2396552E-1,-7.24674E-2,3.396432E-1,1.3800542E-1,5.0457066E-1,7.3799294E-1,1.1172472E0],"categories":[],"categories_nodes":[],"categories_segments":[],"categories_sizes":[],"default_left":[0,0,0,0,0,0,0,0,0,0,0,0,0,0,0],"id":13,"left_children":[1,3,5,7,9,11,13,-1,-1,-1,-1,-1,-1,-1,-1],"loss_changes":[2.0515281E5,6.4453062E4,4.128297E4,2.8387938E4,1.2813382E4,1.3365422E4,5.4384844E3,0E0,0E0,0E0,0E0,0E0,0E0,0E0,0E0],"parents":[2147483647,0,0,1,1,2,2,3,3,4,4,5,5,6,6],"right_children":[2,4,6,8,10,12,14,-1,-1,-1,-1,-1,-1,-1,-1],"split_conditions":[5.2567E0,5E0,5E0,2E0,3.2102E0,7.2518E0,7.5883E0,-7.8594613E-1,-3.2396552E-1,-7.24674E-2,3.396432E-1,1.3800542E-1,5.0457066E-1,7.3799294E-1,1.1172472E0],"split_indices":[3,11,11,11,3,3,3,0,0,0,0,0,0,0,0],"split_type":[0,0,0,0,0,0,0,0,0,0,0,0,0,0,0],"sum_hessian":[4E3,2.515E3,1.485E3,1.75E3,7.65E2,1.027E3,4.58E2,4.47E2,1.303E3,4.31E2,3.34E2,6.04E2,4.23E2,3.13E2,1.45E2],"tree_param":{"num_deleted":"0","num_feature":"12","num_nodes":"15","size_leaf_vector":"1"}},{"base_weights":[1.3581658E-3,-7.5305357E0,6.239514E0,-1.3995172E1,-3.9313815E0,-3.1277758E-1,9.99871E0,-9.819457E-1,-5.916289E-1,-4.7125235E-1,-8.894966E-2,-1.7667924E-1,2.5569636E-1,3.37194E-1,7.7440137E-1],"categories":[],"categories_nodes":[],"categories_segments":[],"categories_sizes":[],"default_left":[0,0,0,0,0,0,0,0,0,0,0,0,0,0,0],"id":14,"left_children":[1,3,5,7,9,11,13,-1,-1,-1,-1,-1,-1,-1,-1],"loss_changes":[1.8803448E5,4.212847E4,5.392114E4,7.6765312E3,1.3770604E4,1.3983287E4,2.4748266E4,0E0,0E0,0E0,0E0,0E0,0E0,0E0,0E0],"parents":[2147483647,0,0,1,1,2,2,3,3,4,4,5,5,6,6],"right_children":[2,4,6,8,10,12,14,-1,-1,-1,-1,-1,-1,-1,-1],"split_conditions":[3.8378E0,3E0,3E0,1.7491E0,1.8134E0,6.7085E0,6.8119E0,-9.819457E-1,-5.916289E-1,-4.7125235E-1,-8.894966E-2,-1.7667924E-1,2.5569636E-1,3.37194E-1,7.7440137E-1],"split_indices":[3,11,11,3,3,3,3,0,0,0,0,0,0,0,0],"split_type":[0,0,0,0,0,0,0,0,0,0,0,0,0,0,0],"sum_hessian":[4E3,1.812E3,2.188E3,6.47E2,1.165E3,7.98E2,1.39E3,1.77E2,4.7E2,3.27E2,8.38E2,5.01E2,2.97E2,8.74E2,5.16E2],"tree_param":{"num_deleted":"0","num_feature":"12","num_nodes":"15","size_leaf_vector":"1"}},{"base_weights":[1.0552228E-3,-5.8900943E0,7.2224636E0,-1.206417E1,-2.4525068E0,3.9710538E0,1.4347722E1,-8.736825E-1,-4.831584E-1,-3.6129054E-1,1.8249663E-2,6.5125875E-2,4.5392403E-1,5.841486E-1,9.779506E-1],"categories":[],"categories_nodes":[],"categories_segments":[],"categories_sizes":[],"default_left":[0,0,0,0,0,0,0,0,0,0,0,0,0,0,0],"id":15,"left_children":[1,3,5,7,9,11,13,-1,-1,-1,-1,-1,-1,-1,-1],"loss_changes":[1.7025469E5,4.6747938E4,4.159753E4,1.0065828E4,1.9059562E4,1.6834055E4,7.589758E3,0E0,0E0,0E0,0E0,0E0,0E0,0E0,0E0],"parents":[2147483647,0,0,1,1,2,2,3,3,4,4,5,5,6,6],"right_children":[2,4,6,8,10,12,14,-1,-1,-1,-1,-1,-1,-1,-1],"split_conditions":[4.5708E0,3E0,5E0,2.0952E0,2.3153E0,7.2518E0,7.2518E0,-8.736825E-1,-4.831584E-1,-3.6129054E-1,1.8249663E-2,6.5125875E-2,4.5392403E-1,5.841486E-1,9.779506E-1],"split_indices":[3,11,11,3,3,3,3,0,0,0,0,0,0,0,0],"split_type":[0,0,0,0,0,0,0,0,0,0,0,0,0,0,0],"sum_hessian":[4E3,2.203E3,1.797E3,7.87E2,1.416E3,1.235E3,5.62E2,2.4E2,5.47E2,5.25E2,8.91E2,8.12E2,4.23E2,3.74E2,1.88E2],"tree_param":{"num_deleted":"0","num_feature":"12","num_nodes":"15","size_leaf_vector":"1"}},{"base_weights":[1.0980259E-3,-6.9408383E0,5.5734086E0,-1.2851772E1,-3.681219E0,-4.5655537E-1,9.057998E0,-7.974904E-1,-4.8167467E-1,-2.5687376E-1,1.9713488E-1,-2.2507536E-1,1.5741795E-1,2.3533915E-1,6.2648064E-1],"categories":[],"categories_nodes":[],"categories_segments":[],"categories_sizes":[],"default_left":[0,0,0,0,0,0,0,0,0,0,0,0,0,0,0],"id":16,"left_children":[1,3,5,7,9,11,13,-1,-1,-1,-1,-1,-1,-1,-1],"loss_changes":[1.5480788E5,3.4287195E4,4.6650664E4,6.1575703E3,1.2787988E4,1.1883681E4,2.1194812E4,0E0,0E0,0E0,0E0,0E0,0E0,0E0,0E0],"parents":[2147483647,0,0,1,1,2,2,3,3,4,4,5,5,6,6],"right_children":[2,4,6,8,10,12,14,-1,-1,-1,-1,-1,-1,-1,-1],"split_conditions":[3.781E0,3E0,3E0,2E0,6E0,5.8877E0,5.8538E0,-7.974904E-1,-4.8167467E-1,-2.5687376E-1,1.9713488E-1,-2.2507536E-1,1.5741795E-1,2.3533915E-1,6.2648064E-1],"split_indices":[3,11,11,11,11,3,3,0,0,0,0,0,0,0,0],"split_type":[0,0,0,0,0,0,0,0,0,0,0,0,0,0,0],"sum_hessian":[4E3,1.781E3,2.219E3,6.32E2,1.149E3,8.13E2,1.406E3,3.2E2,3.12E2,9.65E2,1.84E2,3.83E2,4.3E2,6.25E2,7.81E2],"tree_param":{"num_deleted":"0","num_feature":"12","num_nodes":"15","size_leaf_vector":"1"}},{"base_weights":[9.068306E-4,-4.3628535E0,8.031588E0,-7.2356005E0,2.250747E0,5.0098863E0,1.4696827E1,-6.4856434E-1,-2.555631E-1,-1.2091743E-1,2.4412505E-1,-2.3187144E-2,3.464483E-1,6.443657E-1,9.8712397E-1],"categories":[],"categories_nodes":[],"categories_segments":[],"categories_sizes":[],"default_left":[0,0,0,0,0,0,0,0,0,0,0,0,0,0,0],"id":17,"left_children":[1,3,5,7,9,11,13,-1,-1,-1,-1,-1,-1,-1,-1],"loss_changes":[1.4024594E5,4.928121E4,2.830414E4,2.1963344E4,9.670107E3,1.020292E4,3.7537188E3,0E0,0E0,0E0,0E0,0E0,0E0,0E0,0E0],"parents":[2147483647,0,0,1,1,2,2,3,3,4,4,5,5,6,6],"right_children":[2,4,6,8,10,12,14,-1,-1,-1,-1,-1,-1,-1,-1],"split_conditions":[5.4403E0,5E0,5E0,2.0952E0,2.61E0,2E0,7.8288E0,-6.4856434E-1,-2.555631E-1,-1.2091743E-1,2.4412505E-1,-2.3187144E-2,3.464483E-1,6.443657E-1,9.8712397E-1],"split_indices":[3,11,11,3,3,11,3,0,0,0,0,0,0,0,0],"split_type":[0,0,0,0,0,0,0,0,0,0,0,0,0,0,0],"sum_hessian":[4E3,2.592E3,1.408E3,1.807E3,7.85E2,9.7E2,4.38E2,4.87E2,1.32E3,2.83E2,5.02E2,2.52E2,7.18E2,3.25E2,1.13E2],"tree_param":{"num_deleted":"0","num_feature":"12","num_nodes":"15","size_leaf_vector":"1"}},{"base_weights":[1.1545323E-3,-6.3184447E0,5.0739136E0,-1.1807042E1,-3.2918355E0,-4.3391532E-1,8.2567835E0,-7.368603E-1,-4.382132E-1,-2.311753E-1,1.8397187E-1,-1.3298695E-1,2.6146528E-1,2.8147385E-1,6.52801E-1],"categories":[],"categories_nodes":[],"categories_segments":[],"categories_sizes":[],"default_left":[0,0,0,0,0,0,0,0,0,0,0,0,0,0,0],"id":18,"left_children":[1,3,5,7,9,11,13,-1,-1,-1,-1,-1,-1,-1,-1],"loss_changes":[1.2829532E5,2.956343E4,3.8921754E4,5.5145625E3,1.0692965E4,1.0274648E4,1.7667453E4,0E0,0E0,0E0,0E0,0E0,0E0,0E0,0E0],"parents":[2147483647,0,0,1,1,2,2,3,3,4,4,5,5,6,6],"right_children":[2,4,6,8,10,12,14,-1,-1,-1,-1,-1,-1,-1,-1],"split_conditions":[3.781E0,3E0,3E0,2E0,6E0,7.1856E0,6.9022E0,-7.368603E-1,-4.382132E-1,-2.311753E-1,1.8397187E-1,-1.3298695E-1,2.6146528E-1,2.8147385E-1,6.52801E-1],"split_indices":[3,11,11,11,11,3,3,0,0,0,0,0,0,0,0],"split_type":[0,0,0,0,0,0,0,0,0,0,0,0,0,0,0],"sum_hessian":[4E3,1.781E3,2.219E3,6.32E2,1.149E3,8.13E2,1.406E3,3.2E2,3.12E2,9.65E2,1.84E2,5.84E2,2.29E2,9.1E2,4.96E2],"tree_param":{"num_deleted":"0","num_feature":"12","num_nodes":"15","size_leaf_vector":"1"}},{"base_weights":[1.0565182E-3,-4.4662127E0,6.5221157E0,-7.10729E0,1.5782772E0,3.7196503E0,1.2795132E1,-6.3137E-1,-2.6053518E-1,-1.6065097E-1,1.7598209E-1,1.0692425E-1,4.7433206E-1,4.9965635E-1,7.95549E-1],"categories":[],"categories_nodes":[],"categories_segments":[],"categories_sizes":[],"default_left":[0,0,0,0,0,0,0,0,0,0,0,0,0,0,0],"id":19,"left_children":[1,3,5,7,9,11,13,-1,-1,-1,-1,-1,-1,-1,-1],"loss_changes":[1.1658357E5,3.7925625E4,2.8554914E4,1.7240062E4,6.736404E3,1.0247216E4,4.2237734E3,0E0,0E0,0E0,0E0,0E0,0E0,0E0,0E0],"parents":[2147483647,0,0,1,1,2,2,3,3,4,4,5,5,6,6],"right_children":[2,4,6,8,10,12,14,-1,-1,-1,-1,-1,-1,-1,-1],"split_conditions":[4.9231E0,5E0,5E0,2E0,2.2255E0,7.8034E0,6E0,-6.3137E-1,-2.6053518E-1,-1.6065097E-1,1.7598209E-1,1.0692425E-1,4.7433206E-1,4.9965635E-1,7.95549E-1],"split_indices":[3,11,11,11,3,3,11,0,0,0,0,0,0,0,0],"split_type":[0,0,0,0,0,0,0,0,0,0,0,0,0,0,0],"sum_hessian":[4E3,2.374E3,1.626E3,1.652E3,7.22E2,1.125E3,5.01E2,4.21E2,1.231E3,2.08E2,5.14E2,8.84E2,2.41E2,2.66E2,2.35E2],"tree_param":{"num_deleted":"0","num_feature":"12","num_nodes":"15","size_leaf_vector":"1"}},{"base_weights":[1.2535047E-3,-6.1541233E0,4.350703E0,-1.1205058E1,-3.38733E0,-7.006951E-1,7.2765627E0,-7.887189E-1,-4.7333303E-1,-4.741676E-1,-1.0232563E-1,-1.4509033E-1,2.0381753E-1,2.2007589E-1,5.580347E-1],"categories":[],"categories_nodes":[],"categories_segments":[],"categories_sizes":[],"default_left":[0,0,0,0,0,0,0,0,0,0,0,0,0,0,0],"id":20,"left_children":[1,3,5,7,9,11,13,-1,-1,-1,-1,-1,-1,-1,-1],"loss_changes":[1.0714354E5,2.3118438E4,3.4663457E4,4.5054453E3,8.742748E3,9.06508E3,1.6533953E4,0E0,0E0,0E0,0E0,0E0,0E0,0E0,0E0],"parents":[2147483647,0,0,1,1,2,2,3,3,4,4,5,5,6,6],"right_children":[2,4,6,8,10,12,14,-1,-1,-1,-1,-1,-1,-1,-1],"split_conditions":[3.529E0,3E0,3E0,1.6608E0,1.3709E0,6.9022E0,6.432E0,-7.887189E-1,-4.7333303E-1,-4.741676E-1,-1.0232563E-1,-1.4509033E-1,2.0381753E-1,2.2007589E-1,5.580347E-1],"split_indices":[3,11,11,3,3,3,3,0,0,0,0,0,0,0,0],"split_type":[0,0,0,0,0,0,0,0,0,0,0,0,0,0,0],"sum_hessian":[4E3,1.656E3,2.344E3,5.85E2,1.071E3,8.6E2,1.484E3,1.59E2,4.26E2,1.92E2,8.79E2,5.89E2,2.71E2,8.54E2,6.3E2],"tree_param":{"num_deleted":"0","num_feature":"12","num_nodes":"15","size_leaf_vector":"1"}},{"base_weights":[9.397797E-4,-5.847527E0,4.1335235E0,-9.343996E0,-2.1442525E0,1.5984793E0,9.575768E0,-6.56989E-1,-3.6232957E-1,-1.7983605E-1,1.635225E-1,-6.5528154E-2,2.5934544E-1,2.7799794E-1,6.28493E-1],"categories":[],"categories_nodes":[],"categories_segments":[],"categories_sizes":[],"default_left":[0,0,0,0,0,0,0,0,0,0,0,0,0,0,0],"id":21,"left_children":[1,3,5,7,9,11,13,-1,-1,-1,-1,-1,-1,-1,-1],"loss_changes":[9.672546E4,2.1435434E4,3.233709E4,6.6878125E3,6.350698E3,1.6719467E4,8.887766E3,0E0,0E0,0E0,0E0,0E0,0E0,0E0,0E0],"parents":[2147483647,0,0,1,1,2,2,3,3,4,4,5,5,6,6],"right_children":[2,4,6,8,10,12,14,-1,-1,-1,-1,-1,-1,-1,-1],"split_conditions":[3.529E0,4E0,5E0,2E0,6E0,6.3154E0,5.5198E0,-6.56989E-1,-3.6232957E-1,-1.7983605E-1,1.635225E-1,-6.5528154E-2,2.5934544E-1,2.7799794E-1,6.28493E-1],"split_indices":[3,11,11,11,11,3,3,0,0,0,0,0,0,0,0],"split_type":[0,0,0,0,0,0,0,0,0,0,0,0,0,0,0],"sum_hessian":[4E3,1.656E3,2.344E3,8.51E2,8.05E2,1.6E3,7.44E2,3.01E2,5.5E2,6.35E2,1.7E2,8.84E2,7.16E2,3.19E2,4.25E2],"tree_param":{"num_deleted":"0","num_feature":"12","num_nodes":"15","size_leaf_vector":"1"}},{"base_weights":[9.0940984E-4,-3.7479463E0,5.844713E0,-6.090187E0,1.5932441E0,3.374105E0,1.1400419E1,-5.8475107E-1,-2.2823346E-1,-2.795212E-2,2.5707638E-1,-7.112009E-2,2.5312155E-1,4.9261895E-1,8.1488E-1],"categories":[],"categories_nodes":[],"categories_segments":[],"categories_sizes":[],"default_left":[0,0,0,0,0,0,0,0,0,0,0,0,0,0,0],"id":22,"left_children":[1,3,5,7,9,11,13,-1,-1,-1,-1,-1,-1,-1,-1],"loss_changes":[8.7674125E4,3.0509941E4,2.1428957E4,1.4439336E4,5.684745E3,8.785504E3,3.4859023E3,0E0,0E0,0E0,0E0,0E0,0E0,0E0,0E0],"parents":[2147483647,0,0,1,1,2,2,3,3,4,4,5,5,6,6],"right_children":[2,4,6,8,10,12,14,-1,-1,-1,-1,-1,-1,-1,-1],"split_conditions":[5.0498E0,5E0,5E0,1.7491E0,6E0,2E0,7.8288E0,-5.8475107E-1,-2.2823346E-1,-2.795212E-2,2.5707638E-1,-7.112009E-2,2.5312155E-1,4.9261895E-1,8.1488E-1],"split_indices":[3,11,11,3,11,11,3,0,0,0,0,0,0,0,0],"split_type":[0,0,0,0,0,0,0,0,0,0,0,0,0,0,0],"sum_hessian":[4E3,2.437E3,1.563E3,1.694E3,7.43E2,1.083E3,4.8E2,3.61E2,1.333E3,4.63E2,2.8E2,2.82E2,8.01E2,3.67E2,1.13E2],"tree_param":{"num_deleted":"0","num_feature":"12","num_nodes":"15","size_leaf_vector":"1"}},{"base_weights":[1.0900393E-3,-5.3371463E0,3.77314E0,-9.798367E0,-2.8934786E0,4.4507316E-1,7.2965846E0,-7.000824E-1,-4.140403E-1,-4.246636E-1,-8.31027E-2,-1.2648253E-1,1.6563302E-1,2.2597928E-1,5.30852E-1],"categories":[],"categories_nodes":[],"categories_segments":[],"categories_sizes":[],"default_left":[0,0,0,0,0,0,0,0,0,0,0,0,0,0,0],"id":23,"left_children":[1,3,5,7,9,11,13,-1,-1,-1,-1,-1,-1,-1,-1],"loss_changes":[8.058465E4,1.8035832E4,2.7494828E4,3.621996E3,7.3780977E3,1.0304429E4,1.0454621E4,0E0,0E0,0E0,0E0,0E0,0E0,0E0,0E0],"parents":[2147483647,0,0,1,1,2,2,3,3,4,4,5,5,6,6],"right_children":[2,4,6,8,10,12,14,-1,-1,-1,-1,-1,-1,-1,-1],"split_conditions":[3.529E0,3E0,4E0,1.6313E0,1.3709E0,5.921E0,6.2386E0,-7.000824E-1,-4.140403E-1,-4.246636E-1,-8.31027E-2,-1.2648253E-1,1.6563302E-1,2.2597928E-1,5.30852E-1],"split_indices":[3,11,11,3,3,3,3,0,0,0,0,0,0,0,0],"split_type":[0,0,0,0,0,0,0,0,0,0,0,0,0,0,0],"sum_hessian":[4E3,1.656E3,2.344E3,5.85E2,1.071E3,1.206E3,1.138E3,1.53E2,4.32E2,1.92E2,8.79E2,5.92E2,6.14E2,6.21E2,5.17E2],"tree_param":{"num_deleted":"0","num_feature":"12","num_nodes":"15","size_leaf_vector":"1"}},{"base_weights":[8.289966E-4,-4.505115E0,4.0371814E0,-7.5460777E0,-1.2600446E0,2.6732936E0,1.1922468E1,-5.5909204E-1,-2.8011975E-1,-2.8428707E-1,1.2035842E-2,-1.4068359E-1,2.0639642E-1,5.0112647E-1,8.134158E-1],"categories":[],"categories_nodes":[],"categories_segments":[],"categories_sizes":[],"default_left":[0,0,0,0,0,0,0,0,0,0,0,0,0,0,0],"id":24,"left_children":[1,3,5,7,9,11,13,-1,-1,-1,-1,-1,-1,-1,-1],"loss_changes":[7.278669E4,1.8651137E4,2.2671184E4,6.8345234E3,6.0853613E3,1.4386349E4,2.4048281E3,0E0,0E0,0E0,0E0,0E0,0E0,0E0,0E0],"parents":[2147483647,0,0,1,1,2,2,3,3,4,4,5,5,6,6],"right_children":[2,4,6,8,10,12,14,-1,-1,-1,-1,-1,-1,-1,-1],"split_conditions":[3.9974E0,4E0,6E0,2E0,1.7798E0,2E0,7.1606E0,-5.5909204E-1,-2.8011975E-1,-2.8428707E-1,1.2035842E-2,-1.4068359E-1,2.0639642E-1,5.0112647E-1,8.134158E-1],"split_indices":[3,11,11,11,3,11,3,0,0,0,0,0,0,0,0],"split_type":[0,0,0,0,0,0,0,0,0,0,0,0,0,0,0],"sum_hessian":[4E3,1.89E3,2.11E3,9.75E2,9.15E2,1.8E3,3.1E2,3.38E2,6.37E2,2.31E2,6.84E2,3.77E2,1.423E3,2.18E2,9.2E1],"tree_param":{"num_deleted":"0","num_feature":"12","num_nodes":"15","size_leaf_vector":"1"}},{"base_weights":[8.542357E-4,-3.019577E0,5.55939E0,-5.0878487E0,1.7418154E0,3.3972452E0,1.0329057E1,-4.6841818E-1,-1.726724E-1,-1.6808746E-2,2.5276825E-1,9.9148E-2,4.0253028E-1,3.943232E-1,6.514275E-1],"categories":[],"categories_nodes":[],"categories_segments":[],"categories_sizes":[],"default_left":[0,0,0,0,0,0,0,0,0,0,0,0,0,0,0],"id":25,"left_children":[1,3,5,7,9,11,13,-1,-1,-1,-1,-1,-1,-1,-1],"loss_changes":[6.719028E4,2.5544342E4,1.449552E4,1.2616551E4,5.4137217E3,6.3743604E3,2.7919102E3,0E0,0E0,0E0,0E0,0E0,0E0,0E0,0E0],"parents":[2147483647,0,0,1,1,2,2,3,3,4,4,5,5,6,6],"right_children":[2,4,6,8,10,12,14,-1,-1,-1,-1,-1,-1,-1,-1],"split_conditions":[5.4403E0,5E0,5E0,2.1211E0,6E0,7.859E0,6E0,-4.6841818E-1,-1.726724E-1,-1.6808746E-2,2.5276825E-1,9.9148E-2,4.0253028E-1,3.943232E-1,6.514275E-1],"split_indices":[3,11,11,3,11,3,11,0,0,0,0,0,0,0,0],"split_type":[0,0,0,0,0,0,0,0,0,0,0,0,0,0,0],"sum_hessian":[4E3,2.592E3,1.408E3,1.807E3,7.85E2,9.7E2,4.38E2,4.98E2,1.309E3,4.83E2,3.02E2,7.45E2,2.25E2,2.32E2,2.06E2],"tree_param":{"num_deleted":"0","num_feature":"12","num_nodes":"15","size_leaf_vector":"1"}},{"base_weights":[1.0965329E-3,-4.6525264E0,3.2893918E0,-8.591387E0,-2.4950407E0,-7.554607E-1,5.632374E0,-6.783715E-1,-3.7635824E-1,-3.4207237E-1,-6.063754E-2,-1.178983E-1,1.8256149E-1,2.1855822E-1,5.7651323E-1],"categories":[],"categories_nodes":[],"categories_segments":[],"categories_sizes":[],"default_left":[0,0,0,0,0,0,0,0,0,0,0,0,0,0,0],"id":26,"left_children":[1,3,5,7,9,11,13,-1,-1,-1,-1,-1,-1,-1,-1],"loss_changes":[6.124055E4,1.40598125E4,2.222786E4,3.0011055E3,5.9663374E3,6.0887715E3,1.0995738E4,0E0,0E0,0E0,0E0,0E0,0E0,0E0,0E0],"parents":[2147483647,0,0,1,1,2,2,3,3,4,4,5,5,6,6],"right_children":[2,4,6,8,10,12,14,-1,-1,-1,-1,-1,-1,-1,-1],"split_conditions":[3.529E0,3E0,3E0,1.3315E0,1.535E0,7.1856E0,7.7018E0,-6.783715E-1,-3.7635824E-1,-3.4207237E-1,-6.063754E-2,-1.178983E-1,1.8256149E-1,2.1855822E-1,5.7651323E-1],"split_indices":[3,11,11,3,3,3,3,0,0,0,0,0,0,0,0],"split_type":[0,0,0,0,0,0,0,0,0,0,0,0,0,0,0],"sum_hessian":[4E3,1.656E3,2.344E3,5.85E2,1.071E3,8.6E2,1.484E3,1.01E2,4.84E2,2.43E2,8.28E2,6.31E2,2.29E2,1.224E3,2.6E2],"tree_param":{"num_deleted":"0","num_feature":"12","num_nodes":"15","size_leaf_vector":"1"}},{"base_weights":[8.918602E-4,-2.6838548E0,5.210602E0,-4.592197E0,1.7055857E0,3.2000957E0,9.646083E0,-4.440468E-1,-1.5598379E-1,-1.2506398E-2,2.4184048E-1,-4.3077435E-2,2.3226102E-1,3.6748645E-1,6.0667074E-1],"categories":[],"categories_nodes":[],"categories_segments":[],"categories_sizes":[],"default_left":[0,0,0,0,0,0,0,0,0,0,0,0,0,0,0],"id":27,"left_children":[1,3,5,7,9,11,13,-1,-1,-1,-1,-1,-1,-1,-1],"loss_changes":[5.597498E4,2.2130314E4,1.2105934E4,1.15986875E4,4.9063555E3,5.50967E3,2.332625E3,0E0,0E0,0E0,0E0,0E0,0E0,0E0,0E0],"parents":[2147483647,0,0,1,1,2,2,3,3,4,4,5,5,6,6],"right_children":[2,4,6,8,10,12,14,-1,-1,-1,-1,-1,-1,-1,-1],"split_conditions":[5.551E0,5E0,5E0,2E0,6E0,2E0,6E0,-4.440468E-1,-1.5598379E-1,-1.2506398E-2,2.4184048E-1,-4.3077435E-2,2.3226102E-1,3.6748645E-1,6.0667074E-1],"split_indices":[3,11,11,11,11,11,11,0,0,0,0,0,0,0,0],"split_type":[0,0,0,0,0,0,0,0,0,0,0,0,0,0,0],"sum_hessian":[4E3,2.64E3,1.36E3,1.84E3,8E2,9.37E2,4.23E2,4.69E2,1.371E3,4.93E2,3.07E2,2.46E2,6.91E2,2.22E2,2.01E2],"tree_param":{"num_deleted":"0","num_feature":"12","num_nodes":"15","size_leaf_vector":"1"}},{"base_weights":[1.0444443E-3,-4.2801337E0,3.0261664E0,-6.890287E0,-1.5157036E0,-6.460846E-1,5.153292E0,-4.9524575E-1,-2.6127407E-1,-2.8329E-1,-1.6943146E-2,-1.02323525E-1,1.772549E-1,1.9136137E-1,4.9749523E-1],"categories":[],"categories_nodes":[],"categories_segments":[],"categories_sizes":[],"default_left":[0,0,0,0,0,0,0,0,0,0,0,0,0,0,0],"id":28,"left_children":[1,3,5,7,9,11,13,-1,-1,-1,-1,-1,-1,-1,-1],"loss_changes":[5.183025E4,1.1945779E4,1.8320924E4,4.2242383E3,3.934586E3,5.060698E3,9.4074375E3,0E0,0E0,0E0,0E0,0E0,0E0,0E0,0E0],"parents":[2147483647,0,0,1,1,2,2,3,3,4,4,5,5,6,6],"right_children":[2,4,6,8,10,12,14,-1,-1,-1,-1,-1,-1,-1,-1],"split_conditions":[3.529E0,4E0,3E0,2E0,1.535E0,7.2518E0,7.5094E0,-4.9524575E-1,-2.6127407E-1,-2.8329E-1,-1.6943146E-2,-1.02323525E-1,1.772549E-1,1.9136137E-1,4.9749523E-1],"split_indices":[3,11,11,11,3,3,3,0,0,0,0,0,0,0,0],"split_type":[0,0,0,0,0,0,0,0,0,0,0,0,0,0,0],"sum_hessian":[4E3,1.656E3,2.344E3,8.51E2,8.05E2,8.6E2,1.484E3,3.01E2,5.5E2,1.77E2,6.28E2,6.45E2,2.15E2,1.164E3,3.2E2],"tree_param":{"num_deleted":"0","num_feature":"12","num_nodes":"15","size_leaf_vector":"1"}},{"base_weights":[9.1896235E-4,-4.0667644E0,2.8751836E0,-6.5466614E0,-1.4402894E0,1.7639947E0,9.4453335E0,-5.6308866E-1,-2.7737683E-1,-1.2794618E-1,1.364334E-1,1.3839689E-2,2.7749124E-1,3.9734215E-1,6.661817E-1],"categories":[],"categories_nodes":[],"categories_segments":[],"categories_sizes":[],"default_left":[0,0,0,0,0,0,0,0,0,0,0,0,0,0,0],"id":29,"left_children":[1,3,5,7,9,11,13,-1,-1,-1,-1,-1,-1,-1,-1],"loss_changes":[4.6789777E4,1.0783252E4,1.7103422E4,3.9512852E3,3.765795E3,1.1298455E4,1.864252E3,0E0,0E0,0E0,0E0,0E0,0E0,0E0,0E0],"parents":[2147483647,0,0,1,1,2,2,3,3,4,4,5,5,6,6],"right_children":[2,4,6,8,10,12,14,-1,-1,-1,-1,-1,-1,-1,-1],"split_conditions":[3.529E0,4E0,6E0,1.3315E0,6E0,7.1606E0,7.1606E0,-5.6308866E-1,-2.7737683E-1,-1.2794618E-1,1.364334E-1,1.3839689E-2,2.7749124E-1,3.9734215E-1,6.661817E-1],"split_indices":[3,11,11,3,11,3,3,0,0,0,0,0,0,0,0],"split_type":[0,0,0,0,0,0,0,0,0,0,0,0,0,0,0],"sum_hessian":[4E3,1.656E3,2.344E3,8.51E2,8.05E2,2.006E3,3.38E2,1.47E2,7.04E2,6.35E2,1.7E2,1.441E3,5.65E2,2.46E2,9.2E1],"tree_param":{"num_deleted":"0","num_feature":"12","num_nodes":"15","size_leaf_vector":"1"}}]},"name":"gbtree"},"learner_model_param":{"base_score":"5.172406E1","boost_from_average":"1","num_class":"0","num_feature":"12","num_target":"1"},"objective":{"name":"reg:squarederror","reg_loss_param":{"scale_pos_weight":"1"}}},"version":[2,1,3]}