{"learner":{"attributes":{},"feature_names":["T2M","RH2M","WS10M","ALLSKY_SFC_SW_DWN","arazi_egimi_yuzde","yuzey_alani_km2","yuzey_Orman_ve_Doğa","yuzey_Su_Yüzeyi","yuzey_Sulak_Alan","yuzey_Tarım_Arazisi","yuzey_Şehir_Yerleşimi","tesvik_bolgesi"],"feature_types":["float","float","float","float","float","float","float","float","float","float","float","float"],"gradient_booster":{"model":{"gbtree_model_param":{"num_parallel_tree":"1","num_trees":"1196"},"iteration_indptr":[0,1,2,3,4,5,6,7,8,9,10,11,12,13,14,15,16,17,18,19,20,21,22,23,24,25,26,27,28,29,30,31,32,33,34,35,36,37,38,39,40,41,42,43,44,45,46,47,48,49,50,51,52,53,54,55,56,57,58,59,60,61,62,63,64,65,66,67,68,69,70,71,72,73,74,75,76,77,78,79,80,81,82,83,84,85,86,87,88,89,90,91,92,93,94,95,96,97,98,99,100,101,102,103,104,105,106,107,108,109,110,111,112,113,114,115,116,117,118,119,120,121,122,123,124,125,126,127,128,129,130,131,132,133,134,135,136,137,138,139,140,141,142,143,144,145,146,147,148,149,150,151,152,153,154,155,156,157,158,159,160,161,162,163,164,165,166,167,168,169,170,171,172,173,174,175,176,177,178,179,180,181,182,183,184,185,186,187,188,189,190,191,192,193,194,195,196,197,198,199,200,201,202,203,204,205,206,207,208,209,210,211,212,213,214,215,216,217,218,219,220,221,222,223,224,225,226,227,228,229,230,231,232,233,234,235,236,237,238,239,240,241,242,243,244,245,246,247,248,249,250,251,252,253,254,255,256,257,258,259,260,261,262,263,264,265,266,267,268,269,270,271,272,273,274,275,276,277,278,279,280,281,282,283,284,285,286,287,288,289,290,291,292,293,294,295,296,297,298,299,300,301,302,303,304,305,306,307,308,309,310,311,312,313,314,315,316,317,318,319,320,321,322,323,324,325,326,327,328,329,330,331,332,333,334,335,336,337,338,339,340,341,342,343,344,345,346,347,348,349,350,351,352,353,354,355,356,357,358,359,360,361,362,363,364,365,366,367,368,369,370,371,372,373,374,375,376,377,378,379,380,381,382,383,384,385,386,387,388,389,390,391,392,393,394,395,396,397,398,399,400,401,402,403,404,405,406,407,408,409,410,411,412,413,414,415,416,417,418,419,420,421,422,423,424,425,426,427,428,429,430,431,432,433,434,435,436,437,438,439,440,441,442,443,444,445,446,447,448,449,450,451,452,453,454,455,456,457,458,459,460,461,462,463,464,465,466,467,468,469,470,471,472,473,474,475,476,477,478,479,480,481,482,483,484,485,486,487,488,489,490,491,492,493,494,495,496,497,498,499,500,501,502,503,504,505,506,507,508,509,510,511,512,513,514,515,516,517,518,519,520,521,522,523,524,525,526,527,528,529,530,531,532,533,534,535,536,537,538,539,540,541,542,543,544,545,546,547,548,549,550,551,552,553,554,555,556,557,558,559,560,561,562,563,564,565,566,567,568,569,570,571,572,573,574,575,576,577,578,579,580,581,582,583,584,585,586,587,588,589,590,591,592,593,594,595,596,597,598,599,600,601,602,603,604,605,606,607,608,609,610,611,612,613,614,615,616,617,618,619,620,621,622,623,624,625,626,627,628,629,630,631,632,633,634,635,636,637,638,639,640,641,642,643,644,645,646,647,648,649,650,651,652,653,654,655,656,657,658,659,660,661,662,663,664,665,666,667,668,669,670,671,672,673,674,675,676,677,678,679,680,681,682,683,684,685,686,687,688,689,690,691,692,693,694,695,696,697,698,699,700,701,702,703,704,705,706,707,708,709,710,711,712,713,714,715,716,717,718,719,720,721,722,723,724,725,726,727,728,729,730,731,732,733,734,735,736,737,738,739,740,741,742,743,744,745,746,747,748,749,750,751,752,753,754,755,756,757,758,759,760,761,762,763,764,765,766,767,768,769,770,771,772,773,774,775,776,777,778,779,780,781,782,783,784,785,786,787,788,789,790,791,792,793,794,795,796,797,798,799,800,801,802,803,804,805,806,807,808,809,810,811,812,813,814,815,816,817,818,819,820,821,822,823,824,825,826,827,828,829,830,831,832,833,834,835,836,837,838,839,840,841,842,843,844,845,846,847,848,849,850,851,852,853,854,855,856,857,858,859,860,861,862,863,864,865,866,867,868,869,870,871,872,873,874,875,876,877,878,879,880,881,882,883,884,885,886,887,888,889,890,891,892,893,894,895,896,897,898,899,900,901,902,903,904,905,906,907,908,909,910,911,912,913,914,915,916,917,918,919,920,921,922,923,924,925,926,927,928,929,930,931,932,933,934,935,936,937,938,939,940,941,942,943,944,945,946,947,948,949,950,951,952,953,954,955,956,957,958,959,960,961,962,963,964,965,966,967,968,969,970,971,972,973,974,975,976,977,978,979,980,981,982,983,984,985,986,987,988,989,990,991,992,993,994,995,996,997,998,999,1000,1001,1002,1003,1004,1005,1006,1007,1008,1009,1010,1011,1012,1013,1014,1015,1016,1017,1018,1019,1020,1021,1022,1023,1024,1025,1026,1027,1028,1029,1030,1031,1032,1033,1034,1035,1036,1037,1038,1039,1040,1041,1042,1043,1044,1045,1046,1047,1048,1049,1050,1051,1052,1053,1054,1055,1056,1057,1058,1059,1060,1061,1062,1063,1064,1065,1066,1067,1068,1069,1070,1071,1072,1073,1074,1075,1076,1077,1078,1079,1080,1081,1082,1083,1084,1085,1086,1087,1088,1089,1090,1091,1092,1093,1094,1095,1096,1097,1098,1099,1100,1101,1102,1103,1104,1105,1106,1107,1108,1109,1110,1111,1112,1113,1114,1115,1116,1117,1118,1119,1120,1121,1122,1123,1124,1125,1126,1127,1128,1129,1130,1131,1132,1133,1134,1135,1136,1137,1138,1139,1140,1141,1142,1143,1144,1145,1146,1147,1148,1149,1150,1151,1152,1153,1154,1155,1156,1157,1158,1159,1160,1161,1162,1163,1164,1165,1166,1167,1168,1169,1170,1171,1172,1173,1174,1175,1176,1177,1178,1179,1180,1181,1182,1183,1184,1185,1186,1187,1188,1189,1190,1191,1192,1193,1194,1195,1196],"tree_info":[0,0,0,0,0,0,0,0,0,0,0,0,0,0,0,0,0,0,0,0,0,0,0,0,0,0,0,0,0,0,0,0,0,0,0,0,0,0,0,0,0,0,0,0,0,0,0,0,0,0,0,0,0,0,0,0,0,0,0,0,0,0,0,0,0,0,0,0,0,0,0,0,0,0,0,0,0,0,0,0,0,0,0,0,0,0,0,0,0,0,0,0,0,0,0,0,0,0,0,0,0,0,0,0,0,0,0,0,0,0,0,0,0,0,0,0,0,0,0,0,0,0,0,0,0,0,0,0,0,0,0,0,0,0,0,0,0,0,0,0,0,0,0,0,0,0,0,0,0,0,0,0,0,0,0,0,0,0,0,0,0,0,0,0,0,0,0,0,0,0,0,0,0,0,0,0,0,0,0,0,0,0,0,0,0,0,0,0,0,0,0,0,0,0,0,0,0,0,0,0,0,0,0,0,0,0,0,0,0,0,0,0,0,0,0,0,0,0,0,0,0,0,0,0,0,0,0,0,0,0,0,0,0,0,0,0,0,0,0,0,0,0,0,0,0,0,0,0,0,0,0,0,0,0,0,0,0,0,0,0,0,0,0,0,0,0,0,0,0,0,0,0,0,0,0,0,0,0,0,0,0,0,0,0,0,0,0,0,0,0,0,0,0,0,0,0,0,0,0,0,0,0,0,0,0,0,0,0,0,0,0,0,0,0,0,0,0,0,0,0,0,0,0,0,0,0,0,0,0,0,0,0,0,0,0,0,0,0,0,0,0,0,0,0,0,0,0,0,0,0,0,0,0,0,0,0,0,0,0,0,0,0,0,0,0,0,0,0,0,0,0,0,0,0,0,0,0,0,0,0,0,0,0,0,0,0,0,0,0,0,0,0,0,0,0,0,0,0,0,0,0,0,0,0,0,0,0,0,0,0,0,0,0,0,0,0,0,0,0,0,0,0,0,0,0,0,0,0,0,0,0,0,0,0,0,0,0,0,0,0,0,0,0,0,0,0,0,0,0,0,0,0,0,0,0,0,0,0,0,0,0,0,0,0,0,0,0,0,0,0,0,0,0,0,0,0,0,0,0,0,0,0,0,0,0,0,0,0,0,0,0,0,0,0,0,0,0,0,0,0,0,0,0,0,0,0,0,0,0,0,0,0,0,0,0,0,0,0,0,0,0,0,0,0,0,0,0,0,0,0,0,0,0,0,0,0,0,0,0,0,0,0,0,0,0,0,0,0,0,0,0,0,0,0,0,0,0,0,0,0,0,0,0,0,0,0,0,0,0,0,0,0,0,0,0,0,0,0,0,0,0,0,0,0,0,0,0,0,0,0,0,0,0,0,0,0,0,0,0,0,0,0,0,0,0,0,0,0,0,0,0,0,0,0,0,0,0,0,0,0,0,0,0,0,0,0,0,0,0,0,0,0,0,0,0,0,0,0,0,0,0,0,0,0,0,0,0,0,0,0,0,0,0,0,0,0,0,0,0,0,0,0,0,0,0,0,0,0,0,0,0,0,0,0,0,0,0,0,0,0,0,0,0,0,0,0,0,0,0,0,0,0,0,0,0,0,0,0,0,0,0,0,0,0,0,0,0,0,0,0,0,0,0,0,0,0,0,0,0,0,0,0,0,0,0,0,0,0,0,0,0,0,0,0,0,0,0,0,0,0,0,0,0,0,0,0,0,0,0,0,0,0,0,0,0,0,0,0,0,0,0,0,0,0,0,0,0,0,0,0,0,0,0,0,0,0,0,0,0,0,0,0,0,0,0,0,0,0,0,0,0,0,0,0,0,0,0,0,0,0,0,0,0,0,0,0,0,0,0,0,0,0,0,0,0,0,0,0,0,0,0,0,0,0,0,0,0,0,0,0,0,0,0,0,0,0,0,0,0,0,0,0,0,0,0,0,0,0,0,0,0,0,0,0,0,0,0,0,0,0,0,0,0,0,0,0,0,0,0,0,0,0,0,0,0,0,0,0,0,0,0,0,0,0,0,0,0,0,0,0,0,0,0,0,0,0,0,0,0,0,0,0,0,0,0,0,0,0,0,0,0,0,0,0,0,0,0,0,0,0,0,0,0,0,0,0,0,0,0,0,0,0,0,0,0,0,0,0,0,0,0,0,0,0,0,0,0,0,0,0,0,0,0,0,0,0,0,0,0,0,0,0,0,0,0,0,0,0,0,0,0,0,0,0,0,0,0,0,0,0,0,0,0,0,0,0,0,0,0,0,0,0,0,0,0,0,0,0,0,0,0,0,0,0,0,0,0,0,0,0,0,0,0,0,0,0,0,0,0,0,0,0,0,0,0,0,0,0,0,0,0,0,0,0,0,0,0,0,0,0,0,0,0,0,0,0,0,0,0,0,0,0,0,0,0,0,0,0,0,0,0,0,0,0,0,0,0,0,0,0,0,0,0,0,0,0,0,0,0,0,0,0,0,0,0,0,0,0,0,0,0,0,0,0,0,0,0,0,0,0,0,0,0,0,0,0,0,0,0,0,0,0,0,0,0,0,0,0,0,0,0,0,0,0,0,0,0,0,0,0,0,0,0,0,0,0,0,0,0,0,0,0,0,0,0,0,0,0,0,0,0,0,0,0,0,0,0,0,0,0,0,0,0,0,0,0,0,0,0,0,0,0,0,0,0,0,0,0,0,0,0,0,0,0,0,0,0,0,0,0,0,0,0,0,0,0],"trees":[{"base_weights":[-3.8579095E-3,-1.180067E1,1.5390702E1,-1.972111E1,-2.5922444E0,6.9541907E0,2.499107E1,-2.678838E1,-1.3601427E1,-9.934034E0,3.2965994E0,-2.3274629E-1,1.3497513E1,1.7850698E1,3.1995983E1,-1.6361135E0,-1.1715026E0,-9.903059E-1,-5.385496E-1,-7.589843E-1,-3.169172E-1,-1.2890528E-1,3.3254308E-1,-3.068639E-1,1.4205204E-1,3.693264E-1,8.2466364E-1,7.5084656E-1,1.2407672E0,1.3047196E0,1.7672724E0],"categories":[],"categories_nodes":[],"categories_segments":[],"categories_sizes":[],"default_left":[0,0,0,0,0,0,0,0,0,0,0,0,0,0,0,0,0,0,0,0,0,0,0,0,0,0,0,0,0,0,0],"id":0,"left_children":[1,3,5,7,9,11,13,15,17,19,21,23,25,27,29,-1,-1,-1,-1,-1,-1,-1,-1,-1,-1,-1,-1,-1,-1,-1,-1],"loss_changes":[3.9871572E7,9.065466E6,7.713772E6,2.88819E6,2.4853782E6,2.3844918E6,2.22543E6,6.14034E5,6.280385E5,4.821155E5,6.287045E5,4.3873697E5,4.852785E5,4.33774E5,4.39796E5,0E0,0E0,0E0,0E0,0E0,0E0,0E0,0E0,0E0,0E0,0E0,0E0,0E0,0E0,0E0,0E0],"parents":[2147483647,0,0,1,1,2,2,3,3,4,4,5,5,6,6,7,7,8,8,9,9,10,10,11,11,12,12,13,13,14,14],"right_children":[2,4,6,8,10,12,14,16,18,20,22,24,26,28,30,-1,-1,-1,-1,-1,-1,-1,-1,-1,-1,-1,-1,-1,-1,-1,-1],"split_conditions":[4.7054E0,4E0,4E0,2.6947E0,2.617E0,6.5282E0,6.6754E0,2E0,2E0,5E0,5E0,2E0,2E0,6E0,5E0,-1.6361135E0,-1.1715026E0,-9.903059E-1,-5.385496E-1,-7.589843E-1,-3.169172E-1,-1.2890528E-1,3.3254308E-1,-3.068639E-1,1.4205204E-1,3.693264E-1,8.2466364E-1,7.5084656E-1,1.2407672E0,1.3047196E0,1.7672724E0],"split_indices":[3,11,11,3,3,3,3,11,11,11,11,11,11,11,11,0,0,0,0,0,0,0,0,0,0,0,0,0,0,0,0],"split_type":[0,0,0,0,0,0,0,0,0,0,0,0,0,0,0,0,0,0,0,0,0,0,0,0,0,0,0,0,0,0,0],"sum_hessian":[2.19539E5,1.24294E5,9.5245E4,6.6817E4,5.7477E4,5.07E4,4.4545E4,3.1E4,3.5817E4,2.5581E4,3.1896E4,2.4164E4,2.6536E4,2.2068E4,2.2477E4,1.1188E4,1.9812E4,1.1211E4,2.4606E4,1.0397E4,1.5184E4,1.1593E4,2.0303E4,8.271E3,1.5893E4,8.735E3,1.7801E4,1.5697E4,6.371E3,8.154E3,1.4323E4],"tree_param":{"num_deleted":"0","num_feature":"12","num_nodes":"31","size_leaf_vector":"1"}},{"base_weights":[2.3722833E-3,-1.0675059E1,1.5318423E1,-1.8222794E1,-1.928619E0,7.3010483E0,2.4439661E1,-2.4310228E1,-1.1260934E1,-8.382722E0,4.7263136E0,1.3207221E0,1.3670307E1,1.7977789E1,3.0750038E1,-1.5046749E0,-1.0565201E0,-8.512999E-1,-4.2914453E-1,-6.7462635E-1,-2.469685E-1,-4.69315E-2,3.9256385E-1,-2.1670865E-1,2.0917426E-1,3.9279348E-1,8.284316E-1,6.201789E-1,1.0702052E0,1.3926415E0,1.8496674E0],"categories":[],"categories_nodes":[],"categories_segments":[],"categories_sizes":[],"default_left":[0,0,0,0,0,0,0,0,0,0,0,0,0,0,0,0,0,0,0,0,0,0,0,0,0,0,0,0,0,0,0],"id":1,"left_children":[1,3,5,7,9,11,13,15,17,19,21,23,25,27,29,-1,-1,-1,-1,-1,-1,-1,-1,-1,-1,-1,-1,-1,-1,-1,-1],"loss_changes":[3.595439E7,8.55184E6,6.603406E6,2.9456E6,2.5778535E6,1.8309458E6,1.719852E6,6.7897E5,5.0023675E5,5.35747E5,5.2315294E5,4.0153612E5,3.916335E5,3.97537E5,3.81322E5,0E0,0E0,0E0,0E0,0E0,0E0,0E0,0E0,0E0,0E0,0E0,0E0,0E0,0E0,0E0,0E0],"parents":[2147483647,0,0,1,1,2,2,3,3,4,4,5,5,6,6,7,7,8,8,9,9,10,10,11,11,12,12,13,13,14,14],"right_children":[2,4,6,8,10,12,14,16,18,20,22,24,26,28,30,-1,-1,-1,-1,-1,-1,-1,-1,-1,-1,-1,-1,-1,-1,-1,-1],"split_conditions":[4.9018E0,4E0,4E0,2.9683E0,2.8356E0,6.787E0,6.787E0,2E0,2E0,5E0,5E0,2E0,2E0,5E0,6E0,-1.5046749E0,-1.0565201E0,-8.512999E-1,-4.2914453E-1,-6.7462635E-1,-2.469685E-1,-4.69315E-2,3.9256385E-1,-2.1670865E-1,2.0917426E-1,3.9279348E-1,8.284316E-1,6.201789E-1,1.0702052E0,1.3926415E0,1.8496674E0],"split_indices":[3,11,11,3,3,3,3,11,11,11,11,11,11,11,11,0,0,0,0,0,0,0,0,0,0,0,0,0,0,0,0],"split_type":[0,0,0,0,0,0,0,0,0,0,0,0,0,0,0,0,0,0,0,0,0,0,0,0,0,0,0,0,0,0,0],"sum_hessian":[2.19846E5,1.2954E5,9.0306E4,6.9532E4,6.0008E4,4.8066E4,4.224E4,3.7089E4,3.2443E4,3.0463E4,2.9545E4,2.4793E4,2.3273E4,2.0879E4,2.1361E4,1.3143E4,2.3946E4,1.0282E4,2.2161E4,1.2258E4,1.8205E4,1.0505E4,1.904E4,8.332E3,1.6461E4,7.748E3,1.5525E4,7.957E3,1.2922E4,1.4609E4,6.752E3],"tree_param":{"num_deleted":"0","num_feature":"12","num_nodes":"31","size_leaf_vector":"1"}},{"base_weights":[8.606068E-3,-1.0419182E1,1.4261389E1,-1.7581356E1,-2.106971E0,6.625001E0,2.2925703E1,-2.3856426E1,-1.1636826E1,-8.726255E0,3.4955883E0,3.5598567E-1,1.2426281E1,1.6560871E1,2.9005707E1,-1.4619727E0,-1.0412301E0,-7.0656526E-1,-2.8735253E-1,-6.743645E-1,-2.7240202E-1,4.320605E-2,4.9517345E-1,-2.5162277E-1,1.5417895E-1,3.454983E-1,7.569002E-1,6.9563216E-1,1.153508E0,1.177188E0,1.6053072E0],"categories":[],"categories_nodes":[],"categories_segments":[],"categories_sizes":[],"default_left":[0,0,0,0,0,0,0,0,0,0,0,0,0,0,0,0,0,0,0,0,0,0,0,0,0,0,0,0,0,0,0],"id":2,"left_children":[1,3,5,7,9,11,13,15,17,19,21,23,25,27,29,-1,-1,-1,-1,-1,-1,-1,-1,-1,-1,-1,-1,-1,-1,-1,-1],"loss_changes":[3.2688286E7,7.561282E6,6.147602E6,2.543566E6,2.18045E6,1.7965728E6,1.68217E6,5.38548E5,5.14473E5,4.2029125E5,5.369317E5,3.4911328E5,3.8327275E5,3.65204E5,3.7313E5,0E0,0E0,0E0,0E0,0E0,0E0,0E0,0E0,0E0,0E0,0E0,0E0,0E0,0E0,0E0,0E0],"parents":[2147483647,0,0,1,1,2,2,3,3,4,4,5,5,6,6,7,7,8,8,9,9,10,10,11,11,12,12,13,13,14,14],"right_children":[2,4,6,8,10,12,14,16,18,20,22,24,26,28,30,-1,-1,-1,-1,-1,-1,-1,-1,-1,-1,-1,-1,-1,-1,-1,-1],"split_conditions":[4.8048E0,4E0,4E0,2.796E0,2.6738E0,6.5988E0,6.7099E0,2E0,3E0,5E0,6E0,2E0,2E0,6E0,5E0,-1.4619727E0,-1.0412301E0,-7.0656526E-1,-2.8735253E-1,-6.743645E-1,-2.7240202E-1,4.320605E-2,4.9517345E-1,-2.5162277E-1,1.5417895E-1,3.454983E-1,7.569002E-1,6.9563216E-1,1.153508E0,1.177188E0,1.6053072E0],"split_indices":[3,11,11,3,3,3,3,11,11,11,11,11,11,11,11,0,0,0,0,0,0,0,0,0,0,0,0,0,0,0,0],"split_type":[0,0,0,0,0,0,0,0,0,0,0,0,0,0,0,0,0,0,0,0,0,0,0,0,0,0,0,0,0,0,0],"sum_hessian":[2.19928E5,1.27007E5,9.2921E4,6.822E4,5.8787E4,4.9395E4,4.3526E4,3.318E4,3.504E4,2.6947E4,3.184E4,2.3743E4,2.5652E4,2.1274E4,2.2252E4,1.1939E4,2.1241E4,2.461E4,1.043E4,1.0982E4,1.5965E4,2.2575E4,9.265E3,7.978E3,1.5765E4,8.46E3,1.7192E4,1.5133E4,6.141E3,8.073E3,1.4179E4],"tree_param":{"num_deleted":"0","num_feature":"12","num_nodes":"31","size_leaf_vector":"1"}},{"base_weights":[2.9600874E-2,-1.1042913E1,1.2149997E1,-1.7926577E1,-3.1587825E0,4.914013E0,2.0486837E1,-2.5086369E1,-1.3990606E1,-9.862617E0,1.0473291E0,-1.7788126E0,1.1034541E1,1.3639573E1,2.6788427E1,-1.3777174E0,-9.574463E-1,-9.684787E-1,-5.6935626E-1,-5.966477E-1,-1.5321966E-1,-7.2205625E-2,3.6660615E-1,-2.0467384E-1,1.9786756E-1,4.3216798E-1,8.4745425E-1,5.572158E-1,9.8817855E-1,1.2035017E0,1.6314148E0],"categories":[],"categories_nodes":[],"categories_segments":[],"categories_sizes":[],"default_left":[0,0,0,0,0,0,0,0,0,0,0,0,0,0,0,0,0,0,0,0,0,0,0,0,0,0,0,0,0,0,0],"id":3,"left_children":[1,3,5,7,9,11,13,15,17,19,21,23,25,27,29,-1,-1,-1,-1,-1,-1,-1,-1,-1,-1,-1,-1,-1,-1,-1,-1],"loss_changes":[2.9453858E7,6.224354E6,6.320254E6,1.72378E6,1.5076928E6,2.2981165E6,2.098824E6,3.15547E5,5.523645E5,2.8995112E5,5.1456566E5,3.5592572E5,4.1369275E5,3.555865E5,3.98458E5,0E0,0E0,0E0,0E0,0E0,0E0,0E0,0E0,0E0,0E0,0E0,0E0,0E0,0E0,0E0,0E0],"parents":[2147483647,0,0,1,1,2,2,3,3,4,4,5,5,6,6,7,7,8,8,9,9,10,10,11,11,12,12,13,13,14,14],"right_children":[2,4,6,8,10,12,14,16,18,20,22,24,26,28,30,-1,-1,-1,-1,-1,-1,-1,-1,-1,-1,-1,-1,-1,-1,-1,-1],"split_conditions":[4.3918E0,4E0,4E0,2.233E0,2.3532E0,6.3197E0,6.4217E0,3E0,2E0,6E0,6E0,3E0,3E0,6E0,6E0,-1.3777174E0,-9.574463E-1,-9.684787E-1,-5.6935626E-1,-5.966477E-1,-1.5321966E-1,-7.2205625E-2,3.6660615E-1,-2.0467384E-1,1.9786756E-1,4.3216798E-1,8.4745425E-1,5.572158E-1,9.8817855E-1,1.2035017E0,1.6314148E0],"split_indices":[3,11,11,3,3,3,3,11,11,11,11,11,11,11,11,0,0,0,0,0,0,0,0,0,0,0,0,0,0,0,0],"split_type":[0,0,0,0,0,0,0,0,0,0,0,0,0,0,0,0,0,0,0,0,0,0,0,0,0,0,0,0,0,0,0],"sum_hessian":[2.19462E5,1.14689E5,1.04773E5,6.1226E4,5.3463E4,5.6094E4,4.8679E4,2.1709E4,3.9517E4,2.0609E4,3.2854E4,2.6796E4,2.9298E4,2.3337E4,2.5342E4,1.5322E4,6.387E3,1.2878E4,2.6639E4,1.5795E4,4.814E3,2.353E4,9.324E3,1.9093E4,7.703E3,2.0872E4,8.426E3,1.6591E4,6.746E3,1.731E4,8.032E3],"tree_param":{"num_deleted":"0","num_feature":"12","num_nodes":"31","size_leaf_vector":"1"}},{"base_weights":[-9.714131E-3,-8.985222E0,1.3536292E1,-1.5456845E1,-1.4604255E0,6.6463413E0,2.1368649E1,-2.048607E1,-8.78201E0,-6.464164E0,5.314257E0,2.42421E0,1.3266483E1,1.6457636E1,2.7208628E1,-1.2585185E0,-8.614341E-1,-5.547409E-1,-1.660118E-1,-5.9192455E-1,-1.7952897E-1,1.2167597E-2,4.0782443E-1,5.9906174E-3,4.057363E-1,5.493489E-1,9.505972E-1,5.6672686E-1,9.764191E-1,1.1077374E0,1.5038697E0],"categories":[],"categories_nodes":[],"categories_segments":[],"categories_sizes":[],"default_left":[0,0,0,0,0,0,0,0,0,0,0,0,0,0,0,0,0,0,0,0,0,0,0,0,0,0,0,0,0,0,0],"id":4,"left_children":[1,3,5,7,9,11,13,15,17,19,21,23,25,27,29,-1,-1,-1,-1,-1,-1,-1,-1,-1,-1,-1,-1,-1,-1,-1,-1],"loss_changes":[2.6705794E7,6.433528E6,4.72324E6,2.383426E6,2.0711136E6,1.3017458E6,1.172644E6,6.15848E5,3.85459E5,5.424904E5,3.740858E5,3.7301356E5,2.3649225E5,3.491605E5,2.6786E5,0E0,0E0,0E0,0E0,0E0,0E0,0E0,0E0,0E0,0E0,0E0,0E0,0E0,0E0,0E0,0E0],"parents":[2147483647,0,0,1,1,2,2,3,3,4,4,5,5,6,6,7,7,8,8,9,9,10,10,11,11,12,12,13,13,14,14],"right_children":[2,4,6,8,10,12,14,16,18,20,22,24,26,28,30,-1,-1,-1,-1,-1,-1,-1,-1,-1,-1,-1,-1,-1,-1,-1,-1],"split_conditions":[4.9978E0,4E0,4E0,3.114E0,3.0694E0,7.1822E0,7.0476E0,1.8953E0,3E0,1.8024E0,5E0,3E0,3E0,5E0,5E0,-1.2585185E0,-8.614341E-1,-5.547409E-1,-1.660118E-1,-5.9192455E-1,-1.7952897E-1,1.2167597E-2,4.0782443E-1,5.9906174E-3,4.057363E-1,5.493489E-1,9.505972E-1,5.6672686E-1,9.764191E-1,1.1077374E0,1.5038697E0],"split_indices":[3,11,11,3,3,3,3,3,11,3,11,11,11,11,11,0,0,0,0,0,0,0,0,0,0,0,0,0,0,0,0],"split_type":[0,0,0,0,0,0,0,0,0,0,0,0,0,0,0,0,0,0,0,0,0,0,0,0,0,0,0,0,0,0,0],"sum_hessian":[2.19642E5,1.32109E5,8.7533E4,7.1022E4,6.1087E4,4.6573E4,4.096E4,4.0498E4,3.0524E4,3.5136E4,2.5951E4,2.8441E4,1.8132E4,2.226E4,1.87E4,1.6597E4,2.3901E4,2.144E4,9.084E3,1.2236E4,2.29E4,9.323E3,1.6628E4,2.0247E4,8.194E3,1.2992E4,5.14E3,8.351E3,1.3909E4,6.787E3,1.1913E4],"tree_param":{"num_deleted":"0","num_feature":"12","num_nodes":"31","size_leaf_vector":"1"}},{"base_weights":[3.730414E-4,-9.616788E0,1.1423863E1,-1.5805312E1,-2.4761412E0,4.8907332E0,1.8934084E1,-2.1861706E1,-1.1698951E1,-8.472055E0,1.6582967E0,-1.0718699E0,1.021145E1,1.2800821E1,2.4317278E1,-1.2139541E0,-8.083852E-1,-8.4020615E-1,-4.6419248E-1,-6.401089E-1,-2.7199835E-1,-3.449009E-2,3.7501615E-1,-2.9373106E-1,6.900239E-2,2.6247686E-1,6.3187784E-1,4.0278116E-1,7.8142506E-1,1.0903527E0,1.4865938E0],"categories":[],"categories_nodes":[],"categories_segments":[],"categories_sizes":[],"default_left":[0,0,0,0,0,0,0,0,0,0,0,0,0,0,0,0,0,0,0,0,0,0,0,0,0,0,0,0,0,0,0],"id":5,"left_children":[1,3,5,7,9,11,13,15,17,19,21,23,25,27,29,-1,-1,-1,-1,-1,-1,-1,-1,-1,-1,-1,-1,-1,-1,-1,-1],"loss_changes":[2.4149214E7,5.27358E6,4.929222E6,1.588717E6,1.3737934E6,1.70491E6,1.541604E6,3.53535E5,4.691095E5,2.9659725E5,4.500061E5,2.98502E5,3.4152725E5,2.92659E5,3.35005E5,0E0,0E0,0E0,0E0,0E0,0E0,0E0,0E0,0E0,0E0,0E0,0E0,0E0,0E0,0E0,0E0],"parents":[2147483647,0,0,1,1,2,2,3,3,4,4,5,5,6,6,7,7,8,8,9,9,10,10,11,11,12,12,13,13,14,14],"right_children":[2,4,6,8,10,12,14,16,18,20,22,24,26,28,30,-1,-1,-1,-1,-1,-1,-1,-1,-1,-1,-1,-1,-1,-1,-1,-1],"split_conditions":[4.535E0,4E0,4E0,2.4461E0,2.4694E0,6.3823E0,6.4601E0,3E0,2E0,5E0,6E0,2E0,2E0,5E0,6E0,-1.2139541E0,-8.083852E-1,-8.4020615E-1,-4.6419248E-1,-6.401089E-1,-2.7199835E-1,-3.449009E-2,3.7501615E-1,-2.9373106E-1,6.900239E-2,2.6247686E-1,6.3187784E-1,4.0278116E-1,7.8142506E-1,1.0903527E0,1.4865938E0],"split_indices":[3,11,11,3,3,3,3,11,11,11,11,11,11,11,11,0,0,0,0,0,0,0,0,0,0,0,0,0,0,0,0],"split_type":[0,0,0,0,0,0,0,0,0,0,0,0,0,0,0,0,0,0,0,0,0,0,0,0,0,0,0,0,0,0,0],"sum_hessian":[2.19805E5,1.19338E5,1.00467E5,6.3928E4,5.541E4,5.3733E4,4.6734E4,2.5822E4,3.8106E4,2.2612E4,3.2798E4,2.534E4,2.8393E4,2.1853E4,2.4881E4,1.8115E4,7.707E3,1.2228E4,2.5878E4,9.306E3,1.3306E4,2.3398E4,9.4E3,8.562E3,1.6778E4,9.329E3,1.9064E4,8.167E3,1.3686E4,1.7017E4,7.864E3],"tree_param":{"num_deleted":"0","num_feature":"12","num_nodes":"31","size_leaf_vector":"1"}},{"base_weights":[-1.2760216E-2,-9.99362E0,9.958289E0,-1.5904033E1,-3.1993473E0,3.7762632E0,1.710379E1,-2.2247019E1,-1.2801383E1,-9.398692E0,-3.254915E-2,-2.1913033E0,9.294261E0,1.0142806E1,2.2153637E1,-1.3429846E0,-9.7527915E-1,-7.510237E-1,-3.83551E-1,-5.667839E-1,-1.5436937E-1,-1.146457E-1,2.8788292E-1,-2.1212721E-1,1.416474E-1,3.241672E-1,6.9028366E-1,3.983367E-1,7.856446E-1,9.574978E-1,1.3522762E0],"categories":[],"categories_nodes":[],"categories_segments":[],"categories_sizes":[],"default_left":[0,0,0,0,0,0,0,0,0,0,0,0,0,0,0,0,0,0,0,0,0,0,0,0,0,0,0,0,0,0,0],"id":6,"left_children":[1,3,5,7,9,11,13,15,17,19,21,23,25,27,29,-1,-1,-1,-1,-1,-1,-1,-1,-1,-1,-1,-1,-1,-1,-1,-1],"loss_changes":[2.1858892E7,4.407694E6,4.853305E6,1.153816E6,1.0026477E6,1.9401481E6,1.790393E6,2.41119E5,4.483355E5,2.1092475E5,4.4255756E5,2.9181122E5,3.877495E5,2.5921E5,4.31358E5,0E0,0E0,0E0,0E0,0E0,0E0,0E0,0E0,0E0,0E0,0E0,0E0,0E0,0E0,0E0,0E0],"parents":[2147483647,0,0,1,1,2,2,3,3,4,4,5,5,6,6,7,7,8,8,9,9,10,10,11,11,12,12,13,13,14,14],"right_children":[2,4,6,8,10,12,14,16,18,20,22,24,26,28,30,-1,-1,-1,-1,-1,-1,-1,-1,-1,-1,-1,-1,-1,-1,-1,-1],"split_conditions":[4.225E0,4E0,4E0,2.065E0,2.1535E0,6.2155E0,6.0386E0,2E0,3E0,6E0,6E0,3E0,7.7066E0,6E0,7.6366E0,-1.3429846E0,-9.7527915E-1,-7.510237E-1,-3.83551E-1,-5.667839E-1,-1.5436937E-1,-1.146457E-1,2.8788292E-1,-2.1212721E-1,1.416474E-1,3.241672E-1,6.9028366E-1,3.983367E-1,7.856446E-1,9.574978E-1,1.3522762E0],"split_indices":[3,11,11,3,3,3,3,11,11,11,11,11,3,11,3,0,0,0,0,0,0,0,0,0,0,0,0,0,0,0,0],"split_type":[0,0,0,0,0,0,0,0,0,0,0,0,0,0,0,0,0,0,0,0,0,0,0,0,0,0,0,0,0,0,0],"sum_hessian":[2.19634E5,1.09763E5,1.09871E5,5.8696E4,5.1067E4,5.8911E4,5.096E4,1.927E4,3.9426E4,1.7263E4,3.3804E4,2.8304E4,3.0607E4,2.1432E4,2.9528E4,7.167E3,1.2103E4,2.7515E4,1.1911E4,1.3206E4,4.057E3,2.4315E4,9.489E3,2.0099E4,8.205E3,1.8865E4,1.1742E4,1.542E4,6.012E3,1.831E4,1.1218E4],"tree_param":{"num_deleted":"0","num_feature":"12","num_nodes":"31","size_leaf_vector":"1"}},{"base_weights":[-6.887662E-3,-7.4925957E0,1.2074067E1,-1.3044019E1,-1.0381981E0,6.150577E0,1.877583E1,-1.7464766E1,-6.927674E0,-5.1495414E0,5.7065873E0,2.5442863E0,1.1626824E1,1.4937209E1,2.4021322E1,-1.1132158E0,-7.452382E-1,-5.8004993E-1,-2.3656952E-1,-4.776697E-1,-1.1518947E-1,5.765107E-2,4.1162643E-1,2.4039818E-2,3.8377252E-1,4.76537E-1,8.485147E-1,5.131751E-1,8.8678676E-1,9.6646607E-1,1.3365965E0],"categories":[],"categories_nodes":[],"categories_segments":[],"categories_sizes":[],"default_left":[0,0,0,0,0,0,0,0,0,0,0,0,0,0,0,0,0,0,0,0,0,0,0,0,0,0,0,0,0,0,0],"id":7,"left_children":[1,3,5,7,9,11,13,15,17,19,21,23,25,27,29,-1,-1,-1,-1,-1,-1,-1,-1,-1,-1,-1,-1,-1,-1,-1,-1],"loss_changes":[1.98832E7,4.8639675E6,3.338565E6,1.972659E6,1.7409058E6,8.817806E5,7.92791E5,5.18788E5,3.1406925E5,4.886988E5,2.7342494E5,2.8514044E5,1.9777375E5,2.97303E5,2.0939E5,0E0,0E0,0E0,0E0,0E0,0E0,0E0,0E0,0E0,0E0,0E0,0E0,0E0,0E0,0E0,0E0],"parents":[2147483647,0,0,1,1,2,2,3,3,4,4,5,5,6,6,7,7,8,8,9,9,10,10,11,11,12,12,13,13,14,14],"right_children":[2,4,6,8,10,12,14,16,18,20,22,24,26,28,30,-1,-1,-1,-1,-1,-1,-1,-1,-1,-1,-1,-1,-1,-1,-1,-1],"split_conditions":[5.1398E0,4E0,4E0,3.2179E0,3.299E0,7.2168E0,7.2168E0,2E0,2E0,5E0,5E0,3E0,3E0,5E0,5E0,-1.1132158E0,-7.452382E-1,-5.8004993E-1,-2.3656952E-1,-4.776697E-1,-1.1518947E-1,5.765107E-2,4.1162643E-1,2.4039818E-2,3.8377252E-1,4.76537E-1,8.485147E-1,5.131751E-1,8.8678676E-1,9.6646607E-1,1.3365965E0],"split_indices":[3,11,11,3,3,3,3,11,11,11,11,11,11,11,11,0,0,0,0,0,0,0,0,0,0,0,0,0,0,0,0],"split_type":[0,0,0,0,0,0,0,0,0,0,0,0,0,0,0,0,0,0,0,0,0,0,0,0,0,0,0,0,0,0,0],"sum_hessian":[2.19853E5,1.35744E5,8.4109E4,7.2974E4,6.277E4,4.4652E4,3.9457E4,4.2353E4,3.0621E4,3.8999E4,2.3771E4,2.6927E4,1.7725E4,2.2795E4,1.6662E4,1.4719E4,2.7634E4,9.783E3,2.0838E4,1.5304E4,2.3695E4,8.484E3,1.5287E4,1.9208E4,7.719E3,1.2741E4,4.984E3,8.546E3,1.4249E4,6.116E3,1.0546E4],"tree_param":{"num_deleted":"0","num_feature":"12","num_nodes":"31","size_leaf_vector":"1"}},{"base_weights":[-4.0103723E-3,-9.308992E0,8.753605E0,-1.6747168E1,-4.8501625E0,3.1694791E0,1.5206912E1,-2.2182095E1,-1.3816239E1,-1.0889292E1,-2.1836658E0,-2.5345285E0,8.123294E0,9.063715E0,2.0089672E1,-1.2514452E0,-9.9727166E-1,-7.701413E-1,-5.1706785E-1,-7.0414895E-1,-3.3433655E-1,-2.950662E-1,1.0031463E-1,-3.455401E-1,-1.9765383E-2,2.5152263E-1,5.862136E-1,3.5070407E-1,7.0617276E-1,8.714509E-1,1.2305993E0],"categories":[],"categories_nodes":[],"categories_segments":[],"categories_sizes":[],"default_left":[0,0,0,0,0,0,0,0,0,0,0,0,0,0,0,0,0,0,0,0,0,0,0,0,0,0,0,0,0,0,0],"id":8,"left_children":[1,3,5,7,9,11,13,15,17,19,21,23,25,27,29,-1,-1,-1,-1,-1,-1,-1,-1,-1,-1,-1,-1,-1,-1,-1,-1],"loss_changes":[1.7925398E7,3.536799E6,4.083331E6,6.35165E5,1.0737792E6,1.7168889E6,1.575877E6,8.6615E4,1.424365E5,2.736665E5,7.20768E5,2.6440144E5,3.618665E5,2.4101562E5,3.50209E5,0E0,0E0,0E0,0E0,0E0,0E0,0E0,0E0,0E0,0E0,0E0,0E0,0E0,0E0,0E0,0E0],"parents":[2147483647,0,0,1,1,2,2,3,3,4,4,5,5,6,6,7,7,8,8,9,9,10,10,11,11,12,12,13,13,14,14],"right_children":[2,4,6,8,10,12,14,16,18,20,22,24,26,28,30,-1,-1,-1,-1,-1,-1,-1,-1,-1,-1,-1,-1,-1,-1,-1,-1],"split_conditions":[4.1122E0,3E0,4E0,2.0969E0,2.0083E0,6.0727E0,6.0727E0,1.3822E0,3.408E0,5E0,5E0,2E0,7.4602E0,6E0,7.673E0,-1.2514452E0,-9.9727166E-1,-7.701413E-1,-5.1706785E-1,-7.0414895E-1,-3.3433655E-1,-2.950662E-1,1.0031463E-1,-3.455401E-1,-1.9765383E-2,2.5152263E-1,5.862136E-1,3.5070407E-1,7.0617276E-1,8.714509E-1,1.2305993E0],"split_indices":[3,11,11,3,3,3,3,3,3,11,11,11,3,11,3,0,0,0,0,0,0,0,0,0,0,0,0,0,0,0,0],"split_type":[0,0,0,0,0,0,0,0,0,0,0,0,0,0,0,0,0,0,0,0,0,0,0,0,0,0,0,0,0,0,0],"sum_hessian":[2.19962E5,1.06648E5,1.13314E5,3.9965E4,6.6683E4,6.0752E4,5.2562E4,1.399E4,2.5975E4,2.042E4,4.6263E4,2.8239E4,3.2513E4,2.3283E4,2.9279E4,6.133E3,7.857E3,1.7821E4,8.154E3,1.1596E4,8.824E3,2.4512E4,2.1751E4,9.268E3,1.8971E4,1.7497E4,1.5016E4,1.6579E4,6.704E3,1.8449E4,1.083E4],"tree_param":{"num_deleted":"0","num_feature":"12","num_nodes":"31","size_leaf_vector":"1"}},{"base_weights":[-1.6314555E-2,-6.729337E0,1.1000024E1,-1.3729157E1,-2.488473E0,3.7020776E0,1.5473215E1,-1.779755E1,-8.093143E0,-6.57261E0,2.9755561E0,3.6983097E-1,8.305714E0,1.1906567E1,2.0184109E1,-1.1150553E0,-7.7081245E-1,-5.464159E-1,-3.2044888E-1,-4.9854222E-1,-1.2335446E-1,-3.292994E-2,3.523225E-1,-1.02732934E-1,1.2686053E-1,2.824071E-1,5.291647E-1,4.111971E-1,8.074067E-1,8.2135135E-1,1.206865E0],"categories":[],"categories_nodes":[],"categories_segments":[],"categories_sizes":[],"default_left":[0,0,0,0,0,0,0,0,0,0,0,0,0,0,0,0,0,0,0,0,0,0,0,0,0,0,0,0,0,0,0],"id":9,"left_children":[1,3,5,7,9,11,13,15,17,19,21,23,25,27,29,-1,-1,-1,-1,-1,-1,-1,-1,-1,-1,-1,-1,-1,-1,-1,-1],"loss_changes":[1.6266613E7,4.0570365E6,2.718561E6,1.181595E6,1.8995329E6,4.856019E5,8.66358E5,3.19388E5,1.02911875E5,6.7945575E5,5.386969E5,9.655129E4,8.015531E4,4.5853525E5,3.2835E5,0E0,0E0,0E0,0E0,0E0,0E0,0E0,0E0,0E0,0E0,0E0,0E0,0E0,0E0,0E0,0E0],"parents":[2147483647,0,0,1,1,2,2,3,3,4,4,5,5,6,6,7,7,8,8,9,9,10,10,11,11,12,12,13,13,14,14],"right_children":[2,4,6,8,10,12,14,16,18,20,22,24,26,28,30,-1,-1,-1,-1,-1,-1,-1,-1,-1,-1,-1,-1,-1,-1,-1,-1],"split_conditions":[5.1763E0,3E0,3E0,3.2436E0,3.1366E0,7.146E0,7.1822E0,1.7693E0,3.9389E0,5E0,5E0,2E0,2E0,5E0,5E0,-1.1150553E0,-7.7081245E-1,-5.464159E-1,-3.2044888E-1,-4.9854222E-1,-1.2335446E-1,-3.292994E-2,3.523225E-1,-1.02732934E-1,1.2686053E-1,2.824071E-1,5.291647E-1,4.111971E-1,8.074067E-1,8.2135135E-1,1.206865E0],"split_indices":[3,11,11,3,3,3,3,3,3,11,11,11,11,11,11,0,0,0,0,0,0,0,0,0,0,0,0,0,0,0,0],"split_type":[0,0,0,0,0,0,0,0,0,0,0,0,0,0,0,0,0,0,0,0,0,0,0,0,0,0,0,0,0,0,0],"sum_hessian":[2.19949E5,1.36669E5,8.328E4,5.1558E4,8.5111E4,3.1651E4,5.1629E4,2.9937E4,2.1621E4,4.8705E4,3.6406E4,1.8364E4,1.3287E4,2.9393E4,2.2236E4,1.034E4,1.9597E4,8.047E3,1.3574E4,2.6644E4,2.2061E4,1.9237E4,1.7169E4,8.668E3,9.696E3,6.14E3,7.147E3,1.5741E4,1.3652E4,1.1414E4,1.0822E4],"tree_param":{"num_deleted":"0","num_feature":"12","num_nodes":"31","size_leaf_vector":"1"}},{"base_weights":[1.1652034E-3,-8.5164385E0,7.8889384E0,-1.5197186E1,-4.4910884E0,2.8103652E0,1.3725277E1,-1.9855478E1,-1.2403766E1,-1.05793E1,-2.2381885E0,-2.3837714E0,7.382437E0,7.8431973E0,1.7955353E1,-1.1425191E0,-8.963028E-1,-7.3812026E-1,-5.1724386E-1,-6.697119E-1,-3.3966503E-1,-2.7965304E-1,7.823124E-2,-3.1873205E-1,-2.1280596E-2,1.488069E-1,4.7793636E-1,3.0034825E-1,6.238995E-1,7.8572196E-1,1.141265E0],"categories":[],"categories_nodes":[],"categories_segments":[],"categories_sizes":[],"default_left":[0,0,0,0,0,0,0,0,0,0,0,0,0,0,0,0,0,0,0,0,0,0,0,0,0,0,0,0,0,0,0],"id":10,"left_children":[1,3,5,7,9,11,13,15,17,19,21,23,25,27,29,-1,-1,-1,-1,-1,-1,-1,-1,-1,-1,-1,-1,-1,-1,-1,-1],"loss_changes":[1.4761132E7,2.840485E6,3.3809315E6,5.15576E5,9.0413125E5,1.4487615E6,1.319889E6,8.39355E4,1.198685E5,1.8929938E5,6.1403294E5,2.2319155E5,3.1098538E5,1.8865312E5,3.35084E5,0E0,0E0,0E0,0E0,0E0,0E0,0E0,0E0,0E0,0E0,0E0,0E0,0E0,0E0,0E0,0E0],"parents":[2147483647,0,0,1,1,2,2,3,3,4,4,5,5,6,6,7,7,8,8,9,9,10,10,11,11,12,12,13,13,14,14],"right_children":[2,4,6,8,10,12,14,16,18,20,22,24,26,28,30,-1,-1,-1,-1,-1,-1,-1,-1,-1,-1,-1,-1,-1,-1,-1,-1],"split_conditions":[4.079E0,3E0,4E0,2.1804E0,1.8631E0,6.0727E0,5.9302E0,1.3514E0,2E0,5E0,5E0,2E0,2E0,6E0,6E0,-1.1425191E0,-8.963028E-1,-7.3812026E-1,-5.1724386E-1,-6.697119E-1,-3.3966503E-1,-2.7965304E-1,7.823124E-2,-3.1873205E-1,-2.1280596E-2,1.488069E-1,4.7793636E-1,3.0034825E-1,6.238995E-1,7.8572196E-1,1.141265E0],"split_indices":[3,11,11,3,3,3,3,3,11,11,11,11,11,11,11,0,0,0,0,0,0,0,0,0,0,0,0,0,0,0,0],"split_type":[0,0,0,0,0,0,0,0,0,0,0,0,0,0,0,0,0,0,0,0,0,0,0,0,0,0,0,0,0,0,0],"sum_hessian":[2.19699E5,1.05632E5,1.14067E5,3.9711E4,6.5921E4,6.0997E4,5.307E4,1.4875E4,2.4836E4,1.78E4,4.8121E4,2.8557E4,3.244E4,2.2206E4,3.0864E4,5.807E3,9.068E3,1.1561E4,1.3275E4,1.0202E4,7.598E3,2.5565E4,2.2556E4,9.396E3,1.9161E4,1.0729E4,2.1711E4,1.5913E4,6.293E3,2.1152E4,9.712E3],"tree_param":{"num_deleted":"0","num_feature":"12","num_nodes":"31","size_leaf_vector":"1"}},{"base_weights":[-2.1860977E-3,-5.8792095E0,1.03020525E1,-1.046704E1,-5.581558E-1,3.6529899E0,1.4371896E1,-1.4071762E1,-5.074759E0,-4.233812E0,4.9663835E0,7.921683E-1,7.938347E0,1.17253275E1,1.9389713E1,-9.258485E-1,-6.010565E-1,-4.518188E-1,-1.5986592E-1,-4.7315708E-1,-1.1681813E-1,1.5956387E-1,4.6992537E-1,-6.841196E-2,1.3607757E-1,3.0928302E-1,5.363807E-1,4.1645956E-1,7.7750945E-1,7.9847485E-1,1.1535542E0],"categories":[],"categories_nodes":[],"categories_segments":[],"categories_sizes":[],"default_left":[0,0,0,0,0,0,0,0,0,0,0,0,0,0,0,0,0,0,0,0,0,0,0,0,0,0,0,0,0,0,0],"id":11,"left_children":[1,3,5,7,9,11,13,15,17,19,21,23,25,27,29,-1,-1,-1,-1,-1,-1,-1,-1,-1,-1,-1,-1,-1,-1,-1,-1],"loss_changes":[1.3289327E7,3.4114145E6,2.156552E6,1.458284E6,1.3140654E6,3.7105562E5,6.55414E5,4.08839E5,2.2353694E5,3.854535E5,2.0325612E5,7.570159E4,5.890475E4,4.199605E5,2.130125E5,0E0,0E0,0E0,0E0,0E0,0E0,0E0,0E0,0E0,0E0,0E0,0E0,0E0,0E0,0E0,0E0],"parents":[2147483647,0,0,1,1,2,2,3,3,4,4,5,5,6,6,7,7,8,8,9,9,10,10,11,11,12,12,13,13,14,14],"right_children":[2,4,6,8,10,12,14,16,18,20,22,24,26,28,30,-1,-1,-1,-1,-1,-1,-1,-1,-1,-1,-1,-1,-1,-1,-1,-1],"split_conditions":[5.3138E0,4E0,3E0,3.3768E0,3.299E0,7.2862E0,7.4952E0,1.739E0,2E0,1.6471E0,6E0,2E0,8.0909E0,5E0,5E0,-9.258485E-1,-6.010565E-1,-4.518188E-1,-1.5986592E-1,-4.7315708E-1,-1.1681813E-1,1.5956387E-1,4.6992537E-1,-6.841196E-2,1.3607757E-1,3.0928302E-1,5.363807E-1,4.1645956E-1,7.7750945E-1,7.9847485E-1,1.1535542E0],"split_indices":[3,11,11,3,3,3,3,3,11,3,11,11,3,11,11,0,0,0,0,0,0,0,0,0,0,0,0,0,0,0,0],"split_type":[0,0,0,0,0,0,0,0,0,0,0,0,0,0,0,0,0,0,0,0,0,0,0,0,0,0,0,0,0,0,0],"sum_hessian":[2.19437E5,1.39739E5,7.9698E4,7.5037E4,6.4702E4,3.0264E4,4.9434E4,4.4968E4,3.0069E4,3.8853E4,2.5849E4,1.8152E4,1.2112E4,3.2375E4,1.7059E4,1.4183E4,3.0785E4,9.662E3,2.0407E4,1.0339E4,2.8514E4,1.8463E4,7.386E3,8.564E3,9.588E3,7.448E3,4.664E3,1.7157E4,1.5218E4,8.857E3,8.202E3],"tree_param":{"num_deleted":"0","num_feature":"12","num_nodes":"31","size_leaf_vector":"1"}},{"base_weights":[-4.5322087E-3,-6.636786E0,8.253285E0,-1.2748653E1,-2.9543183E0,1.969844E0,1.2131697E1,-1.6957952E1,-9.420481E0,-7.774638E0,-2.5844134E-3,-1.3180597E0,6.7313395E0,8.526967E0,1.6929882E1,-1.0245899E0,-7.635904E-1,-5.808651E-1,-3.4579927E-1,-5.2615565E-1,-2.1272266E-1,-1.5565276E-1,1.7223625E-1,-2.0836306E-1,4.1001976E-2,2.551769E-1,5.0471956E-1,2.7017415E-1,6.068975E-1,6.8389446E-1,1.0162026E0],"categories":[],"categories_nodes":[],"categories_segments":[],"categories_sizes":[],"default_left":[0,0,0,0,0,0,0,0,0,0,0,0,0,0,0,0,0,0,0,0,0,0,0,0,0,0,0,0,0,0,0],"id":12,"left_children":[1,3,5,7,9,11,13,15,17,19,21,23,25,27,29,-1,-1,-1,-1,-1,-1,-1,-1,-1,-1,-1,-1,-1,-1,-1,-1],"loss_changes":[1.2038103E7,2.743362E6,2.3857545E6,6.412465E5,1.0824038E6,5.851156E5,1.046318E6,1.18977E5,1.40475E5,2.7931025E5,5.060283E5,1.3471455E5,8.331431E4,3.8966075E5,2.85196E5,0E0,0E0,0E0,0E0,0E0,0E0,0E0,0E0,0E0,0E0,0E0,0E0,0E0,0E0,0E0,0E0],"parents":[2147483647,0,0,1,1,2,2,3,3,4,4,5,5,6,6,7,7,8,8,9,9,10,10,11,11,12,12,13,13,14,14],"right_children":[2,4,6,8,10,12,14,16,18,20,22,24,26,28,30,-1,-1,-1,-1,-1,-1,-1,-1,-1,-1,-1,-1,-1,-1,-1,-1],"split_conditions":[4.6171E0,3E0,3E0,2.597E0,2.399E0,6.9382E0,6.9382E0,1.4203E0,3.5798E0,5E0,5E0,5.6148E0,8.0582E0,5E0,5E0,-1.0245899E0,-7.635904E-1,-5.808651E-1,-3.4579927E-1,-5.2615565E-1,-2.1272266E-1,-1.5565276E-1,1.7223625E-1,-2.0836306E-1,4.1001976E-2,2.551769E-1,5.0471956E-1,2.7017415E-1,6.068975E-1,6.8389446E-1,1.0162026E0],"split_indices":[3,11,11,3,3,3,3,3,3,11,11,3,3,11,11,0,0,0,0,0,0,0,0,0,0,0,0,0,0,0,0],"split_type":[0,0,0,0,0,0,0,0,0,0,0,0,0,0,0,0,0,0,0,0,0,0,0,0,0,0,0,0,0,0,0],"sum_hessian":[2.19792E5,1.21894E5,9.7898E4,4.5825E4,7.6069E4,3.7367E4,6.0531E4,2.0225E4,2.56E4,2.8887E4,4.7182E4,2.2106E4,1.5261E4,3.4572E4,2.5959E4,6.515E3,1.371E4,1.3628E4,1.1972E4,1.6216E4,1.2671E4,2.4803E4,2.2379E4,9.475E3,1.2631E4,1.0292E4,4.969E3,1.8544E4,1.6028E4,1.327E4,1.2689E4],"tree_param":{"num_deleted":"0","num_feature":"12","num_nodes":"31","size_leaf_vector":"1"}},{"base_weights":[1.180387E-3,-7.101175E0,7.0026207E0,-1.2900367E1,-3.6208823E0,2.6320667E0,1.2043974E1,-1.6825039E1,-1.0242728E1,-8.920338E0,-1.5930653E0,-1.6025642E0,6.6127048E0,7.4160957E0,1.5969731E1,-9.4877195E-1,-7.250692E-1,-6.205428E-1,-4.1999945E-1,-5.126738E-1,-1.2452455E-1,-2.262351E-1,8.60969E-2,-2.5432214E-1,6.3582086E-3,1.3402665E-1,4.271104E-1,2.8582895E-1,5.8258486E-1,6.975554E-1,1.0196782E0],"categories":[],"categories_nodes":[],"categories_segments":[],"categories_sizes":[],"default_left":[0,0,0,0,0,0,0,0,0,0,0,0,0,0,0,0,0,0,0,0,0,0,0,0,0,0,0,0,0,0,0],"id":13,"left_children":[1,3,5,7,9,11,13,15,17,19,21,23,25,27,29,-1,-1,-1,-1,-1,-1,-1,-1,-1,-1,-1,-1,-1,-1,-1,-1],"loss_changes":[1.0911135E7,2.198208E6,2.4344555E6,4.25229E5,7.315389E5,9.978249E5,9.31586E5,8.1001E4,9.684375E4,1.613665E5,4.7862088E5,1.7286375E5,2.3138425E5,1.6924862E5,2.464405E5,0E0,0E0,0E0,0E0,0E0,0E0,0E0,0E0,0E0,0E0,0E0,0E0,0E0,0E0,0E0,0E0],"parents":[2147483647,0,0,1,1,2,2,3,3,4,4,5,5,6,6,7,7,8,8,9,9,10,10,11,11,12,12,13,13,14,14],"right_children":[2,4,6,8,10,12,14,16,18,20,22,24,26,28,30,-1,-1,-1,-1,-1,-1,-1,-1,-1,-1,-1,-1,-1,-1,-1,-1],"split_conditions":[4.2E0,3E0,4E0,2.3316E0,1.9212E0,6.2155E0,6.2155E0,2E0,2E0,6E0,5E0,2E0,2E0,6E0,6E0,-9.4877195E-1,-7.250692E-1,-6.205428E-1,-4.1999945E-1,-5.126738E-1,-1.2452455E-1,-2.262351E-1,8.60969E-2,-2.5432214E-1,6.3582086E-3,1.3402665E-1,4.271104E-1,2.8582895E-1,5.8258486E-1,6.975554E-1,1.0196782E0],"split_indices":[3,11,11,3,3,3,3,11,11,11,11,11,11,11,11,0,0,0,0,0,0,0,0,0,0,0,0,0,0,0,0],"split_type":[0,0,0,0,0,0,0,0,0,0,0,0,0,0,0,0,0,0,0,0,0,0,0,0,0,0,0,0,0,0,0],"sum_hessian":[2.19412E5,1.08921E5,1.10491E5,4.0846E4,6.8075E4,5.9187E4,5.1304E4,1.6481E4,2.4365E4,1.8835E4,4.924E4,2.868E4,3.0507E4,2.3553E4,2.7751E4,8.541E3,7.94E3,1.1181E4,1.3184E4,1.5598E4,3.237E3,2.613E4,2.311E4,9.512E3,1.9168E4,1.0046E4,2.0461E4,1.6817E4,6.736E3,1.907E4,8.681E3],"tree_param":{"num_deleted":"0","num_feature":"12","num_nodes":"31","size_leaf_vector":"1"}},{"base_weights":[-5.255836E-4,-5.0604496E0,8.875458E0,-1.0569062E1,-1.730094E0,3.124123E0,1.2402752E1,-1.4220306E1,-6.518636E0,-4.7776823E0,3.2424076E0,9.48284E-1,7.4733987E0,1.0215313E1,1.7249647E1,-8.945584E-1,-6.235814E-1,-4.5578027E-1,-2.5553486E-1,-3.1334546E-1,7.207158E-2,1.8137164E-2,3.2221004E-1,-5.038138E-2,1.3281862E-1,2.611444E-1,4.7253266E-1,3.6392215E-1,6.7615443E-1,7.134569E-1,1.0207106E0],"categories":[],"categories_nodes":[],"categories_segments":[],"categories_sizes":[],"default_left":[0,0,0,0,0,0,0,0,0,0,0,0,0,0,0,0,0,0,0,0,0,0,0,0,0,0,0,0,0,0,0],"id":14,"left_children":[1,3,5,7,9,11,13,15,17,19,21,23,25,27,29,-1,-1,-1,-1,-1,-1,-1,-1,-1,-1,-1,-1,-1,-1,-1,-1],"loss_changes":[9.877408E6,2.5696925E6,1.6197555E6,7.8006E5,1.3230942E6,2.8729947E5,5.238795E5,1.77029E5,9.1286125E4,5.0138862E5,3.0589238E5,6.764595E4,4.4803312E4,3.3092775E5,1.436455E5,0E0,0E0,0E0,0E0,0E0,0E0,0E0,0E0,0E0,0E0,0E0,0E0,0E0,0E0,0E0,0E0],"parents":[2147483647,0,0,1,1,2,2,3,3,4,4,5,5,6,6,7,7,8,8,9,9,10,10,11,11,12,12,13,13,14,14],"right_children":[2,4,6,8,10,12,14,16,18,20,22,24,26,28,30,-1,-1,-1,-1,-1,-1,-1,-1,-1,-1,-1,-1,-1,-1,-1,-1],"split_conditions":[5.3138E0,3E0,3E0,3.0694E0,3.408E0,7.5329E0,7.6068E0,1.6471E0,3.8126E0,6E0,5E0,2E0,2E0,5E0,5E0,-8.945584E-1,-6.235814E-1,-4.5578027E-1,-2.5553486E-1,-3.1334546E-1,7.207158E-2,1.8137164E-2,3.2221004E-1,-5.038138E-2,1.3281862E-1,2.611444E-1,4.7253266E-1,3.6392215E-1,6.7615443E-1,7.134569E-1,1.0207106E0],"split_indices":[3,11,11,3,3,3,3,3,3,11,11,11,11,11,11,0,0,0,0,0,0,0,0,0,0,0,0,0,0,0,0],"split_type":[0,0,0,0,0,0,0,0,0,0,0,0,0,0,0,0,0,0,0,0,0,0,0,0,0,0,0,0,0,0,0],"sum_hessian":[2.19919E5,1.40071E5,7.9848E4,5.2772E4,8.7299E4,3.0358E4,4.949E4,2.7747E4,2.5025E4,5.4126E4,3.3173E4,2.0239E4,1.0119E4,3.4111E4,1.5379E4,8.938E3,1.8809E4,8.788E3,1.6237E4,4.3669E4,1.0457E4,1.7468E4,1.5705E4,9.436E3,1.0803E4,4.741E3,5.378E3,1.8077E4,1.6034E4,7.934E3,7.445E3],"tree_param":{"num_deleted":"0","num_feature":"12","num_nodes":"31","size_leaf_vector":"1"}},{"base_weights":[1.1976818E-2,-6.788001E0,6.0048428E0,-1.0599188E1,-2.4248986E0,5.6226563E-1,9.356687E0,-1.4442626E1,-8.522289E0,-7.5441604E0,-7.310459E-1,-3.8283746E0,3.9619455E0,4.8976116E0,1.3022415E1,-8.877913E-1,-6.2429374E-1,-6.0413045E-1,-3.413326E-1,-4.4714424E-1,-1.4782909E-1,-1.2035256E-1,1.8753906E-1,-2.8460652E-1,-1.11572854E-1,1.0065257E-1,3.755872E-1,1.1060857E-1,3.9712703E-1,5.086648E-1,8.0536884E-1],"categories":[],"categories_nodes":[],"categories_segments":[],"categories_sizes":[],"default_left":[0,0,0,0,0,0,0,0,0,0,0,0,0,0,0,0,0,0,0,0,0,0,0,0,0,0,0,0,0,0,0],"id":15,"left_children":[1,3,5,7,9,11,13,15,17,19,21,23,25,27,29,-1,-1,-1,-1,-1,-1,-1,-1,-1,-1,-1,-1,-1,-1,-1,-1],"loss_changes":[8.962079E6,1.7129995E6,2.132505E6,4.383225E5,4.1654053E5,6.651979E5,1.182199E6,1.239055E5,2.15169E5,7.650306E4,2.7122766E5,5.7818875E4,1.7368147E5,2.6687412E5,3.481295E5,0E0,0E0,0E0,0E0,0E0,0E0,0E0,0E0,0E0,0E0,0E0,0E0,0E0,0E0,0E0,0E0],"parents":[2147483647,0,0,1,1,2,2,3,3,4,4,5,5,6,6,7,7,8,8,9,9,10,10,11,11,12,12,13,13,14,14],"right_children":[2,4,6,8,10,12,14,16,18,20,22,24,26,28,30,-1,-1,-1,-1,-1,-1,-1,-1,-1,-1,-1,-1,-1,-1,-1,-1],"split_conditions":[3.996E0,4E0,3E0,2.065E0,1.7693E0,5.8961E0,6.0022E0,2E0,2E0,6E0,6E0,2E0,7.673E0,5E0,5E0,-8.877913E-1,-6.2429374E-1,-6.0413045E-1,-3.413326E-1,-4.4714424E-1,-1.4782909E-1,-1.2035256E-1,1.8753906E-1,-2.8460652E-1,-1.11572854E-1,1.0065257E-1,3.755872E-1,1.1060857E-1,3.9712703E-1,5.086648E-1,8.0536884E-1],"split_indices":[3,11,11,3,3,3,3,11,11,11,11,11,3,11,11,0,0,0,0,0,0,0,0,0,0,0,0,0,0,0,0],"split_type":[0,0,0,0,0,0,0,0,0,0,0,0,0,0,0,0,0,0,0,0,0,0,0,0,0,0,0,0,0,0,0],"sum_hessian":[2.19911E5,1.03018E5,1.16893E5,5.4983E4,4.8035E4,4.4554E4,7.2339E4,1.9278E4,3.5705E4,1.1938E4,3.6097E4,1.9443E4,2.5111E4,3.2643E4,3.9696E4,7.143E3,1.2135E4,1.1509E4,2.4196E4,9.145E3,2.793E3,2.6274E4,9.823E3,8.966E3,1.0477E4,1.6216E4,8.895E3,1.735E4,1.5293E4,2.0648E4,1.9048E4],"tree_param":{"num_deleted":"0","num_feature":"12","num_nodes":"31","size_leaf_vector":"1"}},{"base_weights":[-1.8987281E-3,-4.865367E0,7.580121E0,-9.860974E0,-1.8496044E0,2.4014153E0,1.0757353E1,-1.3033724E1,-6.287813E0,-5.184322E0,1.6535503E0,-1.2479057E-1,5.935626E0,8.346125E0,1.5010817E1,-8.197028E-1,-5.7537544E-1,-4.2672983E-1,-2.4735153E-1,-3.8273057E-1,-1.0886171E-1,-4.6577223E-2,2.28897E-1,-9.405267E-2,7.181099E-2,2.2520927E-1,4.3246132E-1,2.852939E-1,5.655844E-1,6.7292416E-1,9.9593157E-1],"categories":[],"categories_nodes":[],"categories_segments":[],"categories_sizes":[],"default_left":[0,0,0,0,0,0,0,0,0,0,0,0,0,0,0,0,0,0,0,0,0,0,0,0,0,0,0,0,0,0,0],"id":16,"left_children":[1,3,5,7,9,11,13,15,17,19,21,23,25,27,29,-1,-1,-1,-1,-1,-1,-1,-1,-1,-1,-1,-1,-1,-1,-1,-1],"loss_changes":[8.103519E6,2.016887E6,1.4128865E6,5.70917E5,9.75364E5,2.9159688E5,5.452225E5,1.35933E5,7.122006E4,3.17658E5,3.0785738E5,5.2242676E4,5.2686875E4,2.65719E5,1.453095E5,0E0,0E0,0E0,0E0,0E0,0E0,0E0,0E0,0E0,0E0,0E0,0E0,0E0,0E0,0E0,0E0],"parents":[2147483647,0,0,1,1,2,2,3,3,4,4,5,5,6,6,7,7,8,8,9,9,10,10,11,11,12,12,13,13,14,14],"right_children":[2,4,6,8,10,12,14,16,18,20,22,24,26,28,30,-1,-1,-1,-1,-1,-1,-1,-1,-1,-1,-1,-1,-1,-1,-1,-1],"split_conditions":[5.0678E0,3E0,3E0,3.0072E0,2.9124E0,7.1107E0,7.3548E0,1.5782E0,3.7253E0,5E0,5E0,2E0,8.0909E0,5E0,6E0,-8.197028E-1,-5.7537544E-1,-4.2672983E-1,-2.4735153E-1,-3.8273057E-1,-1.0886171E-1,-4.6577223E-2,2.28897E-1,-9.405267E-2,7.181099E-2,2.2520927E-1,4.3246132E-1,2.852939E-1,5.655844E-1,6.7292416E-1,9.9593157E-1],"split_indices":[3,11,11,3,3,3,3,3,3,11,11,11,3,11,11,0,0,0,0,0,0,0,0,0,0,0,0,0,0,0,0],"split_type":[0,0,0,0,0,0,0,0,0,0,0,0,0,0,0,0,0,0,0,0,0,0,0,0,0,0,0,0,0,0,0],"sum_hessian":[2.19747E5,1.33875E5,8.5872E4,5.0391E4,8.3484E4,3.2655E4,5.3217E4,2.6684E4,2.3707E4,4.2769E4,4.0715E4,1.9046E4,1.3609E4,3.3973E4,1.9244E4,8.319E3,1.8365E4,8.85E3,1.4857E4,2.3476E4,1.9293E4,2.1613E4,1.9102E4,8.962E3,1.0084E4,8.918E3,4.691E3,1.798E4,1.5993E4,1.4634E4,4.61E3],"tree_param":{"num_deleted":"0","num_feature":"12","num_nodes":"31","size_leaf_vector":"1"}},{"base_weights":[9.58952E-3,-4.2173953E0,7.9130316E0,-7.645283E0,-2.4462892E-1,2.9559038E0,1.0955883E1,-1.0359694E1,-3.4052815E0,-3.7402117E0,3.252572E0,9.6283275E-1,6.22362E0,9.192003E0,1.5434682E1,-6.8512243E-1,-4.2980576E-1,-3.256188E-1,-9.616405E-2,-4.1395497E-1,-1.1650956E-1,8.962732E-2,3.4241626E-1,-4.016141E-2,1.2472626E-1,2.0541671E-1,4.0468094E-1,3.3205846E-1,6.024303E-1,6.426595E-1,9.0977794E-1],"categories":[],"categories_nodes":[],"categories_segments":[],"categories_sizes":[],"default_left":[0,0,0,0,0,0,0,0,0,0,0,0,0,0,0,0,0,0,0,0,0,0,0,0,0,0,0,0,0,0,0],"id":17,"left_children":[1,3,5,7,9,11,13,15,17,19,21,23,25,27,29,-1,-1,-1,-1,-1,-1,-1,-1,-1,-1,-1,-1,-1,-1,-1,-1],"loss_changes":[7.3419835E6,1.9499535E6,1.1549705E6,8.844705E5,8.109043E5,1.8972019E5,3.741565E5,2.756665E5,1.3812031E5,2.1221466E5,1.7401975E5,4.8979758E4,4.349153E4,2.477565E5,9.43345E4,0E0,0E0,0E0,0E0,0E0,0E0,0E0,0E0,0E0,0E0,0E0,0E0,0E0,0E0,0E0,0E0],"parents":[2147483647,0,0,1,1,2,2,3,3,4,4,5,5,6,6,7,7,8,8,9,9,10,10,11,11,12,12,13,13,14,14],"right_children":[2,4,6,8,10,12,14,16,18,20,22,24,26,28,30,-1,-1,-1,-1,-1,-1,-1,-1,-1,-1,-1,-1,-1,-1,-1,-1],"split_conditions":[5.4672E0,4E0,3E0,3.4901E0,2.9683E0,7.4213E0,7.7443E0,2E0,2E0,1.4203E0,6E0,2E0,2E0,5E0,5E0,-6.8512243E-1,-4.2980576E-1,-3.256188E-1,-9.616405E-2,-4.1395497E-1,-1.1650956E-1,8.962732E-2,3.4241626E-1,-4.016141E-2,1.2472626E-1,2.0541671E-1,4.0468094E-1,3.3205846E-1,6.024303E-1,6.426595E-1,9.0977794E-1],"split_indices":[3,11,11,3,3,3,3,11,11,3,11,11,11,11,11,0,0,0,0,0,0,0,0,0,0,0,0,0,0,0,0],"split_type":[0,0,0,0,0,0,0,0,0,0,0,0,0,0,0,0,0,0,0,0,0,0,0,0,0,0,0,0,0,0,0],"sum_hessian":[2.19759E5,1.43183E5,7.6576E4,7.686E4,6.6323E4,2.913E4,4.7446E4,4.6856E4,3.0004E4,3.3169E4,3.3154E4,1.8098E4,1.1032E4,3.4051E4,1.3395E4,1.6171E4,3.0685E4,9.684E3,2.032E4,7.856E3,2.5313E4,2.3585E4,9.569E3,8.407E3,9.691E3,5.184E3,5.848E3,1.7997E4,1.6054E4,6.937E3,6.458E3],"tree_param":{"num_deleted":"0","num_feature":"12","num_nodes":"31","size_leaf_vector":"1"}},{"base_weights":[4.40667E-3,-5.734413E0,5.3104696E0,-1.0243951E1,-3.01741E0,1.866094E0,9.2800455E0,-1.4193832E1,-8.591055E0,-7.5932236E0,-1.4501121E0,-8.474097E-1,5.8798914E0,5.735611E0,1.257535E1,-8.3188915E-1,-6.4224714E-1,-5.206986E-1,-3.497486E-1,-4.343523E-1,-1.154145E-1,-1.3744281E-1,1.7857926E-1,-1.8501431E-1,2.6547266E-2,1.3383725E-1,3.7440333E-1,2.1496241E-1,4.6240735E-1,5.448464E-1,8.124415E-1],"categories":[],"categories_nodes":[],"categories_segments":[],"categories_sizes":[],"default_left":[0,0,0,0,0,0,0,0,0,0,0,0,0,0,0,0,0,0,0,0,0,0,0,0,0,0,0,0,0,0,0],"id":18,"left_children":[1,3,5,7,9,11,13,15,17,19,21,23,25,27,29,-1,-1,-1,-1,-1,-1,-1,-1,-1,-1,-1,-1,-1,-1,-1,-1],"loss_changes":[6.6890385E6,1.292856E6,1.5604892E6,2.584185E5,4.7227788E5,6.656888E5,6.18971E5,3.7492E4,8.1053125E4,9.7028375E4,3.200396E5,1.4341995E5,1.2689281E5,1.2873825E5,1.685095E5,0E0,0E0,0E0,0E0,0E0,0E0,0E0,0E0,0E0,0E0,0E0,0E0,0E0,0E0,0E0,0E0],"parents":[2147483647,0,0,1,1,2,2,3,3,4,4,5,5,6,6,7,7,8,8,9,9,10,10,11,11,12,12,13,13,14,14],"right_children":[2,4,6,8,10,12,14,16,18,20,22,24,26,28,30,-1,-1,-1,-1,-1,-1,-1,-1,-1,-1,-1,-1,-1,-1,-1,-1],"split_conditions":[4.079E0,3E0,4E0,1.8953E0,1.8024E0,6.6754E0,6.2484E0,1.1638E0,2E0,6E0,6E0,2E0,2E0,6E0,6E0,-8.3188915E-1,-6.4224714E-1,-5.206986E-1,-3.497486E-1,-4.343523E-1,-1.154145E-1,-1.3744281E-1,1.7857926E-1,-1.8501431E-1,2.6547266E-2,1.3383725E-1,3.7440333E-1,2.1496241E-1,4.6240735E-1,5.448464E-1,8.124415E-1],"split_indices":[3,11,11,3,3,3,3,3,11,11,11,11,11,11,11,0,0,0,0,0,0,0,0,0,0,0,0,0,0,0,0],"split_type":[0,0,0,0,0,0,0,0,0,0,0,0,0,0,0,0,0,0,0,0,0,0,0,0,0,0,0,0,0,0,0],"sum_hessian":[2.19659E5,1.05526E5,1.14133E5,3.967E4,6.5856E4,6.1113E4,5.302E4,1.1692E4,2.7978E4,1.6797E4,4.9059E4,3.6465E4,2.4648E4,2.5551E4,2.7469E4,4.138E3,7.554E3,1.3048E4,1.493E4,1.3914E4,2.883E3,3.898E4,1.0079E4,1.1876E4,2.4589E4,8.243E3,1.6405E4,1.8143E4,7.408E3,1.8868E4,8.601E3],"tree_param":{"num_deleted":"0","num_feature":"12","num_nodes":"31","size_leaf_vector":"1"}},{"base_weights":[-2.1352775E-3,-5.7154603E0,4.8097696E0,-8.841133E0,-2.1400685E0,3.153113E-1,7.5881495E0,-1.2183879E1,-7.162709E0,-7.0470986E0,-9.2511755E-1,-3.4335208E0,3.1914692E0,5.072422E0,1.2067586E1,-7.4928164E-1,-5.262274E-1,-5.054288E-1,-2.8670081E-1,-4.147922E-1,-1.5381466E-1,-1.17646195E-1,1.4879894E-1,-2.4688824E-1,-1.070743E-1,8.669311E-2,3.2824045E-1,1.4299351E-1,3.8029686E-1,5.3453183E-1,8.166666E-1],"categories":[],"categories_nodes":[],"categories_segments":[],"categories_sizes":[],"default_left":[0,0,0,0,0,0,0,0,0,0,0,0,0,0,0,0,0,0,0,0,0,0,0,0,0,0,0,0,0,0,0],"id":19,"left_children":[1,3,5,7,9,11,13,15,17,19,21,23,25,27,29,-1,-1,-1,-1,-1,-1,-1,-1,-1,-1,-1,-1,-1,-1,-1,-1],"loss_changes":[6.035836E6,1.1216238E6,1.4881758E6,3.0002525E5,2.7912875E5,4.9100225E5,8.29637E5,8.240125E4,1.4981062E5,4.5947E4,2.0912208E5,3.837083E4,1.2664441E5,2.6430412E5,1.546805E5,0E0,0E0,0E0,0E0,0E0,0E0,0E0,0E0,0E0,0E0,0E0,0E0,0E0,0E0,0E0,0E0],"parents":[2147483647,0,0,1,1,2,2,3,3,4,4,5,5,6,6,7,7,8,8,9,9,10,10,11,11,12,12,13,13,14,14],"right_children":[2,4,6,8,10,12,14,16,18,20,22,24,26,28,30,-1,-1,-1,-1,-1,-1,-1,-1,-1,-1,-1,-1,-1,-1,-1,-1],"split_conditions":[3.9043E0,4E0,3E0,1.9838E0,1.5509E0,5.827E0,6.9005E0,2E0,2E0,6E0,6E0,2E0,7.7786E0,5E0,6E0,-7.4928164E-1,-5.262274E-1,-5.054288E-1,-2.8670081E-1,-4.147922E-1,-1.5381466E-1,-1.17646195E-1,1.4879894E-1,-2.4688824E-1,-1.070743E-1,8.669311E-2,3.2824045E-1,1.4299351E-1,3.8029686E-1,5.3453183E-1,8.166666E-1],"split_indices":[3,11,11,3,3,3,3,11,11,11,11,11,3,11,11,0,0,0,0,0,0,0,0,0,0,0,0,0,0,0,0],"split_type":[0,0,0,0,0,0,0,0,0,0,0,0,0,0,0,0,0,0,0,0,0,0,0,0,0,0,0,0,0,0,0],"sum_hessian":[2.19539E5,1.00368E5,1.19171E5,5.3548E4,4.682E4,4.5528E4,7.3643E4,1.7889E4,3.5659E4,9.287E3,3.7533E4,1.9765E4,2.5763E4,4.7165E4,2.6478E4,6.639E3,1.125E4,1.1636E4,2.4023E4,7.061E3,2.226E3,2.7478E4,1.0055E4,9.126E3,1.0639E4,1.7995E4,7.768E3,2.5183E4,2.1982E4,2.003E4,6.448E3],"tree_param":{"num_deleted":"0","num_feature":"12","num_nodes":"31","size_leaf_vector":"1"}},{"base_weights":[5.681182E-4,-3.8166115E0,6.5628896E0,-5.859764E0,1.2580887E0,2.2958877E0,9.190405E0,-8.484654E0,-2.7877207E0,-8.776319E-1,5.048544E0,4.3985054E-1,5.231356E0,7.689578E0,1.3750039E1,-6.160463E-1,-3.5707253E-1,-2.4379425E-1,-1.5987972E-2,-2.8741553E-1,5.0854045E-3,1.8360707E-1,3.3794624E-1,-5.195681E-2,8.776771E-2,1.6843998E-1,3.4259936E-1,3.1915054E-1,6.028808E-1,5.738403E-1,8.091402E-1],"categories":[],"categories_nodes":[],"categories_segments":[],"categories_sizes":[],"default_left":[0,0,0,0,0,0,0,0,0,0,0,0,0,0,0,0,0,0,0,0,0,0,0,0,0,0,0,0,0,0,0],"id":20,"left_children":[1,3,5,7,9,11,13,15,17,19,21,23,25,27,29,-1,-1,-1,-1,-1,-1,-1,-1,-1,-1,-1,-1,-1,-1,-1,-1],"loss_changes":[5.50399E6,1.4403924E6,9.0586E5,7.9854275E5,3.2286484E5,1.678082E5,3.41694E5,2.7475575E5,2.3520862E5,1.2169646E5,3.3712406E4,3.67345E4,3.589853E4,2.1440875E5,6.752475E4,0E0,0E0,0E0,0E0,0E0,0E0,0E0,0E0,0E0,0E0,0E0,0E0,0E0,0E0,0E0,0E0],"parents":[2147483647,0,0,1,1,2,2,3,3,4,4,5,5,6,6,7,7,8,8,9,9,10,10,11,11,12,12,13,13,14,14],"right_children":[2,4,6,8,10,12,14,16,18,20,22,24,26,28,30,-1,-1,-1,-1,-1,-1,-1,-1,-1,-1,-1,-1,-1,-1,-1,-1],"split_conditions":[5.2831E0,5E0,3E0,3.0694E0,3.5172E0,7.3214E0,7.8132E0,2E0,3E0,1.3514E0,6E0,2E0,2E0,6E0,5E0,-6.160463E-1,-3.5707253E-1,-2.4379425E-1,-1.5987972E-2,-2.8741553E-1,5.0854045E-3,1.8360707E-1,3.3794624E-1,-5.195681E-2,8.776771E-2,1.6843998E-1,3.4259936E-1,3.1915054E-1,6.028808E-1,5.738403E-1,8.091402E-1],"split_indices":[3,11,11,3,3,3,3,11,11,3,11,11,11,11,11,0,0,0,0,0,0,0,0,0,0,0,0,0,0,0,0],"split_type":[0,0,0,0,0,0,0,0,0,0,0,0,0,0,0,0,0,0,0,0,0,0,0,0,0,0,0,0,0,0,0],"sum_hessian":[2.19714E5,1.38913E5,8.0801E4,9.9038E4,3.9875E4,3.0797E4,5.0004E4,5.3401E4,4.5637E4,2.5507E4,1.4368E4,1.8871E4,1.1926E4,3.7631E4,1.2373E4,1.3838E4,3.9563E4,2.4718E4,2.0919E4,4.266E3,2.1241E4,7.97E3,6.398E3,8.884E3,9.987E3,5.556E3,6.37E3,2.8976E4,8.655E3,6.411E3,5.962E3],"tree_param":{"num_deleted":"0","num_feature":"12","num_nodes":"31","size_leaf_vector":"1"}},{"base_weights":[1.2077976E-2,-3.451687E0,6.5858717E0,-5.392513E0,1.3672147E0,2.5038686E0,9.081739E0,-8.696542E0,-3.040453E0,-8.298474E-1,4.898578E0,1.174349E0,5.875304E0,7.73435E0,1.3295898E1,-5.4105395E-1,-3.207532E-1,-2.5056157E-1,-3.704496E-2,-2.6076287E-1,7.960229E-3,1.7930432E-1,3.2602933E-1,-1.5725477E-2,1.2361159E-1,2.0137198E-1,3.7450764E-1,2.788425E-1,5.066565E-1,5.563864E-1,7.809748E-1],"categories":[],"categories_nodes":[],"categories_segments":[],"categories_sizes":[],"default_left":[0,0,0,0,0,0,0,0,0,0,0,0,0,0,0,0,0,0,0,0,0,0,0,0,0,0,0,0,0,0,0],"id":21,"left_children":[1,3,5,7,9,11,13,15,17,19,21,23,25,27,29,-1,-1,-1,-1,-1,-1,-1,-1,-1,-1,-1,-1,-1,-1,-1,-1],"loss_changes":[5.003565E6,1.3460142E6,7.724425E5,7.971615E5,3.2063772E5,1.289642E5,2.6666925E5,2.064345E5,2.7161962E5,1.1051672E5,3.362572E4,3.9899473E4,2.4133125E4,1.8430725E5,5.6528375E4,0E0,0E0,0E0,0E0,0E0,0E0,0E0,0E0,0E0,0E0,0E0,0E0,0E0,0E0,0E0,0E0],"parents":[2147483647,0,0,1,1,2,2,3,3,4,4,5,5,6,6,7,7,8,8,9,9,10,10,11,11,12,12,13,13,14,14],"right_children":[2,4,6,8,10,12,14,16,18,20,22,24,26,28,30,-1,-1,-1,-1,-1,-1,-1,-1,-1,-1,-1,-1,-1,-1,-1,-1],"split_conditions":[5.5006E0,5E0,3E0,2.7182E0,3.5172E0,7.7443E0,7.8883E0,3E0,3E0,1.4203E0,6E0,2E0,2E0,5E0,5E0,-5.4105395E-1,-3.207532E-1,-2.5056157E-1,-3.704496E-2,-2.6076287E-1,7.960229E-3,1.7930432E-1,3.2602933E-1,-1.5725477E-2,1.2361159E-1,2.0137198E-1,3.7450764E-1,2.788425E-1,5.066565E-1,5.563864E-1,7.809748E-1],"split_indices":[3,11,11,3,3,3,3,11,11,3,11,11,11,11,11,0,0,0,0,0,0,0,0,0,0,0,0,0,0,0,0],"split_type":[0,0,0,0,0,0,0,0,0,0,0,0,0,0,0,0,0,0,0,0,0,0,0,0,0,0,0,0,0,0,0],"sum_hessian":[2.19733E5,1.43909E5,7.5824E4,1.0259E5,4.1319E4,2.8774E4,4.705E4,4.2656E4,5.9934E4,2.5474E4,1.5845E4,2.0641E4,8.133E3,3.5662E4,1.1388E4,2.2078E4,2.0578E4,3.2271E4,2.7663E4,4.684E3,2.079E4,8.767E3,7.078E3,9.615E3,1.1026E4,3.801E3,4.332E3,1.8784E4,1.6878E4,5.906E3,5.482E3],"tree_param":{"num_deleted":"0","num_feature":"12","num_nodes":"31","size_leaf_vector":"1"}},{"base_weights":[-6.633728E-4,-4.36837E0,4.715378E0,-7.094291E0,-1.2342199E0,1.8953166E0,7.969982E0,-1.0090567E1,-5.3195906E0,-4.578362E0,4.9293002E-1,-1.3160093E-1,5.249521E0,5.3219075E0,1.0789125E1,-6.5927994E-1,-4.4446778E-1,-3.9415184E-1,-2.0417129E-1,-2.8652158E-1,-4.1657776E-2,-3.7171163E-2,1.8337847E-1,-1.246117E-1,5.1575936E-2,1.283908E-1,3.2912982E-1,2.0644663E-1,4.1360837E-1,4.688902E-1,6.904536E-1],"categories":[],"categories_nodes":[],"categories_segments":[],"categories_sizes":[],"default_left":[0,0,0,0,0,0,0,0,0,0,0,0,0,0,0,0,0,0,0,0,0,0,0,0,0,0,0,0,0,0,0],"id":22,"left_children":[1,3,5,7,9,11,13,15,17,19,21,23,25,27,29,-1,-1,-1,-1,-1,-1,-1,-1,-1,-1,-1,-1,-1,-1,-1,-1],"loss_changes":[4.52499E6,9.7434475E5,9.693885E5,3.2408275E5,3.0647128E5,3.84796E5,3.6576675E5,8.374825E4,1.2126275E5,7.794781E4,1.3736031E5,9.689209E4,7.612906E4,8.8853625E4,1.005565E5,0E0,0E0,0E0,0E0,0E0,0E0,0E0,0E0,0E0,0E0,0E0,0E0,0E0,0E0,0E0,0E0],"parents":[2147483647,0,0,1,1,2,2,3,3,4,4,5,5,6,6,7,7,8,8,9,9,10,10,11,11,12,12,13,13,14,14],"right_children":[2,4,6,8,10,12,14,16,18,20,22,24,26,28,30,-1,-1,-1,-1,-1,-1,-1,-1,-1,-1,-1,-1,-1,-1,-1,-1],"split_conditions":[4.3639E0,4E0,4E0,2.2843E0,2.207E0,6.9382E0,6.564E0,1.2024E0,2E0,6E0,6E0,2E0,2E0,6E0,6E0,-6.5927994E-1,-4.4446778E-1,-3.9415184E-1,-2.0417129E-1,-2.8652158E-1,-4.1657776E-2,-3.7171163E-2,1.8337847E-1,-1.246117E-1,5.1575936E-2,1.283908E-1,3.2912982E-1,2.0644663E-1,4.1360837E-1,4.688902E-1,6.904536E-1],"split_indices":[3,11,11,3,3,3,3,3,11,11,11,11,11,11,11,0,0,0,0,0,0,0,0,0,0,0,0,0,0,0,0],"split_type":[0,0,0,0,0,0,0,0,0,0,0,0,0,0,0,0,0,0,0,0,0,0,0,0,0,0,0,0,0,0,0],"sum_hessian":[2.19668E5,1.14046E5,1.05622E5,6.0992E4,5.3054E4,5.6593E4,4.9029E4,2.2679E4,3.8313E4,1.8066E4,3.4988E4,3.5279E4,2.1314E4,2.5289E4,2.374E4,6.327E3,1.6352E4,1.2456E4,2.5857E4,1.3814E4,4.252E3,2.5184E4,9.804E3,1.1643E4,2.3636E4,7.082E3,1.4232E4,1.8016E4,7.273E3,1.6193E4,7.547E3],"tree_param":{"num_deleted":"0","num_feature":"12","num_nodes":"31","size_leaf_vector":"1"}},{"base_weights":[-3.6757824E-4,-4.752324E0,3.9444706E0,-8.35331E0,-2.6019056E0,1.2497659E0,7.0642753E0,-1.1581257E1,-7.1116056E0,-6.898306E0,-1.5570549E0,-1.7240003E0,3.744297E0,3.8917816E0,9.503138E0,-7.120908E-1,-5.2937084E-1,-4.2807594E-1,-2.9156622E-1,-4.374422E-1,-2.24419E-1,-1.2869237E-1,1.2641798E-1,-2.007767E-1,-3.06424E-2,1.3381205E-1,3.5743934E-1,1.4224999E-1,3.2683256E-1,4.0960097E-1,6.4676213E-1],"categories":[],"categories_nodes":[],"categories_segments":[],"categories_sizes":[],"default_left":[0,0,0,0,0,0,0,0,0,0,0,0,0,0,0,0,0,0,0,0,0,0,0,0,0,0,0,0,0,0,0],"id":23,"left_children":[1,3,5,7,9,11,13,15,17,19,21,23,25,27,29,-1,-1,-1,-1,-1,-1,-1,-1,-1,-1,-1,-1,-1,-1,-1,-1],"loss_changes":[4.120942E6,7.7205475E5,1.0097821E6,1.4901625E5,2.802455E5,4.7817666E5,4.30526E5,2.66105E4,4.97535E4,5.4269438E4,2.0869722E5,7.486507E4,1.2736722E5,6.691547E4,1.4107725E5,0E0,0E0,0E0,0E0,0E0,0E0,0E0,0E0,0E0,0E0,0E0,0E0,0E0,0E0,0E0,0E0],"parents":[2147483647,0,0,1,1,2,2,3,3,4,4,5,5,6,6,7,7,8,8,9,9,10,10,11,11,12,12,13,13,14,14],"right_children":[2,4,6,8,10,12,14,16,18,20,22,24,26,28,30,-1,-1,-1,-1,-1,-1,-1,-1,-1,-1,-1,-1,-1,-1,-1,-1],"split_conditions":[3.8712E0,3E0,4E0,1.7693E0,1.5175E0,5.8961E0,5.8622E0,1.0126E0,2E0,5E0,6E0,2E0,7.9534E0,6E0,7.8883E0,-7.120908E-1,-5.2937084E-1,-4.2807594E-1,-2.9156622E-1,-4.374422E-1,-2.24419E-1,-1.2869237E-1,1.2641798E-1,-2.007767E-1,-3.06424E-2,1.3381205E-1,3.5743934E-1,1.4224999E-1,3.2683256E-1,4.0960097E-1,6.4676213E-1],"split_indices":[3,11,11,3,3,3,3,3,11,11,11,11,3,11,3,0,0,0,0,0,0,0,0,0,0,0,0,0,0,0,0],"split_type":[0,0,0,0,0,0,0,0,0,0,0,0,0,0,0,0,0,0,0,0,0,0,0,0,0,0,0,0,0,0,0],"sum_hessian":[2.19824E5,9.9711E4,1.20113E5,3.7276E4,6.2435E4,6.4451E4,5.5662E4,1.0344E4,2.6932E4,1.2208E4,5.0227E4,2.9402E4,3.5049E4,2.4198E4,3.1464E4,2.795E3,7.549E3,1.2616E4,1.4316E4,6.898E3,5.31E3,4.0219E4,1.0008E4,9.597E3,1.9805E4,2.6686E4,8.363E3,1.7344E4,6.854E3,2.2779E4,8.685E3],"tree_param":{"num_deleted":"0","num_feature":"12","num_nodes":"31","size_leaf_vector":"1"}},{"base_weights":[-1.7232473E-3,-4.6219006E0,3.6619873E0,-6.305646E0,-4.2878458E-1,1.20709166E-1,5.8508577E0,-9.878551E0,-5.2535563E0,-4.783026E0,3.7067252E-1,-2.78697E0,2.4365456E0,2.9081047E0,8.341954E0,-6.442895E-1,-4.3494105E-1,-3.514118E-1,-1.6630258E-1,-3.0580676E-1,-1.427734E-1,-5.0063144E-2,1.1008885E-1,-1.1996229E-1,-3.2929352E-1,6.948083E-2,2.7389678E-1,5.787554E-2,2.4321082E-1,3.599242E-1,5.994006E-1],"categories":[],"categories_nodes":[],"categories_segments":[],"categories_sizes":[],"default_left":[0,0,0,0,0,0,0,0,0,0,0,0,0,0,0,0,0,0,0,0,0,0,0,0,0,0,0,0,0,0,0],"id":24,"left_children":[1,3,5,7,9,11,13,15,17,19,21,23,25,27,29,-1,-1,-1,-1,-1,-1,-1,-1,-1,-1,-1,-1,-1,-1,-1,-1],"loss_changes":[3.7200622E6,6.862179E5,9.5010875E5,2.6042825E5,9.696598E4,3.153533E5,5.5518525E5,5.5387125E4,1.831815E5,1.1016117E4,5.9139664E4,3.050336E4,8.296872E4,1.1891694E5,1.705915E5,0E0,0E0,0E0,0E0,0E0,0E0,0E0,0E0,0E0,0E0,0E0,0E0,0E0,0E0,0E0,0E0],"parents":[2147483647,0,0,1,1,2,2,3,3,4,4,5,5,6,6,7,7,8,8,9,9,10,10,11,11,12,12,13,13,14,14],"right_children":[2,4,6,8,10,12,14,16,18,20,22,24,26,28,30,-1,-1,-1,-1,-1,-1,-1,-1,-1,-1,-1,-1,-1,-1,-1,-1],"split_conditions":[3.781E0,5E0,3E0,1.5782E0,1.3514E0,5.7979E0,5.8961E0,2E0,3E0,6E0,6E0,1.476E1,7.8883E0,5E0,6E0,-6.442895E-1,-4.3494105E-1,-3.514118E-1,-1.6630258E-1,-3.0580676E-1,-1.427734E-1,-5.0063144E-2,1.1008885E-1,-1.1996229E-1,-3.2929352E-1,6.948083E-2,2.7389678E-1,5.787554E-2,2.4321082E-1,3.599242E-1,5.994006E-1],"split_indices":[3,11,11,3,3,3,3,11,11,11,11,4,3,11,11,0,0,0,0,0,0,0,0,0,0,0,0,0,0,0,0],"split_type":[0,0,0,0,0,0,0,0,0,0,0,0,0,0,0,0,0,0,0,0,0,0,0,0,0,0,0,0,0,0,0],"sum_hessian":[2.19761E5,9.7193E4,1.22568E5,6.9345E4,2.7848E4,4.6822E4,7.5746E4,1.5765E4,5.358E4,4.316E3,2.3532E4,2.0758E4,2.6064E4,3.473E4,4.1016E4,4.428E3,1.1337E4,2.7889E4,2.5691E4,2.545E3,1.771E3,1.3454E4,1.0078E4,1.8843E4,1.915E3,1.9395E4,6.669E3,1.8332E4,1.6398E4,3.1235E4,9.781E3],"tree_param":{"num_deleted":"0","num_feature":"12","num_nodes":"31","size_leaf_vector":"1"}},{"base_weights":[-3.8613454E-3,-2.8315363E0,5.39831E0,-4.4405203E0,1.1448613E0,3.6864977E0,9.510257E0,-6.300588E0,-1.4749911E0,-1.6926641E0,3.0910416E0,2.724777E0,7.5190697E0,8.297523E0,1.3059258E1,-4.720883E-1,-2.6095223E-1,-1.5716264E-1,2.4574568E-2,-2.5692412E-1,-4.0849283E-2,7.399289E-2,2.1335869E-1,5.865903E-2,2.2863956E-1,2.7623472E-1,4.838976E-1,3.429847E-1,4.892726E-1,5.8188736E-1,7.285413E-1],"categories":[],"categories_nodes":[],"categories_segments":[],"categories_sizes":[],"default_left":[0,0,0,0,0,0,0,0,0,0,0,0,0,0,0,0,0,0,0,0,0,0,0,0,0,0,0,0,0,0,0],"id":25,"left_children":[1,3,5,7,9,11,13,15,17,19,21,23,25,27,29,-1,-1,-1,-1,-1,-1,-1,-1,-1,-1,-1,-1,-1,-1,-1,-1],"loss_changes":[3.3581692E6,9.232831E5,5.3149975E5,5.666541E5,2.2961177E5,1.9650156E5,9.50025E4,2.1423975E5,1.2994273E5,5.1024848E4,4.6702047E4,1.22260875E5,4.5789875E4,3.50905E4,1.12816875E4,0E0,0E0,0E0,0E0,0E0,0E0,0E0,0E0,0E0,0E0,0E0,0E0,0E0,0E0,0E0,0E0],"parents":[2147483647,0,0,1,1,2,2,3,3,4,4,5,5,6,6,7,7,8,8,9,9,10,10,11,11,12,12,13,13,14,14],"right_children":[2,4,6,8,10,12,14,16,18,20,22,24,26,28,30,-1,-1,-1,-1,-1,-1,-1,-1,-1,-1,-1,-1,-1,-1,-1,-1],"split_conditions":[5.5006E0,5E0,5E0,3.4901E0,2.7374E0,7.9853E0,7.8516E0,2E0,3E0,1.2024E0,3.7253E0,3E0,3E0,6E0,8.2675E0,-4.720883E-1,-2.6095223E-1,-1.5716264E-1,2.4574568E-2,-2.5692412E-1,-4.0849283E-2,7.399289E-2,2.1335869E-1,5.865903E-2,2.2863956E-1,2.7623472E-1,4.838976E-1,3.429847E-1,4.892726E-1,5.8188736E-1,7.285413E-1],"split_indices":[3,11,11,3,3,3,3,11,11,3,3,11,11,11,3,0,0,0,0,0,0,0,0,0,0,0,0,0,0,0,0],"split_type":[0,0,0,0,0,0,0,0,0,0,0,0,0,0,0,0,0,0,0,0,0,0,0,0,0,0,0,0,0,0,0],"sum_hessian":[2.19829E5,1.443E5,7.5529E4,1.02731E5,4.1569E4,5.3335E4,2.2194E4,6.3129E4,3.9602E4,1.6912E4,2.4657E4,4.2643E4,1.0692E4,1.6554E4,5.64E3,1.6159E4,4.697E4,2.1424E4,1.8178E4,3.422E3,1.349E4,1.0409E4,1.4248E4,2.3185E4,1.9458E4,5.567E3,5.125E3,8.433E3,8.121E3,2.929E3,2.711E3],"tree_param":{"num_deleted":"0","num_feature":"12","num_nodes":"31","size_leaf_vector":"1"}},{"base_weights":[2.3503762E-3,-2.736201E0,5.059494E0,-5.842793E0,-8.5864925E-1,3.42881E0,8.962586E0,-8.411585E0,-3.8009496E0,-3.8950021E0,8.7633204E-1,2.4835413E0,7.021369E0,7.4747396E0,1.1716583E1,-5.760883E-1,-3.7818074E-1,-1.7123213E-1,-3.97247E-1,-2.3632479E-1,5.4040155E-4,-3.7014674E-2,1.3333507E-1,-1.4017822E-2,1.7118792E-1,1.714448E-1,4.071965E-1,3.0578372E-1,4.4650182E-1,5.296369E-1,6.930126E-1],"categories":[],"categories_nodes":[],"categories_segments":[],"categories_sizes":[],"default_left":[0,0,0,0,0,0,0,0,0,0,0,0,0,0,0,0,0,0,0,0,0,0,0,0,0,0,0,0,0,0,0],"id":26,"left_children":[1,3,5,7,9,11,13,15,17,19,21,23,25,27,29,-1,-1,-1,-1,-1,-1,-1,-1,-1,-1,-1,-1,-1,-1,-1,-1],"loss_changes":[3.0425828E6,8.3124625E5,4.9104925E5,2.8142688E5,4.6800644E5,1.8479419E5,9.2735875E4,6.2256625E4,4.6521562E4,1.0491256E5,1.636481E5,1.12030625E5,4.5583938E4,2.89535E4,1.8459625E4,0E0,0E0,0E0,0E0,0E0,0E0,0E0,0E0,0E0,0E0,0E0,0E0,0E0,0E0,0E0,0E0],"parents":[2147483647,0,0,1,1,2,2,3,3,4,4,5,5,6,6,7,7,8,8,9,9,10,10,11,11,12,12,13,13,14,14],"right_children":[2,4,6,8,10,12,14,16,18,20,22,24,26,28,30,-1,-1,-1,-1,-1,-1,-1,-1,-1,-1,-1,-1,-1,-1,-1,-1],"split_conditions":[5.4293E0,3E0,5E0,2.8356E0,2.5342E0,7.9534E0,7.5329E0,1.2809E0,1.616E1,6E0,5E0,2E0,2E0,6E0,8.2675E0,-5.760883E-1,-3.7818074E-1,-1.7123213E-1,-3.97247E-1,-2.3632479E-1,5.4040155E-4,-3.7014674E-2,1.3333507E-1,-1.4017822E-2,1.7118792E-1,1.714448E-1,4.071965E-1,3.0578372E-1,4.4650182E-1,5.296369E-1,6.930126E-1],"split_indices":[3,11,11,3,3,3,3,3,4,11,11,11,11,11,3,0,0,0,0,0,0,0,0,0,0,0,0,0,0,0,0],"split_type":[0,0,0,0,0,0,0,0,0,0,0,0,0,0,0,0,0,0,0,0,0,0,0,0,0,0,0,0,0,0,0],"sum_hessian":[2.19683E5,1.42512E5,7.7171E4,5.3681E4,8.8831E4,5.4437E4,2.2734E4,2.3766E4,2.9915E4,3.2299E4,5.6532E4,4.3104E4,1.1333E4,1.4772E4,7.962E3,5.078E3,1.8688E4,2.7433E4,2.482E3,2.6629E4,5.67E3,2.9709E4,2.6823E4,1.0942E4,3.2162E4,2.703E3,8.63E3,7.652E3,7.12E3,5.243E3,2.719E3],"tree_param":{"num_deleted":"0","num_feature":"12","num_nodes":"31","size_leaf_vector":"1"}},{"base_weights":[2.9198548E-3,-3.9967775E0,3.1641414E0,-6.156731E0,-1.5413561E0,9.89992E-2,5.055582E0,-9.364052E0,-5.207159E0,-5.5498295E0,-7.8765744E-1,-1.5827521E0,3.046459E0,3.4125152E0,8.4332285E0,-5.925638E-1,-4.2262807E-1,-3.670194E-1,-2.0770445E-1,-3.2634246E-1,-1.2584218E-1,-8.885712E-2,9.953535E-2,-1.2729405E-1,4.8348126E-3,1.1497136E-1,2.8696075E-1,1.2693445E-1,3.262401E-1,3.669135E-1,5.5586356E-1],"categories":[],"categories_nodes":[],"categories_segments":[],"categories_sizes":[],"default_left":[0,0,0,0,0,0,0,0,0,0,0,0,0,0,0,0,0,0,0,0,0,0,0,0,0,0,0,0,0,0,0],"id":27,"left_children":[1,3,5,7,9,11,13,15,17,19,21,23,25,27,29,-1,-1,-1,-1,-1,-1,-1,-1,-1,-1,-1,-1,-1,-1,-1,-1],"loss_changes":[2.777138E6,5.1419988E5,7.112391E5,1.5685638E5,1.370914E5,2.3210589E5,4.2088388E5,2.6198562E4,8.92805E4,2.1200203E4,1.0505445E5,4.822614E4,3.415289E4,1.3874169E5,7.2547625E4,0E0,0E0,0E0,0E0,0E0,0E0,0E0,0E0,0E0,0E0,0E0,0E0,0E0,0E0,0E0,0E0],"parents":[2147483647,0,0,1,1,2,2,3,3,4,4,5,5,6,6,7,7,8,8,9,9,10,10,11,11,12,12,13,13,14,14],"right_children":[2,4,6,8,10,12,14,16,18,20,22,24,26,28,30,-1,-1,-1,-1,-1,-1,-1,-1,-1,-1,-1,-1,-1,-1,-1,-1],"split_conditions":[3.781E0,4E0,3E0,1.5782E0,1.3514E0,6.7495E0,7.0133E0,9.194E-1,2E0,6E0,6E0,5.6148E0,8.1881E0,6E0,8.1569E0,-5.925638E-1,-4.2262807E-1,-3.670194E-1,-2.0770445E-1,-3.2634246E-1,-1.2584218E-1,-8.885712E-2,9.953535E-2,-1.2729405E-1,4.8348126E-3,1.1497136E-1,2.8696075E-1,1.2693445E-1,3.262401E-1,3.669135E-1,5.5586356E-1],"split_indices":[3,11,11,3,3,3,3,3,11,11,11,3,3,11,3,0,0,0,0,0,0,0,0,0,0,0,0,0,0,0,0],"split_type":[0,0,0,0,0,0,0,0,0,0,0,0,0,0,0,0,0,0,0,0,0,0,0,0,0,0,0,0,0,0,0],"sum_hessian":[2.19632E5,9.6957E4,1.22675E5,5.1578E4,4.5379E4,4.6815E4,7.586E4,1.1772E4,3.9806E4,7.177E3,3.8202E4,2.9809E4,1.7006E4,5.1041E4,2.4819E4,3.141E3,8.631E3,1.3146E4,2.666E4,5.424E3,1.753E3,2.8171E4,1.0031E4,1.8943E4,1.0866E4,1.332E4,3.686E3,3.9859E4,1.1182E4,1.7641E4,7.178E3],"tree_param":{"num_deleted":"0","num_feature":"12","num_nodes":"31","size_leaf_vector":"1"}},{"base_weights":[1.130053E-3,-3.1826448E0,3.6094701E0,-4.586926E0,3.0559576E-1,2.138384E0,7.151236E0,-6.9776473E0,-3.1927326E0,-2.1955428E0,1.6000669E0,5.7481855E-1,4.645001E0,5.6127744E0,1.0152771E1,-4.861655E-1,-2.978454E-1,-2.3260295E-1,-7.7865064E-2,-2.559063E-1,-6.906893E-2,1.256907E-1,-2.4943573E-2,-4.011681E-2,1.1085566E-1,8.7672904E-2,2.7970895E-1,2.074422E-1,3.467852E-1,4.5101E-1,6.064934E-1],"categories":[],"categories_nodes":[],"categories_segments":[],"categories_sizes":[],"default_left":[0,0,0,0,0,0,0,0,0,0,0,0,0,0,0,0,0,0,0,0,0,0,0,0,0,0,0,0,0,0,0],"id":28,"left_children":[1,3,5,7,9,11,13,15,17,19,21,23,25,27,29,-1,-1,-1,-1,-1,-1,-1,-1,-1,-1,-1,-1,-1,-1,-1,-1],"loss_changes":[2.5226352E6,5.71443E5,5.3621375E5,2.77115E5,1.0844005E5,2.8503834E5,1.391895E5,8.5562625E4,1.25369125E5,2.7145254E4,4.23343E4,1.01326E5,7.663206E4,3.8550938E4,2.235775E4,0E0,0E0,0E0,0E0,0E0,0E0,0E0,0E0,0E0,0E0,0E0,0E0,0E0,0E0,0E0,0E0],"parents":[2147483647,0,0,1,1,2,2,3,3,4,4,5,5,6,6,7,7,8,8,9,9,10,10,11,11,12,12,13,13,14,14],"right_children":[2,4,6,8,10,12,14,16,18,20,22,24,26,28,30,-1,-1,-1,-1,-1,-1,-1,-1,-1,-1,-1,-1,-1,-1,-1,-1],"split_conditions":[4.458E0,5E0,5E0,2.2843E0,2.2843E0,6.9816E0,7.2509E0,2E0,3E0,1.051E0,1.232E1,3E0,2E0,5.723E0,8.124E0,-4.861655E-1,-2.978454E-1,-2.3260295E-1,-7.7865064E-2,-2.559063E-1,-6.906893E-2,1.256907E-1,-2.4943573E-2,-4.011681E-2,1.1085566E-1,8.7672904E-2,2.7970895E-1,2.074422E-1,3.467852E-1,4.5101E-1,6.064934E-1],"split_indices":[3,11,11,3,3,3,3,11,11,3,4,11,11,3,3,0,0,0,0,0,0,0,0,0,0,0,0,0,0,0,0],"split_type":[0,0,0,0,0,0,0,0,0,0,0,0,0,0,0,0,0,0,0,0,0,0,0,0,0,0,0,0,0,0,0],"sum_hessian":[2.19576E5,1.16651E5,1.02925E5,8.3168E4,3.3483E4,7.2726E4,3.0199E4,3.0628E4,5.254E4,1.1418E4,2.2065E4,4.4792E4,2.7934E4,1.9975E4,1.0224E4,8.289E3,2.2339E4,2.776E4,2.478E4,2.482E3,8.936E3,1.5372E4,6.693E3,2.4364E4,2.0428E4,6.907E3,2.1027E4,9.492E3,1.0483E4,6.518E3,3.706E3],"tree_param":{"num_deleted":"0","num_feature":"12","num_nodes":"31","size_leaf_vector":"1"}},{"base_weights":[5.1067787E-4,-3.6241803E0,2.868252E0,-5.5904474E0,-1.3893653E0,8.3218664E-1,5.2318864E0,-8.921E0,-4.811503E0,-5.4098125E0,-7.6127183E-1,-1.2858562E0,2.8181925E0,3.2714016E0,7.530383E0,-5.4582036E-1,-3.9805E-1,-3.3832124E-1,-1.9151348E-1,-3.17316E-1,-1.2876576E-1,-8.384373E-2,9.0615824E-2,-1.5900616E-1,-1.8475678E-2,3.700684E-2,1.9320408E-1,2.1636425E-1,6.81962E-2,3.215962E-1,4.9690723E-1],"categories":[],"categories_nodes":[],"categories_segments":[],"categories_sizes":[],"default_left":[0,0,0,0,0,0,0,0,0,0,0,0,0,0,0,0,0,0,0,0,0,0,0,0,0,0,0,0,0,0,0],"id":29,"left_children":[1,3,5,7,9,11,13,15,17,19,21,23,25,27,29,-1,-1,-1,-1,-1,-1,-1,-1,-1,-1,-1,-1,-1,-1,-1,-1],"loss_changes":[2.2844485E6,4.2652788E5,5.904592E5,1.3375075E5,1.1472779E5,2.7731544E5,2.5573712E5,1.8303688E4,8.0169625E4,1.6214422E4,9.263761E4,5.5373016E4,7.393181E4,6.1705906E4,6.87975E4,0E0,0E0,0E0,0E0,0E0,0E0,0E0,0E0,0E0,0E0,0E0,0E0,0E0,0E0,0E0,0E0],"parents":[2147483647,0,0,1,1,2,2,3,3,4,4,5,5,6,6,7,7,8,8,9,9,10,10,11,11,12,12,13,13,14,14],"right_children":[2,4,6,8,10,12,14,16,18,20,22,24,26,28,30,-1,-1,-1,-1,-1,-1,-1,-1,-1,-1,-1,-1,-1,-1,-1,-1],"split_conditions":[3.781E0,4E0,4E0,1.4573E0,1.2468E0,5.9676E0,6.3485E0,9.194E-1,2E0,6E0,6E0,2E0,2E0,1.091E1,6E0,-5.4582036E-1,-3.9805E-1,-3.3832124E-1,-1.9151348E-1,-3.17316E-1,-1.2876576E-1,-8.384373E-2,9.0615824E-2,-1.5900616E-1,-1.8475678E-2,3.700684E-2,1.9320408E-1,2.1636425E-1,6.81962E-2,3.215962E-1,4.9690723E-1],"split_indices":[3,11,11,3,3,3,3,3,11,11,11,11,11,4,11,0,0,0,0,0,0,0,0,0,0,0,0,0,0,0,0],"split_type":[0,0,0,0,0,0,0,0,0,0,0,0,0,0,0,0,0,0,0,0,0,0,0,0,0,0,0,0,0,0,0],"sum_hessian":[2.19761E5,9.7069E4,1.22692E5,5.1633E4,4.5436E4,6.5917E4,5.6775E4,9.777E3,4.1856E4,6.134E3,3.9302E4,3.1899E4,3.4018E4,3.0647E4,2.6128E4,3.159E3,6.618E3,1.3978E4,2.7878E4,4.606E3,1.528E3,2.899E4,1.0312E4,1.0396E4,2.1503E4,1.1392E4,2.2626E4,1.9723E4,1.0924E4,1.7955E4,8.173E3],"tree_param":{"num_deleted":"0","num_feature":"12","num_nodes":"31","size_leaf_vector":"1"}},{"base_weights":[7.002654E-3,-3.5014431E0,2.6942751E0,-6.0952296E0,-1.958216E0,2.497059E-2,4.3383627E0,-8.31219E0,-5.094856E0,-5.099384E0,-1.1975679E0,-1.321853E0,2.7794085E0,2.061685E0,6.215017E0,-5.199211E-1,-3.743279E-1,-2.371743E-1,-4.32826E-1,-3.2533512E-1,-1.6393587E-1,-9.614664E-2,8.855446E-2,-4.7693085E-2,-2.4518779E-1,1.0743322E-1,2.740178E-1,3.605828E-2,1.7836702E-1,2.6645344E-1,4.6618697E-1],"categories":[],"categories_nodes":[],"categories_segments":[],"categories_sizes":[],"default_left":[0,0,0,0,0,0,0,0,0,0,0,0,0,0,0,0,0,0,0,0,0,0,0,0,0,0,0,0,0,0,0],"id":30,"left_children":[1,3,5,7,9,11,13,15,17,19,21,23,25,27,29,-1,-1,-1,-1,-1,-1,-1,-1,-1,-1,-1,-1,-1,-1,-1,-1],"loss_changes":[2.0710252E6,3.8130712E5,5.4588944E5,7.8604125E4,1.4271242E5,1.7592319E5,3.28823E5,1.8630188E4,3.045675E4,2.9730812E4,1.0359793E5,4.1957062E4,2.6471383E4,7.0203875E4,1.15958E5,0E0,0E0,0E0,0E0,0E0,0E0,0E0,0E0,0E0,0E0,0E0,0E0,0E0,0E0,0E0,0E0],"parents":[2147483647,0,0,1,1,2,2,3,3,4,4,5,5,6,6,7,7,8,8,9,9,10,10,11,11,12,12,13,13,14,14],"right_children":[2,4,6,8,10,12,14,16,18,20,22,24,26,28,30,-1,-1,-1,-1,-1,-1,-1,-1,-1,-1,-1,-1,-1,-1,-1,-1],"split_conditions":[3.7253E0,3E0,3E0,1.8331E0,1.4897E0,6.9005E0,5.827E0,1.051E0,1.476E1,5E0,6E0,1.476E1,8.2675E0,5E0,8.0208E0,-5.199211E-1,-3.743279E-1,-2.371743E-1,-4.32826E-1,-3.2533512E-1,-1.6393587E-1,-9.614664E-2,8.855446E-2,-4.7693085E-2,-2.4518779E-1,1.0743322E-1,2.740178E-1,3.605828E-2,1.7836702E-1,2.6645344E-1,4.6618697E-1],"split_indices":[3,11,11,3,3,3,3,3,4,11,11,4,3,11,3,0,0,0,0,0,0,0,0,0,0,0,0,0,0,0,0],"split_type":[0,0,0,0,0,0,0,0,0,0,0,0,0,0,0,0,0,0,0,0,0,0,0,0,0,0,0,0,0,0,0],"sum_hessian":[2.19654E5,9.527E4,1.24384E5,3.5533E4,5.9737E4,4.7412E4,7.6972E4,1.1037E4,2.4496E4,1.164E4,4.8097E4,3.1844E4,1.5568E4,3.4784E4,4.2188E4,3.113E3,7.924E3,2.2307E4,2.189E3,6.558E3,5.082E3,3.8654E4,9.443E3,2.8883E4,2.961E3,1.2628E4,2.94E3,1.8405E4,1.6379E4,3.2842E4,9.346E3],"tree_param":{"num_deleted":"0","num_feature":"12","num_nodes":"31","size_leaf_vector":"1"}},{"base_weights":[2.5744224E-3,-2.0785358E0,4.1031704E0,-3.2953486E0,9.347609E-1,2.7782958E0,7.278582E0,-5.6837025E0,-1.9262687E0,-9.286946E-1,2.6654422E0,1.9441662E0,5.4070706E0,6.1450386E0,9.453929E0,-4.0770814E-1,-2.400726E-1,-2.1169005E-1,-5.8453668E-2,1.2739877E-3,-1.4770152E-1,1.7445846E-1,3.7287157E-2,-1.4352724E-2,1.3499165E-1,1.3057153E-1,3.153939E-1,3.500854E-1,2.0328462E-1,5.1602054E-1,3.684996E-1],"categories":[],"categories_nodes":[],"categories_segments":[],"categories_sizes":[],"default_left":[0,0,0,0,0,0,0,0,0,0,0,0,0,0,0,0,0,0,0,0,0,0,0,0,0,0,0,0,0,0,0],"id":31,"left_children":[1,3,5,7,9,11,13,15,17,19,21,23,25,27,29,-1,-1,-1,-1,-1,-1,-1,-1,-1,-1,-1,-1,-1,-1,-1,-1],"loss_changes":[1.8755995E6,5.345826E5,3.11185E5,3.395385E5,1.3527733E5,1.1444569E5,5.3415625E4,8.2276875E4,1.1533241E5,3.9037348E4,3.4375688E4,6.685105E4,3.1585656E4,2.5389188E4,1.30756875E4,0E0,0E0,0E0,0E0,0E0,0E0,0E0,0E0,0E0,0E0,0E0,0E0,0E0,0E0,0E0,0E0],"parents":[2147483647,0,0,1,1,2,2,3,3,4,4,5,5,6,6,7,7,8,8,9,9,10,10,11,11,12,12,13,13,14,14],"right_children":[2,4,6,8,10,12,14,16,18,20,22,24,26,28,30,-1,-1,-1,-1,-1,-1,-1,-1,-1,-1,-1,-1,-1,-1,-1,-1],"split_conditions":[5.575E0,5E0,5E0,2.5562E0,2.9885E0,7.8883E0,7.6068E0,2E0,2E0,1.232E1,1.232E1,2E0,2E0,1.232E1,1.232E1,-4.0770814E-1,-2.400726E-1,-2.1169005E-1,-5.8453668E-2,1.2739877E-3,-1.4770152E-1,1.7445846E-1,3.7287157E-2,-1.4352724E-2,1.3499165E-1,1.3057153E-1,3.153939E-1,3.500854E-1,2.0328462E-1,5.1602054E-1,3.684996E-1],"split_indices":[3,11,11,3,3,3,3,11,11,4,4,11,11,4,4,0,0,0,0,0,0,0,0,0,0,0,0,0,0,0,0],"split_type":[0,0,0,0,0,0,0,0,0,0,0,0,0,0,0,0,0,0,0,0,0,0,0,0,0,0,0,0,0,0,0],"sum_hessian":[2.19775E5,1.45788E5,7.3987E4,1.03851E5,4.1937E4,5.2212E4,2.1775E4,3.7834E4,6.6017E4,2.0195E4,2.1742E4,3.9642E4,1.257E4,1.4328E4,7.447E3,9.945E3,2.7889E4,1.6305E4,4.9712E4,1.3731E4,6.464E3,1.5211E4,6.531E3,1.003E4,2.9612E4,3.068E3,9.502E3,1.0139E4,4.189E3,5.246E3,2.201E3],"tree_param":{"num_deleted":"0","num_feature":"12","num_nodes":"31","size_leaf_vector":"1"}},{"base_weights":[-4.4423016E-3,-3.2165291E0,2.4238179E0,-5.5917377E0,-1.8055861E0,6.439474E-1,4.491639E0,-8.091898E0,-4.869353E0,-5.595003E0,-1.2485111E0,-1.2668737E0,2.309122E0,3.3585691E0,7.543921E0,-5.137402E-1,-3.698314E-1,-2.2656976E-1,-4.1166446E-1,-3.5046932E-1,-1.9200133E-1,-9.5975846E-2,7.649033E-2,-1.4542763E-1,-2.3438415E-2,7.21911E-2,2.1538344E-1,1.2314164E-1,2.73614E-1,3.2776725E-1,4.8536167E-1],"categories":[],"categories_nodes":[],"categories_segments":[],"categories_sizes":[],"default_left":[0,0,0,0,0,0,0,0,0,0,0,0,0,0,0,0,0,0,0,0,0,0,0,0,0,0,0,0,0,0,0],"id":32,"left_children":[1,3,5,7,9,11,13,15,17,19,21,23,25,27,29,-1,-1,-1,-1,-1,-1,-1,-1,-1,-1,-1,-1,-1,-1,-1,-1],"loss_changes":[1.7092209E6,3.1611625E5,4.5928775E5,6.329575E4,1.24918766E5,2.134309E5,1.9951925E5,1.1568906E4,3.0835188E4,1.8692984E4,9.623326E4,4.0919617E4,6.1952E4,7.965681E4,3.3095312E4,0E0,0E0,0E0,0E0,0E0,0E0,0E0,0E0,0E0,0E0,0E0,0E0,0E0,0E0,0E0,0E0],"parents":[2147483647,0,0,1,1,2,2,3,3,4,4,5,5,6,6,7,7,8,8,9,9,10,10,11,11,12,12,13,13,14,14],"right_children":[2,4,6,8,10,12,14,16,18,20,22,24,26,28,30,-1,-1,-1,-1,-1,-1,-1,-1,-1,-1,-1,-1,-1,-1,-1,-1],"split_conditions":[3.6979E0,3E0,4E0,1.5509E0,1.2024E0,5.827E0,7.2862E0,8.611E-1,1.476E1,5E0,6E0,2E0,7.7786E0,6E0,6E0,-5.137402E-1,-3.698314E-1,-2.2656976E-1,-4.1166446E-1,-3.5046932E-1,-1.9200133E-1,-9.5975846E-2,7.649033E-2,-1.4542763E-1,-2.3438415E-2,7.21911E-2,2.1538344E-1,1.2314164E-1,2.73614E-1,3.2776725E-1,4.8536167E-1],"split_indices":[3,11,11,3,3,3,3,3,4,11,11,11,3,11,11,0,0,0,0,0,0,0,0,0,0,0,0,0,0,0,0],"split_type":[0,0,0,0,0,0,0,0,0,0,0,0,0,0,0,0,0,0,0,0,0,0,0,0,0,0,0,0,0,0,0],"sum_hessian":[2.19127E5,9.4337E4,1.2479E5,3.515E4,5.9187E4,6.7068E4,5.7722E4,7.868E3,2.7282E4,7.58E3,5.1607E4,3.1231E4,3.5837E4,4.2103E4,1.5619E4,1.884E3,5.984E3,2.4802E4,2.48E3,4.189E3,3.391E3,4.1569E4,1.0038E4,1.0212E4,2.1019E4,2.5015E4,1.0822E4,2.9579E4,1.2524E4,1.0734E4,4.885E3],"tree_param":{"num_deleted":"0","num_feature":"12","num_nodes":"31","size_leaf_vector":"1"}},{"base_weights":[-3.6922665E-3,-2.365538E0,2.986122E0,-4.614334E0,-1.0075991E0,1.806489E0,5.8188605E0,-6.4092693E0,-3.3269818E0,-3.2875469E0,5.9982378E-2,7.490235E-1,4.0306053E0,4.7057633E0,8.338133E0,-4.389514E-1,-2.915034E-1,-1.5035793E-1,-3.4373364E-1,-2.8145823E-1,-1.2149101E-1,-2.932839E-2,1.2557437E-1,-6.391573E-2,7.189589E-2,1.6806048E-1,3.482161E-1,2.7549437E-1,1.3828062E-1,3.7643665E-1,5.207147E-1],"categories":[],"categories_nodes":[],"categories_segments":[],"categories_sizes":[],"default_left":[0,0,0,0,0,0,0,0,0,0,0,0,0,0,0,0,0,0,0,0,0,0,0,0,0,0,0,0,0,0,0],"id":33,"left_children":[1,3,5,7,9,11,13,15,17,19,21,23,25,27,29,-1,-1,-1,-1,-1,-1,-1,-1,-1,-1,-1,-1,-1,-1,-1,-1],"loss_changes":[1.5519015E6,3.7491044E5,3.2405188E5,1.06706125E5,1.8634788E5,1.6105186E5,7.9759875E4,2.6236E4,3.0451188E4,4.8970375E4,8.266302E4,6.4841766E4,4.32185E4,3.0793969E4,1.42799375E4,0E0,0E0,0E0,0E0,0E0,0E0,0E0,0E0,0E0,0E0,0E0,0E0,0E0,0E0,0E0,0E0],"parents":[2147483647,0,0,1,1,2,2,3,3,4,4,5,5,6,6,7,7,8,8,9,9,10,10,11,11,12,12,13,13,14,14],"right_children":[2,4,6,8,10,12,14,16,18,20,22,24,26,28,30,-1,-1,-1,-1,-1,-1,-1,-1,-1,-1,-1,-1,-1,-1,-1,-1],"split_conditions":[4.6428E0,3E0,5E0,2.5342E0,2.207E0,7.3214E0,7.4213E0,1.1299E0,1.616E1,1.1299E0,6E0,2E0,8.387E0,1.232E1,8.309E0,-4.389514E-1,-2.915034E-1,-1.5035793E-1,-3.4373364E-1,-2.8145823E-1,-1.2149101E-1,-2.932839E-2,1.2557437E-1,-6.391573E-2,7.189589E-2,1.6806048E-1,3.482161E-1,2.7549437E-1,1.3828062E-1,3.7643665E-1,5.207147E-1],"split_indices":[3,11,11,3,3,3,3,3,4,3,11,11,3,4,3,0,0,0,0,0,0,0,0,0,0,0,0,0,0,0,0],"split_type":[0,0,0,0,0,0,0,0,0,0,0,0,0,0,0,0,0,0,0,0,0,0,0,0,0,0,0,0,0,0,0],"sum_hessian":[2.1976E5,1.22774E5,9.6986E4,4.622E4,7.6554E4,6.8478E4,2.8508E4,1.9296E4,2.6924E4,2.4411E4,5.2143E4,4.6416E4,2.2062E4,1.9782E4,8.726E3,3.776E3,1.552E4,2.4706E4,2.218E3,6.537E3,1.7874E4,4.1264E4,1.0879E4,1.1771E4,3.4645E4,1.7972E4,4.09E3,1.3979E4,5.803E3,6.295E3,2.431E3],"tree_param":{"num_deleted":"0","num_feature":"12","num_nodes":"31","size_leaf_vector":"1"}},{"base_weights":[-3.4684693E-3,-1.7921165E0,3.593471E0,-2.8521812E0,8.4217215E-1,1.2770445E0,5.0225673E0,-4.3480983E0,-1.1298414E0,-1.0060235E0,2.1403003E0,1.6296903E0,-2.646999E0,4.308698E0,7.760403E0,-3.543741E-1,-1.8793876E-1,-1.5700926E-1,-2.3372946E-2,-4.730622E-3,-1.4462362E-1,1.4512017E-1,1.81233E-2,3.7946995E-2,1.613434E-1,-9.132428E-2,-2.7617154E-1,1.7692713E-1,3.4027287E-1,3.5081467E-1,5.04928E-1],"categories":[],"categories_nodes":[],"categories_segments":[],"categories_sizes":[],"default_left":[0,0,0,0,0,0,0,0,0,0,0,0,0,0,0,0,0,0,0,0,0,0,0,0,0,0,0,0,0,0,0],"id":34,"left_children":[1,3,5,7,9,11,13,15,17,19,21,23,25,27,29,-1,-1,-1,-1,-1,-1,-1,-1,-1,-1,-1,-1,-1,-1,-1,-1],"loss_changes":[1.4146522E6,4.1010978E5,2.4171631E5,2.6977906E5,1.0112005E5,3.8588E4,8.81E4,9.0338375E4,6.4818418E4,2.9899508E4,3.3537805E4,3.5556016E4,5.3779043E3,6.8782625E4,1.58854375E4,0E0,0E0,0E0,0E0,0E0,0E0,0E0,0E0,0E0,0E0,0E0,0E0,0E0,0E0,0E0,0E0],"parents":[2147483647,0,0,1,1,2,2,3,3,4,4,5,5,6,6,7,7,8,8,9,9,10,10,11,11,12,12,13,13,14,14],"right_children":[2,4,6,8,10,12,14,16,18,20,22,24,26,28,30,-1,-1,-1,-1,-1,-1,-1,-1,-1,-1,-1,-1,-1,-1,-1,-1],"split_conditions":[5.6148E0,5E0,3E0,3.1601E0,2.7763E0,1.616E1,8.0208E0,1.2809E0,2E0,1.232E1,1.232E1,7.5725E0,3.718E1,6E0,6E0,-3.543741E-1,-1.8793876E-1,-1.5700926E-1,-2.3372946E-2,-4.730622E-3,-1.4462362E-1,1.4512017E-1,1.81233E-2,3.7946995E-2,1.613434E-1,-9.132428E-2,-2.7617154E-1,1.7692713E-1,3.4027287E-1,3.5081467E-1,5.04928E-1],"split_indices":[3,11,11,3,3,4,3,3,11,4,4,3,4,11,11,0,0,0,0,0,0,0,0,0,0,0,0,0,0,0,0],"split_type":[0,0,0,0,0,0,0,0,0,0,0,0,0,0,0,0,0,0,0,0,0,0,0,0,0,0,0,0,0,0,0],"sum_hessian":[2.19873E5,1.46851E5,7.3022E4,1.04713E5,4.2138E4,2.7865E4,4.5157E4,5.6036E4,4.8677E4,1.7386E4,2.4752E4,2.557E4,2.295E3,3.5828E4,9.329E3,9.911E3,4.6125E4,1.2059E4,3.6618E4,1.1726E4,5.66E3,1.7323E4,7.429E3,1.6553E4,9.017E3,1.792E3,5.03E2,2.7391E4,8.437E3,7.092E3,2.237E3],"tree_param":{"num_deleted":"0","num_feature":"12","num_nodes":"31","size_leaf_vector":"1"}},{"base_weights":[-1.2259783E-4,-2.8092422E0,2.081109E0,-4.323632E0,-1.0911407E0,-5.9385348E-2,3.4135377E0,-6.8414984E0,-3.7404418E0,-3.590431E-1,-3.6118608E0,-1.3145667E0,1.7819932E0,1.8822707E0,5.1895614E0,-4.1870624E-1,-2.9522437E-1,-2.6591152E-1,-1.47673E-1,-1.8725656E-1,2.4609773E-3,-1.4371537E-1,-3.279823E-1,-5.0768632E-2,-2.355244E-1,1.0725659E-1,-8.734673E-2,1.13398075E-1,-9.505351E-2,2.2258475E-1,3.7845016E-1],"categories":[],"categories_nodes":[],"categories_segments":[],"categories_sizes":[],"default_left":[0,0,0,0,0,0,0,0,0,0,0,0,0,0,0,0,0,0,0,0,0,0,0,0,0,0,0,0,0,0,0],"id":35,"left_children":[1,3,5,7,9,11,13,15,17,19,21,23,25,27,29,-1,-1,-1,-1,-1,-1,-1,-1,-1,-1,-1,-1,-1,-1,-1,-1],"loss_changes":[1.2842441E6,2.4321E5,3.598705E5,7.283075E4,8.082814E4,1.11911555E5,2.1144919E5,1.31629375E4,5.0027438E4,4.6933848E4,2.1338508E4,2.9230914E4,2.5170559E4,6.0972312E4,6.3044062E4,0E0,0E0,0E0,0E0,0E0,0E0,0E0,0E0,0E0,0E0,0E0,0E0,0E0,0E0,0E0,0E0],"parents":[2147483647,0,0,1,1,2,2,3,3,4,4,5,5,6,6,7,7,8,8,9,9,10,10,11,11,12,12,13,13,14,14],"right_children":[2,4,6,8,10,12,14,16,18,20,22,24,26,28,30,-1,-1,-1,-1,-1,-1,-1,-1,-1,-1,-1,-1,-1,-1,-1,-1],"split_conditions":[3.6708E0,4E0,3E0,1.4203E0,1.69E1,6.4601E0,6.2484E0,2E0,2E0,1.1299E0,2.971E1,1.616E1,1.476E1,2.259E1,6E0,-4.1870624E-1,-2.9522437E-1,-2.6591152E-1,-1.47673E-1,-1.8725656E-1,2.4609773E-3,-1.4371537E-1,-3.279823E-1,-5.0768632E-2,-2.355244E-1,1.0725659E-1,-8.734673E-2,1.13398075E-1,-9.505351E-2,2.2258475E-1,3.7845016E-1],"split_indices":[3,11,11,3,4,3,3,11,11,3,4,4,4,4,11,0,0,0,0,0,0,0,0,0,0,0,0,0,0,0,0],"split_type":[0,0,0,0,0,0,0,0,0,0,0,0,0,0,0,0,0,0,0,0,0,0,0,0,0,0,0,0,0,0,0],"sum_hessian":[2.19653E5,9.3479E4,1.26174E5,4.9681E4,4.3798E4,4.841E4,7.7764E4,9.333E3,4.0348E4,3.3945E4,9.853E3,2.8788E4,1.9622E4,4.1765E4,3.5999E4,3.526E3,5.807E3,1.3418E4,2.693E4,3.648E3,3.0297E4,7.889E3,1.964E3,2.6463E4,2.325E3,1.7793E4,1.829E3,3.7903E4,3.862E3,2.7489E4,8.51E3],"tree_param":{"num_deleted":"0","num_feature":"12","num_nodes":"31","size_leaf_vector":"1"}},{"base_weights":[1.3353475E-3,-1.7695563E0,3.0011365E0,-2.746765E0,6.576249E-1,1.9489732E0,5.5099955E0,-4.5877905E0,-1.675527E0,-1.1496041E0,1.7171004E0,1.3888814E0,4.7701807E0,4.487106E0,7.2788687E0,-3.315416E-1,-1.9255166E-1,-1.7791525E-1,-5.3123713E-2,-5.4609207E-3,-1.277636E-1,1.2144887E-1,3.3968526E-3,-1.9517027E-2,1.0020888E-1,1.12022914E-1,2.7512062E-1,2.699758E-1,1.5128814E-1,4.0445334E-1,2.670833E-1],"categories":[],"categories_nodes":[],"categories_segments":[],"categories_sizes":[],"default_left":[0,0,0,0,0,0,0,0,0,0,0,0,0,0,0,0,0,0,0,0,0,0,0,0,0,0,0,0,0,0,0],"id":36,"left_children":[1,3,5,7,9,11,13,15,17,19,21,23,25,27,29,-1,-1,-1,-1,-1,-1,-1,-1,-1,-1,-1,-1,-1,-1,-1,-1],"loss_changes":[1.1672874E6,3.2772206E5,2.1525588E5,1.9423681E5,7.5955125E4,9.078197E4,4.3436875E4,5.4409625E4,7.186847E4,2.1440848E4,2.9357414E4,5.250803E4,1.7568953E4,2.0293188E4,1.3628656E4,0E0,0E0,0E0,0E0,0E0,0E0,0E0,0E0,0E0,0E0,0E0,0E0,0E0,0E0,0E0,0E0],"parents":[2147483647,0,0,1,1,2,2,3,3,4,4,5,5,6,6,7,7,8,8,9,9,10,10,11,11,12,12,13,13,14,14],"right_children":[2,4,6,8,10,12,14,16,18,20,22,24,26,28,30,-1,-1,-1,-1,-1,-1,-1,-1,-1,-1,-1,-1,-1,-1,-1,-1],"split_conditions":[5.2462E0,5E0,5E0,2.4902E0,2.5776E0,8.0582E0,7.4213E0,2E0,2E0,9.26E0,1.232E1,2E0,2E0,8.88E0,1.232E1,-3.315416E-1,-1.9255166E-1,-1.7791525E-1,-5.3123713E-2,-5.4609207E-3,-1.277636E-1,1.2144887E-1,3.3968526E-3,-1.9517027E-2,1.0020888E-1,1.12022914E-1,2.7512062E-1,2.699758E-1,1.5128814E-1,4.0445334E-1,2.670833E-1],"split_indices":[3,11,11,3,3,3,3,11,11,4,4,11,11,4,4,0,0,0,0,0,0,0,0,0,0,0,0,0,0,0,0],"split_type":[0,0,0,0,0,0,0,0,0,0,0,0,0,0,0,0,0,0,0,0,0,0,0,0,0,0,0,0,0,0,0],"sum_hessian":[2.19722E5,1.38162E5,8.156E4,9.8503E4,3.9659E4,5.7468E4,2.4092E4,3.6227E4,6.2276E4,1.4657E4,2.5002E4,4.7955E4,9.513E3,1.5276E4,8.816E3,9.591E3,2.6636E4,1.5291E4,4.6985E4,8.426E3,6.231E3,1.7462E4,7.54E3,1.2323E4,3.5632E4,2.14E3,7.373E3,9.396E3,5.88E3,6.205E3,2.611E3],"tree_param":{"num_deleted":"0","num_feature":"12","num_nodes":"31","size_leaf_vector":"1"}},{"base_weights":[2.5074226E-3,-2.4508486E0,1.9703912E0,-3.834892E0,-8.79108E-1,1.4014484E-2,3.1801784E0,-6.1239004E0,-3.2748868E0,1.0221977E-1,-2.4975622E0,-9.7801703E-1,1.9099504E0,2.1836388E0,5.4048424E0,-4.1508827E-1,-2.7560163E-1,-1.4556342E-1,-3.082991E-1,-9.238236E-2,3.525543E-2,-9.251592E-2,-2.587108E-1,-3.3334784E-2,-2.0119856E-1,1.1301883E-1,-7.067153E-2,7.826357E-2,2.187144E-1,2.3463194E-1,3.8194045E-1],"categories":[],"categories_nodes":[],"categories_segments":[],"categories_sizes":[],"default_left":[0,0,0,0,0,0,0,0,0,0,0,0,0,0,0,0,0,0,0,0,0,0,0,0,0,0,0,0,0,0,0],"id":37,"left_children":[1,3,5,7,9,11,13,15,17,19,21,23,25,27,29,-1,-1,-1,-1,-1,-1,-1,-1,-1,-1,-1,-1,-1,-1,-1,-1],"loss_changes":[1.0609111E6,2.1275044E5,2.8860022E5,6.65665E4,7.275033E4,8.76503E4,1.6697831E5,1.3386031E4,4.3848562E4,3.353328E4,2.9906156E4,2.899798E4,1.8658887E4,7.046594E4,3.69015E4,0E0,0E0,0E0,0E0,0E0,0E0,0E0,0E0,0E0,0E0,0E0,0E0,0E0,0E0,0E0,0E0],"parents":[2147483647,0,0,1,1,2,2,3,3,4,4,5,5,6,6,7,7,8,8,9,9,10,10,11,11,12,12,13,13,14,14],"right_children":[2,4,6,8,10,12,14,16,18,20,22,24,26,28,30,-1,-1,-1,-1,-1,-1,-1,-1,-1,-1,-1,-1,-1,-1,-1,-1],"split_conditions":[3.8126E0,4E0,3E0,1.4897E0,1.091E1,6.8623E0,7.1107E0,8.16E-1,1.388E1,1.7102E0,2.604E1,1.476E1,1.476E1,6E0,8.2675E0,-4.1508827E-1,-2.7560163E-1,-1.4556342E-1,-3.082991E-1,-9.238236E-2,3.525543E-2,-9.251592E-2,-2.587108E-1,-3.3334784E-2,-2.0119856E-1,1.1301883E-1,-7.067153E-2,7.826357E-2,2.187144E-1,2.3463194E-1,3.8194045E-1],"split_indices":[3,11,11,3,4,3,3,3,4,3,4,4,4,11,3,0,0,0,0,0,0,0,0,0,0,0,0,0,0,0,0],"split_type":[0,0,0,0,0,0,0,0,0,0,0,0,0,0,0,0,0,0,0,0,0,0,0,0,0,0,0,0,0,0,0],"sum_hessian":[2.19735E5,9.7803E4,1.21932E5,5.2003E4,4.58E4,4.6592E4,7.534E4,1.0212E4,4.1791E4,2.8515E4,1.7285E4,3.0589E4,1.6003E4,5.2039E4,2.3301E4,2.226E3,7.986E3,3.7131E4,4.66E3,6.732E3,2.1783E4,1.3926E4,3.359E3,2.7758E4,2.831E3,1.4478E4,1.525E3,4.059E4,1.1449E4,1.768E4,5.621E3],"tree_param":{"num_deleted":"0","num_feature":"12","num_nodes":"31","size_leaf_vector":"1"}},{"base_weights":[4.126293E-3,-1.4775747E0,2.9736636E0,-2.3670366E0,7.2457457E-1,1.9953184E0,5.316517E0,-3.6084428E0,-9.461398E-1,-1.3525362E0,1.526819E0,1.5681516E0,4.961267E0,4.665731E0,7.4439855E0,-2.741292E-1,-1.4788327E-1,-1.3064212E-1,-1.983449E-2,-1.1506086E-1,3.7627618E-3,1.1891409E-1,1.7326422E-2,-6.843207E-3,1.0793258E-1,1.282568E-1,2.7936265E-1,2.6995775E-1,1.4341034E-1,4.141496E-1,2.8499022E-1],"categories":[],"categories_nodes":[],"categories_segments":[],"categories_sizes":[],"default_left":[0,0,0,0,0,0,0,0,0,0,0,0,0,0,0,0,0,0,0,0,0,0,0,0,0,0,0,0,0,0,0],"id":38,"left_children":[1,3,5,7,9,11,13,15,17,19,21,23,25,27,29,-1,-1,-1,-1,-1,-1,-1,-1,-1,-1,-1,-1,-1,-1,-1,-1],"loss_changes":[9.6720925E5,2.872541E5,1.6766825E5,1.8423919E5,7.032199E4,6.536889E4,2.9665625E4,6.791319E4,4.4606527E4,1.592865E4,3.0588273E4,4.5442914E4,9.673484E3,2.1697719E4,7.1393438E3,0E0,0E0,0E0,0E0,0E0,0E0,0E0,0E0,0E0,0E0,0E0,0E0,0E0,0E0,0E0,0E0],"parents":[2147483647,0,0,1,1,2,2,3,3,4,4,5,5,6,6,7,7,8,8,9,9,10,10,11,11,12,12,13,13,14,14],"right_children":[2,4,6,8,10,12,14,16,18,20,22,24,26,28,30,-1,-1,-1,-1,-1,-1,-1,-1,-1,-1,-1,-1,-1,-1,-1,-1],"split_conditions":[5.6148E0,5E0,5E0,3.1601E0,2.31E0,8.2234E0,7.9534E0,2E0,2E0,6E0,8.08E0,2E0,2E0,1.232E1,1.091E1,-2.741292E-1,-1.4788327E-1,-1.3064212E-1,-1.983449E-2,-1.1506086E-1,3.7627618E-3,1.1891409E-1,1.7326422E-2,-6.843207E-3,1.0793258E-1,1.282568E-1,2.7936265E-1,2.6995775E-1,1.4341034E-1,4.141496E-1,2.8499022E-1],"split_indices":[3,11,11,3,3,3,3,11,11,11,4,11,11,4,4,0,0,0,0,0,0,0,0,0,0,0,0,0,0,0,0],"split_type":[0,0,0,0,0,0,0,0,0,0,0,0,0,0,0,0,0,0,0,0,0,0,0,0,0,0,0,0,0,0,0],"sum_hessian":[2.19812E5,1.46644E5,7.3168E4,1.04454E5,4.219E4,5.1621E4,2.1547E4,5.5744E4,4.871E4,1.1754E4,3.0436E4,4.5129E4,6.492E3,1.6512E4,5.035E3,1.4358E4,4.1386E4,1.2072E4,3.6638E4,7.06E3,4.694E3,1.7678E4,1.2758E4,1.161E4,3.3519E4,1.35E3,5.142E3,1.172E4,4.792E3,3.387E3,1.648E3],"tree_param":{"num_deleted":"0","num_feature":"12","num_nodes":"31","size_leaf_vector":"1"}},{"base_weights":[3.4702106E-3,-2.354057E0,1.6913404E0,-4.128048E0,-1.3072369E0,3.7973827E-1,3.2155151E0,-5.7276525E0,-3.5008497E0,-4.5118003E0,-8.9899904E-1,-9.106913E-1,1.700831E0,2.1004934E0,4.832095E0,-4.0159684E-1,-2.6448682E-1,-1.6213319E-1,-3.2821754E-1,-2.5659266E-1,-9.188938E-2,-2.9497657E-2,-2.3905694E-1,-2.5455622E-2,-1.6134658E-1,1.0623212E-1,-4.4189747E-2,1.3532369E-1,-5.7899337E-3,2.8761765E-1,1.542809E-1],"categories":[],"categories_nodes":[],"categories_segments":[],"categories_sizes":[],"default_left":[0,0,0,0,0,0,0,0,0,0,0,0,0,0,0,0,0,0,0,0,0,0,0,0,0,0,0,0,0,0,0],"id":39,"left_children":[1,3,5,7,9,11,13,15,17,19,21,23,25,27,29,-1,-1,-1,-1,-1,-1,-1,-1,-1,-1,-1,-1,-1,-1,-1,-1],"loss_changes":[8.736016E5,1.7007875E5,2.5576416E5,3.4001875E4,7.535176E4,1.1724869E5,1.0661344E5,9.4404375E3,1.9216594E4,1.0744953E4,6.1305605E4,3.235461E4,3.7235234E4,4.7046562E4,3.8727E4,0E0,0E0,0E0,0E0,0E0,0E0,0E0,0E0,0E0,0E0,0E0,0E0,0E0,0E0,0E0,0E0],"parents":[2147483647,0,0,1,1,2,2,3,3,4,4,5,5,6,6,7,7,8,8,9,9,10,10,11,11,12,12,13,13,14,14],"right_children":[2,4,6,8,10,12,14,16,18,20,22,24,26,28,30,-1,-1,-1,-1,-1,-1,-1,-1,-1,-1,-1,-1,-1,-1,-1,-1],"split_conditions":[3.6089E0,3E0,4E0,1.7102E0,1.1299E0,5.9676E0,6.5282E0,8.16E-1,1.616E1,6E0,2.541E1,1.155E1,1.155E1,1.69E1,1.098E1,-4.0159684E-1,-2.6448682E-1,-1.6213319E-1,-3.2821754E-1,-2.5659266E-1,-9.188938E-2,-2.9497657E-2,-2.3905694E-1,-2.5455622E-2,-1.6134658E-1,1.0623212E-1,-4.4189747E-2,1.3532369E-1,-5.7899337E-3,2.8761765E-1,1.542809E-1],"split_indices":[3,11,11,3,3,3,3,3,4,11,4,4,4,4,4,0,0,0,0,0,0,0,0,0,0,0,0,0,0,0,0],"split_type":[0,0,0,0,0,0,0,0,0,0,0,0,0,0,0,0,0,0,0,0,0,0,0,0,0,0,0,0,0,0,0],"sum_hessian":[2.19532E5,9.1595E4,1.27937E5,3.3986E4,5.7609E4,6.8767E4,5.917E4,9.561E3,2.4425E4,6.504E3,5.1105E4,3.4788E4,3.3979E4,3.5024E4,2.4146E4,1.513E3,8.048E3,2.2536E4,1.889E3,5.276E3,1.228E3,4.7342E4,3.763E3,2.9653E4,5.135E3,2.9193E4,4.786E3,2.7503E4,7.521E3,1.5806E4,8.34E3],"tree_param":{"num_deleted":"0","num_feature":"12","num_nodes":"31","size_leaf_vector":"1"}},{"base_weights":[-2.2897962E-3,-1.7921911E0,2.0264122E0,-3.4826126E0,-7.7840376E-1,1.1634964E0,4.103795E0,-4.8275495E0,-2.6109984E0,-2.5992951E0,-4.1014355E-2,4.284798E-1,3.0318203E0,3.3047829E0,6.0686455E0,-3.4647822E-1,-2.209065E-1,-1.20529056E-1,-3.3101374E-1,-2.4608718E-1,-9.909331E-2,1.47364205E-2,-1.6782244E-1,3.386447E-2,-1.6041897E-1,1.2535785E-1,2.795057E-1,2.0517218E-1,1.0309096E-1,3.3804294E-1,2.1996014E-1],"categories":[],"categories_nodes":[],"categories_segments":[],"categories_sizes":[],"default_left":[0,0,0,0,0,0,0,0,0,0,0,0,0,0,0,0,0,0,0,0,0,0,0,0,0,0,0,0,0,0,0],"id":40,"left_children":[1,3,5,7,9,11,13,15,17,19,21,23,25,27,29,-1,-1,-1,-1,-1,-1,-1,-1,-1,-1,-1,-1,-1,-1,-1,-1],"loss_changes":[7.97991E5,2.0006766E5,1.8463069E5,5.1244688E4,9.8002234E4,9.994545E4,4.7357406E4,1.4653625E4,2.1268344E4,3.0118594E4,5.7838887E4,4.728299E4,2.7511672E4,2.130189E4,9.94325E3,0E0,0E0,0E0,0E0,0E0,0E0,0E0,0E0,0E0,0E0,0E0,0E0,0E0,0E0,0E0,0E0],"parents":[2147483647,0,0,1,1,2,2,3,3,4,4,5,5,6,6,7,7,8,8,9,9,10,10,11,11,12,12,13,13,14,14],"right_children":[2,4,6,8,10,12,14,16,18,20,22,24,26,28,30,-1,-1,-1,-1,-1,-1,-1,-1,-1,-1,-1,-1,-1,-1,-1,-1],"split_conditions":[4.458E0,3E0,5E0,2.3772E0,2.0364E0,7.4213E0,7.4213E0,1.0126E0,2.177E1,9.641E-1,2.259E1,2.361E1,8.4298E0,8.88E0,1.232E1,-3.4647822E-1,-2.209065E-1,-1.20529056E-1,-3.3101374E-1,-2.4608718E-1,-9.909331E-2,1.47364205E-2,-1.6782244E-1,3.386447E-2,-1.6041897E-1,1.2535785E-1,2.795057E-1,2.0517218E-1,1.0309096E-1,3.3804294E-1,2.1996014E-1],"split_indices":[3,11,11,3,3,3,3,3,4,3,4,4,3,4,4,0,0,0,0,0,0,0,0,0,0,0,0,0,0,0,0],"split_type":[0,0,0,0,0,0,0,0,0,0,0,0,0,0,0,0,0,0,0,0,0,0,0,0,0,0,0,0,0,0,0],"sum_hessian":[2.19751E5,1.16747E5,1.03004E5,4.3763E4,7.2984E4,7.278E4,3.0224E4,1.72E4,2.6563E4,2.1033E4,5.1951E4,5.2236E4,2.0544E4,2.1496E4,8.728E3,2.791E3,1.4409E4,2.5306E4,1.257E3,4.41E3,1.6623E4,4.7178E4,4.773E3,4.8895E4,3.341E3,1.7056E4,3.488E3,1.308E4,8.416E3,6.159E3,2.569E3],"tree_param":{"num_deleted":"0","num_feature":"12","num_nodes":"31","size_leaf_vector":"1"}},{"base_weights":[3.4846116E-3,-1.2800896E0,2.5745926E0,-2.0725727E0,6.7823344E-1,8.4750944E-1,3.6387615E0,-3.319888E0,-9.882861E-1,-6.9462734E-1,1.5891994E0,1.1297565E0,-2.2773175E0,3.1645117E0,6.140951E0,-2.9025772E-1,-1.4618024E-1,-3.775208E-2,-2.1658614E-1,-7.9394184E-2,3.1048207E-2,8.8136725E-2,-1.5363316E-1,2.8953651E-2,1.3314001E-1,-6.426479E-2,-2.2140443E-1,1.728294E-1,-4.25891E-2,3.2059753E-1,1.1222631E-1],"categories":[],"categories_nodes":[],"categories_segments":[],"categories_sizes":[],"default_left":[0,0,0,0,0,0,0,0,0,0,0,0,0,0,0,0,0,0,0,0,0,0,0,0,0,0,0,0,0,0,0],"id":41,"left_children":[1,3,5,7,9,11,13,15,17,19,21,23,25,27,29,-1,-1,-1,-1,-1,-1,-1,-1,-1,-1,-1,-1,-1,-1,-1,-1],"loss_changes":[7.260655E5,2.2774767E5,1.3462978E5,1.4127512E5,5.2882137E4,2.4652541E4,5.3691875E4,4.7761125E4,4.3572703E4,1.9827533E4,2.0589348E4,2.162632E4,4.9129883E3,4.472722E4,7.5486562E3,0E0,0E0,0E0,0E0,0E0,0E0,0E0,0E0,0E0,0E0,0E0,0E0,0E0,0E0,0E0,0E0],"parents":[2147483647,0,0,1,1,2,2,3,3,4,4,5,5,6,6,7,7,8,8,9,9,10,10,11,11,12,12,13,13,14,14],"right_children":[2,4,6,8,10,12,14,16,18,20,22,24,26,28,30,-1,-1,-1,-1,-1,-1,-1,-1,-1,-1,-1,-1,-1,-1,-1,-1],"split_conditions":[5.6148E0,5E0,3E0,2.9124E0,2.7374E0,1.616E1,8.1569E0,1.0867E0,2.361E1,6E0,2.971E1,7.8132E0,2.94E1,2.541E1,2.541E1,-2.9025772E-1,-1.4618024E-1,-3.775208E-2,-2.1658614E-1,-7.9394184E-2,3.1048207E-2,8.8136725E-2,-1.5363316E-1,2.8953651E-2,1.3314001E-1,-6.426479E-2,-2.2140443E-1,1.728294E-1,-4.25891E-2,3.2059753E-1,1.1222631E-1],"split_indices":[3,11,11,3,3,4,3,3,4,11,4,3,4,4,4,0,0,0,0,0,0,0,0,0,0,0,0,0,0,0,0],"split_type":[0,0,0,0,0,0,0,0,0,0,0,0,0,0,0,0,0,0,0,0,0,0,0,0,0,0,0,0,0,0,0],"sum_hessian":[2.19996E5,1.46741E5,7.3255E4,1.04466E5,4.2275E4,2.7932E4,4.5323E4,4.8576E4,5.589E4,1.6863E4,2.5412E4,2.5621E4,2.311E3,3.8111E4,7.212E3,6.671E3,4.1905E4,5.2251E4,3.639E3,1.0043E4,6.82E3,2.4503E4,9.09E2,1.8855E4,6.766E3,1.587E3,7.24E2,3.5528E4,2.583E3,6.74E3,4.72E2],"tree_param":{"num_deleted":"0","num_feature":"12","num_nodes":"31","size_leaf_vector":"1"}},{"base_weights":[-3.1894252E-3,-2.049449E0,1.4637028E0,-2.8099833E0,-1.5675104E-1,-1.4549401E-1,2.4644227E0,-4.428987E0,-2.258045E0,7.4385136E-1,-1.3180231E0,-8.650972E-1,1.5989474E0,1.6549116E0,4.216075E0,-2.8821597E-1,-1.8679409E-1,-2.2739916E-1,-9.452421E-2,-5.333949E-3,8.3184145E-2,-4.979987E-2,-2.3661594E-1,-3.1042157E-2,-1.8092386E-1,9.000781E-2,-1.3071965E-1,9.881127E-2,-7.7106684E-2,1.8053687E-1,3.0545315E-1],"categories":[],"categories_nodes":[],"categories_segments":[],"categories_sizes":[],"default_left":[0,0,0,0,0,0,0,0,0,0,0,0,0,0,0,0,0,0,0,0,0,0,0,0,0,0,0,0,0,0,0],"id":42,"left_children":[1,3,5,7,9,11,13,15,17,19,21,23,25,27,29,-1,-1,-1,-1,-1,-1,-1,-1,-1,-1,-1,-1,-1,-1,-1,-1],"loss_changes":[6.601781E5,1.3218934E5,2.0629638E5,5.8489062E4,2.7540936E4,6.1672547E4,1.1196581E5,1.5302344E4,4.1086266E4,1.1604623E4,1.2622775E4,2.3379838E4,1.2187207E4,5.551678E4,2.8493562E4,0E0,0E0,0E0,0E0,0E0,0E0,0E0,0E0,0E0,0E0,0E0,0E0,0E0,0E0,0E0,0E0],"parents":[2147483647,0,0,1,1,2,2,3,3,4,4,5,5,6,6,7,7,8,8,9,9,10,10,11,11,12,12,13,13,14,14],"right_children":[2,4,6,8,10,12,14,16,18,20,22,24,26,28,30,-1,-1,-1,-1,-1,-1,-1,-1,-1,-1,-1,-1,-1,-1,-1,-1],"split_conditions":[3.6089E0,5E0,3E0,2E0,8.08E0,7.0476E0,7.0133E0,1.8024E0,1.2468E0,6E0,2.971E1,1.616E1,2.177E1,2.259E1,6E0,-2.8821597E-1,-1.8679409E-1,-2.2739916E-1,-9.452421E-2,-5.333949E-3,8.3184145E-2,-4.979987E-2,-2.3661594E-1,-3.1042157E-2,-1.8092386E-1,9.000781E-2,-1.3071965E-1,9.881127E-2,-7.7106684E-2,1.8053687E-1,3.0545315E-1],"split_indices":[3,11,11,11,4,3,3,3,3,11,4,4,4,4,11,0,0,0,0,0,0,0,0,0,0,0,0,0,0,0,0],"split_type":[0,0,0,0,0,0,0,0,0,0,0,0,0,0,0,0,0,0,0,0,0,0,0,0,0,0,0,0,0,0,0],"sum_hessian":[2.19929E5,9.1829E4,1.281E5,6.5505E4,2.6324E4,4.9119E4,7.8981E4,1.6645E4,4.886E4,1.4827E4,1.1497E4,3.4776E4,1.4343E4,5.4024E4,2.4957E4,5.675E3,1.097E4,6.75E3,4.211E4,7.706E3,7.121E3,1.0512E4,9.85E2,3.1948E4,2.828E3,1.3692E4,6.51E2,4.9092E4,4.932E3,1.8921E4,6.036E3],"tree_param":{"num_deleted":"0","num_feature":"12","num_nodes":"31","size_leaf_vector":"1"}},{"base_weights":[-1.7095857E-3,-1.1501794E0,2.3891397E0,-2.6261358E0,-2.5638637E-1,1.5855733E0,4.3121076E0,-3.823933E0,-1.6448983E0,-2.0302258E0,4.2018345E-1,1.2438245E0,4.1753116E0,3.8573036E0,6.418684E0,-1.7488742E-1,-3.0584198E-1,-6.3259795E-2,-1.6776058E-1,-7.3021434E-2,-2.0993148E-1,4.3742727E-2,-7.582111E-2,-1.1560304E-2,8.781692E-2,1.0724407E-1,2.3515503E-1,2.1671894E-1,9.257334E-2,3.3076486E-1,7.38991E-2],"categories":[],"categories_nodes":[],"categories_segments":[],"categories_sizes":[],"default_left":[0,0,0,0,0,0,0,0,0,0,0,0,0,0,0,0,0,0,0,0,0,0,0,0,0,0,0,0,0,0,0],"id":43,"left_children":[1,3,5,7,9,11,13,15,17,19,21,23,25,27,29,-1,-1,-1,-1,-1,-1,-1,-1,-1,-1,-1,-1,-1,-1,-1,-1],"loss_changes":[6.036352E5,1.9590175E5,1.1019497E5,6.579844E4,1.1101355E5,4.4508383E4,2.0015969E4,1.8753812E4,1.9978656E4,3.152529E4,5.8968805E4,3.361261E4,6.2336484E3,1.6515766E4,3.5696094E3,0E0,0E0,0E0,0E0,0E0,0E0,0E0,0E0,0E0,0E0,0E0,0E0,0E0,0E0,0E0,0E0],"parents":[2147483647,0,0,1,1,2,2,3,3,4,4,5,5,6,6,7,7,8,8,9,9,10,10,11,11,12,12,13,13,14,14],"right_children":[2,4,6,8,10,12,14,16,18,20,22,24,26,28,30,-1,-1,-1,-1,-1,-1,-1,-1,-1,-1,-1,-1,-1,-1,-1,-1],"split_conditions":[5.6873E0,3E0,5E0,2.9124E0,2.2584E0,8.2675E0,8.124E0,1.174E1,1.008E1,1.69E1,1.69E1,2E0,2E0,1.69E1,2.971E1,-1.7488742E-1,-3.0584198E-1,-6.3259795E-2,-1.6776058E-1,-7.3021434E-2,-2.0993148E-1,4.3742727E-2,-7.582111E-2,-1.1560304E-2,8.781692E-2,1.0724407E-1,2.3515503E-1,2.1671894E-1,9.257334E-2,3.3076486E-1,7.38991E-2],"split_indices":[3,11,11,3,3,3,3,4,4,4,4,11,11,4,4,0,0,0,0,0,0,0,0,0,0,0,0,0,0,0,0],"split_type":[0,0,0,0,0,0,0,0,0,0,0,0,0,0,0,0,0,0,0,0,0,0,0,0,0,0,0,0,0,0,0],"sum_hessian":[2.19828E5,1.48498E5,7.133E4,5.6005E4,9.2493E4,5.0314E4,2.1016E4,2.5213E4,3.0792E4,2.5535E4,6.6958E4,4.4455E4,5.859E3,1.7296E4,3.72E3,2.2084E4,3.129E3,2.5205E4,5.587E3,2.0228E4,5.307E3,5.4229E4,1.2729E4,1.1464E4,3.2991E4,1.214E3,4.645E3,1.3968E4,3.328E3,3.576E3,1.44E2],"tree_param":{"num_deleted":"0","num_feature":"12","num_nodes":"31","size_leaf_vector":"1"}},{"base_weights":[1.437328E-3,-1.8497487E0,1.3531888E0,-2.551612E0,-9.863127E-2,2.7655953E-1,2.602261E0,-4.5842724E0,-2.1681073E0,7.244551E-1,-1.1637257E0,-4.8764938E-1,1.7072804E0,2.0185573E0,4.49859E0,-3.2561868E-1,-2.011328E-1,-1.8073134E-1,-8.4329896E-2,-4.0415255E-3,7.99584E-2,-2.0139657E-1,-4.123093E-2,-2.2548183E-3,-1.0490091E-1,1.0394355E-1,-2.8107643E-2,1.4526406E-1,4.364302E-2,2.657387E-1,1.4742146E-1],"categories":[],"categories_nodes":[],"categories_segments":[],"categories_sizes":[],"default_left":[0,0,0,0,0,0,0,0,0,0,0,0,0,0,0,0,0,0,0,0,0,0,0,0,0,0,0,0,0,0,0],"id":44,"left_children":[1,3,5,7,9,11,13,15,17,19,21,23,25,27,29,-1,-1,-1,-1,-1,-1,-1,-1,-1,-1,-1,-1,-1,-1,-1,-1],"loss_changes":[5.495747E5,1.1391772E5,1.7069706E5,5.1530562E4,2.3258625E4,7.4549016E4,6.4996844E4,1.12368125E4,3.8747875E4,1.0542602E4,1.1216162E4,3.1674305E4,2.0024945E4,4.564261E4,1.74145E4,0E0,0E0,0E0,0E0,0E0,0E0,0E0,0E0,0E0,0E0,0E0,0E0,0E0,0E0,0E0,0E0],"parents":[2147483647,0,0,1,1,2,2,3,3,4,4,5,5,6,6,7,7,8,8,9,9,10,10,11,11,12,12,13,13,14,14],"right_children":[2,4,6,8,10,12,14,16,18,20,22,24,26,28,30,-1,-1,-1,-1,-1,-1,-1,-1,-1,-1,-1,-1,-1,-1,-1,-1],"split_conditions":[3.6401E0,5E0,4E0,1.3154E0,8.08E0,6.7495E0,7.4213E0,7.534E-1,2E0,6E0,1.051E0,8.65E0,1.155E1,8.08E0,1.091E1,-3.2561868E-1,-2.011328E-1,-1.8073134E-1,-8.4329896E-2,-4.0415255E-3,7.99584E-2,-2.0139657E-1,-4.123093E-2,-2.2548183E-3,-1.0490091E-1,1.0394355E-1,-2.8107643E-2,1.4526406E-1,4.364302E-2,2.657387E-1,1.4742146E-1],"split_indices":[3,11,11,3,4,3,3,3,11,11,3,4,4,4,4,0,0,0,0,0,0,0,0,0,0,0,0,0,0,0,0],"split_type":[0,0,0,0,0,0,0,0,0,0,0,0,0,0,0,0,0,0,0,0,0,0,0,0,0,0,0,0,0,0,0],"sum_hessian":[2.19614E5,9.2684E4,1.2693E5,6.6163E4,2.6521E4,6.8174E4,5.8756E4,1.0493E4,5.567E4,1.4961E4,1.156E4,4.444E4,2.3734E4,4.4935E4,1.3821E4,2.355E3,8.138E3,1.3895E4,4.1775E4,7.792E3,7.169E3,1.218E3,1.0342E4,3.4864E4,9.576E3,2.0395E4,3.339E3,2.5326E4,1.9609E4,9.046E3,4.775E3],"tree_param":{"num_deleted":"0","num_feature":"12","num_nodes":"31","size_leaf_vector":"1"}},{"base_weights":[1.6090468E-3,-1.2172704E0,1.8689381E0,-2.206236E0,-6.793808E-2,1.1529493E0,3.578247E0,-3.4183042E0,-1.4820107E0,7.0620835E-1,-1.3823282E0,6.440636E-1,2.7187457E0,3.1094155E0,5.5007687E0,-1.4701825E-1,-2.5654802E-1,-5.2112777E-2,-1.5271018E-1,-7.1089785E-4,8.8673934E-2,-1.573894E-1,-3.5348106E-2,4.5622285E-2,-9.130241E-2,1.0724344E-1,2.3031E-1,1.11813724E-1,2.0183046E-1,2.847699E-1,3.612056E-2],"categories":[],"categories_nodes":[],"categories_segments":[],"categories_sizes":[],"default_left":[0,0,0,0,0,0,0,0,0,0,0,0,0,0,0,0,0,0,0,0,0,0,0,0,0,0,0,0,0,0,0],"id":45,"left_children":[1,3,5,7,9,11,13,15,17,19,21,23,25,27,29,-1,-1,-1,-1,-1,-1,-1,-1,-1,-1,-1,-1,-1,-1,-1,-1],"loss_changes":[5.0004112E5,1.5109303E5,1.0617003E5,6.2693344E4,6.2567734E4,4.8724234E4,2.30005E4,2.1796094E4,3.0912273E4,2.9754615E4,2.7164492E4,3.0612674E4,1.6198094E4,1.6634453E4,4.643422E3,0E0,0E0,0E0,0E0,0E0,0E0,0E0,0E0,0E0,0E0,0E0,0E0,0E0,0E0,0E0,0E0],"parents":[2147483647,0,0,1,1,2,2,3,3,4,4,5,5,6,6,7,7,8,8,9,9,10,10,11,11,12,12,13,13,14,14],"right_children":[2,4,6,8,10,12,14,16,18,20,22,24,26,28,30,-1,-1,-1,-1,-1,-1,-1,-1,-1,-1,-1,-1,-1,-1,-1,-1],"split_conditions":[5.0352E0,4E0,5E0,2.4902E0,1.091E1,7.7443E0,7.9534E0,8.65E0,8.65E0,3.1872E0,2.065E0,1.921E1,8.4298E0,6E0,2.971E1,-1.4701825E-1,-2.5654802E-1,-5.2112777E-2,-1.5271018E-1,-7.1089785E-4,8.8673934E-2,-1.573894E-1,-3.5348106E-2,4.5622285E-2,-9.130241E-2,1.0724344E-1,2.3031E-1,1.11813724E-1,2.0183046E-1,2.847699E-1,3.612056E-2],"split_indices":[3,11,11,3,4,3,3,4,4,3,3,4,3,11,4,0,0,0,0,0,0,0,0,0,0,0,0,0,0,0,0],"split_type":[0,0,0,0,0,0,0,0,0,0,0,0,0,0,0,0,0,0,0,0,0,0,0,0,0,0,0,0,0,0,0],