{"learner":{"attributes":{},"feature_names":["T2M","RH2M","WS10M","ALLSKY_SFC_SW_DWN","arazi_egimi_yuzde","yuzey_alani_km2","yuzey_Orman_ve_Doğa","yuzey_Su_Yüzeyi","yuzey_Sulak_Alan","yuzey_Tarım_Arazisi","yuzey_Şehir_Yerleşimi","tesvik_bolgesi"],"feature_types":["float","float","float","float","float","float","float","float","float","float","float","float"],"gradient_booster":{"model":{"gbtree_model_param":{"num_parallel_tree":"1","num_trees":"30"},"iteration_indptr":[0,1,2,3,4,5,6,7,8,9,10,11,12,13,14,15,16,17,18,19,20,21,22,23,24,25,26,27,28,29,30],"tree_info":[0,0,0,0,0,0,0,0,0,0,0,0,0,0,0,0,0,0,0,0,0,0,0,0,0,0,0,0,0,0],"trees":[{"base_weights":[-1.697116E-6,-1.5998541E1,2.0546068E1,-2.4994926E1,-7.702383E0,1.121389E1,2.9844177E1,-1.5193851E0,-1.0142735E0,-5.779461E-1,-9.485194E-2,3.0059475E-1,7.697634E-1,1.3002037E0,1.7617735E0],"categories":[],"categories_nodes":[],"categories_segments":[],"categories_sizes":[],"default_left":[0,0,0,0,0,0,0,0,0,0,0,0,0,0,0],"id":0,"left_children":[1,3,5,7,9,11,13,-1,-1,-1,-1,-1,-1,-1,-1],"loss_changes":[1.3154859E6,1.6773712E5,1.5168919E5,2.6787E4,2.6217445E4,1.8961781E4,1.7240375E4,0E0,0E0,0E0,0E0,0E0,0E0,0E0,0E0],"parents":[2147483647,0,0,1,1,2,2,3,3,4,4,5,5,6,6],"right_children":[2,4,6,8,10,12,14,-1,-1,-1,-1,-1,-1,-1,-1],"split_conditions":[4.656E0,2.6863E0,6.6374E0,1.7798E0,3.781E0,5.551E0,7.8034E0,-1.5193851E0,-1.0142735E0,-5.779461E-1,-9.485194E-2,3.0059475E-1,7.697634E-1,1.3002037E0,1.7617735E0],"split_indices":[3,3,3,3,3,3,3,0,0,0,0,0,0,0,0],"split_type":[0,0,0,0,0,0,0,0,0,0,0,0,0,0,0],"sum_hessian":[4E3,2.249E3,1.751E3,1.078E3,1.171E3,8.75E2,8.76E2,5E2,5.78E2,7.03E2,4.68E2,3.91E2,4.84E2,5.15E2,3.61E2],"tree_param":{"num_deleted":"0","num_feature":"12","num_nodes":"15","size_leaf_vector":"1"}},{"base_weights":[2.3000975E-4,-1.5560317E1,1.907445E1,-2.3747526E1,-7.7010283E0,1.052419E1,2.8683578E1,-1.4758989E0,-9.879243E-1,-5.943043E-1,-1.6325854E-1,2.482043E-1,7.320996E-1,1.2522749E0,1.6739283E0],"categories":[],"categories_nodes":[],"categories_segments":[],"categories_sizes":[],"default_left":[0,0,0,0,0,0,0,0,0,0,0,0,0,0,0],"id":1,"left_children":[1,3,5,7,9,11,13,-1,-1,-1,-1,-1,-1,-1,-1],"loss_changes":[1.1878148E6,1.4163494E5,1.4742281E5,2.4253812E4,2.0864617E4,2.1746648E4,1.3919625E4,0E0,0E0,0E0,0E0,0E0,0E0,0E0,0E0],"parents":[2147483647,0,0,1,1,2,2,3,3,4,4,5,5,6,6],"right_children":[2,4,6,8,10,12,14,-1,-1,-1,-1,-1,-1,-1,-1],"split_conditions":[4.5708E0,2.6863E0,6.7085E0,1.6608E0,3.529E0,5.4847E0,7.8034E0,-1.4758989E0,-9.879243E-1,-5.943043E-1,-1.6325854E-1,2.482043E-1,7.320996E-1,1.2522749E0,1.6739283E0],"split_indices":[3,3,3,3,3,3,3,0,0,0,0,0,0,0,0],"split_type":[0,0,0,0,0,0,0,0,0,0,0,0,0,0,0],"sum_hessian":[4E3,2.203E3,1.797E3,1.078E3,1.125E3,9.52E2,8.45E2,4.38E2,6.4E2,5.78E2,5.47E2,4.06E2,5.46E2,4.84E2,3.61E2],"tree_param":{"num_deleted":"0","num_feature":"12","num_nodes":"15","size_leaf_vector":"1"}},{"base_weights":[3.8926836E-4,-1.4444436E1,1.8551107E1,-2.2562435E1,-6.9582887E0,1.0414135E1,2.725286E1,-1.3662561E0,-9.0744036E-1,-5.232437E-1,-8.399179E-2,3.0882776E-1,7.458788E-1,1.1897902E0,1.5904632E0],"categories":[],"categories_nodes":[],"categories_segments":[],"categories_sizes":[],"default_left":[0,0,0,0,0,0,0,0,0,0,0,0,0,0,0],"id":2,"left_children":[1,3,5,7,9,11,13,-1,-1,-1,-1,-1,-1,-1,-1],"loss_changes":[1.0723834E6,1.3658122E5,1.23768125E5,2.2185438E4,2.1675371E4,1.7216773E4,1.25690625E4,0E0,0E0,0E0,0E0,0E0,0E0,0E0,0E0],"parents":[2147483647,0,0,1,1,2,2,3,3,4,4,5,5,6,6],"right_children":[2,4,6,8,10,12,14,-1,-1,-1,-1,-1,-1,-1,-1],"split_conditions":[4.656E0,2.6863E0,6.7085E0,1.8134E0,3.781E0,5.7377E0,7.8034E0,-1.3662561E0,-9.0744036E-1,-5.232437E-1,-8.399179E-2,3.0882776E-1,7.458788E-1,1.1897902E0,1.5904632E0],"split_indices":[3,3,3,3,3,3,3,0,0,0,0,0,0,0,0],"split_type":[0,0,0,0,0,0,0,0,0,0,0,0,0,0,0],"sum_hessian":[4E3,2.249E3,1.751E3,1.078E3,1.171E3,9.06E2,8.45E2,5.16E2,5.62E2,7.03E2,4.68E2,4.68E2,4.38E2,4.84E2,3.61E2],"tree_param":{"num_deleted":"0","num_feature":"12","num_nodes":"15","size_leaf_vector":"1"}},{"base_weights":[6.085028E-4,-1.4049529E1,1.7223356E1,-2.1984587E1,-7.44069E0,8.62818E0,2.5059565E1,-1.34265E0,-9.194949E-1,-5.600783E-1,-1.4590889E-1,2.1239054E-1,6.1222976E-1,1.0282023E0,1.4462166E0],"categories":[],"categories_nodes":[],"categories_segments":[],"categories_sizes":[],"default_left":[0,0,0,0,0,0,0,0,0,0,0,0,0,0,0],"id":3,"left_children":[1,3,5,7,9,11,13,-1,-1,-1,-1,-1,-1,-1,-1],"loss_changes":[9.684119E5,1.154175E5,1.2088556E5,1.7024094E4,2.044568E4,1.3555605E4,1.57369375E4,0E0,0E0,0E0,0E0,0E0,0E0,0E0,0E0],"parents":[2147483647,0,0,1,1,2,2,3,3,4,4,5,5,6,6],"right_children":[2,4,6,8,10,12,14,-1,-1,-1,-1,-1,-1,-1,-1],"split_conditions":[4.5708E0,2.5738E0,6.5078E0,1.6313E0,3.529E0,5.4403E0,7.5094E0,-1.34265E0,-9.194949E-1,-5.600783E-1,-1.4590889E-1,2.1239054E-1,6.1222976E-1,1.0282023E0,1.4462166E0],"split_indices":[3,3,3,3,3,3,3,0,0,0,0,0,0,0,0],"split_type":[0,0,0,0,0,0,0,0,0,0,0,0,0,0,0],"sum_hessian":[4E3,2.203E3,1.797E3,1E3,1.203E3,8.58E2,9.39E2,4.22E2,5.78E2,6.56E2,5.47E2,3.89E2,4.69E2,4.37E2,5.02E2],"tree_param":{"num_deleted":"0","num_feature":"12","num_nodes":"15","size_leaf_vector":"1"}},{"base_weights":[6.6083646E-4,-1.3456831E1,1.623274E1,-2.1461546E1,-7.6102204E0,7.7647815E0,2.354393E1,-1.350963E0,-9.390789E-1,-5.504432E-1,-1.4502108E-1,1.9676119E-1,5.6524545E-1,9.644699E-1,1.3740495E0],"categories":[],"categories_nodes":[],"categories_segments":[],"categories_sizes":[],"default_left":[0,0,0,0,0,0,0,0,0,0,0,0,0,0,0],"id":4,"left_children":[1,3,5,7,9,11,13,-1,-1,-1,-1,-1,-1,-1,-1],"loss_changes":[8.7420925E5,1.0223606E5,1.121235E5,1.3240156E4,2.0232836E4,1.1370613E4,1.5768E4,0E0,0E0,0E0,0E0,0E0,0E0,0E0,0E0],"parents":[2147483647,0,0,1,1,2,2,3,3,4,4,5,5,6,6],"right_children":[2,4,6,8,10,12,14,-1,-1,-1,-1,-1,-1,-1,-1],"split_conditions":[4.5389E0,2.4746E0,6.432E0,1.3709E0,3.529E0,5.4403E0,7.5094E0,-1.350963E0,-9.390789E-1,-5.504432E-1,-1.4502108E-1,1.9676119E-1,5.6524545E-1,9.644699E-1,1.3740495E0],"split_indices":[3,3,3,3,3,3,3,0,0,0,0,0,0,0,0],"split_type":[0,0,0,0,0,0,0,0,0,0,0,0,0,0,0],"sum_hessian":[4E3,2.187E3,1.813E3,9.22E2,1.265E3,8.41E2,9.72E2,2.97E2,6.25E2,7.34E2,5.31E2,4.05E2,4.36E2,4.7E2,5.02E2],"tree_param":{"num_deleted":"0","num_feature":"12","num_nodes":"15","size_leaf_vector":"1"}},{"base_weights":[6.55881E-4,-1.239349E1,1.5917795E1,-1.9284147E1,-5.8557186E0,9.266557E0,2.3839401E1,-1.1706082E0,-7.6780784E-1,-4.3737665E-1,-5.4764163E-2,2.9265824E-1,6.9198537E-1,1.0693501E0,1.4309322E0],"categories":[],"categories_nodes":[],"categories_segments":[],"categories_sizes":[],"default_left":[0,0,0,0,0,0,0,0,0,0,0,0,0,0,0],"id":5,"left_children":[1,3,5,7,9,11,13,-1,-1,-1,-1,-1,-1,-1,-1],"loss_changes":[7.8951194E5,1.0124856E5,9.208928E4,1.7395688E4,1.5904258E4,1.4810898E4,8.75275E3,0E0,0E0,0E0,0E0,0E0,0E0,0E0,0E0],"parents":[2147483647,0,0,1,1,2,2,3,3,4,4,5,5,6,6],"right_children":[2,4,6,8,10,12,14,-1,-1,-1,-1,-1,-1,-1,-1],"split_conditions":[4.656E0,2.7098E0,6.8119E0,1.8382E0,3.8378E0,5.8877E0,7.9795E0,-1.1706082E0,-7.6780784E-1,-4.3737665E-1,-5.4764163E-2,2.9265824E-1,6.9198537E-1,1.0693501E0,1.4309322E0],"split_indices":[3,3,3,3,3,3,3,0,0,0,0,0,0,0,0],"split_type":[0,0,0,0,0,0,0,0,0,0,0,0,0,0,0],"sum_hessian":[4E3,2.249E3,1.751E3,1.094E3,1.155E3,9.53E2,7.98E2,5.31E2,5.63E2,7.18E2,4.37E2,5.47E2,4.06E2,5.31E2,2.67E2],"tree_param":{"num_deleted":"0","num_feature":"12","num_nodes":"15","size_leaf_vector":"1"}},{"base_weights":[8.863908E-4,-1.1050876E1,1.6133606E1,-1.8237179E1,-4.752012E0,1.0042689E1,2.2933155E1,-1.1178086E0,-7.307665E-1,-3.9364195E-1,1.4807643E-2,3.630178E-1,7.0975417E-1,1.0403293E0,1.3804976E0],"categories":[],"categories_nodes":[],"categories_segments":[],"categories_sizes":[],"default_left":[0,0,0,0,0,0,0,0,0,0,0,0,0,0,0],"id":6,"left_children":[1,3,5,7,9,11,13,-1,-1,-1,-1,-1,-1,-1,-1],"loss_changes":[7.135365E5,1.07419E5,6.715269E4,1.6217719E4,1.996322E4,9.83282E3,7.0636562E3,0E0,0E0,0E0,0E0,0E0,0E0,0E0,0E0],"parents":[2147483647,0,0,1,1,2,2,3,3,4,4,5,5,6,6],"right_children":[2,4,6,8,10,12,14,-1,-1,-1,-1,-1,-1,-1,-1],"split_conditions":[4.9231E0,2.7307E0,6.9022E0,1.8134E0,3.9974E0,6.1229E0,8.0556E0,-1.1178086E0,-7.307665E-1,-3.9364195E-1,1.4807643E-2,3.630178E-1,7.0975417E-1,1.0403293E0,1.3804976E0],"split_indices":[3,3,3,3,3,3,3,0,0,0,0,0,0,0,0],"split_type":[0,0,0,0,0,0,0,0,0,0,0,0,0,0,0],"sum_hessian":[4E3,2.374E3,1.626E3,1.108E3,1.266E3,8.59E2,7.67E2,5.16E2,5.92E2,7.82E2,4.84E2,5.16E2,3.43E2,5.31E2,2.36E2],"tree_param":{"num_deleted":"0","num_feature":"12","num_nodes":"15","size_leaf_vector":"1"}},{"base_weights":[1.1585744E-3,-1.2204355E1,1.3196823E1,-1.9090393E1,-7.6314297E0,5.268934E0,1.95923E1,-1.1696047E0,-8.322455E-1,-5.428979E-1,-2.1963559E-1,1.2334827E-1,4.3039235E-1,7.4902076E-1,1.1486993E0],"categories":[],"categories_nodes":[],"categories_segments":[],"categories_sizes":[],"default_left":[0,0,0,0,0,0,0,0,0,0,0,0,0,0,0],"id":7,"left_children":[1,3,5,7,9,11,13,-1,-1,-1,-1,-1,-1,-1,-1],"loss_changes":[6.445616E5,6.5320656E4,9.739794E4,8.3315E3,1.3025023E4,8.0245215E3,1.62499375E4,0E0,0E0,0E0,0E0,0E0,0E0,0E0,0E0],"parents":[2147483647,0,0,1,1,2,2,3,3,4,4,5,5,6,6],"right_children":[2,4,6,8,10,12,14,-1,-1,-1,-1,-1,-1,-1,-1],"split_conditions":[4.343E0,2.3333E0,6.2386E0,1.3709E0,3.1829E0,5.3378E0,7.2518E0,-1.1696047E0,-8.322455E-1,-5.428979E-1,-2.1963559E-1,1.2334827E-1,4.3039235E-1,7.4902076E-1,1.1486993E0],"split_indices":[3,3,3,3,3,3,3,0,0,0,0,0,0,0,0],"split_type":[0,0,0,0,0,0,0,0,0,0,0,0,0,0,0],"sum_hessian":[4E3,2.078E3,1.922E3,8.28E2,1.25E3,8.59E2,1.063E3,2.97E2,5.31E2,6.25E2,6.25E2,4.68E2,3.91E2,4.52E2,6.11E2],"tree_param":{"num_deleted":"0","num_feature":"12","num_nodes":"15","size_leaf_vector":"1"}},{"base_weights":[1.0218855E-3,-9.981642E0,1.4573133E1,-1.5388592E1,-3.1088448E0,9.063651E0,2.072363E1,-1.0059971E0,-6.1075383E-1,-2.9410848E-1,2.632691E-2,2.9760706E-1,6.023955E-1,9.274213E-1,1.235632E0],"categories":[],"categories_nodes":[],"categories_segments":[],"categories_sizes":[],"default_left":[0,0,0,0,0,0,0,0,0,0,0,0,0,0,0],"id":8,"left_children":[1,3,5,7,9,11,13,-1,-1,-1,-1,-1,-1,-1,-1],"loss_changes":[5.821649E5,8.820922E4,5.494475E4,1.9709188E4,1.0559054E4,7.913867E3,6.2054688E3,0E0,0E0,0E0,0E0,0E0,0E0,0E0,0E0],"parents":[2147483647,0,0,1,1,2,2,3,3,4,4,5,5,6,6],"right_children":[2,4,6,8,10,12,14,-1,-1,-1,-1,-1,-1,-1,-1],"split_conditions":[4.9231E0,2.993E0,6.9022E0,1.8382E0,4.0445E0,5.8877E0,7.9795E0,-1.0059971E0,-6.1075383E-1,-2.9410848E-1,2.632691E-2,2.9760706E-1,6.023955E-1,9.274213E-1,1.235632E0],"split_indices":[3,3,3,3,3,3,3,0,0,0,0,0,0,0,0],"split_type":[0,0,0,0,0,0,0,0,0,0,0,0,0,0,0],"sum_hessian":[4E3,2.374E3,1.626E3,1.328E3,1.046E3,8.59E2,7.67E2,5.31E2,7.97E2,5.93E2,4.53E2,4.22E2,4.37E2,5E2,2.67E2],"tree_param":{"num_deleted":"0","num_feature":"12","num_nodes":"15","size_leaf_vector":"1"}},{"base_weights":[1.2654536E-3,-1.0522072E1,1.2491259E1,-1.698847E1,-6.1465235E0,6.0453672E0,1.839085E1,-1.0611895E0,-7.3896456E-1,-4.3548796E-1,-1.12500906E-1,1.4536567E-1,4.4712695E-1,7.830462E-1,1.1127433E0],"categories":[],"categories_nodes":[],"categories_segments":[],"categories_sizes":[],"default_left":[0,0,0,0,0,0,0,0,0,0,0,0,0,0,0],"id":9,"left_children":[1,3,5,7,9,11,13,-1,-1,-1,-1,-1,-1,-1,-1],"loss_changes":[5.260085E5,6.1350234E4,6.948031E4,7.882703E3,1.2934402E4,7.9381387E3,9.72525E3,0E0,0E0,0E0,0E0,0E0,0E0,0E0,0E0],"parents":[2147483647,0,0,1,1,2,2,3,3,4,4,5,5,6,6],"right_children":[2,4,6,8,10,12,14,-1,-1,-1,-1,-1,-1,-1,-1],"split_conditions":[4.5108E0,2.4108E0,6.4774E0,1.3709E0,3.529E0,5.4403E0,7.7458E0,-1.0611895E0,-7.3896456E-1,-4.3548796E-1,-1.12500906E-1,1.4536567E-1,4.4712695E-1,7.830462E-1,1.1127433E0],"split_indices":[3,3,3,3,3,3,3,0,0,0,0,0,0,0,0],"split_type":[0,0,0,0,0,0,0,0,0,0,0,0,0,0,0],"sum_hessian":[4E3,2.171E3,1.829E3,8.75E2,1.296E3,8.75E2,9.54E2,2.97E2,5.78E2,7.81E2,5.15E2,4.21E2,4.54E2,5.62E2,3.92E2],"tree_param":{"num_deleted":"0","num_feature":"12","num_nodes":"15","size_leaf_vector":"1"}},{"base_weights":[1.2371175E-3,-1.0479012E1,1.13316765E1,-1.6421593E1,-6.532665E0,4.513902E0,1.6831635E1,-1.0581106E0,-7.342471E-1,-4.6559E-1,-1.8715467E-1,9.6398406E-2,3.6282235E-1,6.409783E-1,9.8869246E-1],"categories":[],"categories_nodes":[],"categories_segments":[],"categories_sizes":[],"default_left":[0,0,0,0,0,0,0,0,0,0,0,0,0,0,0],"id":10,"left_children":[1,3,5,7,9,11,13,-1,-1,-1,-1,-1,-1,-1,-1],"loss_changes":[4.7522078E5,4.864836E4,7.203167E4,6.5142188E3,9.663641E3,6.085162E3,1.2306344E4,0E0,0E0,0E0,0E0,0E0,0E0,0E0,0E0],"parents":[2147483647,0,0,1,1,2,2,3,3,4,4,5,5,6,6],"right_children":[2,4,6,8,10,12,14,-1,-1,-1,-1,-1,-1,-1,-1],"split_conditions":[4.343E0,2.3333E0,6.2386E0,1.1654E0,3.1829E0,4E0,7.2518E0,-1.0581106E0,-7.342471E-1,-4.6559E-1,-1.8715467E-1,9.6398406E-2,3.6282235E-1,6.409783E-1,9.8869246E-1],"split_indices":[3,3,3,3,3,11,3,0,0,0,0,0,0,0,0],"split_type":[0,0,0,0,0,0,0,0,0,0,0,0,0,0,0],"sum_hessian":[4E3,2.078E3,1.922E3,8.28E2,1.25E3,8.59E2,1.063E3,2.19E2,6.09E2,6.25E2,6.25E2,4.43E2,4.16E2,4.52E2,6.11E2],"tree_param":{"num_deleted":"0","num_feature":"12","num_nodes":"15","size_leaf_vector":"1"}},{"base_weights":[1.0855212E-3,-8.587526E0,1.253824E1,-1.4256588E1,-3.7349033E0,7.804087E0,1.7823181E1,-9.156386E-1,-5.98889E-1,-3.0677804E-1,1.0889754E-2,2.124478E-1,4.9832454E-1,7.450061E-1,1.0353719E0],"categories":[],"categories_nodes":[],"categories_segments":[],"categories_sizes":[],"default_left":[0,0,0,0,0,0,0,0,0,0,0,0,0,0,0],"id":11,"left_children":[1,3,5,7,9,11,13,-1,-1,-1,-1,-1,-1,-1,-1],"loss_changes":[4.3092238E5,6.5282562E4,4.0567984E4,9.902031E3,1.215684E4,6.5690117E3,6.166375E3,0E0,0E0,0E0,0E0,0E0,0E0,0E0,0E0],"parents":[2147483647,0,0,1,1,2,2,3,3,4,4,5,5,6,6],"right_children":[2,4,6,8,10,12,14,-1,-1,-1,-1,-1,-1,-1,-1],"split_conditions":[4.9231E0,2.7098E0,6.9022E0,1.5619E0,3.9974E0,3E0,4E0,-9.156386E-1,-5.98889E-1,-3.0677804E-1,1.0889754E-2,2.124478E-1,4.9832454E-1,7.450061E-1,1.0353719E0],"split_indices":[3,3,3,3,3,11,11,0,0,0,0,0,0,0,0],"split_type":[0,0,0,0,0,0,0,0,0,0,0,0,0,0,0],"sum_hessian":[4E3,2.374E3,1.626E3,1.094E3,1.28E3,8.59E2,7.67E2,3.91E2,7.03E2,7.96E2,4.84E2,3.26E2,5.33E2,3.84E2,3.83E2],"tree_param":{"num_deleted":"0","num_feature":"12","num_nodes":"15","size_leaf_vector":"1"}},{"base_weights":[1.20119E-3,-8.158913E0,1.191286E1,-1.2472156E1,-2.3772497E0,7.4147086E0,1.6934341E1,-7.9173774E-1,-4.6581665E-1,-2.576406E-1,2.262966E-2,2.0185788E-1,4.7345495E-1,7.078526E-1,9.837381E-1],"categories":[],"categories_nodes":[],"categories_segments":[],"categories_sizes":[],"default_left":[0,0,0,0,0,0,0,0,0,0,0,0,0,0,0],"id":12,"left_children":[1,3,5,7,9,11,13,-1,-1,-1,-1,-1,-1,-1,-1],"loss_changes":[3.8899638E5,5.9197438E4,3.6624094E4,1.4284469E4,7.9824077E3,5.9291484E3,5.566672E3,0E0,0E0,0E0,0E0,0E0,0E0,0E0,0E0],"parents":[2147483647,0,0,1,1,2,2,3,3,4,4,5,5,6,6],"right_children":[2,4,6,8,10,12,14,-1,-1,-1,-1,-1,-1,-1,-1],"split_conditions":[4.9231E0,3.0202E0,6.9022E0,2.0582E0,4E0,3E0,4E0,-7.9173774E-1,-4.6581665E-1,-2.576406E-1,2.262966E-2,2.0185788E-1,4.7345495E-1,7.078526E-1,9.837381E-1],"split_indices":[3,3,3,3,11,11,11,0,0,0,0,0,0,0,0],"split_type":[0,0,0,0,0,0,0,0,0,0,0,0,0,0,0],"sum_hessian":[4E3,2.374E3,1.626E3,1.359E3,1.015E3,8.59E2,7.67E2,6.56E2,7.03E2,5.12E2,5.03E2,3.26E2,5.33E2,3.84E2,3.83E2],"tree_param":{"num_deleted":"0","num_feature":"12","num_nodes":"15","size_leaf_vector":"1"}},{"base_weights":[1.3592831E-3,-9.015391E0,9.7495775E0,-1.4131956E1,-5.617592E0,3.7254121E0,1.4448323E1,-9.3136454E-1,-6.317437E-1,-4.0744755E-1,-1.489069E-1,1.0395824E-1,3.5992756E-1,6.1471164E-1,9.34342E-1],"categories":[],"categories_nodes":[],"categories_segments":[],"categories_sizes":[],"default_left":[0,0,0,0,0,0,0,0,0,0,0,0,0,0,0],"id":13,"left_children":[1,3,5,7,9,11,13,-1,-1,-1,-1,-1,-1,-1,-1],"loss_changes":[3.517648E5,3.606417E4,5.4378656E4,5.343703E3,8.334168E3,4.8107275E3,9.6308125E3,0E0,0E0,0E0,0E0,0E0,0E0,0E0,0E0],"parents":[2147483647,0,0,1,1,2,2,3,3,4,4,5,5,6,6],"right_children":[2,4,6,8,10,12,14,-1,-1,-1,-1,-1,-1,-1,-1],"split_conditions":[4.343E0,2.3333E0,6.2131E0,1.1263E0,4E0,5E0,7.8034E0,-9.3136454E-1,-6.317437E-1,-4.0744755E-1,-1.489069E-1,1.0395824E-1,3.5992756E-1,6.1471164E-1,9.34342E-1],"split_indices":[3,3,3,3,11,11,3,0,0,0,0,0,0,0,0],"split_type":[0,0,0,0,0,0,0,0,0,0,0,0,0,0,0],"sum_hessian":[4E3,2.078E3,1.922E3,8.28E2,1.25E3,8.43E2,1.079E3,2.04E2,6.24E2,6.37E2,6.13E2,5.73E2,2.7E2,7.18E2,3.61E2],"tree_param":{"num_deleted":"0","num_feature":"12","num_nodes":"15","size_leaf_vector":"1"}},{"base_weights":[1.2652734E-3,-7.150437E0,1.1149506E1,-1.1259902E1,-1.8242146E0,7.624773E0,1.5991122E1,-7.482963E-1,-4.456658E-1,-2.1728396E-1,3.7427854E-2,2.62016E-1,5.200853E-1,6.221744E-1,8.9533913E-1],"categories":[],"categories_nodes":[],"categories_segments":[],"categories_sizes":[],"default_left":[0,0,0,0,0,0,0,0,0,0,0,0,0,0,0],"id":14,"left_children":[1,3,5,7,9,11,13,-1,-1,-1,-1,-1,-1,-1,-1],"loss_changes":[3.1907503E5,5.3342234E4,2.6568375E4,1.1832984E4,6.8990967E3,5.95116E3,4.2489688E3,0E0,0E0,0E0,0E0,0E0,0E0,0E0,0E0],"parents":[2147483647,0,0,1,1,2,2,3,3,4,4,5,5,6,6],"right_children":[2,4,6,8,10,12,14,-1,-1,-1,-1,-1,-1,-1,-1],"split_conditions":[5.0498E0,3.0509E0,7.1606E0,1.8382E0,4E0,4E0,3E0,-7.482963E-1,-4.456658E-1,-2.1728396E-1,3.7427854E-2,2.62016E-1,5.200853E-1,6.221744E-1,8.9533913E-1],"split_indices":[3,3,3,3,11,11,11,0,0,0,0,0,0,0,0],"split_type":[0,0,0,0,0,0,0,0,0,0,0,0,0,0,0],"sum_hessian":[4E3,2.437E3,1.563E3,1.375E3,1.062E3,9.06E2,6.57E2,5.31E2,8.44E2,5.36E2,5.26E2,4.89E2,4.17E2,2.33E2,4.24E2],"tree_param":{"num_deleted":"0","num_feature":"12","num_nodes":"15","size_leaf_vector":"1"}},{"base_weights":[1.4336606E-3,-7.7897115E0,9.248629E0,-1.2378732E1,-4.3949475E0,4.326994E0,1.3579063E1,-7.374833E-1,-4.899415E-1,-3.041222E-1,-4.034997E-2,9.750139E-2,3.3062348E-1,6.027443E-1,9.1307557E-1],"categories":[],"categories_nodes":[],"categories_segments":[],"categories_sizes":[],"default_left":[0,0,0,0,0,0,0,0,0,0,0,0,0,0,0],"id":15,"left_children":[1,3,5,7,9,11,13,-1,-1,-1,-1,-1,-1,-1,-1],"loss_changes":[2.8832906E5,3.378239E4,3.8943703E4,5.5012656E3,7.5634023E3,4.6481885E3,6.724047E3,0E0,0E0,0E0,0E0,0E0,0E0,0E0,0E0],"parents":[2147483647,0,0,1,1,2,2,3,3,4,4,5,5,6,6],"right_children":[2,4,6,8,10,12,14,-1,-1,-1,-1,-1,-1,-1,-1],"split_conditions":[4.5108E0,2.4746E0,6.432E0,4E0,5E0,5.4403E0,8.0556E0,-7.374833E-1,-4.899415E-1,-3.041222E-1,-4.034997E-2,9.750139E-2,3.3062348E-1,6.027443E-1,9.1307557E-1],"split_indices":[3,3,3,11,11,3,3,0,0,0,0,0,0,0,0],"split_type":[0,0,0,0,0,0,0,0,0,0,0,0,0,0,0],"sum_hessian":[4E3,2.171E3,1.829E3,9.22E2,1.249E3,8.57E2,9.72E2,4.78E2,4.44E2,8.49E2,4E2,4.21E2,4.36E2,7.36E2,2.36E2],"tree_param":{"num_deleted":"0","num_feature":"12","num_nodes":"15","size_leaf_vector":"1"}},{"base_weights":[1.455153E-3,-8.078038E0,8.080948E0,-1.285744E1,-5.5638833E0,2.9557374E0,1.2448877E1,-7.2137135E-1,-4.344215E-1,-3.9241964E-1,-1.5964806E-1,7.195183E-2,3.0713016E-1,4.9807054E-1,7.6412445E-1],"categories":[],"categories_nodes":[],"categories_segments":[],"categories_sizes":[],"default_left":[0,0,0,0,0,0,0,0,0,0,0,0,0,0,0],"id":16,"left_children":[1,3,5,7,9,11,13,-1,-1,-1,-1,-1,-1,-1,-1],"loss_changes":[2.6124339E5,2.397279E4,4.4758695E4,4.3843516E3,7.086668E3,4.447668E3,7.4601562E3,0E0,0E0,0E0,0E0,0E0,0E0,0E0,0E0],"parents":[2147483647,0,0,1,1,2,2,3,3,4,4,5,5,6,6],"right_children":[2,4,6,8,10,12,14,-1,-1,-1,-1,-1,-1,-1,-1],"split_conditions":[4.1801E0,2.1211E0,6.2131E0,5E0,4E0,5E0,7.5094E0,-7.2137135E-1,-4.344215E-1,-3.9241964E-1,-1.5964806E-1,7.195183E-2,3.0713016E-1,4.9807054E-1,7.6412445E-1],"split_indices":[3,3,3,11,11,11,3,0,0,0,0,0,0,0,0],"split_type":[0,0,0,0,0,0,0,0,0,0,0,0,0,0,0],"sum_hessian":[4E3,2E3,2E3,6.88E2,1.312E3,9.21E2,1.079E3,4.98E2,1.9E2,6.67E2,6.45E2,6.25E2,2.96E2,5.77E2,5.02E2],"tree_param":{"num_deleted":"0","num_feature":"12","num_nodes":"15","size_leaf_vector":"1"}},{"base_weights":[1.3658532E-3,-6.154718E0,9.597613E0,-9.663011E0,-1.3656459E0,6.2241645E0,1.3374572E1,-6.8005586E-1,-3.981007E-1,-2.193433E-1,1.9729147E-2,2.0257488E-1,4.3937132E-1,5.436078E-1,7.927122E-1],"categories":[],"categories_nodes":[],"categories_segments":[],"categories_sizes":[],"default_left":[0,0,0,0,0,0,0,0,0,0,0,0,0,0,0],"id":17,"left_children":[1,3,5,7,9,11,13,-1,-1,-1,-1,-1,-1,-1,-1],"loss_changes":[2.3641939E5,4.094878E4,1.9844266E4,9.316797E3,5.4899473E3,4.575621E3,4.400828E3,0E0,0E0,0E0,0E0,0E0,0E0,0E0,0E0],"parents":[2147483647,0,0,1,1,2,2,3,3,4,4,5,5,6,6],"right_children":[2,4,6,8,10,12,14,-1,-1,-1,-1,-1,-1,-1,-1],"split_conditions":[5.0498E0,3.0936E0,6.9689E0,1.6313E0,3E0,4E0,4E0,-6.8005586E-1,-3.981007E-1,-2.193433E-1,1.9729147E-2,2.0257488E-1,4.3937132E-1,5.436078E-1,7.927122E-1],"split_indices":[3,3,3,3,11,11,11,0,0,0,0,0,0,0,0],"split_type":[0,0,0,0,0,0,0,0,0,0,0,0,0,0,0],"sum_hessian":[4E3,2.437E3,1.563E3,1.406E3,1.031E3,8.27E2,7.36E2,4.22E2,9.84E2,3.79E2,6.52E2,4.49E2,3.78E2,3.69E2,3.67E2],"tree_param":{"num_deleted":"0","num_feature":"12","num_nodes":"15","size_leaf_vector":"1"}},{"base_weights":[1.4730814E-3,-7.492952E0,7.1519146E0,-1.16460285E1,-5.226788E0,2.4057772E0,1.1152568E1,-6.566104E-1,-3.851156E-1,-4.025871E-1,-1.8132518E-1,-8.670433E-3,1.9882955E-1,4.8681146E-1,7.785681E-1],"categories":[],"categories_nodes":[],"categories_segments":[],"categories_sizes":[],"default_left":[0,0,0,0,0,0,0,0,0,0,0,0,0,0,0],"id":18,"left_children":[1,3,5,7,9,11,13,-1,-1,-1,-1,-1,-1,-1,-1],"loss_changes":[2.1446095E5,1.8329297E4,3.8859867E4,3.9371328E3,5.694043E3,3.8009214E3,6.8016094E3,0E0,0E0,0E0,0E0,0E0,0E0,0E0,0E0],"parents":[2147483647,0,0,1,1,2,2,3,3,4,4,5,5,6,6],"right_children":[2,4,6,8,10,12,14,-1,-1,-1,-1,-1,-1,-1,-1],"split_conditions":[4.1066E0,2.1211E0,6.1229E0,5E0,3E0,3E0,7.9795E0,-6.566104E-1,-3.851156E-1,-4.025871E-1,-1.8132518E-1,-8.670433E-3,1.9882955E-1,4.8681146E-1,7.785681E-1],"split_indices":[3,3,3,11,11,11,3,0,0,0,0,0,0,0,0],"split_type":[0,0,0,0,0,0,0,0,0,0,0,0,0,0,0],"sum_hessian":[4E3,1.953E3,2.047E3,6.88E2,1.265E3,9.37E2,1.11E3,4.98E2,1.9E2,4.56E2,8.09E2,3.55E2,5.82E2,8.43E2,2.67E2],"tree_param":{"num_deleted":"0","num_feature":"12","num_nodes":"15","size_leaf_vector":"1"}},{"base_weights":[1.3572194E-3,-5.437742E0,8.911154E0,-8.644931E0,-9.138187E-1,6.1479926E0,1.2509037E1,-6.689231E-1,-3.709139E-1,-1.1990511E-1,1.0839527E-1,2.3233806E-1,4.769032E-1,5.427928E-1,8.0674803E-1],"categories":[],"categories_nodes":[],"categories_segments":[],"categories_sizes":[],"default_left":[0,0,0,0,0,0,0,0,0,0,0,0,0,0,0],"id":19,"left_children":[1,3,5,7,9,11,13,-1,-1,-1,-1,-1,-1,-1,-1],"loss_changes":[1.93942E5,3.604715E4,1.5004391E4,8.343266E3,4.7257227E3,4.332461E3,3.7691016E3,0E0,0E0,0E0,0E0,0E0,0E0,0E0,0E0],"parents":[2147483647,0,0,1,1,2,2,3,3,4,4,5,5,6,6],"right_children":[2,4,6,8,10,12,14,-1,-1,-1,-1,-1,-1,-1,-1],"split_conditions":[5.1936E0,3.1829E0,7.1606E0,1.3709E0,5E0,5E0,5E0,-6.689231E-1,-3.709139E-1,-1.1990511E-1,1.0839527E-1,2.3233806E-1,4.769032E-1,5.427928E-1,8.0674803E-1],"split_indices":[3,3,3,3,11,11,11,0,0,0,0,0,0,0,0],"split_type":[0,0,0,0,0,0,0,0,0,0,0,0,0,0,0],"sum_hessian":[4E3,2.484E3,1.516E3,1.453E3,1.031E3,8.59E2,6.57E2,2.97E2,1.156E3,6.96E2,3.35E2,5.97E2,2.62E2,4.54E2,2.03E2],"tree_param":{"num_deleted":"0","num_feature":"12","num_nodes":"15","size_leaf_vector":"1"}},{"base_weights":[1.5410292E-3,-6.8943615E0,6.373619E0,-1.0705375E1,-4.911162E0,2.22417E0,1.0213642E1,-6.043424E-1,-3.4886613E-1,-3.1191236E-1,-9.060948E-2,4.568541E-2,2.4612248E-1,3.9642698E-1,6.2982196E-1],"categories":[],"categories_nodes":[],"categories_segments":[],"categories_sizes":[],"default_left":[0,0,0,0,0,0,0,0,0,0,0,0,0,0,0],"id":20,"left_children":[1,3,5,7,9,11,13,-1,-1,-1,-1,-1,-1,-1,-1],"loss_changes":[1.758528E5,1.4473906E4,3.311996E4,3.2993516E3,5.195242E3,3.5350308E3,5.7806562E3,0E0,0E0,0E0,0E0,0E0,0E0,0E0,0E0],"parents":[2147483647,0,0,1,1,2,2,3,3,4,4,5,5,6,6],"right_children":[2,4,6,8,10,12,14,-1,-1,-1,-1,-1,-1,-1,-1],"split_conditions":[4.0445E0,2.0582E0,6.2131E0,5E0,5E0,5E0,4E0,-6.043424E-1,-3.4886613E-1,-3.1191236E-1,-9.060948E-2,4.568541E-2,2.4612248E-1,3.9642698E-1,6.2982196E-1],"split_indices":[3,3,3,11,11,11,11,0,0,0,0,0,0,0,0],"split_type":[0,0,0,0,0,0,0,0,0,0,0,0,0,0,0],"sum_hessian":[4E3,1.921E3,2.079E3,6.56E2,1.265E3,1E3,1.079E3,4.77E2,1.79E2,8.85E2,3.8E2,6.74E2,3.26E2,5.53E2,5.26E2],"tree_param":{"num_deleted":"0","num_feature":"12","num_nodes":"15","size_leaf_vector":"1"}},{"base_weights":[1.4550699E-3,-5.9724374E0,6.6636705E0,-8.83385E0,-2.974922E0,3.3805847E0,1.0459511E1,-5.870971E-1,-3.611593E-1,-2.1756749E-1,-6.794579E-3,7.138847E-2,2.757836E-1,4.1382265E-1,6.3394564E-1],"categories":[],"categories_nodes":[],"categories_segments":[],"categories_sizes":[],"default_left":[0,0,0,0,0,0,0,0,0,0,0,0,0,0,0],"id":21,"left_children":[1,3,5,7,9,11,13,-1,-1,-1,-1,-1,-1,-1,-1],"loss_changes":[1.5927703E5,1.8071469E4,2.3542875E4,4.969172E3,4.0321758E3,4.2282666E3,4.144211E3,0E0,0E0,0E0,0E0,0E0,0E0,0E0,0E0],"parents":[2147483647,0,0,1,1,2,2,3,3,4,4,5,5,6,6],"right_children":[2,4,6,8,10,12,14,-1,-1,-1,-1,-1,-1,-1,-1],"split_conditions":[4.3831E0,2.6863E0,6.6374E0,3E0,5E0,5.551E0,4E0,-5.870971E-1,-3.611593E-1,-2.1756749E-1,-6.794579E-3,7.138847E-2,2.757836E-1,4.1382265E-1,6.3394564E-1],"split_indices":[3,3,3,11,11,3,11,0,0,0,0,0,0,0,0],"split_type":[0,0,0,0,0,0,0,0,0,0,0,0,0,0,0],"sum_hessian":[4E3,2.109E3,1.891E3,1.078E3,1.031E3,1.015E3,8.76E2,3.82E2,6.96E2,6.94E2,3.37E2,5.31E2,4.84E2,4.44E2,4.32E2],"tree_param":{"num_deleted":"0","num_feature":"12","num_nodes":"15","size_leaf_vector":"1"}},{"base_weights":[1.4371062E-3,-4.802347E0,7.489688E0,-7.9673004E0,-1.4655133E0,5.1742315E0,1.1083055E1,-4.6726474E-1,-2.2918557E-1,-2.0099366E-1,2.121276E-3,1.24808304E-1,3.3942956E-1,4.7978505E-1,7.1805614E-1],"categories":[],"categories_nodes":[],"categories_segments":[],"categories_sizes":[],"default_left":[0,0,0,0,0,0,0,0,0,0,0,0,0,0,0],"id":22,"left_children":[1,3,5,7,9,11,13,-1,-1,-1,-1,-1,-1,-1,-1],"loss_changes":[1.439597E5,2.5735852E4,1.2955578E4,5.7900312E3,4.5761313E3,4.103215E3,2.8460938E3,0E0,0E0,0E0,0E0,0E0,0E0,0E0,0E0],"parents":[2147483647,0,0,1,1,2,2,3,3,4,4,5,5,6,6],"right_children":[2,4,6,8,10,12,14,-1,-1,-1,-1,-1,-1,-1,-1],"split_conditions":[5.0498E0,2.9021E0,7.2518E0,5E0,3E0,3E0,5E0,-4.6726474E-1,-2.2918557E-1,-2.0099366E-1,2.121276E-3,1.24808304E-1,3.3942956E-1,4.7978505E-1,7.1805614E-1],"split_indices":[3,3,3,11,11,11,11,0,0,0,0,0,0,0,0],"split_type":[0,0,0,0,0,0,0,0,0,0,0,0,0,0,0],"sum_hessian":[4E3,2.437E3,1.563E3,1.25E3,1.187E3,9.52E2,6.11E2,8.87E2,3.63E2,4.4E2,7.47E2,3.59E2,5.93E2,4.23E2,1.88E2],"tree_param":{"num_deleted":"0","num_feature":"12","num_nodes":"15","size_leaf_vector":"1"}},{"base_weights":[1.5573078E-3,-5.9506373E0,5.501613E0,-9.328444E0,-4.193E0,1.8236619E0,8.707834E0,-6.6205555E-1,-4.1168118E-1,-3.290302E-1,-1.415743E-1,-1.8572092E-2,1.5684983E-1,3.8297307E-1,6.638183E-1],"categories":[],"categories_nodes":[],"categories_segments":[],"categories_sizes":[],"default_left":[0,0,0,0,0,0,0,0,0,0,0,0,0,0,0],"id":23,"left_children":[1,3,5,7,9,11,13,-1,-1,-1,-1,-1,-1,-1,-1],"loss_changes":[1.310151E5,1.1371719E4,2.4512152E4,2.7053516E3,4.096824E3,2.797584E3,5.2194766E3,0E0,0E0,0E0,0E0,0E0,0E0,0E0,0E0],"parents":[2147483647,0,0,1,1,2,2,3,3,4,4,5,5,6,6],"right_children":[2,4,6,8,10,12,14,-1,-1,-1,-1,-1,-1,-1,-1],"split_conditions":[4.0445E0,2.0582E0,6.1229E0,9.538E-1,3E0,3E0,8.1192E0,-6.6205555E-1,-4.1168118E-1,-3.290302E-1,-1.415743E-1,-1.8572092E-2,1.5684983E-1,3.8297307E-1,6.638183E-1],"split_indices":[3,3,3,3,11,11,3,0,0,0,0,0,0,0,0],"split_type":[0,0,0,0,0,0,0,0,0,0,0,0,0,0,0],"sum_hessian":[4E3,1.921E3,2.079E3,6.56E2,1.265E3,9.69E2,1.11E3,1.41E2,5.15E2,4.58E2,8.07E2,3.63E2,6.06E2,9.05E2,2.05E2],"tree_param":{"num_deleted":"0","num_feature":"12","num_nodes":"15","size_leaf_vector":"1"}},{"base_weights":[1.3900708E-3,-5.4799867E0,5.3958035E0,-8.315282E0,-3.443738E0,2.3121853E0,8.702057E0,-5.5151874E-1,-3.401316E-1,-2.586857E-1,-8.296275E-2,4.682468E-3,1.824644E-1,3.8669476E-1,6.5516824E-1],"categories":[],"categories_nodes":[],"categories_segments":[],"categories_sizes":[],"default_left":[0,0,0,0,0,0,0,0,0,0,0,0,0,0,0],"id":24,"left_children":[1,3,5,7,9,11,13,-1,-1,-1,-1,-1,-1,-1,-1],"loss_changes":[1.1833438E5,1.1431496E4,2.0543648E4,3.3296562E3,3.563207E3,3.0995566E3,4.0447812E3,0E0,0E0,0E0,0E0,0E0,0E0,0E0,0E0],"parents":[2147483647,0,0,1,1,2,2,3,3,4,4,5,5,6,6],"right_children":[2,4,6,8,10,12,14,-1,-1,-1,-1,-1,-1,-1,-1],"split_conditions":[4.1441E0,2.3333E0,6.432E0,3E0,4E0,3E0,8.1886E0,-5.5151874E-1,-3.401316E-1,-2.586857E-1,-8.296275E-2,4.682468E-3,1.824644E-1,3.8669476E-1,6.5516824E-1],"split_indices":[3,3,3,11,11,11,3,0,0,0,0,0,0,0,0],"split_type":[0,0,0,0,0,0,0,0,0,0,0,0,0,0,0],"sum_hessian":[4E3,1.984E3,2.016E3,8.28E2,1.156E3,1.044E3,9.72E2,2.94E2,5.34E2,5.86E2,5.7E2,3.93E2,6.51E2,7.99E2,1.73E2],"tree_param":{"num_deleted":"0","num_feature":"12","num_nodes":"15","size_leaf_vector":"1"}},{"base_weights":[1.3193039E-3,-4.0507607E0,6.6390367E0,-6.2828555E0,-2.730737E-1,4.6366644E0,9.592485E0,-5.333153E-1,-2.687468E-1,-7.31111E-2,1.09652236E-1,1.6822843E-1,3.749109E-1,4.0980148E-1,6.33726E-1],"categories":[],"categories_nodes":[],"categories_segments":[],"categories_sizes":[],"default_left":[0,0,0,0,0,0,0,0,0,0,0,0,0,0,0],"id":25,"left_children":[1,3,5,7,9,11,13,-1,-1,-1,-1,-1,-1,-1,-1],"loss_changes":[1.0764004E5,2.0952191E4,8.926914E3,6.1591523E3,2.712911E3,3.2727656E3,2.530121E3,0E0,0E0,0E0,0E0,0E0,0E0,0E0,0E0],"parents":[2147483647,0,0,1,1,2,2,3,3,4,4,5,5,6,6],"right_children":[2,4,6,8,10,12,14,-1,-1,-1,-1,-1,-1,-1,-1],"split_conditions":[5.1936E0,3.3778E0,7.2518E0,1.2758E0,5E0,5E0,5E0,-5.333153E-1,-2.687468E-1,-7.31111E-2,1.09652236E-1,1.6822843E-1,3.749109E-1,4.0980148E-1,6.33726E-1],"split_indices":[3,3,3,3,11,11,11,0,0,0,0,0,0,0,0],"split_type":[0,0,0,0,0,0,0,0,0,0,0,0,0,0,0],"sum_hessian":[4E3,2.484E3,1.516E3,1.561E3,9.23E2,9.05E2,6.11E2,2.66E2,1.295E3,6.23E2,3E2,6.28E2,2.77E2,4.23E2,1.88E2],"tree_param":{"num_deleted":"0","num_feature":"12","num_nodes":"15","size_leaf_vector":"1"}},{"base_weights":[1.4583321E-3,-3.7233348E0,6.521765E0,-5.9692273E0,-1.6166417E-1,4.6339507E0,9.114565E0,-3.5953656E-1,-1.5091127E-1,-1.100549E-1,5.5767413E-2,1.7114234E-1,3.6482084E-1,3.2022747E-1,5.283037E-1],"categories":[],"categories_nodes":[],"categories_segments":[],"categories_sizes":[],"default_left":[0,0,0,0,0,0,0,0,0,0,0,0,0,0,0],"id":26,"left_children":[1,3,5,7,9,11,13,-1,-1,-1,-1,-1,-1,-1,-1],"loss_changes":[9.719574E4,2.0372816E4,7.07959E3,5.6087734E3,2.570376E3,2.6965234E3,2.3396992E3,0E0,0E0,0E0,0E0,0E0,0E0,0E0,0E0],"parents":[2147483647,0,0,1,1,2,2,3,3,4,4,5,5,6,6],"right_children":[2,4,6,8,10,12,14,-1,-1,-1,-1,-1,-1,-1,-1],"split_conditions":[5.3378E0,3.3778E0,7.2518E0,5E0,3E0,5E0,3E0,-3.5953656E-1,-1.5091127E-1,-1.100549E-1,5.5767413E-2,1.7114234E-1,3.6482084E-1,3.2022747E-1,5.283037E-1],"split_indices":[3,3,3,11,11,11,11,0,0,0,0,0,0,0,0],"split_type":[0,0,0,0,0,0,0,0,0,0,0,0,0,0,0],"sum_hessian":[4E3,2.546E3,1.454E3,1.561E3,9.85E2,8.43E2,6.11E2,1.103E3,4.58E2,3.79E2,6.06E2,5.81E2,2.62E2,2.15E2,3.96E2],"tree_param":{"num_deleted":"0","num_feature":"12","num_nodes":"15","size_leaf_vector":"1"}},{"base_weights":[1.5895806E-3,-4.137764E0,5.3175397E0,-6.570157E0,-1.7720363E0,2.9550536E0,7.938331E0,-5.2655184E-1,-2.8328407E-1,-1.937853E-1,-2.806448E-2,4.4246368E-2,2.097439E-1,2.6577348E-1,4.6835366E-1],"categories":[],"categories_nodes":[],"categories_segments":[],"categories_sizes":[],"default_left":[0,0,0,0,0,0,0,0,0,0,0,0,0,0,0],"id":27,"left_children":[1,3,5,7,9,11,13,-1,-1,-1,-1,-1,-1,-1,-1],"loss_changes":[8.80624E4,1.2935711E4,1.0824195E4,3.9133477E3,2.9065112E3,2.3652544E3,3.0605469E3,0E0,0E0,0E0,0E0,0E0,0E0,0E0,0E0],"parents":[2147483647,0,0,1,1,2,2,3,3,4,4,5,5,6,6],"right_children":[2,4,6,8,10,12,14,-1,-1,-1,-1,-1,-1,-1,-1],"split_conditions":[4.656E0,2.7307E0,6.7399E0,1.1263E0,3E0,3E0,3E0,-5.2655184E-1,-2.8328407E-1,-1.937853E-1,-2.806448E-2,4.4246368E-2,2.097439E-1,2.6577348E-1,4.6835366E-1],"split_indices":[3,3,3,3,11,11,11,0,0,0,0,0,0,0,0],"split_type":[0,0,0,0,0,0,0,0,0,0,0,0,0,0,0],"sum_hessian":[4E3,2.249E3,1.751E3,1.108E3,1.141E3,9.22E2,8.29E2,2.04E2,9.04E2,4.16E2,7.25E2,3.46E2,5.76E2,2.94E2,5.35E2],"tree_param":{"num_deleted":"0","num_feature":"12","num_nodes":"15","size_leaf_vector":"1"}},{"base_weights":[1.4994502E-3,-4.721257E0,4.2320685E0,-7.4124413E0,-3.285768E0,1.0564948E0,6.6188016E0,-5.6110233E-1,-3.230216E-1,-2.684455E-1,-1.05689876E-1,1.7366372E-3,1.5722379E-1,2.9298332E-1,5.54161E-1],"categories":[],"categories_nodes":[],"categories_segments":[],"categories_sizes":[],"default_left":[0,0,0,0,0,0,0,0,0,0,0,0,0,0,0],"id":28,"left_children":[1,3,5,7,9,11,13,-1,-1,-1,-1,-1,-1,-1,-1],"loss_changes":[7.995976E4,7.2808906E3,1.5992797E4,2.3103008E3,3.0037578E3,1.9349023E3,4.018918E3,0E0,0E0,0E0,0E0,0E0,0E0,0E0,0E0],"parents":[2147483647,0,0,1,1,2,2,3,3,4,4,5,5,6,6],"right_children":[2,4,6,8,10,12,14,-1,-1,-1,-1,-1,-1,-1,-1],"split_conditions":[3.9974E0,2.0582E0,5.8877E0,2E0,3E0,5E0,8.1886E0,-5.6110233E-1,-3.230216E-1,-2.684455E-1,-1.05689876E-1,1.7366372E-3,1.5722379E-1,2.9298332E-1,5.54161E-1],"split_indices":[3,3,3,11,11,11,3,0,0,0,0,0,0,0,0],"split_type":[0,0,0,0,0,0,0,0,0,0,0,0,0,0,0],"sum_hessian":[4E3,1.89E3,2.11E3,6.56E2,1.234E3,9.06E2,1.204E3,1.29E2,5.27E2,4.43E2,7.91E2,6.09E2,2.97E2,1.031E3,1.73E2],"tree_param":{"num_deleted":"0","num_feature":"12","num_nodes":"15","size_leaf_vector":"1"}},{"base_weights":[1.3612758E-3,-3.3198576E0,5.441854E0,-5.3751826E0,-4.9650148E-1,4.0056295E0,8.329183E0,-3.5533792E-1,-1.7823777E-1,-7.532235E-2,8.009251E-2,1.4657532E-1,3.2194683E-1,2.8415927E-1,4.905851E-1],"categories":[],"categories_nodes":[],"categories_segments":[],"categories_sizes":[],"default_left":[0,0,0,0,0,0,0,0,0,0,0,0,0,0,0],"id":29,"left_children":[1,3,5,7,9,11,13,-1,-1,-1,-1,-1,-1,-1,-1],"loss_changes":[7.2312414E4,1.4417574E4,6.25741E3,4.4826406E3,2.2233564E3,2.633999E3,1.9173789E3,0E0,0E0,0E0,0E0,0E0,0E0,0E0,0E0],"parents":[2147483647,0,0,1,1,2,2,3,3,4,4,5,5,6,6],"right_children":[2,4,6,8,10,12,14,-1,-1,-1,-1,-1,-1,-1,-1],"split_conditions":[5.1936E0,3.1457E0,7.5094E0,4E0,5E0,5E0,3E0,-3.5533792E-1,-1.7823777E-1,-7.532235E-2,8.009251E-2,1.4657532E-1,3.2194683E-1,2.8415927E-1,4.905851E-1],"split_indices":[3,3,3,11,11,11,11,0,0,0,0,0,0,0,0],"split_type":[0,0,0,0,0,0,0,0,0,0,0,0,0,0,0],"sum_hessian":[4E3,2.484E3,1.516E3,1.437E3,1.047E3,1.014E3,5.02E2,7.33E2,7.04E2,7.07E2,3.4E2,7.05E2,3.09E2,1.82E2,3.2E2],"tree_param":{"num_deleted":"0","num_feature":"12","num_nodes":"15","size_leaf_vector":"1"}}]},"name":"gbtree"},"learner_model_param":{"base_score":"5.1754597E1","boost_from_average":"1","num_class":"0","num_feature":"12","num_target":"1"},"objective":{"name":"reg:squarederror","reg_loss_param":{"scale_pos_weight":"1"}}},"version":[2,1,3]}